solver_type L2R_L2LOSS_SVC_DUAL
nr_class 3
label 1 2 0
nr_feature 25309
bias -1
w
0.15267434666885349 0.38936291427789177 -0.32029801641499395 
-0.027596829382895736 -0.00080682699703392338 0.023329601583766093 
0.1651951681733016 0.023559700668448411 -0.17711530808127521 
-0.05364362142634365 -0.0094950993565665991 0.082438696733081074 
0.027832160785446793 -0.012525747296227361 0.00703513977229303 
-0.099135628166641315 0.060211737707264942 -0.014025680898038047 
0.43495559594090566 0 -0.17660739401661332 
0.20123704809148313 -0.1011516646236888 -0.17504325124005207 
-0.0071579519205546395 0.10447952149282944 -0.06171600106269811 
-0.12882234972842951 -0.019239884823471175 0.0069973252822240041 
0.0035907084829447343 -0.082761344392170338 -0.048656814808011553 
-0.0052717683846436655 -0.092346281072223146 0.046978759815185907 
-0.33828894450116309 -0.24914190764048072 0.42377202523291546 
-0.23014930150393811 0.10985063652642911 0.16792077996044022 
-0.056429362145058795 -0.1136965571154837 0.14022955678566826 
-0.43515197290869784 -0.11772999401397598 0.20331922444961098 
0.043026354888225704 -0.015210574791230599 -0.084373264250485219 
0.098208352363225532 0.063051147498593405 -0.22154783581451776 
0.60337713714692653 -0.68567584270931148 -0.27982748068991392 
0.81128439526811458 -0.4112741857357361 -0.52645755899355173 
-0.24520759386963603 0.023069076344152242 0.18769887135690547 
-0.0081186518349888048 0.089325875621124984 -0.092493149180541592 
0.067215113342150981 0.013181474977304616 0.039852052301732839 
-0.33121017369156031 1.0279966743621629 -1.0959454502787707 
-0.02058858325483813 -0.064426529719773112 0.036558674883556637 
-0.027767371035179282 -0.12629268775708419 0.079082176001171928 
-0.70958529056487463 0.11419565175353645 0.37571650023502906 
-0.027917057863872885 -0.032693417491576809 0.0099779213609703515 
0.041012629755043273 0.50595414878398626 -0.87550599434962972 
-0.40676517922112798 0.29363851908077315 -0.060758058877615491 
-0.084940905396548028 -0.09185230360477728 0.077641699112757728 
0.29222369583630498 0.28458999289902648 -0.49920847626158893 
-0.32287415924717766 -0.49983836555627981 0.39225270994256822 
0.40152916380681497 -0.27271343868161801 -0.26049828594819424 
-0.3164063192058712 0.71025681092126414 -0.35830792066150924 
0.12025318542888594 0.034230792923853046 -0.16135265106058919 
-0.029117400776382349 0.079815889529880946 -0.064820337401283762 
-0.43436945428204082 0.35605316023008776 -0.35588388921408431 
-0.18539590554474983 -0.45382006865581431 0.33129057449879262 
0.014125743542926167 -0.024960974230677689 -0.12918247060826668 
-0.89562370251914902 1.4645982011506098 -0.49103460831150114 
-0.23633223704749773 -0.19186376283406287 0.20459172586854008 
-0.21205566841765458 0.014252171660212202 0.14760858283115913 
0.65651048299974091 -0.16365320550711721 -0.7280584338545173 
-0.18849417767310714 0.63682197905600813 -0.5258210738596476 
0.96689186592244725 -0.62214838795069749 -0.44309525942802752 
0.012994757520652872 -0.053651149459294042 -0.023147340159473485 
-0.54080183408015126 -0.068805256387915098 0.51348432702201763 
-0.17824664000452756 -0.030333836002078451 0.17718085190135435 
-0.36088658901600901 0.17162030352684365 0.34659847718354075 
-0.066586497499079647 -0.14709167283477212 0.11734862061099734 
-0.1821323970815826 0.028115033244550742 0.1426185869320693 
-0.059660772688640701 -0.027330239408148983 0.062019228747736549 
-0.13803547358689314 0.03377959651379675 0.33875705227463759 
-0.17550451383302859 0.36632166760397611 -0.18076526205049898 
-0.078863303204398105 -0.15535940466811088 0.062702842038515408 
-0.17824664000452756 0.36632166760397611 -0.18076526205049898 
-0.507153041867757 0.62758533689171392 0.073132964985375512 
0.64533891862317783 -0.1165227753389744 -0.50896449171095726 
0.043341954842578509 0.24260228362214764 -0.29991657592578891 
0.10584991058297182 -0.10395785289855189 0.018466394381946232 
0.088244537680856938 -0.15544667625097125 -0.018375390677740175 
-0.32800305137395458 -0.35411799988276077 0.32895053622955539 
0.082459149215364277 -0.1037146207067127 0.11233445030466975 
-0.0095838176481987322 -0.028113814885165705 -0.0062239863652833365 
-0.21832799030937733 0.34388349872494184 -0.025854561651849524 
-0.13482209673410614 0.011944706280226479 0.12750532761934508 
0.15290245836580491 -0.0023972806763133195 -0.11942361489246643 
-0.3252754087787465 -0.32917424277435792 0.46396379224850587 
0 -0.14141426809671784 0.11742528449428757 
-0.46098480074932463 0.24258105252479628 0.2052551038633465 
0.24481913646062267 0.03186837282593908 -0.42726636960104986 
0 -0.14141426809671784 0.11742528449428757 
-0.22544828726054109 -0.14141426809671784 0.23678583180455573 
-0.028953228875898383 -0.063118825706769827 0.017422151311582326 
0 -0.14141426809671784 0.11742528449428757 
-0.19460295401001249 -0.44621462179953914 0.39648059961037879 
0 -0.14141426809671784 0.11742528449428757 
0.043462643650570627 -0.1552309435396303 -0.094045211591823386 
-0.071096238871888096 -0.139805173986218 0.094431197766758831 
0 -0.14141426809671784 0.11742528449428757 
-0.33711964934987465 0.57101604259943883 -0.27359697298666463 
-0.24583040560103811 0.18670423741332803 0.28538861648419056 
0.043911988767139497 -0.098513323062005692 -0.046971083026197562 
-0.019711312006757249 -0.44539547308643684 0.15603895758667952 
0.39078277496481656 -0.11159646385259993 -0.60221704146291755 
-0.30950687117095094 0.48956040854959532 0.18297294342212425 
-0.090925706651163743 0.024384467723644089 0.059317262060143712 
-0.029376822260970548 -0.018353791899654831 0.019014713605740335 
0.11637208284410785 0.16246596308762787 -0.23260135038854074 
0.087705088076667909 -0.094392817091338885 -0.028008589234828869 
-0.74895744056327263 0.1124268993995933 0.50736801862029446 
0.058384760003764517 -0.35777087258361517 0.30336932673515216 
-0.086708678456677513 -0.21349114306128966 0.11177219298494387 
0.22734819081370405 -0.35857736821340991 -0.05522829913516978 
-0.11837736906362609 -0.10652102897223242 0.35633737353787998 
0.37193501872878648 -0.27540919827456756 0.083386781315966774 
0.1105181949471023 0 -0.20554941797654691 
-0.25496043316036238 -0.13621154691824044 0.044604341826628001 
-0.044367105909340503 -0.031309382117071037 -0.19889071525432098 
0.11051819494710227 0 -0.19461369668374826 
-0.19041535334492474 0.034901839083835366 0.11574258041890581 
0.050286246222081214 -0.070043583355633376 -0.052224280830647361 
-0.11467903646269866 -0.39171510395307674 0.25481478342102615 
0.95189553265646609 -0.66851502580566147 -0.85961120816670999 
0.032502384749627196 -0.053189247263826574 -0.10767048380427373 
0.023678975245904801 -0.035605548074193916 -0.064701308357057688 
0.1881007896479602 -0.089323432536415504 -0.13477856186636258 
0.63767937261513685 -0.45793228434486632 -0.35733586236816139 
-0.13362611468869981 -0.20689582513470386 0.14971265752552176 
-0.044916812393371912 -0.2034459244003631 0.025743607082095599 
-0.096876725100385058 -0.090468171442787126 0.099657830726254712 
-0.43409778707008034 -0.049694417765401316 0.27481791417117762 
-0.33194278163881019 -0.41928916093273816 0.31949704123951217 
-0.072261009798296499 0.019241092500039931 -0.036820350088173248 
-0.5032792938383488 0.27063891522990891 0.0093274339947738063 
0.076195307662335385 0.13594075598235672 -0.1258105828670866 
-0.03146213897264169 0.14907857993729148 0.12992147638186316 
-0.39480530377271933 0.16250574820067401 0.057526159802722014 
-0.043152233741386166 0.089554681427130911 -0.020930759511722501 
-0.079445375464266152 0.021834523959966344 -0.019121946520946995 
0.13717932305017372 -0.10152701894912117 -0.38191898972370575 
0 -0.28810180738284297 0.04249348798105055 
0 0.3210109757329323 -0.30748581550120185 
-0.37561750350331463 0.020539682995289327 0.41222638427482439 
0 0.3210109757329323 -0.30748581550120185 
0.10583815966721125 0.034218499087486115 -0.10082212346992951 
-0.60991207605952891 0.70435658144616897 -0.23085051752638297 
0.10076603742695962 0.04628821028569724 -0.0287863481237935 
-0.053786176093372128 -0.043158383068876503 0.027864216163353588 
1.557724092823781 -0.56098544859185873 -1.447896787613915 
0.25547105685131094 -0.020914120464183169 -0.28779185526484635 
-0.09167227636797054 -0.61341507540902196 0.53073865124180375 
-0.19900831982797765 -0.10361340582629884 0.38614481058088457 
-0.28594730134563279 0.041488499397874745 0.10955639370496544 
-0.013835758514586488 -0.1109807479584541 0.16862457223839941 
-0.037718264247697787 -0.29600815552590942 0.40938327991362627 
-0.38147710760930009 -0.73246712391808722 0.72866616266782713 
-0.21402615692496096 0.5629133441577745 0.044419350644405581 
0.0598755095077435 0.080364413463733436 -0.051528202624499746 
0.13770012610881113 -0.025177116780087338 -0.13685957806711541 
-0.056822642560512747 0.091625800133992338 -0.057642113967645625 
-0.34846770120258647 0.11465565840103013 0.24079233189201465 
-0.09411244662737997 -0.14847705685713253 0.11211277038466995 
-0.44885772465128493 0.080172786186367251 0.15068299524413176 
-0.031963857119323619 -0.0087144379817553665 0.019125365254379353 
-0.35350475234907719 0.35297371645709785 -0.22169375833331195 
0.9042518987412258 -0.28920123584191876 -0.74166134497426472 
-0.53988985826956881 0 0.18861994318324918 
-0.51941521405553215 0.17589072455460794 0.18645567363112833 
0 0 -0.20222131997163595 
0 0 -0.20222131997163595 
-0.094505357875470625 0.25930505162719936 0.0062584623663102922 
0.31300677183018366 -0.644793374852492 0.031809158691611043 
-0.61593953776579335 -0.13355267946707078 0.9179311548743696 
-0.55165116935644787 -0.42875747848045642 1.0147589684657732 
0.11021272478915679 0.085341467624388712 -0.4070442698777873 
0.54296790080332569 -0.060355096488067597 -0.62322565389054296 
0.25314273858722186 -0.0034090907432853153 -0.23153561140768808 
-0.07625630943330533 -0.003729995062222588 0.064266352197145521 
0.082995296995090867 0.042546356071541197 -0.046708677368517651 
-0.43487154850829596 -0.089320459156750326 0.57481905532095545 
-0.28666027891837637 0.31303454632899991 -0.083826842071954247 
-4.4735635561339132e-17 -0.25891947919878777 0.16170394257525408 
8.6030068387190635e-18 -0.13517799266521402 0.06673787180871138 
0.40045548365983696 0.16942620858980795 -0.45201399565291517 
8.6030068387190635e-18 -0.13517799266521402 0.066737871808711352 
-0.14102510324620648 -0.26795972869207602 0.36329190301227093 
-0.23553373064487293 -0.013500391476705389 0.33126040954102903 
8.6030068387190635e-18 -0.13517799266521402 0.066737871808711352 
-0.043504541240665683 -0.091769770214364263 0.14355573607532479 
-0.081792213797255084 0.46200471815692618 -0.26783952859724247 
0.244813796890399 -0.15717653065720025 0.026786933532002569 
-0.41633173296020776 -0.31921123137028806 0.28744185844349268 
1.7206013677438126e-18 -0.1216776011885084 0.060600812925201378 
0.017548875767591267 -0.24692421416134827 0.30656787962987836 
-0.13238370653018269 0.096538372232784775 0.054432147653331889 
0 0 0 
0.023428548498842176 0 -0.16901057986331405 
0.023428548498842176 0 -0.16901057986331405 
0.023428548498842176 0 -0.16901057986331405 
-0.078752072838596532 -0.21329965441424384 0.21105831827621949 
0.023428548498842176 0 -0.16901057986331405 
0.29702010136477575 -0.060005189186763869 -0.47026790697601095 
0.0026562726411317569 -0.28663284204925316 0.042258763974405186 
-0.0093465467100485641 0.084170457774403198 -0.038975339882268076 
-0.076298259434421978 -0.83750664340441761 0.47754749029487814 
0.17453657691516594 0.07757904516256918 -0.1729575712819803 
-0.098093774079757196 -0.23342895091172991 0.064077721965648454 
-0.43047333793822706 0.29953292499512707 -0.11120768054083584 
-0.011900411726030806 -0.28360050787790814 0.12726971196372511 
0.48165360860573753 0 -0.55824603611672141 
0.10120587436040694 -0.51396956114105719 0.41901993359133505 
0.48394936327415461 -0.82206911739570576 -0.22989543479086869 
0.18151406277545246 -0.14666693104874012 -0.081699824670867532 
1.3332647361402843 -0.55452400822323056 -1.2223484202239103 
-0.91597453256270667 -0.18158450255036346 0.89803639958610648 
0 0 0 
0 0 0 
-0.21934400181436786 0.14447728406733151 0.062730570576844322 
1.7367897749758427 -0.82234165724790032 -1.4626422676743531 
-0.054984898127213105 -0.05863941011152525 -0.032859386761950604 
0.075488783899534118 0.15369503933661233 -0.20566463771369525 
-0.097171572006480064 -0.23222575376411214 0.069192878056892101 
-0.25779304831511141 -0.10692684278689049 0.14349726942352248 
0.11137690568746514 -0.036595001286008441 -0.098067468335533037 
-0.2062669476679834 0.073439967504848172 0.14768265584892531 
-0.20680250421446755 -0.05747105216811868 -0.43109328062496727 
-0.47663802220253482 -0.069198197643416545 0.16595351000860897 
0.4170059108469964 -0.33325176143570112 -0.3773067535396738 
0 0 0 
0.0019059850351990427 0.019088187628852022 -0.046476796846120161 
0 0 0 
0.084137761781142101 -0.33367021832516197 -0.12015504766426664 
-0.49135302267445363 -0.27905536288313681 0.52484973082422537 
-0.17651642898905698 -0.25230268569559905 0.22512777542161741 
-0.028199400525900139 -0.21753878702839954 0.13489776002621526 
0.062147356546751659 0 -0.08334278667661045 
-0.3950622767495745 -0.14698113057735177 0.52425739895268275 
-0.26076066222085764 -0.23665347286756294 0.27861730864221312 
0 0 0 
0 0 0 
0.63024980788317453 0 -0.81635748088403914 
-0.030054479750029662 0.038520597198237416 -0.048748431479577144 
-0.15670725775688724 -0.30225178015591347 0.2542559525877004 
-0.32173096587825972 -0.0080799373373429718 0.17371946891675868 
0.057344810065352608 -0.26269784852652417 0.1132093638372485 
-0.37407381403097345 -0.46610975941152766 0.44398829811165508 
0.077452466666322509 -0.16721037376003794 0.0045839162266907872 
-0.24028073061734964 0.19314320892227202 -0.10773265956483052 
0.046383215057418929 -0.18586869639961537 0.017033886239950596 
0.34804919913551097 0.2430048521719802 -0.70666545476505438 
1.6450819457373815 -0.61410988641417463 -1.4800730961022763 
0.14781161474046486 -0.39205093221121573 0.21425779723359345 
-0.062830589921555588 -0.2991079671203456 0.28850404015000009 
-0.30357437986978897 -0.15962425739159145 0.45198471019873415 
-0.19634500198403729 0 0.044170401399053781 
-0.19634500198403729 0 0.044170401399053781 
-0.72678848120883577 -0.062055024978871581 0.67799942785751699 
-0.23629302492978649 -0.54774937475170926 0.30598218662417892 
0.26825433539235738 -0.12049136737178483 -0.33341591830251238 
-0.30513945674953069 0.19012005297159371 0.13164658658777786 
0.16533099297872775 -0.28566287852281175 0.066991743241353943 
-0.1828603230138961 0.018676034897332213 0.20670300921537249 
0.2745256732280848 -0.6285020622403239 -0.0062631791113728075 
0.089876712379026252 0.25541091218654438 -0.18877902858016407 
0.50952167092050038 -0.07382433990515945 -0.51405830082601323 
-0.16517723428674158 0.28554691122066761 -0.11078137640083224 
-0.011395916831324796 0.21092620921354172 -0.041569793886367098 
-0.092802228372697776 0.023512933344250024 0.074122472053341798 
0.054361381460896946 -0.1276708081248446 -0.069304679839108693 
-0.040206737277695401 -0.4693756119601516 0.30817221904646547 
-0.12912245412876647 -0.47305700363293812 0.34372716656905927 
-0.20680760077852414 0.22740050396761249 -0.16194408127273213 
0.19260611709471689 -0.20501971595846566 -0.11219493005178455 
0 0 0.09482546441127418 
0 0 0.09482546441127418 
-0.14852678460062316 0.15540917987998973 0.27927540428288816 
0 0 0.09482546441127418 
-0.22827449127583793 -0.18977262528215905 0.23783550839166448 
0.12961868849113581 -0.082918246369655682 -0.23863431808059624 
0.085442507384811517 -0.064728627442500325 -0.084976710831413199 
-0.14631701904039388 -0.4922917769470041 0.29365732889419149 
-0.74349086142575882 -0.046568495985221302 0.43453444543551717 
0 0 0.09482546441127418 
0.20901766469823627 0.16549096006943342 -0.23604212847914791 
-1.7206013677438126e-18 -0.035439016846518179 0.094825464411274152 
0 0 0.09482546441127418 
0 0 0 
0 -0.2774342464124851 0.14053003942412362 
1.5174575288394687 -0.47179660487203379 -1.4655673045766955 
0.14585481658254223 0.19504464059580418 -0.45863466320164104 
0.15962827709631436 0.011069378081675981 -0.25605324893897424 
0.11915953472393122 0.022441464199300005 -0.42626246698094916 
0 0 0 
-0.37364337685992394 0.31208666531839591 -0.13968157926192665 
-0.4484357845015155 -0.040662254387723695 0.38908217004770185 
-0.05931535178465272 0.41841248527843528 0.0021218448584162997 
-0.086594051257586097 -0.14186084290001444 0.10070792667497175 
0.27435616568854526 0.17365806219967045 -0.21250402258089443 
-0.19618643804713887 -0.99209497947080505 0.49172516863716914 
0 -0.13030555100710597 0 
0 -0.13030555100710597 0 
0 -0.13030555100710597 0 
-0.14684311976279735 -0.14418715346608288 -0.042976381701520294 
-0.5692651771988757 -0.37125063776758016 0.80453181644486971 
-0.65156703926887649 -0.15311229618826552 0.62913331881905998 
-0.20784064028252289 -0.17515990331050207 0.1482156085321697 
-0.49673836790105047 -0.130305551007106 0.44150481531665414 
-0.011861375575932207 0.025239949086930984 0.2748123410741069 
0.18287438525494629 -0.43650657360870382 0.14376303589371076 
-0.29485082619520742 -0.077649683261590774 0.33160807345849785 
-0.54118439872959945 0.55594527605569588 -0.2543246503324334 
-0.5314596491347342 -0.14358825942658812 0.56303622224126459 
1.2508629066250139 -0.42589057906289707 -1.3062875525220228 
0.0068258345861031237 -0.025614120830599628 -0.072289419733442439 
0.059990230819737464 -0.2886312689460232 0.27389886315525452 
-0.25656294310402916 -0.28202381942605836 0.22048207732400293 
-0.0033507625394978502 0.074068577389725332 -0.087933152687980604 
1.0552585795403995 -0.43167258260010033 -0.56006253049582788 
0 0 0 
0 0 0 
0 0 0 
0 0 0 
0 0 0 
0 0 0 
0 0 0 
0 0 0 
-0.20618647357817377 -0.26853679968020583 0.14348205994554727 
-0.25692460288393704 0 0.19700877108114301 
-0.51378783516542692 0.05430058725579915 0.21004195436010586 
0.01338059115101759 -0.055051823970570658 -0.04751907606593047 
0.16774486622721688 -0.022545748428004483 -0.060043636307147236 
-0.25692460288393704 0 0.19700877108114301 
0.22079125796196297 -0.10944939708925189 -0.22001079898032264 
-0.25692460288393709 -0.079843923591705654 0.25867282220792226 
-0.25692460288393704 0 0.19700877108114301 
-0.25692460288393704 0 0.19700877108114301 
-0.25692460288393704 0 0.19700877108114301 
0.0099674272190243968 -0.083258894515089527 0.14504865519701046 
0.25680303042147601 -0.13479131399200628 0.0062768499744633071 
-0.13865910694601863 -0.20975146177852255 0.038129827092405331 
0.32271888638931728 -0.0635352239761931 -0.22457887645414693 
0.025408523121431204 -0.22266611855318769 0.15796960862458836 
0.55463412103505827 -0.43755971559420132 -0.092450800466686509 
0.097104465367150714 0.018268311830102975 -0.034033009689450625 
-0.042478906283795297 0.085239540965017929 -0.34371693855331575 
0.051762215865012354 -0.30861463429114111 0.094235199653815174 
-0.12927192433968421 0.23497849717042599 -0.039017171387376266 
0.093914254616104337 0.33888842289349308 -0.38735696635167538 
0.17853261949303043 -0.010395603089898564 -0.0030072392030196723 
0.084220304690649672 -0.055032864824118802 0.016516267940384247 
0.21779495803343588 -0.22581009380176884 0.039842018600423773 
-0.27957983003101233 0.078408406163071986 0.13435567391641093 
-0.13295579223954423 -0.21850073993140193 0.32917237614830175 
0.10064686837564982 0.63600015723459402 -0.65674712088245091 
-0.35849253098652328 -0.0056900517294883358 0.80894449000707569 
0.060669179936852731 0.41709142031784346 -0.37964854238298668 
0.14844070859076003 -0.18548262612435029 -0.12185793858677282 
-0.21393944829519768 0.13145018625863414 0.1729164237274485 
-0.022833848044818066 0.29225993454206511 -0.30991351432486264 
-0.24906766166341746 -0.00075982601298808794 0.29569455279787427 
-0.01564935940461332 0.061233145498018053 -0.010830219325109998 
-0.022833848044818066 0.29225993454206511 -0.30991351432486264 
-0.022833848044818066 0.29225993454206511 -0.30991351432486264 
0.0018561349008656542 -0.092589255183035901 0.089266381112317494 
-0.05896774854524537 -0.014602625710226873 0.0022257146098510674 
-0.22627783646399791 -0.097795209784052664 0.15230720382640078 
-0.016779435254180797 0.29982584623671055 -0.2378752992045759 
0.014378556181160615 0.072847221023725761 -0.145014143201184 
0.138862193567894 -0.24762179739047888 0.063616707230755271 
-0.062133851936144839 -0.13744158811026053 0.048299733683808709 
-0.085157235612243809 0.2191194175527453 -0.087648638758864403 
-0.13666427670272527 -0.27505631859932916 0.29918107793845677 
0.30734446308981667 0.35156445303952222 -0.79560416760553376 
-0.18096659401506704 0.38053002780539236 -0.28810686177742978 
-0.10821487138391732 -0.14132482440287156 0.19858876194683689 
-0.0092120210352974619 0.12999960544181788 0.023732798032508953 
-0.43668803505905412 0.33102182759746729 0.069740453544930012 
-0.085157235612243809 0.2191194175527453 -0.087648638758864403 
-0.085157235612243809 0.2191194175527453 -0.087648638758864403 
-0.085157235612243809 0.2191194175527453 -0.087648638758864403 
0.28387285996372508 -0.1715714033967197 -0.1321007362761607 
0.13512390415183625 0.27040083233497525 -0.27966989571869177 
-0.011438757243806622 0.13805339313257517 -0.22385105402124372 
0 0.18548009892777612 -0.31165585864073753 
0.058710776348434954 0.19093479546944042 -0.18625281041996505 
-0.046553999293975336 0.147883343433446 -0.0039542503434394898 
-0.24440372704838265 -0.1935949515290602 0.24014469652411197 
0.064837575297308422 -0.25683815575980301 0.0091234238328667394 
0.058591220978119821 -0.27272428027836515 0.10357486659773692 
-0.21654246485151829 0.39477673893026499 0.14496750991281596 
-0.039847712772347839 -0.21649673424179181 0.15152069678195337 
-0.21965789425382995 0.27453601959381796 -0.12987767121905158 
-0.26291521449251593 0.31251614147886786 -0.17394902117239688 
0.050816002765028359 -0.087592925847897171 0.022977377036981227 
-0.0018498941975204554 0.27867347429064204 -0.19184378662892018 
0.087232673944127134 0.093111873181263627 -0.059621544031448578 
-0.28284688077702214 0.027906851461026786 0.22807695100517369 
-0.03360523866353337 0 0.051065218474354475 
-0.38357977018414635 0.17818015100234946 -0.014829639338823291 
-0.15693929765140874 0.012595899002992969 0.089459398482724634 
-0.032656717111475261 0.019557451743673716 -0.035160511376112279 
-0.03360523866353337 0 0.051065218474354475 
-0.30393074262372222 0.24060310911145036 0.0019122703864849603 
-0.097856437006318492 -0.038942176136725619 -0.10162785528182609 
-0.064815260649954715 -0.19611431548778782 -0.06195102762140884 
0.05341907740743649 -0.019372717417067451 0.044884662293773712 
-0.20877475124778666 0 0.1926420799053836 
-0.20877475124778669 0 0.30046400185750582 
-0.17438638581896959 -0.30808536410695325 0.17667030189161051 
-0.20877475124778666 0 0.1926420799053836 
-0.20877475124778666 0 0.1926420799053836 
-0.20877475124778666 0 0.1926420799053836 
0.4021255030854971 -0.5486228288594287 -0.22178573769299326 
0.30452039092888783 -0.31985046300772729 0.31824452800445541 
-0.042378591655288275 -0.35377349189608764 0.15763258279199044 
-0.19512100932366755 0 0.14517478864384939 
0.23862502714819472 -0.13964547500038221 -0.074360379417924935 
-0.68082014837969762 0.1101331487287466 0.42797985845224773 
0.22659534001905057 -0.30607834935622052 -0.085869527370309284 
0.19037452314060094 -0.20086521440657498 -0.10845058018654093 
0.31414140002355212 -0.39180827903562554 0.041633099355358041 
0.13723835435498355 0.0087449922356592925 -0.092941994422088656 
-0.045173052326274721 0.54412191988580527 -0.1340509255383778 
0.12272440833374662 0.035080279460052918 -0.16543658747887344 
-0.10836425252528495 -0.059629954630659586 -0.064578997335334593 
-0.36511745542858315 0.13390221777038022 0.27414283160575781 
-0.073893323695280191 0.5143190850672642 -0.41801358148149531 
0.15460354097091364 -0.051163698167963102 -0.18247471401042814 
0.34513105722700327 0.04878819396341802 -0.25998304096679187 
0.37472799052564837 -0.23427799745092609 0.099201080009186537 
0.26573448009422118 -0.27382585035413687 -0.17590090572599065 
0.29821717833324424 -0.2949140523516941 -0.0041758097178308728 
-0.036115043632045332 0.18612211131505557 -0.24420482591343831 
0.015473969830521014 0.2956111034332935 0.020338420522976106 
0.31609447489080394 -0.32102893355960405 -0.15952396220958176 
-0.1127336852264863 0.034951514839491674 0.021834536893260915 
0.52301128305317013 -0.23427799745092606 0 
0.34111663526242031 -0.094769750076919221 -0.1185746372914059 
-0.056544913372851682 -0.18799911063723984 0.179134318350371 
0.062525142115417598 0.22104389929833609 -0.49762259193217684 
-0.38807260850026887 -0.48719127391036204 0.99958857646012089 
-0.089602923264257936 0.23522500150802853 0.052781731843668758 
0.21245037173152545 0.21716838124959414 -0.31054552371260569 
0.34111663526242031 -0.094769750076919221 -0.1185746372914059 
0.41325696064749057 -0.094769750076919262 -0.27177934161713369 
0.0026700492804096298 -0.13099867573196192 0.038614916665397216 
-0.36456800531591127 -0.10340403898147739 0.28045351765969206 
0.57841419939172178 -0.14667582132827961 -0.47920061907076833 
0 0 0 
-0.016709142678998645 0 0.073820244561568132 
0 0 0 
0.26093524556693964 0.21494450160121997 -0.47880640583477035 
0.83167523623377859 -0.14067032496146925 -0.72999203132570611 
-0.48705484461217902 -0.22594934567661487 0.44724348417290916 
0.3425742066972628 0.27469291341381008 -0.52103164408197811 
-0.13181684688513651 0 0.043512307092838057 
0 0 0 
-0.50313515073173265 -0.073512174852363291 0.5451938616683123 
-0.35910799520541259 -0.106973070244074 0.28428723549329227 
0.20524062742063143 0.060596384122478489 -0.42479125145616237 
0 0 0 
-0.30608968847284246 -0.045715341974673786 0.24616387230637565 
-0.062704622202524291 0.15582992925253977 -0.073777797100331874 
0.068675765951039733 -0.24093250266221222 0.32100741531044341 
0.13046439935837778 0.2144202813079151 -0.14896911180701913 
-0.037349006890177221 -0.017344547660647774 0.12688296701937024 
-0.27732754888570549 0.32727882687195431 0.045662214041221644 
0.36146394154643147 -0.0070446358755052174 -0.60816552766528342 
1.649826488316291 -0.96623207338245942 -1.3340687072943245 
-0.47682956717286973 0.14445750973974564 0.235730285237221 
0.08254730860233836 0 -0.071425399869574441 
0.17411349770277462 -0.062055024978871665 -0.13316793584551476 
0.070841037688541941 0.073463350756008489 -0.20841463794504064 
1.2113059879706205 -0.26937990126476746 -0.98613165775078426 
0.17411349770277462 -0.062055024978871665 -0.13316793584551476 
0.17411349770277462 -0.062055024978871665 -0.13316793584551476 
0.026702822727645851 -0.1300880942362222 0.031746132966044248 
0.34837632052082346 -0.3262564178092105 -0.15417976914857667 
-0.23568726937683457 0.0029073552551983645 0.21431600392010375 
-0.15482990586857309 -0.42425211039524158 0.23218094937234182 
0.052881557217467658 0.35910696775948187 -0.31480219428514533 
0.10425414848435781 0 -0.13720704764154992 
-0.32826724038027444 0 0.31494039878485985 
-0.62625942566107218 -0.044440106470485269 0.53338497337629542 
-0.036559477470068671 -0.1999162490103257 0.2219002416407968 
0.39189266018845365 -0.52365398465704716 -0.096756321869005985 
0.030971676700824353 0.22159853171469149 -0.28474646252594399 
0.21475083631049946 -0.36990552966838136 0.026943372371668172 
-0.061050766950676877 0.18265660360095584 0.014779819027365373 
-0.32826724038027444 0 0.31494039878485985 
0.43654896068056509 -0.32571445687640949 -0.28189813925580998 
-0.36896884218181641 -0.27594886011389014 0.42647462717151724 
0.20645871361989315 0 -0.32690334148395012 
-0.054067450027458351 0.11798796663311985 0.032866726083773098 
0.20645871361989315 0 -0.32690334148395012 
-0.35714731580058451 -0.13794610547604302 0.26402082710258501 
0.20645871361989315 0 -0.32690334148395012 
0 0 -0.21466248327123974 
0 0 -0.21466248327123974 
0 0 -0.21466248327123974 
-0.13165460812927168 0.48604914394902188 -0.46789128602505942 
0 0 -0.21466248327123974 
-0.37961977230721727 0.35944947441108055 -0.12241732779133578 
0 0 -0.21466248327123974 
0.38533717019221159 -0.12616447675642439 -0.20591136406997798 
-0.0797929257854149 0.12070529867533017 0.0055137152438263703 
-0.68336770552777759 0.36734935848151895 0.33887430640676725 
0 0 -0.21466248327123974 
-0.70142925013338486 0.84363745135500101 -0.0017461034526209673 
0.53178188459409492 0.12401396254955946 -0.5264526753371358 
0.0070945675385328932 0.56461157785179017 -0.7544265087343226 
-0.70142925013338475 0.43982886822130057 0.1149038725434624 
-0.02754700475688002 -0.13218315663839492 0.2818702347790602 
0.82658808420462559 -0.19662072121863741 -0.63430719080499309 
-0.1077846940805684 -0.19401996734552385 0.23247231708359237 
-0.029486114559994864 -0.19401996734552385 0.17954599758307774 
0.17475035043269155 -0.40906201636299033 0.10438132776563136 
0.019224258720734244 0.046641335920343405 -0.046561144683283345 
0.079596693595716889 0.79855337987749031 -0.40780131212526166 
-0.40488268705315722 -0.35145235326451824 0.47423609311844361 
0.6635197150123272 -0.15498748911245394 -0.42773448476313763 
-0.1466951422510826 0.0024980207841901279 -0.062943136632591906 
-0.10209267426972164 -0.40253451538366097 0.15725186074006378 
0.52497647428326411 -0.51871479717633118 -0.19079815616330831 
0.35160066328107881 -0.27226594117443048 -0.11577920601452726 
-0.024504346527576451 0.50197613407393993 -0.63990863360977224 
-0.096130125610430286 0.15699268755520568 0.017800887797289694 
-0.24583618723427914 0.05419476773695537 0.13656706281184758 
0.32485055121415263 0.23244081669677841 -0.13046857102642787 
-0.062625413609322264 -0.077149160636929712 -0.092571247763361911 
-0.0067068695407856713 0.11585498924437955 -0.035003460713750961 
-0.59273873299782265 1.2798985740883477 -0.45663196661662958 
-0.5218966249659418 0.18568204761106544 -0.59933579599329745 
-0.27941170039581176 -0.21051903780423306 0.15698038867482766 
-0.36555869442285821 -0.17124368966890591 0.52935321979423244 
0.37046314940777425 -0.17124368966890596 -0.17664091866218287 
0.40083035988244903 -0.16246181150451633 -0.32071984004540255 
-0.54874900769486368 0 0.45240891541595096 
-0.0084762327593844895 0 0 
-0.0084762327593844895 0 0 
-0.0084762327593844895 -0.064852489519911141 -2.0524138148243204e-17 
-0.0084762327593844895 0.11112344898793076 -0.35693775647702453 
-0.099951079908665669 -0.058927282466612101 0.13720785227041418 
-0.3250457325687614 0 0.13555797291428562 
-0.0084762327593844895 0 0 
-0.47752475672101469 0.21499543923214923 0.003259084767281839 
0 0 0.10385225162328555 
0.26439895680655223 -0.25131482349714934 -0.11279695071392654 
0 0 0.10385225162328555 
-0.43347576759895745 -0.13010848559150023 0.25306220628257303 
-0.37063866394756656 -0.094445077097485675 0.33429245530564161 
-0.00059397478404006403 -0.13918126299367273 0.28612708972541395 
-0.25660661166264187 -0.32000394158736412 0.30846838352415884 
0.11659781073204965 -0.04330246655151182 -0.24008081258799743 
0 0 0.10385225162328555 
-0.10626843464416644 -0.24680800085717503 0.15685960418352266 
0 0 0.10385225162328555 
0.22923251946372941 -0.20135668477446084 -0.13954907249055123 
-0.40431466288280005 0.20223285051559597 0 
0.015003231021509656 -0.019479635058718959 0.063949841594601972 
0.32023058749187755 0.3924292422721315 -0.69850375991346914 
0.48344491410181895 0.018055378887392386 -0.47475886533387551 
-0.28502550433028651 0.11000006942969061 0.20985158842412091 
0.10052504849011093 -0.21222945775722063 0.048375669292809759 
-0.40431466288280005 0.20223285051559597 0 
-0.40431466288280005 0.30726039244178666 -0.18308375547479397 
-0.064439111048490025 -0.10888030160631705 0.11245212885319467 
0.38386834325957886 -0.20411400482915126 -0.50236630494516066 
-0.11657378300725957 0.074365359804870759 -0.047232821476524474 
0.16166803180914976 0.13761241836537011 -0.32481927856631732 
0.13684518781628044 -0.20819577554956623 -0.10340708634972245 
-0.2509132731562177 0 0.12589276938915259 
-0.2509132731562177 0 0.12589276938915259 
-0.2509132731562177 0 0.12589276938915259 
0.37992471621901019 -0.36498895960695404 -0.0052629958126710974 
-0.2509132731562177 0 0.12589276938915259 
-0.2509132731562177 0 0.12589276938915259 
-0.14044285219639399 -0.16036134436730709 0.29842786243743075 
0.11591073610339962 -0.29935792086627294 0.17582720276737951 
-0.022264292207440271 -0.23693755266088942 0.069207493411225632 
-0.080769361992999888 -0.070028270351163116 0.12622825905532672 
0.15066179869669966 -0.36953660305902025 -0.10472790903687382 
-0.42375320725456267 -0.29529922286192301 0.47824384472697717 
-0.24891651062227332 -0.20793311497979619 0.11344901240099943 
-0.27304607488169941 0.13072698787292811 0.17106649600472731 
0.035727131542513099 0 0 
0.035727131542513099 0 0 
0.030674599715190157 -0.16359647906189273 0.023003698629177873 
-0.26083672608830744 -0.041541321717741587 0.36046201267403566 
0.56741358360208638 -0.088326084833664692 -0.51510350874926991 
0.30016171986645124 0.14300006387505129 -0.50647208106375363 
0.59217591325519148 -0.4387858774092474 -0.31384919458463056 
-0.037240703581573893 0.12281923390630964 0.087972772081374065 
-0.050682879070613113 0.048652898054530193 -0.044720312735266804 
0.23411516374340263 0.083310738168681314 -0.29396445023688494 
0.36930264489107423 -0.15367664048288129 -0.026324344379027219 
-0.005504151518301463 0.36479125022954761 -0.083027985984308689 
-0.24897914760880238 0.19667046279530834 0.43475478997517242 
-0.39349856169699776 -0.11652513225968103 0.23062865461417842 
0.15835787990138167 -0.30775846300836351 0.073606780281027739 
0.46461098626029945 -0.15367664048288129 -0.076495932161014926 
-0.19572151249711797 0.12193399495959317 0.032335250293890838 
0.027982929850593381 -0.0091487667000138759 0.026135590266711556 
-0.49633291727867906 -0.20670033281135791 0.65466862731759068 
0.090767109914887276 0 -0.1849564756509221 
0.068063867175132617 0 -0.1849564756509221 
-0.45449878364426494 -0.095892391270964356 0.26799840664201197 
0.076729755521176043 -0.2227162613574831 0.09704559218738476 
0.29896646863365073 0.11632598218984631 -0.40087495091837771 
0.090767109914887276 0 -0.1849564756509221 
0.090767109914887276 0 -0.1849564756509221 
0 0 0 
0 0 0 
0 0.41597063780758126 -0.8253227075923667 
0 0 0.14096697981717074 
0 0 0 
0 0 0 
0.55027358740198218 -0.060078213805702267 -0.55521152141368324 
-0.18000689593059438 0.10145439237974907 -0.016816134197965887 
-0.15923527618919389 -0.097231359478465076 0.23743382593810644 
0.12769290972226102 0.074664738266170649 -0.016727213639676511 
-0.33677465677377577 -0.73682322603086048 0.64775375315829065 
1.3075364712911284 -0.28318853004113254 -1.12545766372083 
-0.45728253539235947 0.094152829471713648 0 
-0.58315225866683085 0.35162532616484143 0.28449712918544179 
-0.26707836450955719 -0.038204492246378854 -0.020491245992211211 
-0.45728253539235947 0.094152829471713648 0 
0.055684196015453206 0.34433210442764356 -0.31221263274140454 
-0.13799920381657468 -0.0037743785405954886 0.10372376876226344 
0.51827635882388623 0.094152829471713592 -0.72280082971981729 
0.11831486183074061 -0.020622710435920923 -0.37368590654557993 
-0.45728253539235947 0.094152829471713648 0 
-0.31143084257656223 -0.073020876528893316 0.32843203751144351 
-0.5071471632597464 0.27062786166507596 -0.091838848822114197 
0.48210380918515194 -0.023975665384918077 -0.48470302001699883 
-0.55841739320188588 0.23467857182837945 0.25508946226752 
0.28744326603166281 -0.37992948109595237 0.39713853111979996 
0.078037753108003385 -0.042436234250195305 -0.13476772590116864 
0.2565605193968758 -0.34375124264013995 0.10513291430520731 
-0.25239622054066219 0.049266862048097132 0.028686591225144886 
0.35059998391653707 -0.17020001407972352 -0.44224178305750783 
0.17938733194122233 -0.048133801910141695 -0.090057550934254868 
0.15782763094548627 -0.10995244494813244 -0.14089333256064107 
-0.10637606027082895 -0.21960097508418619 0.039188558565694288 
-0.32637435634794892 -0.041727431312865326 0.4089036609296377 
-0.072233725801372786 -0.14493200271659867 0.067752204174859831 
-0.1289448112305106 -0.041727431312865312 -0.034168980544868964 
-0.18853558762003131 0.13144733993756119 0.20387073595875124 
-0.0048517343559373602 0.35030856782121284 -0.086094948812990943 
-0.65497538965874058 0 0.43841176882837718 
0.15174308484168894 0.13924711496951489 -0.4424082483466692 
-0.18198170290965116 -0.14735977538310085 0.3347239649188361 
-0.33435417454900512 -0.55183590184819697 0.5225064575406001 
-0.04814504452878135 -0.44055011691247076 0.16124303240607418 
0.037666370440051965 -0.29546886783770021 0.12258287500929536 
0.84921352888547619 -0.092855477376434417 -0.52033503763250333 
-0.43849005944743547 0.29715666382613615 -0.093191624659548278 
-0.13147153419442928 -0.077988832244364953 0.19356064325705752 
-0.044332813577733193 -0.20583889108096315 0.027299596169017778 
-0.13779159051530232 -0.055392511502188761 0.24715408099978745 
0.044425593155149178 0.16966255479716261 -0.27196248962752961 
0.090935088149855015 -0.14371627674542201 0.14683775320990758 
-0.40734792153079902 -0.090128669999416391 0.27596101638324205 
0.13918566477106623 0.51251465990166678 -0.4471672514032235 
-0.015728990979901252 0.27212491654659576 -0.45764832907726682 
0.15906189589153027 -0.087068744441110957 0.14828519281316588 
-0.32941950972183515 -0.61260548161452388 0.67903739252310036 
-0.040342969461457975 -0.21405716506640834 0.11792442712992715 
0.43393496327592007 0.16513327949477297 -0.3402733013517546 
-0.3392183138352719 0.049134012277414048 0.1951351692369539 
0 -0.027696255751094381 0 
0 0 0 
0 0 0 
0 0 0 
0.31295881883698085 -0.11302304225289103 -0.18013638834867929 
0.072594434284801321 -0.056801517073023979 -0.010595409020676112 
0 -0.39641414217274706 0 
0.61124590852772309 -0.13917364781480604 -0.51982795455156738 
0.33336154856010175 -0.66892582955547986 -0.0347040742786828 
0.1304498571852436 0.37758464249236162 -0.59631000815500512 
0.029175366640285458 -0.081347684034017848 0.001338186972915752 
1.1433696225089192 -0.74829296113168531 -0.8961550790830265 
0.40814078387215191 -0.27956513395615179 -0.53706571781628631 
-0.22467363729077044 0.47458214823216949 -0.16195895583989534 
0.17052106523171112 0 -0.25853903296899311 
0.17052106523171112 0 -0.25853903296899311 
-0.065161117151602527 -0.24139942777108062 0.18286408350268149 
0.17052106523171112 0.14283162830594931 -0.47942782706726883 
0.34612003878679509 -0.16171132540390759 -0.20757617133870362 
-0.085530866985447582 -0.14634663975634135 0.29016521127646472 
0.0027612772539827375 -0.29341456081931611 -0.063852677779324102 
0.64894237033049196 -0.33045041615183685 -0.47560533920619186 
0.17052106523171112 0 -0.25853903296899311 
-0.30749536566992602 -0.092936444417853273 0.43919700615186352 
0.49387378419513267 -0.0537668700745218 -0.56887438836605198 
-0.1941353900942118 0.11365076966975744 0.40827492561250256 
0.15594235276097387 -0.040232285844733387 -0.023307582873808051 
-0.30749536566992602 -0.092936444417853273 0.43919700615186352 
-0.090867704833439006 0.031712107191577868 0.041484630015313252 
0.15454557290117515 -0.41155072299200862 0.24140154088262059 
0.058813442343656007 0.25010369052631354 -0.26489269513432101 
-0.35426198286607569 -0.20393370151838164 0.58289500036978503 
-0.32576080586695799 -0.052666326575804216 0.39103893046941718 
-0.50843166008660423 0.039169574343331473 0.40936114200036106 
-0.056233474435650244 -0.016358993800371011 0.020100552320187214 
-0.084283982613427663 -0.04757593182906858 0.10883256229348397 
-0.01255528180601862 -0.14256308040898905 0.33959497071591571 
0.81300703925837714 -0.5040694106759217 -0.47863711354479782 
-0.012555281806018613 -0.14696065918366913 0.33959497071591566 
-0.73163568929112499 0.12863256123459571 0.54721203063077772 
-0.21652080041398092 0.18295387385892709 0.10884329082654791 
0 0.30020667394968253 -0.29801487852864877 
-0.39186493072563777 0.57361440892605464 -0.30617453688897894 
-0.791179586689989 0.37791176667840098 0.16465458309205983 
-0.63852797063629108 -0.85075838333698528 0.67280076493407548 
-0.14447199261501528 0.62968725173762108 -0.72709286381719584 
0.17747850254765032 0.2216398487838275 -0.18112453620029234 
0.13682838842053105 0.11346631332961286 -0.27267006982166092 
0.27855447852995108 0.64209280231086641 -0.86043617287157548 
0 0.30020667394968253 -0.29801487852864877 
-0.49030324925278523 0.16201606619897641 0.23446180982894516 
0.041670167094601682 0.19357181127606224 -0.25757170419801667 
-0.18902432193616606 0.36300607472859509 -0.25900191146301932 
-0.14012462775281315 -0.39897230688267438 0.19452166975238028 
0.48926873588271153 0.087668178800432303 -0.75816730778109009 
0.54479619445771132 -0.16872739048233298 -0.57961916266214608 
0.23380220875029539 -0.65630263013144963 0.15462263499710069 
0.54479619445771132 0 -0.57961916266214608 
-0.25555347432491771 0.031543833856734364 0.36327207210098056 
0.031810692779025318 -0.1289226595762327 0.22316107120625892 
-0.0030587799589832029 0.074474747757352619 -0.20334299428179003 
-0.20646858739170834 -0.15188060634414952 0.21873921906458335 
0.51486772839863126 -0.49884821937209506 -0.15439843639562525 
0.74765675924552544 0.07492261888986812 -0.52622550203267449 
0.037335550304952239 -0.25069516733634423 0.12508479895439886 
-0.29319572567768104 0.11725971710289215 0.073708661817439278 
-0.17354854767501235 -0.51495151311418663 0.19443054409625204 
-0.07570238819672219 0.12223505812218435 -0.095000368203320265 
0.17248860456038143 0.036715994726925272 -0.59248210934337053 
-0.26409122561513865 -0.036474692664537699 -0.035650716722034057 
0.17331088072858616 0.095427886845485033 -0.15705309606197551 
0.073223278342163495 -0.26800111904437407 0.21997069286888021 
-0.0138488466448563 -0.34414706637040271 0.37380040567009581 
-0.095350298586038967 0.11978787724465825 -0.19319183352673666 
0.41775245608128525 -0.26800111904437413 -0.13451699947231346 
-0.37209779619383559 0.32145064533042117 0.15573877791821442 
-0.36579647530352255 -0.045182134282573609 0.36975388615191512 
0.025605251133038454 -0.045182134282573658 0.18834015260509671 
-0.36579647530352255 -0.2418776397835587 0.44885230171461454 
0.031336313747142276 -0.049103005024711509 -0.12933523369187014 
-0.17365496809848185 -0.045182134282573609 0.14742543067591191 
-0.011574034711509397 0.033984787006460737 0.1508116685260889 
-0.46435104472461403 0.16137623376913696 0.44561562786743403 
-0.36579647530352255 -0.045182134282573609 0.36975388615191512 
0.35464323229804967 -0.40149787639107531 0.028489276860334235 
-0.63198300824133258 0.29609526858303298 0.23555483378174119 
0 0 0 
-0.090872496050850418 0.4227777280247938 -0.33453566040595717 
0.057067027803154799 0.043864074586595428 -0.098774819452391846 
0.37265058064661732 -0.21152084528247689 -0.25025515857633251 
0.32665757918514482 8.2399365108898337e-18 -0.27069663563200885 
-0.21038977768958678 -0.16958294734658999 0.068199769958802489 
-0.00087245219814455254 0.019339146986700646 0.13837034963466174 
-0.2515342570463201 -0.27629044555849791 0.28789713610049322 
-0.14561862507162199 0.08628965819174772 -0.0071531181553062539 
-0.0004469716650475395 0.2144454759010703 -0.12729396092298331 
-0.22476644287556075 -0.11111155801548749 0.19998234927746128 
-0.41617160933853531 0.17764954747914394 0.42675879768578934 
1.0609274800069395 -0.15657001318651478 -0.95336237386999312 
0.3383418351796777 -0.24783761240315813 -0.17345520857192703 
0.12999796583294526 -0.29307204691027555 0.13786166333422514 
0.17148669436163136 -0.22615717544169395 0.12563595354932106 
0.080626215814721014 0.16698647242699105 -0.092303308681826055 
-0.031937141354862836 -0.23456223668094756 0.074834579927152728 
0.032975928114300071 0.13226630953505272 -0.064818302071140158 
-0.11187007891064596 -0.01680531774185114 0.057454856419240218 
-0.13404222959066664 -0.042465527091033121 0.0074505637394579622 
-0.11462909121346176 -0.08745086582356762 0.24725034288576292 
-0.10360267841883089 -0.035118620618233891 0.099985569297998331 
-0.066337332083692857 -0.18681453199481438 0.38150661714206258 
-0.10360267841883089 -0.035118620618233891 0.099985569297998331 
-0.10360267841883089 -0.035118620618233891 0.099985569297998331 
-0.37480693041973095 0.94538876386834891 -0.3926837843597013 
0.63624895649870894 -1.0223782014217111 -0.1240608844214335 
-0.10360267841883089 -0.035118620618233891 0.099985569297998331 
-0.10360267841883089 -0.035118620618233891 0.099985569297998331 
-0.10360267841883089 -0.035118620618233891 0.099985569297998331 
0.26269903162756975 -0.0097485540944388365 -0.31238471024566861 
0 0 -0.054477225580566391 
0.15901232920186076 0.11568671625701012 -0.060573260060988995 
6.8824054709752505e-18 0 -0.054477225580566391 
-0.13100550234873876 -0.46496533298755249 0.47851494228263658 
-0.048505815503563698 -0.070056186102505677 0.21683719015108405 
-0.17167152405779451 -0.13855891014308599 0.32362029599825087 
-0.40203953933548608 -0.39130828502543996 0.65165265960023477 
0 0 -0.054477225580566391 
0 0 -0.054477225580566391 
0 0 0 
-1.3030765705037066 1.5030299839134058 0.043946067795292754 
-0.2002379751127854 0 0.071524760543690558 
0 0 0 
0 0 0 
-0.5195527763719977 0.99918454484286023 -0.48376500139730044 
-0.22741293648949945 -0.021451664502341469 0.35451789780642812 
0.32994460657974639 0.057464002929565577 -0.5048171755628108 
-0.4023484486792383 0.0065226088270336786 0.46616247111503695 
0.036001578150448604 0.1575563915074106 -0.14913183223601967 
-0.19689577818611337 -0.33667966829587764 0.15956409695474458 
-0.29559835467839762 -0.077396661612371284 0.21136187676464047 
-0.060338598969757198 0.62083847377872214 -0.54311827817327674 
0.45144013811984068 -0.33482141032278123 -0.30871698434105571 
-0.016273060179951376 -0.047007823866876013 -0.037470477970787286 
-0.17149019966129095 -0.29971912392869898 0.22274013745851512 
-0.43812034125073757 0.28748617453941255 0.31643309859274188 
0.52363029705304642 -0.27395987321283266 0.097286734485509452 
-0.26735535429188589 -0.021451664502341469 0.50824581444994887 
-0.26735535429188589 -0.021451664502341469 0.50824581444994887 
0.65518712055175765 0 -0.64117696825633452 
-0.63421230405508577 0.034769478637962932 0.29026538859669071 
0.071290709768802224 -0.2509297678406176 0.04804550102502133 
-0.29397543733326648 0.33924275429251549 -0.031965663789850711 
0.23582235043441663 -0.023667974797262341 -0.047883272022489577 
0.16752768603695625 -0.1418435913588397 -0.18570297925201526 
1.3359791618527377 -0.89165495618745527 -0.49331593455893974 
-0.36922726165674818 0.2792111955486194 0.15613550686042318 
0.15029625596991816 0.13903146978989164 0.16391699631192624 
0 0 0 
-0.093725414032822127 -0.46058211421353062 0.48638140359452897 
-0.28260865835545035 -0.19077346943111176 0.33071395382267238 
0.072475323936174257 -0.44424554918505066 0.39425960941504068 
0.098056914510843945 0.081428872910267333 -0.50392030947727551 
0.25340857973693504 -0.29082123125394022 -0.14112803354256487 
0.23054532688518581 -0.0738375227523662 -0.36394912610409386 
0.18425135241430682 -0.1715029191068623 -0.27169415230672012 
-0.24058610992133925 0.2302813434422481 -0.078932120320772486 
-0.3324113887708085 -0.51701075996388091 0.50439735699035637 
0.1356100013418309 -0.2536161746114568 0.0028313787959637821 
1.0290394917295715 -0.096939384595325029 -1.0822934507715469 
0.59387726661329021 -0.084671394511851739 -0.61333923027837234 
-0.10270264710589633 0.49567679807548243 -0.42264402517288191 
-0.017238370792094934 0.18505510526256244 -0.12649995804589542 
-0.52998760823701729 -0.055054530150063619 0.51474649695653596 
-0.097375203826018719 -0.27852083125233668 0.20910045453535664 
-0.14009755151209619 0.32185187702854906 -0.23232653683371515 
-0.25837001874383309 -0.72441251503989568 0.81485838964477764 
0.003373174648599926 6.9388939039072284e-18 0.26548037583216538 
0 0 0.14096697981717074 
0 0 0.14096697981717074 
-0.094597916016176231 0 -0.0020778061102730595 
-0.39978193547819646 -0.3010267580020064 0.47926089683808187 
-0.41310540004145951 0.89632321305284346 -0.55537041351835481 
0.11632181232435369 0.10258769128868159 -0.27477800122400448 
0.053710140358719433 -0.029523219523597398 0.084417746414216011 
-0.44070264027022737 0.32127752192255377 0.17395590564103941 
0.063896471358030504 -0.65276305781179667 0.51818828626109781 
0 0 0.14096697981717074 
0.094420445437717063 0 -0.10750907888323906 
0.26433548168229365 -0.38473931433009639 0.14257634483620249 
-0.20108095625829714 0.69198345881740564 -0.52150737662886926 
-0.17683445037815143 0.035786461576497661 0.25709749932299775 
0.053169974352445158 0.16067210187814399 -0.10200566759615784 
-0.15283049314774863 -0.063831805202490682 0.21730775154056264 
0.33237682646876515 -0.23471816993581471 -0.087912205804262636 
-0.49762211705296805 -0.20457671204153799 0.37064652568055101 
0.094420445437717063 0 -0.10750907888323906 
-0.20600523739489299 0.036758664609623778 0.12966398141862714 
-0.15899271695370784 -0.13016762998263154 0.25608579319811908 
0.21610253976933885 -0.0090104612521190071 -0.10750907888323911 
0.051086487780529238 -0.41469671610733594 -0.023604305175886131 
0 0 0.12308634546501296 
-0.29940838393540425 0.17506220871416783 0.0099096718502096788 
0.14575502211359526 0.12174640595228572 -0.13810349996854404 
-0.1799555609406274 -0.00048192082458334241 0.2059893163986081 
-0.018951866596332131 0 -0.091480270754282514 
-0.49065087765583698 0.43055930040017842 -0.024944623355860077 
-0.022753398800506086 0.5299911568253296 -0.42566961586998403 
0.087343149737468428 0.067329828877500414 0.22836438421771926 
-0.14159409839088444 -0.21955554113337891 0.28609937813495606 
-0.297772511629607 0.010099729567400319 0.39306009886922821 
-0.25012861306792639 -0.19530538298203787 0.08960013096588576 
0.62174399315540285 0.20015593315377259 -1.04864586435847 
0.34589008048324399 0.12036825419033773 -0.39589883408649701 
-0.14152481092837993 -0.24245696382820645 -0.098742313204676274 
0.49092025002549267 0.055243635952702937 -0.14389253111522571 
-0.11153364000924784 -0.099448640324357324 0.14444332439389576 
-0.21495253561297309 0.15613216139743691 0.25856107865535993 
0.22733679512778382 -0.082010701980106279 -0.025708823239849594 
0.22733679512778382 -0.082010701980106279 -0.025708823239849594 
0.21137404918635697 -0.16896901304061626 -0.1523833481207216 
0.058083850901549501 0 -0.16191698700865628 
-0.21423573927769735 -0.4283839684105023 0.37550415662837838 
-0.0067182635751455531 -0.086378586449490147 0.0046738845443688873 
0.14676625538779633 0.01950013674668501 -0.1844767229502543 
-0.060385934017742345 0.2374424150732054 0.13971246540317428 
-0.21423573927769726 0 0.16279466198493081 
-0.22739819619102097 0.026631270691680212 0.18083333755346459 
-0.21423573927769726 0 0.16279466198493081 
0.067051993452688793 -1.7347234759768071e-18 0.18422970719543716 
-0.078496764692785118 -0.64534438737612543 0.303162397612045 
0.17902744942623189 0 0 
0.070899268034933613 0.072680671924051948 -0.11383065417850437 
0.17902744942623189 0 0 
0 -0.17682138960476751 0.18302497104418153 
-0.10773027999951866 0.33414215407256437 -0.24335065677971179 
0.25857696221093968 -0.17682138960476745 0.016027701847418484 
0 -0.17682138960476751 0.18302497104418153 
-0.06195955840705665 0.030901694979256072 -0.19106611905661661 
0 -0.17682138960476751 0.18302497104418153 
0 -0.17682138960476751 0.18302497104418153 
0.11504572333966263 -0.17682138960476751 0.12603966323223909 
0 -0.17682138960476751 0.18302497104418153 
-0.069026138763693651 -0.5835032337598095 0.55478414741411497 
0.48566742094266269 -0.00019489323819248805 -0.33433303039941059 
-0.40839873896401258 -0.28818141642768508 0.37382561526013514 
0.17668106769312028 -0.42108817519026137 0.10338267240771809 
0.34351043237650336 -0.00019489323819248805 -0.28207756152876773 
-0.14087072757903127 0.20842513910925611 -0.029116334591070339 
-0.16291468810315424 0 0.00099285522180675998 
0.21988046914855039 -0.21254919091443822 -0.1403850292131277 
-0.16291468810315424 0 0.0013886339609410247 
-0.3934650239942008 0.054117234902850878 0.12449695930543594 
-0.31963146710065071 -0.33999370936065598 0.46175177144090224 
0.32082851795481859 -0.22255599668864257 -0.15939189356985448 
0.32956730924398325 -0.30814913733131766 -0.096565105674570592 
-0.2090771703272179 0.61377899790779511 -0.20534736863586167 
-0.16291468810315429 -0.083766496538715166 0.13891242176322716 
-0.22329521750245437 0.18517935619076098 0.088786600410316885 
-0.34970183424159945 0.18254090846530704 -0.12290685735744686 
0.098648493772990953 -0.40890710213924703 -0.025779208329347693 
0.23092165183625704 -0.25004194294626547 0.29734146401370803 
-0.075258510390034783 0.17141424889950096 -0.010012544974961592 
-0.041630256966584206 -0.23143855636481414 0.48689800094172836 
0.34837403489835916 1.3877787807814457e-17 -0.22212455214064322 
-0.062015650911742458 -0.061356396185414899 0.14203530363514247 
-0.11676679871554173 -0.17528384115588128 0.45647135626299273 
-0.097374530469956089 -0.10187677017139252 -0.022912602715437699 
-0.062015650911742444 -0.041621891150289241 0.14203530363514247 
0.039507363693398821 -0.041621891150289241 -0.017036119198112931 
0.084107269041707719 -0.010677659382122028 -0.021355204212700377 
-0.062015650911742444 -0.041621891150289241 0.14203530363514247 
-0.062015650911742444 -0.041621891150289241 0.14203530363514247 
0.019974555465899407 0.069614284072739632 -0.20029996318796853 
0.003299052270804926 -0.17882093568793928 -0.12196446035754648 
-0.062015650911742444 -0.041621891150289241 0.14203530363514247 
-0.082488982679900458 0.32928794938541794 -0.057297592680393084 
-0.062015650911742444 -0.041621891150289241 0.14203530363514247 
-0.25298785141652236 -0.24120613595733831 0.21784522558744671 
-0.050612537511166469 -0.16214877176165715 0.13499965365356842 
0.35963682787196832 -0.10178022460702894 -0.37409897367110928 
0.057756938360570262 -0.65600931720511346 0.29720984781240606 
-0.033138149513659003 0.097884413231873413 0.026253847851101415 
0 0 -0.31609331105497673 
-0.18612736593857548 -0.042848738598546057 0.24644955010462541 
-0.39029725500877666 -0.3954390208691051 0.52884530171922139 
0.11843286886057489 -0.024053257517568268 -0.18925250153783746 
0.057797393011012825 -0.39081666266675519 0.015321521474610305 
-0.17678408807470128 -0.22921220787309063 0.21009657466608941 
0 -0.1002113366981547 -0.15788058797619284 
0 0 0 
0.38705667085407552 -0.23198320039183659 -0.12476874578244694 
0.064250614122402808 -0.57191741260290885 0.15038533072186011 
-0.65298115876555995 0.73305245252510598 -0.067762704848371977 
0.22780044822161402 -0.5766812120148207 0.1107608874613462 
0.17420828380509315 -0.085412055852080199 -0.18360992562260467 
-0.050710267724901809 -0.24737024306034289 0.074169396703605159 
0.081160839007513988 -0.075013993898881026 0.39443085407451567 
0.23861107282219193 -0.083035912832402983 -0.20324523784818169 
-0.53050543509389347 1.3106564788629353 -0.98057179576429088 
-0.069294873126218418 -0.6347121370944766 0.61006266954774202 
0.024988092606398483 0.19269779974659365 -0.23060326559837352 
-0.12549034265716083 -0.097282016993270784 -0.12539873541693736 
-0.2784795936020571 0.50429067135764116 -0.13041254015254802 
-0.019095075488358371 -0.2043824270804801 0.21372189382663001 
-0.14318520111281963 -0.2938455791279232 0.43884066121831472 
-0.019095075488358371 -0.2043824270804801 0.21372189382663001 
-0.22673691915478714 0.19265484996455853 -0.067497581140364499 
0.11132948997974418 0.17807932835389712 -0.066794504106528832 
0.024483437419485988 0.06894307022999073 -0.17757885882063409 
-0.019095075488358371 -0.2043824270804801 0.21372189382663001 
-0.019095075488358371 -0.2043824270804801 0.21372189382663001 
0 0 0.033343115001782136 
0.064103290197850896 -0.32017171648031839 0.27747098823902855 
0 0 0.033343115001782136 
-0.29673009856702126 -0.33933903459117937 0.58941226851354367 
0 0 0.033343115001782136 
0 0 0.033343115001782136 
0 0 0.033343115001782136 
-0.15087468972682314 0.25627277679219346 -0.12764179424144564 
0.077602235416827939 -0.39213076270277364 0.20382994483841205 
0.0066780234755797379 -0.54797332679723609 0.11893052446664402 
0.29852450915351975 -0.013010876735287068 -0.41064445730897503 
0.087783141660488506 -0.9531292427087209 0.33517187232808532 
-0.415573201418305 -0.31522536944433555 0.70263408554207374 
-0.1702828068031477 -0.030856762119554612 0.14345058183156392 
0.43301181460920041 0 -0.5733411233737008 
0.77407004149032577 -0.11900127888672106 -0.64361729399912293 
-0.26041537573260531 0.10324052196431976 -0.038103869996880264 
0.43301181460920041 0 -0.5733411233737008 
0.29458971874550965 -0.068400784411169591 -0.35017110858987671 
-0.043309656366551291 0.27628467012297875 -0.10345302220105897 
0 0 -0.078103682616957312 
-0.37277005055389933 0.84032890915338276 -0.7561832309333919 
0 0 -0.078103682616957312 
-0.68425987405791922 0.66804324852302066 -0.28427484388676888 
-0.93032455331525765 5.5511151231257827e-17 0.59281396181060331 
-0.11465412439842879 -0.27321642327136503 0.13288831216397051 
-0.48247333968179218 -0.38790867140065532 0.62200698714396652 
-0.039747708428198157 -0.18000680393172774 0.25905730724726883 
-0.1352734336363336 0.059935506254879214 0.023031862838960467 
-0.15802969054155355 -0.13656155092349365 0.27914038514703921 
-0.13587724274758134 -0.078133205348534934 0.13873975837478111 
0.28450896779110163 -0.3804598062583876 0.06092767566389936 
-0.72814070107679663 -0.47635195879764225 1.3072742490302289 
0.1297694795129167 -0.13500187325911128 0.1661422642577236 
-0.21486583649530891 -0.12174942582097226 0.029873517484523691 
-0.59168991898139578 0.61838098030772337 0.11638884083835405 
0.42007612018305857 -0.22087369572471716 -0.49889318726765841 
-0.051578426751504106 0.39572954604463151 -0.290207893317315 
-0.77039834226849668 -0.021674072782747716 0.75951333624091821 
0.24197031159551186 -0.10974085689449974 -0.1347821456855893 
0.059971891063529549 -0.021674072782747716 -0.24049964662383463 
-0.12171532756654579 -0.30046704613257835 0.34218009927061599 
0.060924172664085202 -0.16049322726062179 -0.049383471125026501 
-0.23994544241932228 -0.11843342826817946 0.20126538123414756 
0 -0.021674072782747716 0.13690334802664153 
0 -0.021674072782747716 0.13690334802664153 
0 -0.021674072782747716 0.13690334802664153 
-0.38274998000398375 -0.34225664603232553 0.54898602390417262 
-0.25593198285430097 0.041077195432415108 0.39261078051619819 
0.47871285227168087 -0.20585849152872149 -0.57687676313095593 
0.13014645795755905 -0.28210858728568777 -0.12942190208106868 
-0.080389059792074141 0 0 
-0.082362759637883989 -0.52828889133622947 0.25696828952663259 
-0.09264694890835963 0.41061534622444212 -0.1225942146859554 
-0.087876122187313305 -0.23678005853484513 0.32333559535391132 
-0.26692019221872892 -0.29896772837101604 0.3165691106960476 
-0.080389059792074141 0 0 
0 0 0 
-0.093059671788573634 -0.10470915620442305 0.13179594925168703 
0 0 0 
0.20785839866080139 0 -0.14049377847576713 
-0.32273901108995651 0.26389275256506983 0.37178183702635476 
0 0 0 
0 0 0 
-0.078481554585119795 0.17370359238426009 -0.15893020480089723 
-0.4770792419009266 -0.13016308304571128 0.43844744828326199 
0 0 0 
0.427795080368081 -0.32012516739227692 -0.48218983033647045 
0.244335903164067 0.26577280175575413 -0.50275593497720361 
0.13748113218387772 -0.34979234413897803 0.22345747240332203 
-0.19058899839687449 0.26225695339307198 0.18550964980814375 
0.75413948276530285 -0.19600476672194592 -0.88872954335017784 
-0.10374079581704475 0 0 
-0.53731223321507826 -0.31827941158037382 0.43446728625059483 
-0.15513329817712171 0.044242049326632685 0.089208923556518632 
-0.37092561218501646 0.21310522010007263 0.38706522683552308 
0.48302748058626427 -0.74497992491044362 -0.24566566115922195 
-0.027045492285403056 0.17703312323061324 -0.15324987791737932 
0.16653137462351289 0.11849860865653469 -0.22886977111541665 
-0.027045492285403056 0.17703312323061324 -0.15324987791737932 
-0.027045492285403056 0.17703312323061324 -0.15324987791737932 
0.16398957208048665 0.17105698098865657 -0.26917008344754251 
0.06528810596351213 -0.4222048603777882 0.19021929820827835 
-0.027045492285403056 0.17703312323061324 -0.15324987791737932 
-0.027045492285403056 0.17703312323061324 -0.15324987791737932 
-0.18757133025360298 0.12591141057254274 0.19561094318037198 
0.3489761347322089 0.23242126756619497 -0.43422835304163254 
-0.027045492285403056 0.17703312323061324 -0.15324987791737932 
-0.018907281364654461 0.27331518333310739 -0.086303563730396146 
-0.48245758224420765 0.59178044921905459 -0.060624091727299045 
-0.11732343002776342 0.053947663706903161 0.050781026461428624 
-0.0047881514545319095 0.10675315472254712 -0.2767947194434523 
-0.013040144122678562 -0.15142995739879209 0.11237986131027572 
0.32766538767704878 -0.039341101706889786 -0.13524561584451517 
0.22385891362626342 0.21460586929860201 -0.62072410202233164 
-0.27846502976057425 -0.3240757494041277 0.49446211894995723 
0.20003777236718828 -0.40642445828495127 0.053664048878213112 
0.0053074032478636155 0 -0.029021273862280535 
0.0053074032478636016 -0.11208885569190188 0.10078553401485592 
-0.7213353238097 -0.12277051225234492 0.4119247007166183 
-0.14539944385585957 -0.26456661837981144 0.37292598921343906 
-0.31447925338586097 0.27629837605976271 -0.063370965988289535 
0.12207271793252766 -0.14080219252553303 0.29976615666907491 
0.082629627289350194 -0.39806027948105582 0.016962818438876918 
-0.23992809104376409 -0.46757476471636633 0.67584840060495921 
0.22258697397587612 -0.31907362258189614 0.12853398923821432 
-0.028850121337850494 0 0.0078992177834267541 
-0.35636791421674002 -0.46657806850172423 0.60458133352264976 
0.070800392329275541 -0.2689928507324777 0.075310959186798684 
-0.028850121337850494 0 0.0078992177834267541 
0.3046911149775926 0.067855034341017084 -0.4053201842908325 
-0.028850121337850494 0 0.0078992177834267541 
0.05449054630311588 -0.42560561199673397 0.31522652267804241 
0.19906308193233349 -0.032310651286454453 -0.20893995671378635 
-0.24799624638735668 -0.001874052439516086 0.15167629202330229 
-0.19724607324278445 -0.031543615954015086 0.20171584762348652 
-0.051817237760044751 -0.03268109005835107 0.082208967807793396 
-0.22050764632446343 -0.37128822115845367 0.6217308595704969 
0.047850044241076702 0.029086274200768779 -0.13283743130374867 
-0.17991800303850078 -0.37106574110122309 0.59625366636708277 
0.38689528520193495 6.9388939039072284e-18 -0.30932965816281821 
-0.30907161055533972 -0.020362238115824945 0.24939112779891456 
0.2239989342899554 -0.0055203743543778844 -0.30724041414920239 
0.4885150175026417 6.9388939039072284e-18 -0.40449112230746204 
0.53731030529315249 0 -0.47010250986717944 
-0.28890552705356742 0 0.28806235701385852 
0.08072393952822958 -0.095972763234909955 -0.1114015734615974 
0.14832679353814862 0.13799745708390423 -0.12104376853181255 
-0.040172556496431588 -0.078909401438367804 0.083772118350036673 
-0.28890552705356742 0 0.28806235701385852 
-0.33732402773067494 -0.082528313627436456 0.47382682959080158 
-0.36367272161116082 0.014684651717898671 0.22970205789833167 
-0.037300902435312852 -0.28322393851134903 0.13007003643970488 
-0.52775544796809282 3.4694469519536142e-18 0.28983644518472385 
0.021065873820516313 -0.23391098462621818 0.087647870318333168 
-1.1838362052377778 1.4283785575950689 -0.81130687317433059 
-0.024361730899859116 0.1261542205334891 -0.20667914045778912 
1.021259009522973 -0.44794742351474981 -0.76147240725587273 
0.39466283729036733 -0.11702832335541141 -0.55525995911304626 
-0.13404174936996169 -0.16511635568390701 0.10161905904614911 
-0.17079947139649967 -0.12432198916829636 0.24219478318714488 
0.27291229963582436 0 -0.24420304056257811 
-0.02396162223905611 -0.029023922973047872 0.041148243307284824 
0.096627650064545906 0.31926635086058275 -0.29276357942196674 
0.27291229963582436 0 -0.24420304056257811 
0.13379732062294283 0.38526234298661255 -0.37641847648693438 
0.16348438710446228 0.044519937961912927 -0.21655940025232837 
-0.29509028082234812 0.27866183060227884 0 
0.1574568394028103 -0.21430717434757812 0.087160426543532066 
-0.10557497051442075 -0.12374148653357475 0.3259404424624936 
0.24322931284291013 0.10211855999877022 -0.23877542509895083 
-0.22279854501665675 -0.48484769011481765 0.43110476556198557 
0 -0.12374148653357475 0.094966070766542426 
0.047748771875991747 -0.20126711551477461 0.12510455934935527 
-0.24330086773172346 0.15463818847908326 0.21961713231164454 
0.097816271262364141 -0.13724187801028023 -0.2074792568752821 
0.2811416038501437 0.30251415714859653 -0.46409438975119743 
0.20606565514561934 0.4430465650974999 -0.5252859411094698 
-0.37440410338348795 -0.19771103834474235 0.54935787313811479 
-0.069172183005880586 -0.50897233403662145 0.55529690260109921 
-0.73809078379404813 -0.25666648064773001 1.0163269401508608 
-1.5485412309694314e-17 -0.011424043228291316 0.025321231894356679 
0 0 0.025321231894356686 
0.46538621785704043 -0.047591954616198889 -0.36673457865635922 
0 0 0.025321231894356686 
0 0 0.025321231894356686 
0 0 0.025321231894356686 
0 0 0.025321231894356686 
0.15993044656771305 -1.0408340855860843e-17 -0.52147683391393995 
0 0 0.025321231894356686 
-1.204420957420669e-17 0.27465600097079534 -0.25726061742859058 
0 0 0.025321231894356686 
-0.63506772890249241 -0.019111390115252039 0.92105953486426773 
-0.63506772890249241 -0.019111390115252039 0.92105953486426773 
0.048052838839350714 -0.23775286205154603 -0.035238854100826889 
-0.24407260941064937 0.37419305191974056 -0.1078873041166875 
-0.6350677289024923 -0.065956969633075457 0.92105953486426773 
0 -0.14358293984696671 0 
-0.32578538299963167 0.29316356779020775 -0.079912448062846933 
-0.23994184165530005 -0.54819853096400806 0.65196622958773209 
-0.27049842547185293 0.081922003644968211 0.14807126397456935 
0 -0.071791469923483356 0 
0.12178781979824503 -0.094576315039496983 -0.18741661305651316 
-0.056624467348968269 0.2415966134163878 -0.025489965202392575 
-0.21366516457665588 0.17573289451954471 -0.060745454001226815 
-0.67036100267284204 -0.18208834208713165 0.71375072079493862 
-0.12880741182819361 -0.12893209755639315 0.049457354432022788 
0 -0.071791469923483356 0 
0 0 0 
-0.051862313130472286 -0.3147033292350031 0.19461496003334441 
0 0 0 
0.0071403532942411509 -0.39072841885844201 0.38011101388501284 
-0.12459901626978061 -0.039069678005636863 0.27630464930987725 
0 0 0 
0.31552422641340439 -0.58817488650933825 0.1698188956539208 
0.085912682619824307 -0.028223204551112789 0.17497444992938435 
0 0 0 
-0.18275021031743535 0 0.11062763911742887 
-0.18275021031743535 0 0.11062763911742887 
-0.18275021031743535 0 0.11062763911742887 
-0.54666668932851736 -0.095444656013468632 0.82724876988742524 
-0.18275021031743535 0 0.11062763911742887 
-0.30213585067086707 0.12914114978182339 0.026711992396495507 
0.59936802385941312 -0.2046491077257393 -0.30654850962113334 
-0.046002390836388012 0 -0.16122177081813194 
0.45926712578909878 -0.77887082992035217 -0.044464294907894684 
-0.088644798157534371 -0.25959864459641963 0.22009616910918081 
-0.33154458582711471 0.1397807768485092 -0.05692384714540364 
-0.12133029867361864 -0.62275297763486182 0.47348485080003433 
0.60108804934952764 -0.13021622109355896 -0.27934363329554612 
0 0 0.048887332216884613 
-0.0011709564044260878 0.30119503041451873 -0.16913741176810937 
-0.35083689287401493 0.19221930971058981 0.22403777614475054 
0 0 0.048887332216884613 
-0.10557497051442077 0 0.23087441613420032 
-0.10557497051442077 0 0.23087441613420032 
0.075536792969436356 -0.2061202840376582 -0.11177871405493081 
-0.10944421331855823 -0.48344360988717311 0.53196187328497224 
-0.082509593340090989 -0.67641003142883149 0.33889190963654275 
-0.10557497051442076 0.38790960373293926 -0.32686123101515496 
-0.10557497051442077 0 0.23087441613420032 
-0.24052518734049533 0.44972639311943036 -0.25773627607548227 
-0.34676366680104836 -0.11544831047162461 0.579997767381073 
-0.25646168676227438 -0.69089063180763888 0.5642862600529176 
-0.70499659734659559 0 0.70621718516586252 
-0.22482146454591623 0.19919908339703787 -0.099724691307398111 
0.53884243671988707 -0.43672664069126416 -0.42935893838728489 
0.30390891870080033 0.24349342114515882 -0.45914342946282294 
0.020525819839413012 0 -0.14343330851050412 
-0.1246584182735599 0.062941369121566157 0.012377555513956584 
0.020525819839413012 0 -0.14343330851050412 
-0.061649200681260195 -0.46809681322458613 0.41873812961325318 
0.55549639335837175 0 -0.57383941416223316 
0.092884181797842455 0.21696885053399192 -0.14977932220040663 
-0.052922017408850365 -0.076973476305834079 0.24209843666630637 
0.38698391066601739 -0.23526778929339526 -0.34311564707993575 
-0.22437475736054227 0.39466187791323387 -0.48570605233272485 
0.90348905169693694 -0.9532795478387267 -0.35186452773052707 
0.27158921374052752 -0.51199196221372933 0.0013608964286056947 
0 0 -0.04062813003569319 
0.58958791593380988 -0.015571614653213092 -0.60459620941666836 
0 0 -0.04062813003569319 
0.21995818239569268 0.25838572787959685 -0.43592264073104525 
0.37097566330230564 -0.49180835801145711 -0.12990791658169934 
0.16053304625406348 0.083925015275242584 -0.24919683325797856 
0.94934443234619048 -0.97061698784747763 -0.69377733414427967 
0.36964154296851925 -0.4257581755782715 -0.3932281419269234 
-0.29109062302676186 -0.2679518768868136 0.36615414968724319 
0.37126678167437149 0 -0.70592024811742304 
0.24678568525992192 -0.11510190813441255 -0.14604342115111454 
0.10361041434440724 0.22496239982831004 -0.053752572468078623 
0.37353658224034941 -0.068288241510207681 -0.40035035132747976 
0.4447051393083713 -0.17362856843913341 -0.21468477861889418 
-0.084461775297322864 -0.14883744242922881 0.064734629335522237 
0.29220888785385302 -0.19290604036916004 -0.17008251989990919 
-0.081561357642719351 0.45251938095148975 -0.2993125286997334 
0.28075000450104509 -0.06700119817602615 -0.28983812819529453 
-0.42019504842139316 -0.30250833940217559 0.49976288466085028 
-0.35169565213987447 0.06647454414666594 0.06889370434829456 
0.072250982905397457 -0.20829884595966347 0.10148708407070642 
-0.031670612020238062 0 0.0052324385461864648 
-0.031670612020238062 0 0.0052324385461864648 
-0.031670612020238062 0 0.0052324385461864648 
0.033124918464059877 -0.076228149056095373 0.0052324385461864735 
-0.031670612020238062 0 0.0052324385461864648 
-0.031670612020238062 0 0.0052324385461864648 
-0.031670612020238062 0 0.0052324385461864648 
-0.031670612020238062 0 0.0052324385461864648 
-0.21169227937318871 0.19955488028160076 0.043228120493665492 
-0.065832628913088942 0.96548081672951125 -0.84786334237100991 
0 0.19955488028160076 -0.21579458545260111 
-0.30732587275505024 -0.33156068020612772 0.62581104027693701 
-0.18582701771085558 0.47592997917304086 -0.43145939785155923 
-0.25017273412801899 -0.033526155955207387 0.21895325106558666 
-0.50978039040286205 0.0077814955941999959 0.64742146219732344 
0 0 0 
-0.019977825914052567 -0.068764659420584434 0.11737761661744191 
0.20602895110416627 0.048549565025847147 -0.1085232600431283 
0.043933006248104381 -0.46430360536431819 0.14284410955968679 
0 0 0 
0 0 0 
0 0 0 
0.54191055433047464 0 -0.29589179581558955 
0.11155662969554718 0.55554481417171675 -0.75938464178504561 
0.54191055433047464 0 -0.29589179581558955 
0.20728527558932899 -0.4919424889761978 0.13552006433935551 
0.043056967535881507 0.040405676371019869 -0.40473697448325235 
-0.11156838659218217 3.4694469519536142e-18 0.15697814176995747 
0.32888506328516787 0.28477641257603725 -0.62614291132834055 
-0.048001027572619183 0 0.052678474161057968 
-0.337175259818976 -0.022218505309976197 0.628455891099169 
-0.18275882382833461 0.0068223511085314086 0.03471813623580948 
0.18549631739161571 4.1850203857940471e-17 -0.089898871687690424 
-0.016559082375920981 1.5829351718288365e-17 0.10232792340645852 
-0.12489108445240836 -0.33320203896357004 0.26555093193554263 
-0.39714988950937807 -0.24659233536216266 0.5923028406566716 
-0.75308033248784922 0.010469704611126104 0.45233574075689287 
-0.14724763316695372 -0.020522031138482402 0.013415099473537289 
0.047624335115468895 0.25041693503880996 -0.24837876608536463 
-0.085782521479027388 -0.24259850108813624 -0.0024379982676423339 
1.0070133225208535 -0.66169494759159198 -0.37622665678089279 
0.41347984670462384 0 -0.24837876608536469 
0.41347984670462384 0 -0.24837876608536469 
0.41347984670462384 0 -0.24837876608536469 
-0.31032914204693218 -0.14994228673839616 0.22001344752662164 
-0.33500471243994229 0.39567042884901632 -4.4153540401754875e-05 
0.15841750862487936 0.3088505494308787 -0.18999426717767157 
0.11384728977031712 -0.43769634846300176 0.075970979138274025 
0.72303285340337986 -0.0021874517770439778 -0.96167718788676149 
-0.38066266219992212 -0.14989444592034243 0.18950404996502987 
0.099144363038888031 0.0072799936130080872 -0.339971430933598 
-0.0057109261422342971 0.093617511248809293 -0.28006670027082586 
0.24062066545006469 -0.105249356778438 -0.062792374120914637 
0.24062066545006469 -0.105249356778438 -0.062792374120914637 
-0.12278866790675666 -0.16799467445600161 0.0029824214427041007 
0.24062066545006469 -0.105249356778438 -0.062792374120914637 
0.75131371753597931 -0.58269110239389232 -0.062792374120914637 
0.24062066545006469 -0.105249356778438 -0.062792374120914637 
0.15952190059148166 -0.1224569272285343 0.066169610446143279 
0.24062066545006469 -0.105249356778438 -0.062792374120914637 
0.011988131470047425 0 -0.11280546606293217 
0.011988131470047425 0 -0.11280546606293217 
0.011988131470047425 0 -0.11280546606293217 
0.011988131470047425 0 -0.11280546606293217 
-0.50516978209100105 -0.35871371898243765 0.702040428908697 
-0.23966169157724038 -0.25592621273639399 0.40489997718623605 
-0.36488131699758181 0 0.18542186273165476 
-0.36488131699758181 0 0.18542186273165476 
0.53350330050070383 -0.097867572607289288 -0.32256367047681633 
-0.41468864224953295 0 0.22021214245342641 
0.28131558594853784 -0.36406673294152159 0 
0.49797000188155371 -0.36406673294152159 -0.14743164500159717 
-0.096223547168151749 -0.57896076980340805 0.53072637413762014 
0.28131558594853784 -0.36406673294152159 0 
0.075291658518111509 -0.29063733311557394 -0.14981182108949409 
0.19889259898621867 -0.14784671177002673 -0.13434877863913347 
0.41517272211280148 -6.9388939039072284e-18 -0.2093822258893546 
-0.046563218020504463 0 0.12709791567224005 
0.27972842837027934 0.092028188756669044 -0.36050843011008138 
-0.12047020596264246 0.03139028036059676 0.27898688031712437 
-0.046563218020504463 0 0.12709791567224005 
-0.059062657603443328 0.099548763996430575 0.074162195461992556 
-0.075386011783735982 0.035893511150811359 -0.24405196798235618 
-0.17758167044426568 1.3877787807814457e-17 0.12709791567224005 
0.75020341722703932 -0.14382552639809568 -0.65763551982185009 
0 0 0 
0 0 -3.4206896913738673e-18 
-0.39393228893869153 -0.13284475350166403 0.068375142780226189 
-0.39385483456983267 -0.32086687142341785 0.45756469313244341 
-0.61137907650558154 -0.077034715288431282 0.62858310469963763 
1.0313020520267966 -2.439454888092385e-17 -0.68017466932959669 
-0.48439676563222944 0.038642224293285878 0.35693744916768405 
-0.042942264613850804 0.43334662647681904 -0.079861994241268747 
-0.16159495682590502 -0.12316568246012544 0.097120652816532052 
0.32007451676569426 -0.12475204856426408 -0.21495490823911442 
-0.069377958474677523 0.072462261273774212 0.11092552350428918 
0.26867186057954739 -0.1857470243280876 -0.2001054179356985 
0 0.065403654468656078 -0.063988240361638388 
0.058216342935544646 -0.48471269483733975 0.23007060944401989 
0.073895450414544553 -0.25284661591818092 -0.072361050112897743 
0.14984588823135475 0 -0.14019958346298991 
0.14984588823135475 0 -0.14019958346298991 
0.070607994895670115 -0.25065552238404198 0.21967136368456483 
0.14984588823135475 0 -0.14019958346298991 
0.14984588823135475 0 -0.14019958346298991 
0.14984588823135472 0 -0.14019958346298991 
0.14984588823135475 0 -0.14019958346298991 
0.14984588823135475 0 -0.14019958346298991 
0 0 0 
0 0 0 
0 0 0 
-0.15709832466094395 -0.080276813138811964 0.30420493419296096 
0.42073105809694761 -0.51480756043215525 0.056899880922356649 
-0.10735079888753586 -0.13573915857151375 0.32602142587805794 
-0.88252797683416406 0.40651963983206996 0.14816666698339193 
-0.17143339000213237 0.31286735294520174 -0.046031854942907131 
0 0 0 
-0.23646575196919689 -0.047098838569517423 0.083748186750892503 
-0.080216386461676767 -0.070076066225880168 -0.070971201932960803 
-0.014732322648287529 6.9388939039072284e-18 0.13806401791990727 
-0.39360936431016535 -0.067469290775119498 0.51985061892733475 
0 0 0 
0.057167151416572595 0 -0.088005933958049634 
0.21701417963121589 0.056528063691071342 -0.16059698073319076 
-0.055964661606146146 0.3659958619738975 -0.41534447663673946 
-0.35897631060792895 0.033597793415449578 0.10824498065712281 
0.217014179631216 -0.0078048782387162841 -0.15920836257968485 
-0.33692699644751295 -0.041247549315403864 0.45443346376180488 
-0.06690387576582886 -0.17074476184709081 0.19214767700988772 
-0.5190827590668966 0.42862192874656996 -0.031322932196425152 
-0.15845571996732605 -0.029842464413504216 0.49591677230411513 
-0.72038663020147009 0.12930033166663227 0.28766815094997605 
0 0 0 
0.15890299794012172 -0.21688898136083073 -0.13231363342777588 
0 0 0 
-0.078038254996566137 -0.49132183356866582 0.32620131518276446 
0 0 0 
0 0 0 
-0.75185852133984332 0.12151420715881778 0.29467509226073824 
-0.27419792447596875 0.060435178772501111 0.11487074224077103 
0.067984395548157009 -0.17850748409290831 0.032230543439511955 
-0.013330227406515086 0.04321631408661715 0.03599373879215001 
-0.49867265003542011 0.35679822909928605 0.17395445047255467 
-0.56875971638693124 -0.16938958029717932 0.85403747456705914 
-0.54504740125848361 0.17870860240482975 0.34515776134363269 
0 -0.16940607649387218 0.15020259364138466 
0.020751225841987683 -0.50474963454991506 0.032755131269855874 
-0.33363624688244131 -0.42512612816714551 0.39842439194351958 
0 0 0 
-0.13128618109196366 0.2494007972274784 -0.23911696873787405 
-0.38051420770995464 0.017839947544433635 0.32727618785073537 
-0.1867929878554033 -0.33502601219767081 0.31258713767870883 
0.11436391159761575 0 -0.33510164363149997 
-0.092058293745526404 0.05787076462089185 -0.11653810851640707 
0 0 0 
0.25419476616883541 0 -0.33884328052231516 
0.12546641750839796 0.11313900278294559 -0.12030169461111302 
0.28129117804106235 -0.39245820952429195 -0.18396219264218469 
0.25419476616883541 0 -0.33884328052231516 
0.3806313151213776 -1.7347234759768071e-17 -0.53661451728829457 
0.060476284640600869 0.1088981018899817 -0.24829370249004032 
-0.024283377958667984 -0.31018533374995005 0.33293906173883714 
0 0 0.010931962269501671 
-0.41164487783927783 0.032565622227051873 0.30467819388100265 
0 0 0.010931962269501671 
0 0 0.010931962269501671 
0 0 0.010931962269501671 
0 -0.28941550829850493 0.30062891847865003 
-0.38051603359389419 -0.34975837919479036 0.55631703668567534 
-0.7740767299574759 0.59888021276698034 -0.23004017179291616 
-0.64190593456610612 -0.16388965358141216 0.49994145602832096 
0 -0.3708052429713341 0.30062891847865003 
-0.12512427962901407 -0.034398920612098115 0.24130875192680379 
-0.12512427962901407 -0.034398920612098115 0.24130875192680379 
-0.12512427962901407 -0.034398920612098115 0.24130875192680379 
-0.12512427962901407 -0.034398920612098115 0.24130875192680379 
-0.12512427962901407 -0.034398920612098115 0.24130875192680379 
-0.043792219420636123 0.19605597125367813 0.021247092683493497 
0.82201362215910523 -0.02075204310853097 -0.18857535877912363 
-0.13083811044669494 0.051846485165582962 0.019922061895175949 
0.37631206997797872 -0.11686952065969546 0.057325615668272607 
0.43661886747334222 0.21075793897392986 -0.45910823681823987 
0.67808815059440519 -0.02075204310853097 -0.0039187510797925084 
-0.43578680093718863 -0.0092008838521167764 0.55601524987901096 
-0.47420716652691447 1.3241708715156675 -1.5723058625395872 
0.60710067134557766 -1.134465687263432 0.047902209147981281 
-0.04626586003678939 0.32982040594191808 -0.21182134160656774 
-0.04626586003678939 0.32982040594191808 -0.21182134160656774 
-0.1125602246414911 -0.0021360428373531862 0.076186142072572932 
-0.26912238970551305 0.29970110680256495 -0.016361510102386897 
0.23069957989791048 -0.0634343482020127 -0.23414381382828198 
0.39779618879006401 -0.23680779941285787 -0.091465105071252689 
-0.0550176186613048 0.39802092541791023 -0.21584285224942867 
-0.14630015256705367 -0.18343922233907642 0.31950605303445506 
0.015464232986525573 -0.18343922233907645 0.061664028578880051 
-0.056699204531219773 -0.18343922233907642 0.31725975294063985 
0.16283349172064912 0.12287478826248831 -0.22248042948017535 
0.22244145505069265 -0.35931408483405203 -0.20504792262576685 
0 0 0 
0 0 0 
0 0 0 
-0.49641556756088584 -0.31188750702987073 0.69342077489702703 
1.0323608206462877e-17 0.3422304389203088 -0.23839703658310432 
0.65456774481491509 -0.044620414045480027 -0.28044037779269709 
0 0 0 
0 -0.22064684841116564 0 
-0.16262691415060113 0.34379748232831614 -0.16622153597627495 
-0.10649487081817087 -0.22064684841116555 0.32985144364908919 
-0.029432741872193767 0.11801647620601999 -0.14410018519272189 
0.11088427114140025 -0.058433157258965945 -0.045004554400851646 
-0.47153873317791473 -0.22064684841116564 0.53603650540822667 
-0.29571726952550126 0.14600116388595119 -0.080620613542634723 
-0.051645219684935732 -0.31844895211212787 0.0054300731247370008 
-0.081974854901842781 -0.45542423981502644 0.46500680165676533 
0.17130823219871066 -0.064494543844017593 -0.1946761001962605 
0.1840042627330184 0.22351108398807876 -0.54164308922489479 
0.17130823219871066 -0.064494543844017593 -0.1946761001962605 
0.23929842996993914 0 -0.42252102030955346 
0.4627302582483121 -0.6489795096980755 -0.10595403986979222 
0.078506270495208613 -0.066130515498810508 -0.022452849386313235 
0.17891685810433597 -0.13730229139663247 -0.20260228527500956 
-0.53114236392105274 -0.071543394199991395 0.67432149021943255 
-0.058041622979801914 -0.12135699861079076 0.10401911633429944 
0.23929842996993914 0 -0.17058481722963328 
0.23929842996993914 0 -0.42252102030955346 
0.23929842996993914 0 -0.42252102030955346 
0 0.52920146899933374 -0.41948860547579259 
-0.72537003049331694 0.16039299035268437 -0.42489662116068 
0.20615874988157493 -0.30959388807658611 0.040099896530835955 
0 0.52920146899933374 -0.41948860547579259 
0 0.52920146899933374 -0.41948860547579259 
-0.60382073483838805 -0.035300642660163001 0.45064576206870438 
0.46384539085946613 0.22739278760230067 -0.48969531934217869 
-0.1060694973642229 -0.032454106129589128 0.35132399892702998 
0 0.52920146899933374 -0.41948860547579259 
0.045840348446752305 0.13735646205252838 -0.010239616707978478 
-0.14918817910169294 0.097735547797013461 -0.052566025523101606 
-0.14918817910169294 0.097735547797013406 -0.052566025523101606 
-0.11733214828164208 0.090774775512473135 -0.079324756643409919 
-0.14918817910169294 0.097735547797013461 -0.052566025523101606 
-0.24175265087758721 0.71909236134732168 -0.26562280571721536 
-0.69276961198341691 0.37275846103860533 0.34581889995591458 
0.036640845671872466 -0.039451590708078188 0.063639675687636274 
0.022812980042295167 0.20283935724856278 -0.2427803703621142 
0.63401296772771287 -0.32722689854845893 -0.045061554809494989 
-0.32984955103383806 -0.40986365423930504 0.10934012622637583 
0.093217809742805108 -0.34134293407766542 0.16039407909346165 
-0.1389769495756234 0.53090856687807808 -0.26727337710383503 
-0.082292446237735073 0.25788255558395839 -0.069459847426381366 
0.61994103787050658 -0.16288264110977829 -0.82014023131539515 
0.59125350031760004 0 -0.60692836307305753 
-0.34630140566398288 0.1317059657849588 0.21485243370853174 
-0.08601332251525684 0.049875552411717768 -0.0084738973811185406 
0.36337340376262856 -0.16973783289391628 -0.10012458101436904 
0.079993114076611693 -0.13323059761287931 0.158588005241591 
0.10360419525192002 -0.1757066623148586 -0.0071785708829422415 
0.21744912267765915 -3.4694469519536142e-18 -0.2950585070813419 
0.46638822125940055 -0.15936257817140717 -0.35098841006111692 
1.1076342615530423 -0.0092783558565990021 -1.1578514139167275 
-0.17583853602660174 -0.14927956092661471 0.27429463739470422 
-0.29158127981323884 -0.43106145232117793 0.5028302630547371 
-0.012405046045119585 0.34309764919400498 -0.23391574202657836 
0.17203571224238223 0.18050528774804417 -0.3130172070682738 
0.19837776422667264 -0.073542048666312004 -0.4023824870738425 
0.17959129720216779 -0.32073677915425763 0.32102781011393222 
0.0081930850236481279 0.0061960580089204936 -0.068832766247614433 
-0.17804044583758571 -0.011514744328820711 0.12268350372257175 
0 -0.064852489519911141 0 
-0.12070164800208108 -0.057217403762723162 0.16169548659152641 
0.093803765827391999 0.49663485798018359 -0.15914221638620407 
-0.22321904956626576 -0.21086594325083602 0.38873817910550296 
0.50360010845854419 -0.23025981641276727 -0.49785637535283289 
0.10838653803455682 -0.040248156372640911 -0.26996785884058144 
-0.50063355850581337 0.074238811540012675 0.25863672200233767 
0.33994695318390644 -0.11687586716704661 -0.20532433915624954 
-0.59981465981019677 0 0.43888655110555058 
-0.59981465981019677 0 0.43888655110555058 
-0.35099087778883231 0.21583459091251786 0.29193862828677958 
0.033133532366613032 -1.189798588033208 0.46295946372380836 
-0.50218695284464587 -0.28262567076207185 0.45836372079813636 
-0.17304489801839151 -0.080856461736961593 0.024570089841988427 
-0.31796042618735276 0 0.24264536939881617 
0.44972198599110808 0.10850308611766642 -0.64572872848279683 
-0.31796042618735276 0 0.24264536939881629 
0.46184256605134105 -0.11395021301047287 -0.43319264539253743 
-0.26615803442866837 0.025188132726901444 0.11128412266305925 
-0.033695793117053389 -0.19171350513069313 0.23826489871649739 
-0.11972073485979313 0.10423874745241291 0.051088544569400485 
0.49041267932868254 -0.11395021301047289 -0.4594766107493069 
0.0063254575075412239 -0.11395021301047287 0 
-0.016339409925802226 0.29871299955664438 -0.067859309118618441 
0.0063254575075412239 -0.11395021301047287 0 
0.0063254575075412239 -0.11395021301047287 0 
0.32184826162838581 0.021631100853206152 -0.49838927478829281 
-0.86485041559578058 0.12264424597846718 0.65970709358145174 
-0.15855758024864353 0.56337935338544709 -0.18814827953744762 
0 -0.060300063164687875 0.082646732422668998 
-0.069846948714857679 -0.10799957840924704 0.060447811972700653 
1.7206013677438126e-18 -0.24072244263635559 0.082646732422668984 
-1.204420957420669e-17 -0.10260363874474032 0.082646732422668998 
0.24517728828236535 -0.1758254823273338 -0.17635893243742715 
-0.36311832398889438 0.1361069506319795 0.36461011404703814 
1.7206013677438126e-18 -0.10260363874474035 0.082646732422668998 
1.7206013677438126e-18 -0.10260363874474035 0.082646732422668998 
-0.62774812024997939 0.48028092690922664 0.037094706396065304 
0 -0.060300063164687875 0.082646732422668998 
0 -0.060300063164687875 0.082646732422668998 
-0.064971061843503569 -0.056019506351047993 0.092270701390320717 
-0.34540857816475223 0.44172240837663207 0.10906423213501423 
-6.8824054709752505e-18 -0.056019506351048014 0.089704506651333796 
0 -0.056019506351048007 0.08970450665133381 
0 -0.056019506351048007 0.08970450665133381 
0.2013769830770657 0.062804958105898548 0.0032329102034052621 
-0.033552247064268514 0.44554548307369812 -0.37006636116189351 
-0.12944699767841678 -0.056019506351048 0.29937651544194377 
0 -0.056019506351048007 0.08970450665133381 
0.17959892393811422 0.1277084530943646 -0.36823257532386228 
0.52241262863088112 -0.66891442530694012 0.12805375160642762 
-0.054275329385309282 0 -0.24290049623189996 
0.30764570707999744 -0.62497070727132054 -0.068859916320078485 
-0.13790836629664996 -0.040852964781411094 0.12419751008249325 
0.61191518198977279 0 -0.68250619491390596 
0 0 0 
0.54941326991082873 -0.65927452601979886 -0.22103365247074411 
0 0 0 
-0.010391675616440752 -0.22741643228165095 0.00099560978063181109 
0 0 0 
-0.94359088486632692 -0.4229354294721645 1.2266302656217176 
0 0 0 
0.13913371160621921 -0.21721290457870862 -0.12782421647770639 
0 0 0 
-0.34739577864257848 -0.21258837675352601 0.50671071640465049 
0 0 -8.5517242284346681e-19 
0.29646123429856341 -0.099004579684707772 -0.019806312108256521 
-0.23060323253739862 0.13528756313075999 -0.14506778252069222 
-0.046901310985412191 0.52239849296497409 -0.47156938436533846 
-0.097220040064821961 0.19350818107065523 -0.10787905197807481 
-0.14608641002584274 0.15424838192499704 -0.041633461133134445 
0.094660313820795677 -0.083068055383069161 -0.44223565979783946 
0.10750535085276491 -0.4998190763281426 0.02810757574793369 
-0.27341176707614945 -0.033419442099115362 0.56891974174143944 
-0.51031554035920523 0.34384943331489382 0.29084584988889656 
0.12501605184731807 -0.33426791825798619 0.093716123780722402 
-0.27341176707614934 0 0.40669649400773378 
-0.11719700831450741 0.050628851750447283 0.16836653768435916 
-0.2645360744480475 -0.4280188499980811 0.41801978266598649 
-0.27341176707614934 0 0.40669649400773378 
-0.75939214827442025 0.47514914214788495 0.47889893854091403 
0 -0.36576019707596602 0.26460880050972169 
-0.19282267399561642 -0.097731199243635908 0.26818807050578447 
0.24560719364079517 0.13626031812005912 -0.18776608859555521 
-0.31546433182926958 -0.36730546248483992 0.30105934832967424 
-0.11290469383839084 -0.22406723188630234 0.20431560154134842 
-0.3845610930545908 0.2857035899710485 0.30281513504834062 
0 0 0 
-0.33761440676816712 -0.23943266436613023 0.15233102102761523 
-0.012973617488492106 -0.44520277594481572 0.16509895331296676 
0 0 0 
-1.3764810941950501e-17 -0.12854495797714291 0.29667181436922735 
-0.17300991889390704 0 0.32444313510239042 
-0.14523056908460499 -0.063642279034129057 0.32444313510239065 
-0.45055303709592542 -0.1064213004632458 0.35583103303596286 
-0.25428791164465286 0.19579509724169561 0.20795795581125737 
-0.17354773677835411 0.066521563997073846 -0.0053701491390282744 
0 0 0 
0 0 0 
0.68946118836466586 -0.14971042462709971 -0.84331774235028301 
0.56676620143596057 -0.17119317360677933 -0.60752873110509287 
-0.083532754282773528 0.089856482205247418 0.01276752865751183 
-0.003044845221903817 0.17339715840502215 0.08005868254991233 
-0.092896367066501853 -0.036083783296164462 0.09728541567700541 
0 0.42205562604547492 -0.39203588313523002 
-0.19700482071026534 0.12278241510714588 -0.021245702097509787 
0.11544500346212795 0.10991132771305705 -0.046935100839716408 
0 0.42205562604547492 -0.39203588313523002 
-0.15097451976070422 0.35186379210192731 -0.21428450970593588 
0.18047113367010195 -0.37008477479810864 0.23370426517561277 
0.37482825566786054 -0.48882343171789167 0.078065158743678281 
0 0 0 
0 0 0 
-0.054179767146598258 -0.10682895038511428 0.049922147745562681 
-0.18757500722799439 0 0 
0.43706143634932715 -0.11863864149372129 -0.16876346332089634 
-0.15103307245337824 0 0.11208205640650684 
0 0 0 
0.067540909152936923 0.29159175185881714 -0.14410431572895313 
0.52789265276478647 -0.69474640081457462 -0.26323637903045199 
0.033249694502242959 -0.20397546657934607 0.027459497576951434 
0.0089437205274139429 0 0 
0.0089437205274139429 0 0 
0.28046561264219938 0.082341480669797545 -0.67220361693439556 
-0.3835891968020152 0.18653813764201824 0.12020716032707164 
0.39041504356080342 -0.23383495648836311 -0.05548498723381317 
-0.47746650986675726 0.63896172397289974 -0.12263644848962363 
0.25180557924072755 -0.1760388452403249 -0.012017790931844642 
0.14293794417639918 0.014164580499304264 -0.21885923957648615 
0.17912283288694691 0.026520126368174798 -0.027473834555358484 
-0.013871585896297462 -0.2589203526928926 -0.026331864997338916 
0 0.014164580499304264 -0.20238511118265146 
-0.33532115670407348 0.12917838369411153 0.12378254344684357 
-0.33935917095672319 0.22663008095261225 -0.10055814237807716 
0.021529826720013679 0.24249117942480827 -0.33173166796288717 
-0.54977119508763161 0.65071148985022065 0.026602083522713451 
-0.19951528557193737 -0.063405718792388654 0.14914165717024502 
0.043975410446235368 0.39214914470183765 -0.45076651982393345 
0.61332195941853651 0.34017492589746395 -0.78179741884162834 
-0.16138272654378127 0.42156277202096576 -0.37937751138907172 
-0.46653312096755151 0.28185495925417942 0 
-0.15763434435686197 -0.2555116125697719 -0.069753988965516669 
-0.10704370298392457 -0.023228070985564109 0.16700410326356405 
0 -0.2769720546217741 0.32749865023573027 
0 -0.2769720546217741 0.32749865023573027 
0 -0.2769720546217741 0.32749865023573027 
-0.077155189921718839 0.31708596710974629 -0.18644138030907079 
0.48287973675683171 -0.036478548237757903 -0.34003964128704073 
-0.47584816522663181 0.77507721585112122 -0.71027664255138656 
0.58970374488743738 -0.23361365790320937 -0.61768671823288113 
0.13075766607052572 -0.056905587047623621 -0.19671744630839444 
-0.17457115507539234 0.29705804759645976 -0.26362596222608836 
0.31227704327572803 0 -0.21616369032515068 
0.041194897919179227 0.13961949973248367 -0.17615806051111749 
0.22225709120013587 0 -0.16989947040080067 
-1.1155823644892398 -0.45375943699644383 1.2772917258504575 
0.94101758087610732 -0.023873054394186015 -1.0850585327689135 
-0.018990868287067988 -0.032308681556646776 -0.34622495112189877 
0.0086970853676521728 0.015061843259626242 0.14740896320924063 
-0.29261394040499616 0.61030112995509478 -0.79034535545305584 
0 0 0 
-0.76861785082217737 0.27805391924470096 0.46316770091254372 
0.39384323346926547 -0.46550919902552013 -0.407269358633365 
-0.19033105922293017 -0.19335717584925968 0.21418070940446354 
0 0 0 
-0.25651158517787009 0 0.46370506125376471 
-0.73874318817401408 0 0.39347585259377216 
0.70436943658297946 -0.14525680624079829 -0.51633695408727331 
-0.13121607144790901 3.4694469519536142e-18 0.15451014026775758 
0.12040744678138079 0 -0.18670704138692373 
-0.016842256240561772 0.16964339694392769 0.079543835904559768 
0.12040744678138079 0 -0.18670704138692373 
0.12040744678138079 0 -0.18670704138692373 
0.12456943441657675 -0.2380990468478619 0.10627907184931196 
-0.092488390139154233 -0.23304083310176366 0.25580254353492476 
-0.16806289639717487 0 0.22751738955446849 
0.058234600369763946 -0.12356318328949904 0.056632462810724885 
-0.3328325857718063 -3.4694469519536142e-18 0.43429052006960822 
0 0 0.19218533313632455 
0.02940358772046953 -0.12699968967250236 0.14065276352941256 
-0.14069948555006836 0.4091976132599292 0.096159244665906987 
0 0 0 
0.79081265222083508 0.052198177373859345 -0.63312103976688727 
0.26314506049886427 -0.19032843890802861 -0.16620936827997049 
0 0 0 
-0.0265199105166899 0.25530734683112349 -0.15906971484907043 
-0.25202092567434592 -0.18542120470096068 0.16488801519259808 
-0.3201899317532354 0.73097106368231846 -0.50302095381852796 
0 0 0 
0 0 0 
-0.3516007726717123 1.1491227956955135 -0.73478311627536119 
0 0 0 
-0.82677979288313463 1.3038052324280756 -1.3474014843886601 
-0.19020794597460181 0.29426547163689104 -0.28368372228091798 
0.15922558132290843 0.21745394510323129 -0.16727611531461326 
-0.01502015630585149 0.067890111249536811 0.14607376518619644 
0.11566637637407209 -0.07034733901875935 -0.033441910316479986 
0.080454549875399378 -0.10171813780664507 0.1239287433348531 
0.17284427650585535 -0.13543693944667262 -0.1141367026618013 
0.39422889420613616 -0.23451752134352638 -0.18747923155587581 
0.11566637637407209 -0.07034733901875935 -0.033441910316479986 
-0.076890130495525538 0.49281370949830167 -0.18254293586500434 
-0.31059530739207925 0.13707257808301329 0.17585144064170979 
0.43029018873234376 0.21389664847583828 -0.23973337065369771 
-0.22751577643862889 -0.017993036934334888 0.18999268964254376 
-0.30543205134234985 -0.073467317836485052 0.51007863307339274 
0 -0.07346731783648508 0.17228512148257882 
-0.5580886037939552 0 0.65587973261832522 
0.54313260723340462 0.026046882662784765 -0.45304364618245985 
-0.84317590966824207 0.38664140403413561 0.20354067315405122 
-0.18446902357371656 -0.0075305616886091444 0.080586208706121071 
0.090038553689714029 -0.33976740742356859 0.47916961179546508 
0.073678949006045602 -0.013220111102262948 -0.068383685345995135 
0.066433719456237272 -0.10868715141535296 0.067618059914490353 
-0.18446902357371656 -0.0075305616886091444 0.080586208706121071 
0 0 0 
-0.32342401775885404 -0.68823846178072889 0.61120405414108192 
0.90368125463671556 -0.097611617122121547 -0.80890858005737276 
0.2560622657318099 0.11512765885175477 -0.23818662952368405 
-0.18448510726975609 0 0.11265273498363737 
-0.18448510726975609 0 0.11265273498363737 
-0.78474599419569879 0 0.67238105601913933 
-0.79171717161469912 0.32257134045215907 0.17732529773136987 
-0.30879304713961664 -0.082877654825496402 0.10597723569508835 
0.08108172652033166 0 -0.10994947791482451 
0 0 0 
0.83866538678013891 -0.11326239189537504 -0.55172134318195587 
0 0 0 
-0.65153096121791398 -0.2074701280224793 0.72742135500564098 
-0.16081632487276934 -0.066130515498810508 0.40002138037651086 
-0.2146389666880516 0.17428112523889805 0.44832203305396617 
0.31977119073324045 0.21461673257179492 -0.53067238562681174 
0.10446300673862804 0.10719857751882433 -0.3199916520179692 
-0.16081632487276934 -0.066130515498810508 0.40002138037651086 
0.1088736474390281 -0.48561142372461591 0.18492348759827393 
-0.099725651915886115 -0.2302609521775266 0.023521383209274774 
-0.17834085841119399 0.12447460359908331 -0.19441492737549387 
-0.073441645381650517 -0.18825451692191378 0.06608743902146437 
0.48221551434996746 -0.01918901749739968 -0.24099042379282776 
-0.37838545179971811 0.40496409887699403 -0.069217351388191295 
0.35049543082633156 0.20698235436494994 -0.3489748368237709 
-0.069400868903986085 0 0 
-0.33794270413579697 0.90608529371913771 -1.0669127189788752 
-0.069400868903986085 0 0 
-0.3676371744703707 0 0.39646781466138503 
-0.3676371744703707 0 0.39646781466138503 
0.27318059191643168 0.061496893717464335 -0.0947689921899251 
0.30425036859269516 -0.069835284032817149 -0.17575232142620265 
0.13996643976173759 -6.9388939039072284e-18 -0.056258528467512031 
-0.48362650077747682 0.085119350957135853 -0.022237067978374644 
0.10925375729064776 -0.0081207237503883034 -0.078380986786533893 
-0.06299872482393043 0 0.094007916590210294 
0.059870324995890886 -0.2495351340218363 0.18747438946683329 
-0.13590805802783959 0 0.022686982068529746 
-0.06299872482393043 0 0.094007916590210294 
-0.60010800889417371 -0.074760286042754795 0.58970117736002337 
0.53490865906108231 -0.055859810872941139 -0.51648676634285007 
-0.27148631994747019 -0.61839172207532833 0.4620943775670141 
-0.29971788080957101 0 0.06124126613263764 
-0.29971788080957101 0 0.06124126613263764 
-0.29971788080957101 0 0.06124126613263764 
-0.29971788080957101 0 0.06124126613263764 
4.1294432825851506e-17 -0.047183683240727317 0.15907274304264726 
0 -0.047183683240727317 0.090246079167203661 
-0.29289513725996807 -0.44114410537687565 0.36900074400807437 
0.3934750868233941 -0.58731468945629939 -0.067654705186771136 
-0.66931779598659502 0.051996687951145523 0.48175678314255266 
6.6780840585556727e-17 -0.13527748820417174 0.1135968345268718 
0.26540668550846713 0 -0.30422303804120893 
0.26540668550846713 0 -0.30422303804120893 
0.26540668550846713 0 -0.30422303804120893 
0.065516585157284923 0.21075545920843747 -0.03975089945202262 
0.26540668550846713 0 -0.30422303804120893 
-0.24575928317976822 0.2444774781985265 0.065091744480199887 
0.26540668550846713 0 -0.30422303804120893 
