solver_type L2R_L2LOSS_SVC_DUAL
nr_class 3
label 1 2 0
nr_feature 22971
bias -1
w
0.039786238050717938 0.31171586298874926 -0.61760177716802656 
0.037156184017246102 -0.024144810205243013 -0.10170300171345702 
0.2443805005293114 -0.015097331104330803 -0.24168465109705128 
0.12320524823782408 -0.06593048271805077 -0.16787350155612119 
-0.02513496425072672 0.079302647853782327 -0.062065923997185954 
1.2232310713813976 -0.20517514934850051 -0.74283395114203876 
-0.090301815763595805 0.12160230771435342 -0.10447469807977112 
-0.021417042585777847 -0.066552285700853073 -0.033368709717040562 
-0.018378928130324705 -0.079437043038406749 0.04900423763918417 
-0.36317205163859939 -0.54332918356080473 0.6306769600927703 
-0.020017427083509991 0.12329689830157037 -0.083747135775269585 
-0.05211788316360684 -0.13310438597423407 0.14413335532259355 
-0.23033754155904101 -0.4786597748092476 0.42330059215793175 
0.96651888516964302 -0.28842573505000085 -0.63787412539350996 
-0.28466690316440307 0.047610833657379073 0.020075860748322408 
-0.027618028551322057 0.092432375396846317 -0.055356893861517868 
-0.085710605042551805 0.036424219998935088 0.030842073109991382 
-0.15203430979589264 0.94975200362106804 -1.1271784867570134 
-0.048547688153807535 -0.23427629667256616 0.083901746664752974 
-0.71285517337614068 0.17084800897484204 0.26888907767923648 
-0.047003219220994312 -0.02771501848385929 0.039518078219141412 
-0.14566992903168113 0.52761934028891 -0.84190760325946212 
-0.27653019911724752 0.2703091091718427 -0.11788284345172811 
-0.096001832021900088 -0.12129260924475307 0.036346773579716503 
0.29720250739351411 0.16669014068742583 -0.4789392941285317 
-0.29776492263735344 -0.47194517861536583 0.33356930289493747 
0.23593381306523811 -0.082068220192057242 -0.18206881962979438 
-0.31305553396141589 0.6141675479839328 -0.31915116966612106 
0.14674342449171265 0.012849272717528712 -0.14839101452016237 
-0.063045020161478837 0.050848551869504953 -0.022653424654378328 
-0.41385271338820029 0.38869655583304152 -0.46222448925183468 
-0.028744985123548363 -0.17636709708049289 0.071136118265361772 
-0.032979647283519549 0.12064810012649635 -0.03340127989080903 
0.06523948415428113 -0.034709103418417417 -0.11603274964224884 
-0.81570940910941447 1.4767775474739657 -0.9733205670395374 
-0.050618394881002018 0.14199536814186905 -0.278381030839706 
-0.18497441259740197 -0.22659825704766282 0.31278016058723118 
0.68004546075811678 0.34210690018479362 -1.3288074878134595 
0.692325712274522 -0.26530309935719493 -0.47293213535928497 
0.023126060041523733 -0.020361248877440914 -0.032638068243130307 
-0.80466369441597052 -0.041414406141375579 0.53970304327598795 
-0.12248288413827374 0.031792083419149242 0.14780479143386099 
-0.61781667192207823 0.18665558316786152 0.43797957029212042 
-0.12941631364253045 -0.085250204147703498 0.18316725093388653 
0.10506126310937526 -0.14042421902233362 0.048527817205692124 
-0.53798632565107052 0.055115932035809612 0.19020552716269723 
0 0.35779930733625531 -0.36084597791103085 
-0.10871331440530126 -0.076299753458015152 0.096794027092635765 
0 0.35779930733625531 -0.35068266530455605 
0.19367713488003058 0.033040149386944107 -0.18976205149930447 
-0.39154207336846508 0.4285591107939265 -0.042695382421826709 
0.15890430399633002 -0.18606627321059671 0.037716671893446255 
0.10328842018294179 -0.26048307449420821 0.00017324018285423508 
-0.30457271808099984 -0.38324726776590445 0.29696083316484939 
-0.3021840853357472 -0.13191222970185021 0.274394634455016 
-0.012867612409460452 0.074880303245700996 -0.039560713449990938 
0.12418274371882369 0.29314341653462422 -0.33160335200846652 
-0.1892191405501969 -0.086841201650392247 0.16361115663493922 
0.20347316631781281 -0.19951826737005351 -0.24440859461288875 
-0.12743427672876959 -0.58516835568400538 0.43919709138468266 
-0.051823938200692234 -0.11405074992116868 0.12230398610705755 
-0.23737357340314677 0.2433797320675494 0.1070711865164687 
-0.14510650226318647 0.22660097740859422 -0.042983004892928431 
0.22926468135735631 -0.18449471007434137 0.0032410140604438621 
-0.13143967766346823 -0.22797107847234982 0.33152045050049195 
-0.026796059814419883 -0.067863673974401684 0.0030168229040073696 
-0.051823938200692234 -0.11405074992116868 0.12230398610705755 
-0.051823938200692234 -0.11405074992116868 0.12230398610705755 
-0.07193571887243895 -0.3016694510770605 -0.071953100763544761 
-0.051823938200692234 -0.11405074992116868 0.12230398610705755 
-0.27711386418465556 0.51384221314531886 -0.26579808584382586 
-0.15529916293143045 0.079336467690259871 0.51517537150491211 
0.075806568932873727 -0.33344908088846581 0.14781495103954476 
0.74562193182890646 0.026982994479920981 -0.97728551137211273 
-0.51696083612244226 0.2360440523526251 0.35675329245164333 
-0.54227940238206651 0.16784957435811684 0.084458353377334983 
-0.33438112531824171 0.023236854768855411 0.20338362760594336 
-0.085154841953673455 -0.034491377108605052 0.039450904409810202 
0.31001642619767683 -0.004917022481333546 -0.16407553085953119 
0.016323332917232786 -0.0043217485576621424 -0.061785456246117219 
-0.97139278466919277 -0.0050985612952541871 0.81106406652196483 
0.32164985287917996 -0.54359417550098132 -0.17606394546039458 
-0.05121781966153828 -0.27122296712364058 0.097929088803335784 
0.19365982242760732 -0.29505839434848935 0.16439945179070758 
0 -0.061936091953788526 0.12866386776422162 
0.56567798940780822 -0.32577754826987032 -0.066453876830881428 
0.035886330497885158 0 -0.030533365389289996 
-0.16554179405279754 -0.38102149715548461 0.027932113476218691 
0.029220307723224058 0.07034808989026331 -0.30274246884670974 
-0.196931111033117 -0.035320742897038578 -0.087644410703183961 
0.045559456349912104 -0.11574963611044423 0.045770047409780697 
-0.047704747697992315 -0.40214794416510402 0.11555279856411727 
1.0601081625277085 -0.85832461548978967 -0.9256917999657519 
0.10217403813741598 -0.076941324642759296 -0.1048140956207507 
0.035416855127187695 -0.066265666598828293 -0.09055089573952585 
0.67095196992021067 -0.38292802057627862 -0.35239149564059702 
-0.23812610896745329 0.30481984312717214 0.16694627605459655 
0.059962467566819222 -0.088113880380931014 0.045574763423454456 
-0.10747432418429283 -0.065962582137396406 0.097563018669953441 
-0.29291197853061657 -0.15627399367138073 0.083663700946339153 
-0.32675493104796938 -0.44200367197106527 0.30304898453528806 
0.023749413898213109 -0.056603480184134539 -0.094673430090309027 
-0.48482952569684301 -0.0094624948733577942 -0.20013153912152845 
-0.06925470983232615 0.17219311595477374 0.20473472462234449 
-0.39564314089062275 0.17319099296690321 0.099851674859656361 
0.03916633732916925 0.070972732512107034 -0.13559956138169385 
0.3124073264514789 0.04029563447545853 -0.41783011000799725 
-0.374985872582559 0.17215822462877772 0.21128671679345676 
-0.44387038027015913 0.095765818783244736 0.34714386650800944 
-0.40791706389116683 0.570251713727839 -0.64091068586679956 
-0.0058488327610496764 0.021797740819562754 -0.029891061495782141 
-0.72257249732776929 0.74332113836710656 -0.30169146988911555 
1.5227469165203888 -0.64725885415045536 -1.3105037471522865 
-0.21263958909341521 0.40769061813737917 -0.04246201606290062 
0.071009893432743512 -0.21670514650425635 0.012269185641324459 
-0.80529780649879434 0.28457869176971162 0.29213161184171771 
0.00036514182274226714 -0.34581594187079373 0.086092621292564134 
0.15114907862649388 -0.85851492024934783 0.48002062130649964 
-0.57766344525452651 -0.71452754919791772 0.70774750696354138 
-0.45525061730683658 0.2498523960760913 0.48949753308749855 
0.12277045384861451 -0.10279702014725925 -0.074668868067571531 
-0.12045446943562964 0.13965906283085394 -0.046872646192209946 
-0.30958093259497405 -0.035133186144670266 0.34234826795657441 
-0.12984635615224657 -0.09224491831688196 0.1014224594278461 
-0.59116457106528597 -0.036417319031699445 0.15673877344817672 
-0.0030507871341509305 -0.038551484127186911 0.07896896893902472 
-0.70015572182726349 0.86808500032731517 -0.18929952862431573 
0.52006763200096662 -0.31500785748256893 -0.41205357367234802 
-0.51271426688432309 0.14900077601090997 -0.070100789660428306 
-0.17507261743128089 0.014687956259720091 -0.14470531895936142 
0 0.14900077601090997 -0.51649196949790777 
0 0.14900077601090997 -0.51649196949790777 
-0.0092113233238957561 -0.30140607009323878 0.019939951634108527 
-0.52296912764504333 -0.018897636673418039 1.0586488604122724 
-0.6796248047091894 -0.50499413709882102 0.9948055061224873 
0.42550512522649858 -0.40868229861054262 -0.46781892684793269 
0.58067192353959018 -0.088988057895791367 -0.72421295154746212 
-0.26937134608924007 0.51839775694385137 -0.66562297950498828 
0.042859454471913694 -0.064991766693732744 -0.011439543786800784 
0.090254193695035956 -0.011180748577729632 -0.11456244976645996 
-0.33587810706240429 0 0.83605373072394173 
-0.15465663681863553 0.18071531813186087 -0.17823947294628234 
-0.023740065482391024 -0.10623056441526013 0.11158541269125305 
-0.006912248223555106 -0.1062305644152601 0.11158541269125313 
0.5805444865572772 0.012525088109154814 -0.36120224151913349 
-0.006912248223555106 -0.1062305644152601 0.11158541269125313 
-0.092610068080613853 -0.44942294606512556 0.28686833643303628 
-0.29840259648404349 -0.087585065073109189 0.16587973417978669 
0.019624839050474165 -0.18436887458712908 0.11158541269125302 
0.22966304285306016 -0.30609293717570391 0.29020772597843775 
-0.33200388200634451 0.79428654142930477 -0.32337703207270968 
0.18954175986441557 -0.1788064536759065 0.03343743855710684 
-0.46934653561942175 -0.34870782612001894 0.31693980925091947 
-0.16370570116725022 -0.49887720806023722 0.56476785848440414 
-0.12780679481533744 0.036555587416771493 0.0076829335017053069 
0 0 0 
0.16913333049744178 0 -0.23684574804704081 
0.16913333049744178 0 -0.23684574804704081 
0.16913333049744178 0 -0.23684574804704081 
0.16913333049744178 0 -0.23684574804704081 
0.4553324499414218 -0.081722433999965302 -0.40380347678666223 
0.1064055584698033 -0.15487693549235557 -0.010519082485314076 
0.0017537393680508283 -0.34397433807559824 0.27908661298778736 
0.29183768253294778 0.16540133132735907 -0.26490706846115009 
-0.11533885097452881 -0.11817795985441894 0.034995897198259671 
-0.59796923032723015 0.44899201774925623 -0.036104406829761876 
0.12794204610359594 -0.36571690161384618 0.10930840020869868 
0.008123288461950956 -0.15304531676138511 0.011174299704351548 
-0.11219807740462788 -0.5757454716758259 0.35901445222486877 
0.11770879566286617 -0.22457656344453564 -0.044288383010581842 
1.4121163270683101 -0.46041966176186899 -1.3573010137732813 
-1.2272114582131091 0.057580889224358431 0.89052766998739752 
0.021969182787856971 0.40076867445124859 -0.32833086818914292 
0 -0.019806687087087493 0 
1.7572272240991689 -0.46713819252898503 -1.6512173002245112 
-0.10122909966107053 -0.12434959333827525 0.10119243418170311 
0.11627289036984513 0.19372896387409697 -0.16119422547799178 
0.18689211652763624 -0.20738124010267409 0.066850995300177504 
-0.14548541135688134 -0.13279825126780775 0.16017817322390474 
0.062816386367054652 -0.044188460030872179 -0.11153932832907171 
-0.13525634881658702 0.11946293618320027 0.05524194849557168 
0.18299179583955821 0.0073153951924409925 -0.4759412260246984 
0 -0.019806687087087493 0 
0 -0.019806687087087493 0 
0 0 0 
0.26652796329213707 -0.13042644467794162 -0.42728815955630439 
-0.47221807155098949 -0.46843457602151634 0.44791128393054069 
0.15739077519977768 -0.26643815562724293 0.13734731279973605 
-0.20307256339573829 -0.16202537613075063 0.28627394978268933 
0.17808274098193594 6.0715321659188248e-18 -0.1573486939614431 
-0.39106361672458673 -0.22913809419735762 0.38085709983224886 
-0.15333332322966842 -0.18457351252192358 0.11246759623831462 
0 0 0 
0 0 0 
0.73612304522582583 0 -0.26857901497777875 
-0.49614747682704946 0.90780272175130161 -0.58896553680774655 
-0.53292862792465734 -0.11653044963873119 0.24070222150883341 
-0.11566776140212644 -0.13893493773247889 0.18637364572657256 
0.086047960674398627 -0.20252582510688383 0.12424387578654651 
-0.34490044256831931 -0.67925797168038826 0.53736929726885596 
0.011000743448458567 -0.21673155472570341 0.065784895362375889 
-0.16825438979726387 0.388517683488808 -0.10112034341295874 
-0.020687159666342832 -0.10184399479621151 0.046654530504866815 
0.36924232315793376 0.017929873026927105 -0.25352100127745897 
1.8797448878783953 -0.72482042457484008 -1.7125455274249755 
0.11316856281658097 -0.26437305101153435 0.058300146362035635 
-0.27617200793442948 -0.17974888443641623 0.39498641745186741 
-0.22752060904810453 -0.044218160572064368 0.16314678630575846 
-0.059408904995690077 0 0.093092173723979446 
-0.059408904995690077 0 0.093092173723979446 
-0.65092857010098548 -0.17451628838333916 0.67955701819279712 
-0.31140234086750418 -0.59182576655016894 0.35439254225181394 
-0.093552415059004343 0.18782596500106116 -0.21600100808647382 
-0.61409247738507577 0.24852406923464854 0.3757233466962937 
0.1419632830633408 -0.26156446819915879 0.12733448738880848 
-0.35767374812389552 0.12369476632825326 0.28626332428649709 
0.24851432531433448 -0.33261035393542893 -0.16246732076180154 
0.050853534575463356 -0.2499400882443282 0.29375549241386884 
0.52531331813790616 -0.10432031795306237 -0.4769324642144282 
0.049716999790003137 0.44505536298489057 -0.20982906997970369 
-0.34155464289857768 0.34780299376897889 0.22296918062338297 
-0.18395514275428049 0.056602802434459101 0.13648811196537922 
0.15108001631152787 -0.041485304411708765 -0.18379279889256722 
0.33979895830940804 -0.2044624177117938 -0.49323152028778028 
0.035954176973374226 -0.69398346492400975 0.12404857692867147 
-0.33499218561517002 0.33612595553350127 -0.25944241136219798 
0 0 0.12566996193044544 
0 0 0.12566996193044544 
-0.26452766197537703 0.045468233079053823 0.17756393176842578 
0 0 0.12566996193044544 
0.085498001732171466 -0.40396656633373901 0.066408845086409582 
0.14142690052262044 -0.27235734959331559 -0.052975512176844097 
0.23670469267816627 -0.080073839393510399 0.011473146420284453 
-0.43237407260556032 0.046630758090255998 0.24699940717926683 
-0.21807084505623364 -0.33795709397195434 0.24586458505153849 
0 0 0.12566996193044544 
-0.050590629422203201 -0.018616750379823337 0.26122371863872118 
0 0 0.12566996193044544 
0 0 0 
-0.14392798968573592 -0.22950182072350864 0.39613526644615937 
1.1490348990733277 -0.66963100366022843 -0.6129145463860225 
0.19130919447771072 0.14032403507574726 -0.25321449776109628 
0.35486451689757809 -0.087495756285462647 -0.50497717703692402 
0 0 0 
-0.26268588130197768 0.62689676773431613 -0.29795323328743939 
-0.26614917943142635 -0.12356456567376353 0.37131459820788015 
-0.039319272979793256 0.41595905177863368 -0.024298266693114395 
-0.21483586729468956 -0.27899219787288632 0.18085152984966868 
0.41384218847783383 -0.27148945303805788 -0.12857828375429217 
0.056017883046177518 -1.1271655479975298 0.28245522042417037 
0 -0.15705808794233569 0 
0 -0.15705808794233569 0 
0 -0.15705808794233569 0 
-0.45218840188741466 -0.005273151911880547 0.2944955856657922 
-0.036684954158079756 -0.49629151487137169 0.21181631743387261 
-0.6750047573487884 0.26488755528082431 0.4368826839671659 
-0.090009514112658534 -0.26578491117565584 0.041630497082946416 
-0.40674364651073031 -0.15705808794233569 0.2723775435704045 
0.63609894764931496 -0.087254279798532022 -0.13193154158727799 
0.16795880965056054 -0.34155253101356547 0.16376126199750704 
-0.25430258916749732 -0.077250627882027911 0.37837522119230071 
-0.53076719848362308 0.14573697822249962 -0.30592758593446145 
-0.51384016564309976 -0.15705808794233569 0.48155228280749246 
1.2733078070147301 -0.49280771760055919 -1.2584371923391484 
-0.58710515066639135 -0.34594837729910649 0.75176318650641305 
-0.28299254049226741 -0.41573364470697621 0.19202619070865562 
1.0565169028719172 -0.50344082340780016 -0.50829514480391869 
0 0 -0.011567415498690106 
0 0 -0.011567415498690106 
0 0 -0.011567415498690106 
0 0 -0.011567415498690106 
0 0 -0.011567415498690106 
0 0 -0.011567415498690106 
0 0 -0.011567415498690106 
0 0 -0.011567415498690106 
0.015119989871122064 -0.27625286043813446 -0.12566379391511939 
-0.39819858817109116 0 0.1742402772361564 
0.47447220270505902 -0.47773813764396611 0.22651353453260845 
0.035484155140038692 -0.08586357708383964 -0.08175345300902527 
0.56186120535163686 -0.088557353050841822 -0.065503298014981656 
-0.39819858817109116 0 0.1742402772361564 
0.03850978296144416 -0.16819346512400857 -0.080860949098730622 
-0.57181243119065006 0 0.21176129626492121 
-0.39819858817109116 0 0.1742402772361564 
-0.39819858817109116 0 0.1742402772361564 
-0.39819858817109116 0 0.1742402772361564 
0.16662859281096215 0.044700311529096662 -0.17291525151360501 
-0.087671267784794712 -0.27540382760227156 0.00096807422947011931 
0.18846715446678403 -0.25137239585331783 -0.30593117238687301 
0.28449017209919297 -0.53125548728174166 0.044979915616655111 
0.23384080357246403 -0.45647912847545824 0.086969097094996589 
0.44971467449714475 -0.00038805865867608952 -0.2054504264960384 
-0.11627104092785399 0.16910314926213155 0.218070094336904 
0.012990569231818806 -0.22999981087447713 0.048907411390075324 
-0.19169213877905647 0.90646030393168564 -0.72125341894414263 
-0.12385646323093998 0.59279336392535797 -0.46165576407076703 
0.428144099727647 -0.18625132346680062 -0.098960723202776768 
0.2654310200565157 -0.31005834320310138 0.27865780924691491 
0.4218009882236623 -0.4838584404791636 -0.11264275014852068 
-0.24630830950187735 -0.013215662972474297 0.15639186767991786 
-0.030625391919214918 -0.44716070367780969 0.26505948253977191 
0.10977278033373977 0.61351928578738724 -0.64717876565000487 
-0.510912667929735 0.029588073662819132 0.57388287486749723 
-0.32646377585338715 0.48073024729254266 -0.26200625579931114 
-0.23969631603379918 0.28636659078658383 0.14601676672429817 
-0.32459362044014389 0.16860161590641759 -0.28665168681757691 
0 0.18919531523961125 -0.66801079654583095 
-0.15507807680111801 -0.067769042024255821 0.19115011424922543 
-0.87674337725985063 0.68352464991657147 -0.19637870589114786 
0.11896857657288248 0.017836712730305505 -0.059022070211910721 
0.14466911095191237 -0.041283422434593778 -0.13312369222788797 
0.15143554219335234 -0.24954620066992203 0.13199822910670556 
0.00059436216808083807 -0.24755153300595534 0.11698241306349698 
0.034408301100157551 0.17018667640834506 -0.41147711137759185 
0.47449642067454445 0.24868147243099065 -0.83224448714067312 
-0.36967129961541345 0.48719779728682899 -0.18351482644908351 
-0.27325867388537195 0.13888740892785084 0.18837320698238755 
-0.15426504806243638 0.010391943121635688 0.14013644937873654 
-0.34332650341297677 0.47966084366849776 -0.086295827542160086 
-0.10761038503107954 0.1627439033626259 0 
-0.10761038503107954 0.1627439033626259 0 
-0.10761038503107954 0.1627439033626259 0 
0.19071857913947662 -0.084873435974432282 -0.098567167271738851 
0.19102084906350489 -0.0059975769503241728 -0.11845829001799851 
0 0.087383710917869728 -0.11471844802416992 
-0.1294765881532132 0.17521742791602027 -0.25662568371175792 
0.18064879296726685 -0.41911933006412955 0.066212575705350551 
-0.070522211393377637 0.12281523515486824 -0.20524645386881044 
-0.19217236706545043 0.18370836815547639 0.097477160018572373 
-0.19560253167061789 -0.12503370446090945 0.28408374405070558 
-0.072164278471921375 0.1765427536661745 -0.054972514646961408 
-0.74258293425297761 0.42480473567362315 0.17174205718317728 
0.071408434721799377 -0.050452126459241985 -0.044816586550279279 
-0.31911496452699079 0.39376743369070377 -0.10772578763163064 
0.069987356610300852 0.098393160592627343 -0.086130823595810618 
0.053931428208789503 -0.36363861692044314 0.074950795335122458 
-0.47087888949785006 0 0.052657078878115139 
-0.28676502579119301 -0.080001218576760222 0.15443862190685317 
-0.12191343080642415 0.16796502823045101 -0.083804400932285944 
-0.051592502744849507 -0.11982857129995644 0.11082311815890614 
-0.47087888949785006 0 0.052657078878115139 
-0.44072149685739093 0.12294549663646157 0.28984328432777889 
0.22440886507665092 -0.091968512845993056 -0.24818130082298878 
0.046518884544694959 -0.17028607893397099 -0.11746701074210671 
0.19232058315862291 -0.19946314166448864 0.096607100153805872 
-0.11506308265101099 -0.034410645328680205 0.096866792083048076 
-0.11506308265101099 -0.034410645328680205 0.096866792083048062 
-0.1577919884114152 -0.036670436094013159 0.27566074557231435 
-0.11506308265101099 -0.034410645328680205 0.096866792083048076 
-0.11506308265101099 -0.034410645328680205 0.096866792083048076 
-0.11506308265101099 -0.034410645328680205 0.096866792083048076 
-0.11506308265101099 -0.034410645328680205 0.096866792083048076 
-0.067450138467666218 -0.3817680639099249 0.17931821701148262 
-0.27235150244509809 0 0.17295253136754521 
0.4114078596472675 -0.23335431674019902 -0.14367581566027229 
-1.0169982101484203 0.13539570170874929 0.45414876716889274 
0.32614247576452238 -0.27138161739705191 -0.083857132445595367 
-0.27235150244509809 0 0.17295253136754521 
0.33998732268660992 -0.45772806513445674 -0.13662637786722912 
0.15903392478056361 -0.0062597338075894692 -0.079280976388494823 
-0.12842951677915904 0.59098389783066763 0.0099519151963310751 
0.20479192233577656 -0.11543210882431372 -0.13457721905570189 
-0.14091979086215425 0.170680615454818 -0.034750516191858073 
-0.066946466405007149 -0.29265528515153971 0.35271753439254144 
-0.085846006909580094 0.39640942970857879 -0.53720093066484553 
0.0174806392122898 -0.050141387337417805 -0.020431713943900778 
-0.31181929967950051 -0.017371747921997256 0.22739023131413405 
0.27260199639819249 -0.15804888476603365 0.030716069772378542 
0.20874422347698174 -0.43323506725115729 -0.015167561758325504 
0.23973446797580875 -0.18008199600829969 0 
0.23973446797580875 -0.18008199600829969 0 
-0.10049466941390715 0.27879814577864759 -0.31546182553530822 
0.49835622670281327 -0.28083729842653515 -0.43840878870699224 
-0.046366029235823433 -0.036060429878684797 0.016311661651451408 
0.23973446797580875 -0.18008199600829969 0 
0.039264631390197959 -0.030229500380672035 0 
-0.042875291362616842 0.35568458048969182 -0.50439710443302743 
0.16206808501159511 -1.0313385170142149 0.95727763607885874 
-0.29730174370424822 0.11973333814548259 0.17213378443926494 
0.13200758982618238 -0.0073110374756399678 0.0038938937531707253 
0.24199001111964757 0.13492933495289006 -0.31766990591102623 
0.47619731068732329 -0.36925777728995213 -0.12215457910433312 
0.039305458180678265 0.019391178974175399 -0.30880869710842168 
-0.14844098363320612 -0.079288117165905295 0.20878336676260828 
0 -0.019845824542443422 0 
-0.10819735841953032 -0.019845824542443428 0.21837597515656204 
0 -0.019845824542443422 0 
0.63343763510528428 0.21429373940511273 -0.6759625695127488 
1.6844003915371413 -0.30338843371047586 -1.5066488548460066 
-0.32982203831150236 -0.1123679295858668 0.23658194311236147 
0.036705546448360056 0.016507854551170674 -0.13086107931287444 
-0.16565972213644942 -0.019845824542443422 0.02105506720582765 
0.21046904124962801 -0.02739026114072704 -0.099276554089170577 
-0.48121445022345943 -0.30144293200829236 0.5904837835656378 
0.36061571148232202 -0.43942563692289127 -0.32636705462201177 
0.47702342801756908 0.17623192503363599 -0.65910509374931736 
0 -0.019845824542443422 0 
0.14637022377871448 -0.43158086088806485 0.077995949071527501 
0.008220392991431907 0.047138433138264726 -0.11510716014834931 
0.36398606565430802 -0.39994472681034365 -0.09688412400905852 
0.28324297830134837 -0.013028858422717346 -0.20662141417973812 
0.19052981395169225 -0.070204213202443147 0.086941539002995435 
-0.2112589344517162 0.1770787598467588 0.029622847812320816 
0.047885386683091273 0.15516097610869678 -0.48387098432709841 
1.5942550215057052 -0.943303125639678 -1.4803355533280005 
-0.25172576508342343 -0.015637116035108617 0.14866876419962144 
0 0 0 
0.049861382027174016 -0.017379076558810252 -0.045686700447247049 
0.49550342503364025 0.06639382473537897 -0.1745000532837358 
1.3474380853638912 -0.48171333145340245 -1.1215273498154457 
0.049861382027174016 -0.017379076558810252 -0.045686700447247049 
0.018870354576469541 -0.017379076558810252 -0.045686700447247049 
-0.04805169927882328 0.38886010025951917 -0.34723958329053128 
-0.011021092985943535 -0.33518702662592659 0.16112422836014775 
-0.19654735315224009 0.051627616172539789 0.039017820281838388 
-0.11887180918813693 -0.52200959783854606 0.16874367656236697 
0.10354528369983944 0.28920054133513706 -0.26825640224310998 
-0.046139413572809825 0.18230283544659009 -0.19677808189212306 
-0.67573075845645281 0 0.43064443430134575 
-0.15674033340380225 -0.038318175231380522 0.11853032611711403 
0.0072226871818866353 -0.22489175172115375 0.13137354948720167 
0.12718243897577389 -0.79978214046803431 0.21387362157682682 
0.19715150078536323 -0.22223393335344147 0.45911888006001816 
0.25900819558783283 -0.22440302043997851 -0.1372270839684219 
0.11154808622340866 0.14985620119947529 -0.2017693140960142 
-0.28338880330157645 6.9388939039072284e-18 0.15607096980157489 
-0.67573075845645281 0 0.43064443430134575 
0.60423518664332543 -0.52113341467328056 -0.39999895938218633 
-0.24847307822728862 -0.21907513360446115 0.29620269523887 
0.12103105803938934 0 -0.45944553107199632 
-0.19135771935278181 -0.011943119566522255 0.12447259710488122 
0.7506327374718712 2.0816681711721685e-17 -0.67218476828712614 
-0.16383255224174562 -0.35524928324620164 0.37342477097437005 
-0.031464811741830828 0 -0.099643556885920595 
-0.031464811741830828 0 -0.099643556885920595 
-0.031464811741830828 0 -0.099643556885920595 
0.11329849776344811 0.21937105360932407 -0.52388368942106711 
-0.031464811741830828 0 -0.099643556885920595 
-0.17317927912626846 0.29205436727585032 -0.18672988058822959 
-0.031464811741830828 0 -0.099643556885920595 
-0.21926810162716776 0.20842679506462783 0.10057264417510692 
-0.44927857303930291 0.43185921617876749 0.15844643132028885 
-0.031464811741830828 0 -0.099643556885920595 
-0.7033588552840071 0.77036725726792898 -0.30673449330729552 
0.23528604073681567 0.037309360196826555 -0.1087117900544788 
-0.0072792082592810703 0.48080067927551395 -0.4410809008719237 
-0.80310967748757944 0.47426499780393855 0.13703699334506378 
-0.15646369504953447 0.068914548098616524 0.11972016606426396 
0.88695842329372843 -0.0042216055962064694 -0.99973222155459929 
-0.11661032680891222 -0.1709568627403347 0.39079643842157757 
0.092198924341320002 -0.17095686274033481 -0.032326317496510479 
0.18354332811715232 -0.41339386024118896 0.23249314750831257 
0.061395648279507643 0.072378594260465612 -0.091383951318345119 
0.16904788625839851 0.63335424615212765 -0.4856771404196174 
-0.23444509256558888 -0.40781650952590243 0.34847374458701813 
-0.061678933275470048 0.041697188020269518 -0.0041774241688606675 
-0.20751925003415908 -0.36071259719709325 0.12748766418017043 
0.32352923779905879 -0.70240736593708308 0.074938700941525771 
0.27615233695410535 -0.39088555730508034 -0.10447712532419973 
0.40464735154179721 0.32997083717413067 -0.93896899084963792 
-0.07674043382219374 0.1971132383623394 -0.054649209255324412 
-0.26415597083360481 0.23020204687943341 0.14186513588321803 
0.07532042519528509 -0.24976886101887119 0.10536578017776345 
-0.048665231589456424 0.087317863079873839 -0.033818526596264761 
-0.89228784311661402 1.5515852094388594 -0.98276891093896857 
-0.14038708479283343 0.17128315934840882 -0.29081103444794348 
-0.28034377619996559 -0.12712038685980789 0.1059140923672429 
-0.39395367713258306 -0.27797852289500241 0.54328959150818656 
0.36587763274887952 -0.23873051026363354 -0.12010633508725221 
0.30501444487938062 -0.27265304906906052 -0.15875117765352889 
-0.34962502086676328 -0.012377621001224149 0.57321368215397395 
-0.17011261260821237 0 0.14217778544755 
-0.17011261260821237 0 0.14217778544755 
-0.17011261260821237 -0.1234812774386622 0.14217778544755003 
-0.14139724802276465 0.27502466737408432 0.023678218518110566 
-0.17011261260821237 0 0.14217778544755 
0.25024559112389333 0.34401140279133913 -0.78314185014693971 
-0.17011261260821237 0 0.14217778544755 
-0.42437741884761471 0.2663208287798291 -0.19204842364211883 
0 0 0.0075231852714390032 
-0.76869416710549421 -0.037442352214225212 0.56323631716957245 
-0.12613059387842759 -0.27288296145551572 0.12543386128054557 
-0.55879129702980812 -0.072846622206797745 0.45732947952653752 
0.066112694528200899 -0.19184036422722769 0.137622138541521 
-0.51270738716229713 0.22003889435691895 0.099780416740604685 
0.221786495596248 0.063970151732510624 -0.13830883317596901 
-0.15119879244704792 -2.7755575615628914e-17 0.044214493337170417 
0.091387796812922875 -0.64327016883564614 0.18197350439075155 
0 0 0.0075231852714390032 
0.24288101138248505 -0.045605503840892785 -0.24500850131805652 
-0.37418829856227176 0.16942225161870403 0 
0.26327091797279312 0.45993260204034209 -0.52985997295479514 
0.47391212799685839 0.089866290603153889 -0.45106275842631061 
-0.19110457238257675 0.13627744185395424 -0.092305306636211309 
0.0082779074954833984 -0.26946922188681743 0.18223235126884699 
-0.37418829856227176 0.16942225161870403 0 
-0.37418829856227176 0.22702088628710015 -0.17874291399935643 
-0.09183721707468176 -0.0015168806067456147 0.087295323346980994 
0.1399855361445641 -0.35163603418645606 -0.13887150335771281 
0.20837860802772815 -0.18049094943871119 -0.29287540160668191 
-0.13337152891544549 0.028257120991991576 0.066352077954066307 
0.096291851065891262 -0.094906483455883942 -0.16996846944621519 
-0.18532091995829397 0 0.086683015101767527 
-0.18532091995829397 0 0.086683015101767527 
-0.18532091995829397 0 0.086683015101767527 
0.42784254851404779 -0.30951871462328057 -0.34821969293470328 
-0.18532091995829397 0 0.086683015101767527 
-0.18532091995829397 0 0.086683015101767527 
-0.2476931549184577 0.16139399305443319 0.21606121147467985 
0.15320552710625715 -0.59802975258330382 0.32560377633595328 
-0.18532091995829397 0 0.086683015101767527 
-0.060554367679111952 -0.38389995283120659 0.35720434277015128 
-0.052480431357486222 -0.34382597250887054 -0.0085501487095566413 
-0.23194615375939229 -0.41068319702518746 0.5067150966402475 
-0.18025865802747734 -0.11391689233412516 0.010434666637885184 
-0.25379770421261549 -0.06895512053483166 0.012484317073459846 
0.15266115270237038 -0.1167391363025614 0 
0.033218611697350853 0.07151211744841432 0.11247219318071175 
-0.061230361400570893 -0.15572424200948554 0.18986909882412045 
0.68596702511859731 -0.086009215692413279 -0.67083691509212562 
0.18838196646688682 0.3383464885740089 -0.52055000051779898 
0.90829686232813944 -0.3526745401257253 -0.51833475812994556 
0.021954339323620276 0.15065605452536673 -0.22729348238081185 
0.31835672448583363 0 0.1275458369549792 
0.29942012719430849 -0.34805957622052397 0.13869951935633254 
-0.053054641299977667 -0.36721781684210042 0.1878375334954123 
0.17947064620397213 -0.46259537931187078 0.10561622379699867 
-0.06319846807270342 -0.20238666120627416 0.22527547828419989 
0.24417121614356607 0 -0.33249202799520278 
0.095021667180706829 0 -0.16660154648613712 
-0.045548514219589456 -0.13104120024391577 -0.095410700179066138 
-0.22116264610216912 -0.49386992944600305 0.34949667977272825 
0.23959751156664555 0.25960082343157476 -0.30996079043506225 
0.24417121614356607 0 -0.33249202799520278 
0.24417121614356607 0 -0.33249202799520278 
0 0 0 
0.20480844466223286 -0.51072313809172309 0.30903811764648464 
-3.4132155448249246e-18 0.37587371515335666 -0.53918713910982929 
0 -6.9388939039072284e-18 0 
0 0 0 
0.20006711547839096 -0.31608816856999461 -0.095492844252468317 
-0.10526465739672593 0.024024888612058804 0.011560497667559008 
0.022299729603171971 -0.26353337938355637 -0.0061447710295687982 
0 0 0 
0.43929629145594978 -0.41235801194281069 -0.3034208983925088 
1.9200050459712357 -0.46703551911493041 -1.397504704690367 
0.041419822320211817 0.022081458418813135 0.15634332545685273 
-0.77695151482437486 0.32304678834193951 0.3686648057122851 
0.042381008887044928 0.13445727546820307 -0.38938136384606098 
-0.26955214033058539 0.32618249679745831 -0.15211148128424948 
-0.26955214033058539 0.32618249679745831 -0.15211148128424948 
-0.16518995134166456 0.16435050263862722 0.021939594895910991 
-0.10000006419364355 0.1507531897710051 0.059772225363298029 
0.27734191993106416 0.31077597050225469 -0.43624399094646299 
-0.44815030987454918 0.19070600475349453 0.23879590339640588 
0.048293777004466555 -0.25157865776018412 0.097806899295503638 
-0.0017422724367543423 0.28462342059101042 -0.010052808204237174 
0.19623990945885714 -0.58868331511075578 0.1516132911380294 
-0.091499708878611891 -0.25208203914381111 0.18208372653754484 
0.018111933861976102 -0.090919462363838327 -0.01976464442371342 
0.077451234437065808 0.28686089293772155 -0.27760439612663529 
-0.061583594968675472 -0.21290393239587135 0.19531630202119099 
-0.39645781821993831 -0.11551047621524398 0.168088476728387 
0.47861108771619099 -0.19001254092444875 -0.64410082504628452 
0.39031768343297552 -0.16814479663896978 -0.24146845123293029 
-0.085412965607839106 0.072788312233053418 0.0048772817131349424 
-0.13275576536499367 -0.27005975149759159 0.22272079325793759 
-0.53753359435008807 0 0.46714703068204222 
-0.043639170577020658 -0.17299926863223386 0.00080988182955191027 
-0.25659502474762597 0.13851297725484524 0.1509160338909187 
-0.087100815391811082 0.35553082117905133 -0.21939088352823047 
-0.51148172242101619 0 0.12576467584441153 
0.30360920561414306 0.11956709011954315 -0.55171192265830205 
-0.33551176530637183 -0.23063518720648071 0.48185289077771115 
-0.33039088854062343 -0.65046147430404533 0.44496746416377803 
-0.074622082654840896 -0.57363701374810872 0.29558178021791609 
1.0836495485015614 -0.90719495573681763 -0.56860447464582553 
-0.3041083818045861 0.38308553318578231 -0.084950543716001914 
-0.055236484819484857 0.14355910690577497 -0.12426495623930574 
0.21636624367932811 -0.062187691142469893 -0.17281683763025987 
-0.056694856011386852 -0.12437538228493976 0.15308015182085888 
-0.56704132084655334 0.46620892732510832 -0.096525159516543182 
0.16606649098931209 -1.7347234759768071e-17 0.10626133717221985 
-0.289057050616782 -0.45192810166328723 0.19727412165504049 
0.17833732552422898 0.29146325883382457 -0.5331594081187172 
0.15347064206999145 0.32318052383278428 -0.097314485350285543 
0.010464931365767231 -0.20429444992015869 0.28161934441949554 
0.23047504504577959 -0.82342892298449288 0.080594542845952077 
0.025013477870179754 -0.3974023932678114 0.063955619679382389 
-0.36919658751896361 0.015911262253885065 0.45766405630767165 
-0.34970444618045776 0.019532635304281169 0.14322811418155137 
-0.028347428005693429 0 0.088908435741096886 
0 0 0 
0 0 0 
0 0 0 
0.32887790829311492 -0.26454010104011688 -0.17469377763038288 
0.011133145810793117 -0.14737836014312439 0.13602532795408043 
0.54519039271248182 0.034027505614628729 -0.74356354099819 
0.31230553214041029 -0.63836945358072472 -0.020756842101624869 
-0.072622263289337075 0.77679941463581847 -0.75492960505634865 
-0.0051538117074005794 -0.02304523414595944 -0.061076226396182286 
1.3459672066135457 -0.99446709309872205 -1.0425465008767321 
0.10472247800293862 -0.31592742975349847 -0.37618064154113939 
0.080636876181338843 0 -0.1166219642317705 
0.080636876181338843 0 -0.1166219642317705 
-0.29891118892890162 -0.30874628532259984 0.31086174592010218 
0.080636876181338843 0.24544263646181466 -0.60836387250898172 
0.41448797692801143 -0.15860269794599155 -0.068965489348528697 
-0.13241989288885445 -0.20060377164222087 0.13152516367373818 
0.62723939565337572 -0.24329018612163947 -0.48842506420489512 
0.080636876181338843 0 -0.1166219642317705 
-0.21903038907299213 -0.045464084558656026 0.25090758207867664 
0.16485507862298865 -0.20739333223590767 0.056750258294335956 
-0.24172049943711213 0.11733315567590021 0.076333560987591198 
0.088495829974325105 -0.059224993499247147 0.064997540535861015 
-0.21903038907299213 -0.045464084558656026 0.25090758207867664 
-0.10022393140914203 -0.14631582814224534 0.13210610980705764 
0.44211923457657376 -0.060910193741696123 -0.38449622842912173 
0.079459272894567945 0.10029345455904033 -0.16632069121977794 
-0.225690490189149 -0.33224628303627118 0.3634547721214027 
-0.13061093962424472 -0.23898948215136562 0.3008273159502276 
-0.75660388441402859 1.7347234759768071e-18 0.47848792040937416 
-0.031860159582825356 -0.035766572496308296 -0.064584171747839175 
-0.1686771616129398 -0.21627199624782967 0.20112136859977289 
-0.3913556829711633 -0.29203271732182989 0.41449939349413933 
0.66123874660295745 -0.16826249421084288 -0.36130521674886684 
-0.18733878874258722 -0.048020732079407748 0.31034591048420945 
-0.40109723824731625 0.25956558242795524 0.1732716454772894 
-0.29645694843844783 0.13881856509613288 0.090188311384368836 
0 0.097806335538851 -0.20260467989186043 
-0.14845340983124161 0.5879515878879874 -0.33143602222039742 
-0.53109507673806822 -0.22211556379163883 0.66256097038873396 
-0.064419420806246852 0.65397617084444182 -0.55623954681149024 
0.19120550260545938 0.15581513633487945 -0.1911143398425427 
0.13542115958461096 -0.0396714286189754 -0.15096835113956047 
0.19240275586707442 0.71673781290908378 -0.72127527108685829 
0 0.097806335538851 -0.20260467989186043 
-0.4944090023944066 -0.070823602174620026 0.22720738857339351 
-0.099875891295834782 0.21214766346669828 -0.28669181769054253 
-0.16635429360992765 0.64282324966329818 -0.78417148442352336 
0.46925325529950856 0.17841594688329887 -0.59211358375801226 
0.52358306108788033 -0.198799471028549 -0.16358154384581436 
0.38271228788851414 -0.93880295495927168 0.24595765599703087 
0.52358306108788033 -0.16607092491484599 -0.16358154384581436 
-0.39221902907892497 0.05685136982862718 0.30771963886079434 
0.052000686660959868 -0.023648601632895144 0.038316317135205717 
0.082366257608196436 0.20627284449968283 -0.12902111962455465 
-0.10369195946616863 -0.038929907840833361 0.090377467505259587 
-0.15733306668943958 -0.12656188289881359 0.0098324553819245774 
0.50658913658358062 -0.60694551153519849 -0.11348888819672859 
0.79593561961116865 -0.17796854541330503 -0.4817806395209 
0.32865358989538929 -0.40904180191706585 0.15450162390893452 
-0.34470067507656194 0.060515523574951879 0.10957045063561309 
0.29933649886223529 -0.92628477543827492 0.35772862976036968 
0.20267398041176291 0.16924480731039851 -0.36617702619007725 
0.30416946219294544 0.14329318704677535 -0.87918835111437355 
-0.07646022984741016 -0.017611365323925161 -0.23064451727912583 
0.27658038038591121 -0.20472135548335627 -0.28550503869182958 
-0.19193407236966736 0 0.82701296864848239 
-0.056144693518443915 -0.33370144429803811 0.35462772036432405 
-0.11781979712877691 0.21189289228021341 -0.18983586649643727 
0.48059918752181036 0 -0.45035076693742748 
-0.28952341796110898 0.48890455327797822 0.148579602183121 
-0.54003547765444826 -0.050738306554799759 0.51658187415730694 
-0.098536237000573651 -0.18247601185678647 0.40827407423466722 
-0.20880073758870193 0.2401671288303068 -0.18270730089541271 
-0.54003547765444826 -0.050738306554799759 0.51658187415730694 
-0.24878239292251791 -0.024820650600279409 0.25407112357461076 
-0.17246666998979865 0.32720755514175509 0.1913860797491522 
-0.54003547765444826 -0.050738306554799759 0.51658187415730694 
0.792414283027564 -0.51607247350194752 -0.43953453089011973 
-0.22919024723046982 0.32207411819819776 0.1543463093461219 
0 0 0 
0.26081082475887957 0.72353065122382865 -0.78662961150995259 
0.045345494940967193 -0.10953228838276137 -0.1285630423821196 
-0.48364434163622855 0.39597842123607541 0.12520272394178594 
0.17863044151783222 0.43912882755803784 -0.45481449239574151 
0.56997747660735643 -0.037110041484079356 -0.39147156167436031 
-0.26073304954321036 -0.12107283499193763 0.079408947536185728 
-0.064466631829193335 -0.0058979567094520268 0.064074183681474203 
-0.19956466544197907 -0.31089091345946596 0.18692991363015296 
-0.30270601719957119 0.17200907313574718 0.030714310524097368 
-0.041180945157600797 0.40367579666657616 -0.046825031534312792 
-0.10810644370367542 -0.17662836394240464 0.13395446428103022 
1.5226618250182846 -0.73790368217151781 -1.2930508854840563 
0.4472792851419819 -0.30657621372091332 -0.43655633000726546 
-0.021854491396491552 -0.12529495632096438 -0.16341451225404122 
0.02618970083529365 -0.21554410401272014 0.15620383220989678 
-0.34016730888222524 -0.15834599486876161 0.35076058637716406 
-0.11936762847221451 -0.23601731004529869 0.13733640574398362 
0.17230003018891069 -0.32333891697036693 0.31754241095665892 
0.0031918512906483482 -0.32583269940883847 0.10314427494988415 
-0.1576123137155874 -0.12605184237079728 0.27204325006640528 
-0.32864662923217819 0.84734702654586513 -0.35934203139579574 
-0.22897178320158335 -0.24606978793565532 0.42923598361531523 
-0.053562597209372322 -0.083101803147994466 0.11266987465976501 
-0.053562597209372322 -0.083101803147994466 0.11266987465976501 
-0.20400402320365571 0.85096770654870735 -0.54555106231806216 
0.34447463906881981 -0.86131471534385773 -0.07134448901014194 
-0.053562597209372322 -0.083101803147994466 0.11266987465976501 
-0.053562597209372322 -0.083101803147994466 0.11266987465976501 
-0.053562597209372322 -0.083101803147994466 0.11266987465976501 
0.076052276654235057 0.06689114940268312 -0.4751217262475505 
0.08221089087775478 0 -0.13877031434401624 
0.31334554920851382 -0.13996376442424191 0.14596303456189294 
0.08221089087775478 3.4694469519536142e-18 -0.13877031434401624 
0.047245029011797605 -0.21658691398541277 0.3109544903016071 
-0.12241152906189692 -0.185227353540591 0.3279707990737431 
-0.11569479837543865 -0.044280531213807844 0.098791835957641294 
0.019951096182710706 -0.0083198534126074034 0.14144801760383191 
0.08221089087775478 0 -0.13877031434401624 
0.08221089087775478 0 -0.13877031434401624 
0 0 0 
-0.98295753083512416 1.1613688508522073 -0.26671461032986227 
-0.38658413721076901 0 0.24636501931663868 
0.34561101797074767 -0.12619766347624897 -0.23791654250628402 
-0.083592204367914494 0.56940110391162735 -0.36711280942099306 
0 0 0 
-0.40053651200521556 0.95844523660815395 -0.4306066433847901 
-0.77887748976180182 0.64147005021093784 0.1739716437025059 
0.26947357960933987 0.047544681480451892 -0.49758139727817352 
0.14375625813086812 -0.34858547942718865 0.21829721559303775 
-0.11386825112034835 0.16913364905772396 -0.189555580935971 
0.070028408443192164 -0.25531284274745369 0.0015962904713520761 
-0.074755963595456942 -0.30592759089410909 0.28960515215539401 
0.37799090746204567 -0.27541904620081026 -0.39900482714751567 
-0.078449034987739405 -0.31151225242134278 0.31480082711237561 
0.085056141627249185 0.16405606558691196 0.023870497710261319 
0.32616048252900431 0.035353232736035231 -0.16627703918346157 
-0.52209803324770532 -0.090725342221368674 0.83041536063422672 
-0.52209803324770532 -0.090725342221368674 0.83041536063422672 
0.61085172549408406 0 -0.93893567847753412 
-0.30694381210878596 -0.33960123572338902 0.20002330575524893 
0.12890743888919518 -0.14211193016123808 -0.099345726994337302 
0.0017605413575109195 -0.10494397648127837 0.1817349290874079 
1.6349776493710533 -0.77667314324080039 -1.1017736010048327 
-0.53036361265625909 0.091394438890992011 0.41893520448979615 
0 0 0 
-0.24940399049262871 0.041848469512683666 0.41875776009875965 
0.17417291639152016 -0.66743214450784982 0.41281788135711905 
0.52676558725415645 -0.59609832121650452 -0.079532336541277032 
-0.044135144818407711 -0.078911401780683885 -0.061241566861040188 
-0.043070459066655006 0 -0.31401370197736928 
-0.06116452242434841 0.26878969410202469 -0.015766077973575224 
-0.59074087861455338 -0.59109886900665942 0.62925259734902561 
0.15732439471504422 -0.35564624221990387 -0.096452211112380948 
1.1276472414304495 -0.41389101884291091 -1.2420287831242705 
0.30637050406889521 -0.22345512652540545 -0.20042897805909268 
0.0022622093996412136 0.18085014852987696 -0.088205023196688243 
-0.63472329711038911 0.097921875354820997 0.50438302843168925 
-0.097396387135399928 -0.17928984975207743 0.16098954362895843 
-0.28989663563161638 0.44833407707228234 -0.20438095977457865 
0.12178501442431627 -0.33189282403111187 0.33370409527610639 
0.16584556744258214 -0.0057515683691792639 -0.097535890144152634 
0 0 0 
0 0 0 
0.3490945297254397 0.07831924100512988 -0.30712959251004962 
0.0067891313230561351 0.10103301914475762 -0.016311495286610252 
-0.39176471910795296 -0.5680303557270262 0.64344926530420421 
-0.26005223264594252 0.46442292798925056 -0.37934737928576084 
-0.10471549959222456 0.024169835581841343 0.064230189046656422 
-0.13141952751908023 0.16073724073153087 -0.18499554634847809 
-0.41813087515022335 0.50592120452749556 -0.0068476497785728788 
-0.25161441824832376 -0.61559937472079052 0.63722282768150473 
0 0 0 
0 0 -0.28727231769201483 
0.27422688113895144 -0.62988039216873237 0.24905812755881848 
0.19171670345206154 0.55040859581710011 -0.35293969220080723 
-0.13242579267036367 -0.24461987132738239 0.23774100535001022 
0.11888355636924633 0.20371875026591718 -0.33992125413694257 
-0.22995257256504326 -0.28162374409348734 0.71106897573159933 
0.41596293653544719 -0.48760153170606146 -0.13263342317336513 
-0.64317503834067613 -0.31730965553096174 0.60938209250551556 
0 0 -0.28727231769201483 
-0.28696140141327908 -0.16615841497966533 0.306697929896243 
0.32753725963638952 0 -0.34210895085557691 
0.38132326909986125 -0.24663701883154784 -0.11983456519827354 
0 -0.038225720478720755 0.19150942549475181 
-0.2755883236509406 -0.060950416986433734 0.25843418999691731 
0.19119394630816555 0.31259105990881297 -0.56184930713627879 
-0.30283755342781143 0.056664479037471321 0.16349273929377053 
0.13392031044369729 -0.038225720478720769 0.0034692715532094881 
-0.61471128292261301 0.25829181907251397 0.15068637828240103 
0.018817086955999714 0.38059422445397006 -0.23298394478705173 
0.011535255330123657 0.077712435186299583 0.15034046534882847 
-0.43474365982679275 -0.16500899573333319 0.38647220727757425 
-0.31397306592816276 -0.13026016137668459 0.10185845174592632 
0.67189884546005696 0.19384785698564813 -1.3010060833334616 
0.044376282063106495 0.27841396743122027 -0.25502385122102306 
-0.064739969793436949 -0.34367929199859859 -0.035911837711873 
0.59904667923000166 0.06884647891690189 -0.4265785221894301 
-0.22576986450809641 -0.17235187746574498 0.13485089005649931 
-0.1213214007194829 -0.12138087775987104 0.34787460639634216 
0.3646568238074761 -0.14812811625396166 0 
0.3646568238074761 -0.14812811625396166 0 
0.16977031367225165 -0.077003938449495546 -0.20221414459958531 
0.053199249851507549 0 -0.023673262602098056 
0.10663013702419931 -0.52907004114558209 0.48852708753442375 
-0.059305511803478608 -0.084831812989909022 0.023560958130409409 
0.1766012943908202 -0.15622377203137766 -0.18488332522011719 
0.068910014154676638 0.25985202190124101 -0.16899114729113957 
-0.33475966798214246 0 0.27287137424522795 
-0.065006335446790894 0.11811302395505505 0.0457343359090778 
-0.33475966798214246 0 0.27287137424522795 
0.02621579682549725 -3.4694469519536142e-18 0.13106515422614615 
0.043425633588819589 -0.54560520282597302 0.21183529918121477 
0.27251005705459164 0 -0.18187468892600922 
0.14396490689366223 -0.13955787099895151 -0.10244564879914266 
0.27251005705459164 0 -0.18187468892600922 
0.31445546175741584 -0.22215486668832721 -0.2835879650333577 
-0.28810806748568546 0.37536342049233556 -0.10786686282400731 
0.40213126052995946 -0.11182578632329038 -0.13064685412184585 
-0.63634540342400137 -0.49077265340959408 0.71071401488128561 
-0.19356647117905582 0.14148685679418482 -0.18597855849973299 
0 -0.19909683293228736 0.30853726253079061 
0 -0.19909683293228736 0.30853726253079061 
0.019060877751301317 -0.19909683293228736 0.24704959372965443 
0 -0.19909683293228736 0.30853726253079061 
-0.099826848991728348 -0.45063537600339487 0.46897783473787935 
0.79874502271159853 0.049453586136544707 -0.84227224008206736 
-0.17225746301681061 -0.24019677707269851 0.11929948206679579 
0.048669457541778108 -0.37925972479865772 0.30613628077104699 
0.0084977010848460866 0.39484963080847002 -0.29369116785673072 
-0.26067366923072594 0.065282355130693401 0.19590519399244774 
-0.14824763002079752 0 0 
0.25881362071366082 -0.56456626494126028 0.058844634582785757 
-0.1520442388292251 0.051741072472193977 -0.017232781360377872 
-0.054749657849506819 -0.85545293499900854 0.89740738320839419 
0.089068593676420699 -0.33147335534681877 0.063697588457061041 
0.39101515287500643 -0.39002689216104053 -0.1197423739304762 
0.1523297157023801 0.1668432348504279 -0.31775315687232802 
-0.21111087586093921 -0.16438499481614605 0.14657023839856431 
-0.40251143887018043 0.16627969942210294 0.21262090643463211 
-0.45173247125311966 0.17125963736807573 0.10063391462599731 
0.045394013038791189 -0.28690942980712508 0.049971778524762096 
0.38387954349840725 -0.32064614573879002 0.020525585005066509 
-0.25591997635353991 0.3290637530774238 0.11425133058773923 
0.25780831210321942 -0.17459975983302489 -0.13030336866978082 
0.52888917511775302 -3.4694469519536142e-17 -0.18543132703382684 
-0.067537910511564589 -3.4694469519536142e-18 0.10200949358529775 
-0.26393005082035997 -0.16431757152331797 0.62744441687086205 
-0.10819555249081539 -0.15674144009198848 0.021212334969647081 
-0.14630143974194518 0.30294024701556371 -0.20808101159436887 
-0.21588511572178551 0.13837181784316846 0.11764729388484224 
-0.067537910511564547 0 0.10200949358529775 
-0.067537910511564547 0 0.10200949358529775 
-0.40438449420043004 0.21848608176507781 0.08720469152159202 
0.2775985521730947 -0.23246823851667167 -0.17348764175000916 
-0.067537910511564547 0 0.10200949358529775 
-0.22340042727414577 0.4397497125402538 0.075689612019932392 
-0.067537910511564547 0 0.10200949358529775 
-0.31272490074460141 -0.32644443816658131 0.22975325384311163 
0.27235774646475619 -0.29161425425709886 -0.3166181264740196 
0.63534431966360394 0 -0.65932394569961394 
0.13251449146035896 -0.61172080431945119 0.29027879307774085 
-0.40463035720939061 0.14574050273987083 0.093395533434314476 
0.3866895842394939 0 -0.59079647782466416 
-0.23447969532174309 -0.049254066242040449 0.35997266310295001 
-0.4395784281506131 -0.448705275523608 0.60997129165187824 
0.11007942288614039 0.15828415174380231 -0.692384840195583 
0.1140523277754948 -0.52205634681196467 0.2045081731574207 
-0.25774205316789173 -0.25119422133110014 0.16479560297657134 
0.49300376331499701 -0.16082721515350612 -0.37956365666571573 
0 0 0 
0.24622921598169828 -0.28068717343375083 0.04227830486783337 
-0.77974653892601031 0.85175117509275722 -0.41405098619182479 
0.27530590045699566 -0.78085241088803459 0.058632226387774038 
0.20406052593164975 0.050951328336300089 -0.27383553465327393 
-0.13105235120422454 -0.20431283972761485 -0.031493590039607992 
0.32066550663954935 -0.25496680480192729 0.30100977538435386 
0.34769915775271704 0.037296631605567121 -0.37462473059726115 
-0.26759525050219068 1.098565715373242 -1.1444952311715886 
0.080470340927000492 -0.76366728443842891 0.62106260644697608 
0.15366876371304825 -0.10964423907930453 -0.1702430149881691 
-0.13676741821912444 1.0697568335493974 -0.55429208532013996 
0 -0.32809293259108613 0.21842033558515345 
-0.34643938712046018 -0.28595235658668994 0.46084163184349375 
0 -0.32809293259108613 0.21842033558515345 
-0.2212708923973136 0.11137981990815353 0.079173821195950136 
0.40232255853156518 0.23839195882195402 -0.43814385418566115 
0.022247780434404913 0.047979034994933709 -0.090701335038732497 
0 -0.32809293259108613 0.21842033558515345 
0 0 0 
-0.031973484846502233 -0.13757646968126064 0.2694649877657061 
-0.54402943703726192 -0.74885696818886993 0.8753403683280061 
0 0 0 
0 0 0 
0 0 0 
-0.18463218090505215 0.33115653272397394 -0.33021878445287089 
0.025910312807234635 -0.61421935421996476 0.4174607295148714 
0.19506158082430983 -0.40688614063313955 0.04650920888241402 
0.18346161292635374 0.051873601344948089 -0.3281202417088423 
-0.059946982931669973 -0.80168706849535132 0.63888521241843088 
0.017624296242720876 -0.38854525943594537 0.35304370986893735 
-0.71321489050737752 -0.014233056536306269 0.54592414068807815 
0.34140558202660198 -0.15975078605536633 -0.5028508177394394 
0.53828985203389512 -0.16367840771726083 -0.60435953834559841 
-0.19351083487348389 0.16853270647776042 -0.090655425124459038 
0.34140558202660187 0 -0.66557863280139795 
0.12112899302843939 0 -0.34405270782549063 
-0.038053092827518793 -0.014876680475808892 -0.30815224089726578 
0 0.21072347384354492 0 
-0.61259268112673693 0.83851127116764534 -0.80116116342790011 
0.35705304899972395 -0.62607894546869525 0.075050264669431863 
-0.77459503929620177 0.68258955920802178 -0.096413317159113096 
-0.53076140150499662 -0.10448997307458044 0.44498674020859225 
-0.11286188440928259 -0.12639546862114764 -0.082551311145862602 
-0.30382828301525644 -0.15272571100255283 0.071526762756296353 
0 -0.29323578786095073 0.14224065318885667 
-0.50677653984264159 0.059938032440835204 0.39346702699892278 
0.15829634892198044 -0.13120573240782329 0.0015262848254333913 
0.14041856626062635 -0.42309495896923327 0.043932933357740775 
-0.4376883221809757 -0.15780089765407185 0.95724017837998598 
0.17790121422369753 -0.16727982020026164 -0.122514669254602 
-0.40361536087342198 -0.27367209229629152 0.48618201923473608 
-0.048319189257575751 -0.064265433699838337 0.25657093333556447 
0.6535775179837664 0.17668622453170746 -0.59554903203939147 
-0.19766680402148035 0.43795176809341646 -0.30245055158359641 
-0.31090066619415835 0.25006958061510043 0.1722320980404605 
0.069829933324595458 -0.064265433699838337 -0.20352483550969908 
-0.25735050135945819 -0.37378522655129798 0.48466910056308865 
0.1628195458581122 -0.21703983530298837 -0.018842742573360192 
-0.21899299403831304 -0.088530806688663699 0.20019499958704084 
-0.048319189257575751 -0.064265433699838337 0.25657093333556447 
-0.048319189257575751 -0.064265433699838337 0.25657093333556447 
-0.048319189257575751 -0.064265433699838337 0.25657093333556447 
-0.28058174665404473 -0.30115874895057881 0.54407790705053072 
0.031181197448024275 -0.10708565745370401 0.48466061636988284 
0.01381747854177562 -0.098928415183965196 0.080041817441770954 
0 0 0 
-0.0095753562053545235 -0.45463352459279183 0.15110688162089855 
-0.15797808245386469 -0.026366860488700974 0.3239565496869829 
-0.05128710398426492 -0.35040500942181363 0.45344891957412703 
-0.46993457412096001 -0.2632083307238996 0.66561518309090051 
0 0 0 
0 -0.00071288475587150731 0 
-0.069170007755473939 -0.10428839758556871 0.13700247164966364 
0 -0.00071288475587150731 0 
0.45831448522048007 -0.00071288475587150731 -0.11971277787350533 
-0.37545070855804974 0.2739092507340844 0.13701492795307607 
0 -0.00071288475587150731 0 
0 -0.00071288475587150731 0 
0.11145635632739838 0.18382782720505708 -0.26793758405442181 
-0.36220949465024743 0.0076587621844552735 0.21212394070458757 
0 -0.00071288475587150731 0 
0.17811159659572609 0.36924486636056397 -0.42077823371088968 
-0.042568095948004057 -0.51584565565653573 0.54068594671271641 
0.069577963584027125 0.29318390995868437 -0.030494955320764024 
0.80628471930060353 0 -1.0407650029795572 
-0.15552764957205209 0 0 
-0.50613639267918564 -0.43278928518661153 0.50372373353681699 
-0.15456809758647899 0.11496155427016858 0.069477382690319722 
0 0.057565616501062365 -0.0039174951946943492 
-0.50770500032064714 0.67414463753568732 -0.56856766564559269 
0 0.057565616501062365 -0.0039174951946943492 
-1.3652862179299698e-17 0.092709878399969012 -0.31100558015857827 
0 0.057565616501062365 -0.0039174951946943492 
0 0.057565616501062365 -0.0039174951946943492 
0 0.057565616501062365 -0.0039174951946943492 
0 0.057565616501062365 -0.0039174951946943492 
-0.18043031512550275 0.026545747914772273 0.26983690656390869 
0 0.057565616501062365 -0.0039174951946943492 
-0.39683291429075962 0.23586915610107922 0.086363676417278615 
0.18795353122211753 0.017932994076538217 -0.33736214654185298 
-0.39513720088691567 -0.21524549188979084 0.36144306442796847 
-0.21072557179197277 -0.044659559963535232 0.027577616400359769 
0.17144895913319774 0 -0.050918230701085955 
0.51386354377116372 0.082764117262215608 -0.62860527118294285 
0.0091761181282754099 -0.31404806377390848 0.21098179219128946 
-0.28017324083345407 0 0.096216618679367885 
-0.28017324083345407 -0.044659559963535204 0.28872214804838409 
-0.27273666797828156 -0.37552595580962805 0.21427694019140711 
0 -0.1957395803814192 0.11300626364733132 
-0.33763094747277961 -0.44510920363392514 0.55062352021468741 
0 0 0 
-0.42227268442558175 -0.34894062216178767 0.42335435287911044 
0.21390490152263963 -0.71176413814734341 0.07111823707660149 
-0.14477211177549137 -0.11204847964201836 -0.049892585693798945 
0.026057853109923999 -0.11230991517053138 0.0033778243506935499 
0 0 0 
-0.0062248882028725352 -0.31057722908617375 0.23290772057508949 
0.37826457320281165 -0.4146914847928328 -0.33583905704201567 
0.008003759865053188 -0.14838624123235089 -0.074418480483292124 
-0.35748646284967023 0 0.17109405667631944 
-0.56735371514475952 -0.20871094619472313 0.75396671062244924 
0.36023086409282457 -0.070025382255750071 -0.3642981474309101 
0.0076836745064938119 -1.0106414512800432 0.75197470609798345 
0.31494122544005376 0 -0.34232109262814447 
0.30554504677074562 -0.23912583276464577 -0.20814665632136009 
-0.1842673886226471 -0.096696684601779104 0.15983511833658504 
-0.036546951778164402 0.043158268125298584 -0.10034987641207674 
0.37398398717512432 0 -0.40874103820095781 
0.52092490187553031 0 -0.5749451552189967 
-0.18692459583981036 0 0.15702063594075316 
-0.052258976981724395 -0.15480358780727044 0.15601028621737431 
0.067513743967216822 -0.18918894363515193 -0.064600357136617534 
0.067552950726697786 -0.0089663302339408456 -0.0065552357860460229 
-0.20572238498495646 -0.050736352780027534 0.11903972363742962 
-0.18692459583981036 0 0.15702063594075316 
-0.0960590493128851 -0.015009709966686345 0.33297635411524701 
-0.031115538573949726 -0.20216224288739729 0.21052636505052161 
-0.77925763726692943 -1.7347234759768071e-18 0.51928548924159756 
0.0098889106773667381 -0.03292065241817433 0.050653397945468075 
-0.63019860229956304 1.0336538458722266 -0.68390821836431936 
0.34916166066124915 0.097454760653838984 -0.41382622126028928 
0.63294964275599619 -0.82513670886991464 -0.56008853404119696 
1.0566031243431178 -0.3182416307188386 -0.96652101923461109 
0.37133926777474591 -0.26391369023719663 -0.19894901927776057 
-0.2568427320335433 -0.13910723022115851 0.062454443743218534 
0.11787529635373463 0 0 
0.11787529635373463 0 0 
0.038610393662561485 0.062830950350585835 0.050351883788709681 
-0.37726790677848843 0.68265109805894153 -0.16824793886201495 
0.066748619886505475 -0.16380631356756828 0.20155305516258182 
-0.07612581187669136 -5.5511151231257827e-17 0.10938275575544641 
0.15248021627578454 0.21942680892721686 -0.059905773336435139 
0.062122590819008734 -0.56632203530634073 0.50727821115384619 
-0.016827817258835955 6.9388939039072284e-18 0 
-0.085966476764628472 0.17134432268833777 0.21311254486198639 
0.089981118702457924 0 -0.32192193485730991 
0.4451216121256803 -0.27803433995122023 -0.20498327183752121 
-0.16145191336745437 -0.49973917093378373 0.5373038551230308 
-0.65935595531417623 -0.12244786876542341 1.2817545587113557 
-0.10105620830599618 0.29687585426347585 -0.54022859701393244 
0.61388577859928728 -0.18660486865219994 -0.3479272753210339 
0 -0.13393385338404801 0.13312226764975649 
-0.077616991215608777 -0.17338032792626176 0.35965938025397626 
0 -0.13393385338404801 0.13312226764975649 
0 -0.13393385338404801 0.13312226764975649 
-0.064441036016344891 0.0013475058652610561 -0.38547003279930003 
0 -0.13393385338404801 0.13312226764975649 
0 -0.13393385338404801 0.13312226764975649 
-0.66991652696871484 -0.0072453429455729672 1.1196327547081215 
-0.66991652696871484 -0.0072453429455729672 1.1196327547081215 
-0.199367409651038 0.076131174248642963 0.12158858742534956 
-0.43806127306548254 0.5704146656331216 -0.00095678517259846843 
-0.20044470484217103 -0.26604103115134453 0.57878823580403038 
-0.092576126038212289 0.10030544819460867 0.091507174631231966 
-0.039084603087258696 0.22514602126233063 -0.072653124173657255 
0.011986527217668429 -0.60808935042335166 0.64761412725640666 
-0.0099722789276009537 -0.045043362077542115 0.087900316050911476 
-0.04743810260014307 -0.2269461785968318 0.12802407158947002 
-0.30798790500311107 0.24650868449559421 -0.078713839895566878 
-0.13743320093029548 0.32823668463218098 -0.031610860243089005 
-0.15534585291442848 -0.12690471355674937 0.048783995410675636 
-0.0099722789276009537 -0.045043362077542115 0.087900316050911476 
0.03106458724317443 0 0 
-0.24078290634346469 -0.32124115212438009 0.097267152830595394 
0.03106458724317443 0 0 
0.041737416773652114 -0.41145764480390651 0.63284345011952936 
-0.36997101529807419 -0.048634082046534133 0.35727692993338012 
0.03106458724317443 0 0 
0.43621057519301182 -0.33318691204541906 -0.36430082601947561 
0.03106458724317443 0 0 
-0.28562635173225737 0 0.15499638763517787 
-0.28562635173225737 0 0.15499638763517787 
-0.28562635173225737 0 0.15499638763517787 
-0.41117418555286583 -0.21627454202094309 0.67446180633621289 
-0.28562635173225737 0 0.15499638763517787 
-0.53363485941282296 0.28329835696651096 0.14445554490418203 
0.50112293905779826 -0.12919216711214854 -0.35431428347733929 
-0.037510830367507686 -0.15428353453609966 -0.030105314012122002 
0.62952892146060579 -1.0044520872501514 -0.11325836712477219 
0.11484387991221189 -0.51137884655609489 0.25553345346287765 
-0.30447503689535382 -0.11473739161141638 0.52235506186221292 
0.83751218275237449 -0.029915604217990072 -0.55500389535050509 
-0.14234832958346924 0 0.29124721178593382 
-0.36275796113454195 -0.086279931177662389 0.13643912593504601 
-0.37822595021953431 0.42861525942356749 -0.07764777033484449 
-0.14234832958346924 0 0.29124721178593382 
-0.059297994617855489 0 0.10938275575544641 
-0.059297994617855489 0 0.10938275575544641 
0.10760649330780439 -0.053864986163721464 -0.15215189244224916 
-0.16176762796935676 -0.52769348860877507 0.40107037282687591 
-0.025177056536115447 0.27875498242186098 -0.14844537000290098 
0.024258149441841882 -0.61660386235970777 0.17781534503500998 
-0.063163663208808868 0.41631149943302959 -0.33830996215971815 
-0.059297994617855489 0 0.10938275575544641 
-0.35616596974619202 0.65246459444571969 -0.28857603428725676 
-0.15496670860537901 -0.16109005045562941 0.74436217611221445 
-0.45414673711608988 0 0.83816781580649102 
-0.19549080972246219 -0.013880994205942174 -0.091384379573117472 
-0.29287487024647735 0.10746950946042455 0.082737397720629949 
0.48841377170511585 -0.3019163050219934 -0.33944089474440076 
0.45205534464278457 0.035389411514787354 -0.62154482070309103 
0.31661021153522695 0 -0.2334424312908043 
0.70806044470004736 0 -0.63513682029295815 
-0.15340716361745027 -0.63602657568779519 0.53041689313610374 
0.6592450628712796 0 -0.48057932749995808 
-0.23029687463617493 -0.095869223098357492 0.046510365245727277 
-0.28280967482614849 0.31651335431228883 -0.44376342958291987 
1.3623970486711692 -0.70967664485409621 -0.58701411269180526 
0.46372801927919433 0 -0.24944226157305066 
0.59771987675861271 -0.11234219943783091 -0.5850849145364424 
0.143837109873869 0 -0.087812294651761144 
0.39264963224490679 -0.22130273324087224 -0.40175884070004808 
0.92558093982616974 -0.64137040156748515 -0.74086849589091464 
0.48949512170646314 -0.52647979690021962 -0.46734034823863552 
-0.31517693065473379 -0.18146655079814272 0.27285529152258259 
0.20814597227537501 0 -0.4679434301950996 
0.22250215521183331 -0.085190938100795477 -0.090889152803444076 
-0.21164914215317895 -0.2087673153811038 0.18682660488455699 
0.55213184708365903 0.0068368812895732052 -0.57667091279410387 
-0.29570448828278678 0.11535275709958483 0.12450269435770706 
0.64305472354544824 -0.13989733231105661 -0.23759878226639516 
-0.17633876195319176 0.068435235283695703 0.15088863601966071 
-0.22622979907397608 -0.46830408284802705 0.46833909893940934 
-0.29618781009385731 -0.037273511939629252 -0.090036639922114331 
-0.063086129719088571 0 0.066586077120371637 
-0.063086129719088571 0 0.066586077120371637 
-0.063086129719088571 0 0.066586077120371637 
0.077382984188019463 -0.17180379799776194 0.037514564612892494 
-0.063086129719088571 0 0.066586077120371637 
-0.063086129719088571 0 0.066586077120371637 
-0.063086129719088571 0 0.066586077120371637 
-0.063086129719088571 0 0.066586077120371637 
-0.35678364875688467 0.023508242685891835 0.27707669159700693 
-0.23848742516142335 1.3708159144683476 -1.4056614306291251 
-0.26599377577463712 0.34586403742801958 -0.50536273183904623 
-0.33574210473083899 -0.21924992086854223 0.68385441997056629 
0.28490998933624662 -0.2788108917977532 0.31625155877022471 
-0.56054528988417684 0.17874108260102745 0.21577835380639337 
-0.5189945870835917 0.17292699142457812 0.40161420099603373 
-0.20609677519473943 -6.9388939039072284e-18 0.22743008551735602 
0.079173268894080148 0.068009614810912625 -0.058488648848077897 
-0.10942742246623265 -0.26658924662951722 0.19912016361805235 
0 -6.9388939039072284e-18 6.8516884847061908e-18 
0 -6.9388939039072284e-18 6.8516884847061908e-18 
0 0 0 
0.66496643328330285 0 -0.61111005453282352 
-0.1631710949783485 0.36029472590582712 -0.1868977793215818 
-0.3040359321497661 -0.79253739524595768 0.63203418945799461 
0.66496643328330285 0 -0.61111005453282352 
0.093188435822968194 -0.44098005738779111 0.15379603194945868 
0.073967957481987548 0.0057186164361603207 -0.53576894974876565 
-0.0036538325337055954 3.4694469519536142e-18 0.063569428200760669 
-0.0036538325337055954 0 0.063569428200760711 
-0.32930781696515432 0.10209856956539841 0.72994040391516868 
-0.29434478673490183 -0.16708854576356316 0.20479338977677555 
0.22620649224907502 -0.014556236688923375 -0.35069658247725671 
-0.0068960597997884659 0 0.19073398975094713 
0.13673910587452687 -0.42330280562997957 0.24997503176907501 
-0.47378682567134861 -0.25104954012663938 0.42884052204283346 
-0.54368002675874638 -0.013167815429584123 0.24393243127199712 
-0.34323121522364142 -0.034713216712624763 0.33116523874139558 
0.14433917023425169 0.11204770002804355 -0.19767392691308999 
-0.13851907325599083 -0.14332296939734171 0.04095023550702865 
0.24149924643475601 0 -0.0044922915753131884 
0.24149924643475601 0 -0.0044922915753131884 
0.1351281335998161 -0.033556831294741817 -0.23544190936670772 
-0.31675527384724306 -0.31182795698690285 0.33264792746323707 
0 0.32870588531576278 -0.57924311725088062 
-0.20219493225157475 -0.075117666413771864 0.32774690895621911 
-0.14651921447724151 -0.22618286534224663 0.14402228613336662 
0 0.32870588531576278 -0.57924311725088062 
0.0011403225473282093 -0.12774119984042301 0.090371571376633014 
0.18588784046915724 0.084466090947772202 -0.29209328159467485 
0.010227351151081622 0.12066953199440862 -0.3130826573885474 
0.27742438330103358 -0.1600110330266091 -0.11690016611418085 
0.27742438330103358 -0.1600110330266091 -0.11690016611418085 
-0.12358848914916337 -0.41380395106524948 0.1669560391649467 
0.27742438330103358 -0.1600110330266091 -0.11690016611418085 
0.32945527129940733 -0.35021961209844266 -0.11690016611418086 
0.27742438330103358 -0.1600110330266091 -0.11690016611418085 
0.27742438330103358 -0.1600110330266091 -0.11690016611418085 
0.27742438330103358 -0.1600110330266091 -0.11690016611418085 
0.022526302147313038 0 -0.053583632461637026 
0.022526302147313038 0 -0.053583632461637026 
0.11348445520774905 3.4694469519536142e-18 -0.11691393202085609 
0.022526302147313038 0 -0.053583632461637026 
-0.39985607907971954 -0.40319866504339608 0.5276632944648213 
0.51994595438751645 -0.10266697772298353 -0.30832742897436033 
-0.13276487978293605 0 0.032637733461648034 
-0.13276487978293605 0 0.032637733461648034 
0.11829517826703094 -0.072835811052965493 -0.074703213765574261 
-0.19390034883476268 0 0.28290663097193558 
0.67553534538590077 -0.41324605202063419 -0.16303460380093859 
-0.54973183106716617 0.18932783002633946 0.68368285991126176 
0.55961377379669142 -0.41324605202063419 0 
0.4551259092292072 -3.4694469519536142e-18 -0.28312234415787629 
-0.38367081365241451 0.36277008162360513 -0.015646261584488484 
-0.53504356790857055 -0.20920571970230253 0.57709291714882049 
-0.19447744130989791 -0.040948977604124553 0.30818463346983166 
0 0 0 
-0.21099622777325225 0.20803912356402296 0.13194218577317743 
-0.68365621736897275 0.25518772532627021 -3.4258442423530954e-18 
0.72229775946652397 -0.15705761420497877 -0.64900442673660352 
0.033577792085777956 0 1.3703376969412382e-17 
0 0 0 
1.644506597025875 -0.53817203684079584 -1.4809189423715394 
-0.12725902891884291 -0.043805238613349451 -0.15039939499681274 
-0.4098847649327827 -0.38971387373096034 0.54396447839456674 
-0.70326697847973296 -0.11407965606566256 0.64960087154825918 
1.1344500702179299 -0.16780259282490392 -1.1255445576426995 
-0.59633203548358737 0.012207349759157608 0.56425329854552986 
-0.066950825476184986 0.61741858621724743 -0.20587986885992771 
-0.31552539050623868 0.028672450360693685 0.15749023730133804 
0 -0.14829560670721398 0 
0.26515682456784712 -0.34470288178239111 -0.04762826456580193 
-0.41654340235081216 0.10558734351107738 -0.0055880981602927137 
0.20915337008079102 -0.17560916018985759 -0.097605498605713381 
0 -0.049653994764852188 0 
0.020566182134653905 -0.69094341706241835 0.17183208409416398 
0.10153687746300226 -0.27788433538060359 -0.18326020924383338 
0.16931770975755323 0 -0.13951773920739047 
0.16931770975755323 0 -0.13951773920739047 
0.16619979211902072 -0.62555279792669871 0.13165687371935758 
0.16931770975755323 0 -0.13951773920739047 
-0.091273883035480508 0 -0.065071389556402209 
0.066231759400884924 0 -0.064140112412150993 
0.16931770975755323 0 -0.13951773920739047 
0.16931770975755323 0 -0.13951773920739047 
0 0 0 
0 0 0 
0 0 0 
-0.44449485405923195 -0.24076374148664781 0.35029479357429472 
-0.1944245870375331 -0.27517622261876373 0.52747171543091598 
-0.40299000508791039 -0.21496440348268298 0.38729413826465453 
-0.59897989574530064 0.083097852538108891 0.43477038288868003 
-0.3109901378865183 0.48057758884569357 -0.02274833679279914 
0 0 0 
-0.64149612688661406 -0.022418905556275109 0.26419369428543482 
0.19651066026526431 -0.1448874876402258 -0.11449995566984568 
-0.11968820999363391 -0.049925970698041597 0.19233689290847461 
-0.52517155264888893 -0.31460783453455932 0.71356136076377075 
0.033577792085777956 0 0 
0.25436839894976826 0.01266358396483816 -0.40732831794753893 
-0.1952158901239309 0.66865816528075361 -0.4044527674565101 
-0.64882346755465958 0.091227671384591452 0.23678191045724437 
0.21102557154162674 0.079400546751225709 -0.31477028661674711 
-0.37795479026763251 -0.25902363249477944 0.49937341608413671 
-0.11956055208612548 -0.56225277871341206 0.40541675824254292 
-0.36175221834328031 -0.089544599680259379 0.65541975009872189 
-0.45724588627169371 0.19441693339064736 0.1852720155820714 
0 0 0 
-0.51766072182252387 -0.1503481555213825 0.43124101936694015 
0 0 0 
-0.16650928973289719 -0.22689125902218574 0.32578498586217414 
0 0 0 
-0.0069937356180843208 -0.23297334751641424 0.42937448297568598 
-0.41126538927640105 -0.1083277997734633 0.4305955257653325 
-0.15926635153067559 0.10710928202254516 0.063729309042047891 
0.026869648240794533 -0.013303101817564184 0.14771162029950172 
-0.97430857202975751 -0.24141461232669637 1.2069205969236787 
-0.01586384766744155 0.1348355436419888 0.074854088559766177 
-0.088519962642092165 -0.39399302375882977 0.1676771243184263 
0.13686052339115828 -0.64733652528121288 0.033719262625772524 
-0.23804410640291496 -0.57018054447604594 0.50014476605601688 
0 0 0.078167898871647115 
-0.24491783523480037 0.39631457879765325 -0.32646010499661871 
0.1430540030878093 0 -0.41266759005957343 
0.063869717086651262 0.23374383766545753 -0.10589054330971433 
0 0 0.078167898871647115 
0.40187723730182551 0 -0.22522887584919829 
0.14825433954322983 -0.074184166177744718 -0.082829423425727744 
0.42052715602259993 -0.41495926449286102 -0.5456742091567599 
0.40187723730182551 0 -0.22522887584919829 
-0.25896792727831364 0.036590712731530563 0.0019826459507128725 
-0.23598684859013638 0.11978162709415462 0.047914723003880229 
0.30080637909216945 -0.30348776202033745 -0.18954171259170291 
-0.049204233466995817 -0.014300652201913667 0 
-0.049204233466995817 -0.014300652201913667 0 
-0.049204233466995817 -0.014300652201913667 0 
-0.049204233466995817 -0.014300652201913667 0 
0 -0.2320377398088963 0.50451549491206826 
-0.57327119059549014 -0.22336404798536166 1.0415319169335524 
-0.14015559495295113 0.34608203358234629 0.10194624782061104 
0.45021362438855844 -0.39583354806703352 -0.44387413397202319 
-0.3253718068830741 -0.028448836281820291 0.47519821062275996 
-0.3253718068830741 -0.028448836281820291 0.47519821062275996 
-0.3253718068830741 -0.028448836281820291 0.47519821062275996 
-0.3253718068830741 -0.028448836281820291 0.47519821062275996 
-0.3253718068830741 -0.028448836281820291 0.47519821062275996 
0.16280230601325291 0.10094069329578634 0.098998643946218712 
0.12984114533174523 -0.20025263427958206 -0.22134540311222059 
0.37483306592855958 -0.24726384668453197 -0.069860673090231307 
-0.16876350724325362 0.016975643916847808 0.13992494674852307 
0.10833697649153969 -0.39441472314600051 0.34259683804637803 
0.47906468423469428 -0.088451685217558876 0 
0.3666821484092247 0.38296237584921761 -0.46783307844570771 
0.47906468423469428 -0.088451685217558876 0 
-0.098710960141547732 0.71091759973953539 -0.56664650417341478 
-0.27561361690740466 -0.028488514274852005 0.43595682952269599 
0.48218909720106762 -1.0287675879372615 0.14932761298596606 
-0.23314689632059199 0.43257950993060929 -0.20756987856829218 
-0.23314689632059199 0.43257950993060929 -0.20756987856829218 
0.079965565160689492 -0.03039081072658404 -0.048714728406533229 
-0.43689008464280332 0.21114737325489855 0.066726378614709411 
0.37573630885664755 -0.20967219078695809 -0.17897371544963708 
0.44744007587608858 -0.2689525383201819 -0.12025526517288151 
-0.098263299767656881 0.27575956437445232 -0.076308857492762366 
-0.18843663829025656 -0.283716403939207 0.50179060125191588 
0.054048761590608563 0.027648640308939126 -0.25640055375585219 
-0.18843663829025659 -0.27679732718496558 0.48720494162488159 
0.1324943209834944 0.25747828165875053 -0.37717473744938373 
-0.071310056160677399 0 0.21133508137215121 
-0.071310056160677399 0 0.21133508137215121 
-0.071310056160677399 0 0.21133508137215121 
-0.33121972848490933 -0.080126356053848394 0.34240387630397595 
6.8264310896498491e-18 0.13549794410124674 -0.2318221846403597 
-0.22538958926603772 0.71846964269560964 -0.24056700588634655 
0 -0.033144809764749976 0 
0 -0.22278888003354805 0 
-0.41540110074726222 0.41708347286423053 0.16174412538288216 
-0.24933009701247816 -0.27209623970565938 0.39553926518992444 
0.33194783639465941 -0.26546951726315793 -0.12772644771592745 
-0.40363359686816797 -0.22278888003354805 0.46017598865350301 
-0.14381366055077791 -0.034581857600923541 -0.10376311713817724 
0.12614880671794765 -0.32170276158508504 0.22966214301062168 
0.11663049151295975 0.17836557519308133 -0.17917680936913224 
0.36834636141324184 0 -0.19918714724155909 
0.28943467037787335 0 -0.46071288534260896 
0.64665262119429645 -0.47020375362493305 -0.53014335103402555 
0.2106644804066857 -0.11674050853297914 -0.19718498130865572 
-0.017363418071908856 -0.116645234719308 -0.015109222039488539 
-0.23184233062713114 -0.13717433738844967 0.54277729928231999 
0.025119792747766181 -0.18510687409180154 0.057658597900203279 
-0.07014676289444631 -0.023120401384800596 0.42747287571758175 
0.28943467037787335 0 -0.46071288534260896 
0.28943467037787335 0 -0.46071288534260896 
0 0.58051627870016154 -0.62091968366987471 
-0.86617701385370094 -0.36130139360175895 -0.04373345056052684 
0.23971324039005146 -0.42889740904884088 0.077091618140517515 
0 0.58051627870016154 -0.62091968366987471 
0 0.58051627870016154 -0.62091968366987471 
-0.80212154485581488 -0.075380527470700703 0.46893354943525678 
0.36545803927324516 0.1353226296364774 -0.33780502414615554 
-0.40417928134887876 -0.014876253226862476 0.49422921353479016 
0 0.58051627870016154 -0.62091968366987471 
-0.18631151712419372 0.1631549944424214 0.13303132620400612 
-0.33190044809401953 0.30217802955045042 -0.029569679896281141 
-0.33190044809401953 0.25986741548249281 0.0021770054525380223 
-0.23074359256624857 -0.0039093248850046308 0.075287669024713663 
-0.33190044809401953 0.30217802955045042 -0.029569679896281141 
-0.62173289045913538 0.51795997866828825 0.25464303647207825 
-0.075477618399449456 0.15054741343813394 -0.020688745092224365 
0.17862442449043017 -0.017838863765336103 -0.32064292488741791 
0.62276311968520315 -0.38632981289915963 -0.36934218739620589 
-0.23741667352655754 0.060290670751812631 0.34528895422697697 
-0.397029201495738 0.47852164784079509 -0.098869056547871884 
0 0.56894117425124546 -0.55612262043148486 
0.64510733639720819 -0.29399989573504215 -0.51157368623198385 
0.41830801487129438 0 -0.54330557885351249 
0.27539888318697558 -0.15101003304371222 -0.26709063551564827 
0.00154300494643575 -0.11407204468379742 0.010125837817390709 
0.014439049764005993 -0.14184967422556824 0.36184237644427247 
-0.11077805778733681 0.36979104980050309 0.004135663010655018 
-0.01094046825374036 -0.15117882021068438 0.035769172678442318 
0.046231600443524194 -0.06118342381770555 0.102597383904126 
0.38243351549181265 -0.48382884026136475 -0.074903903414992409 
1.0078919017044623 0.013518776194692016 -1.041153983480074 
0.030075434349184135 -0.11003585431483554 0.00685745051390839 
-0.29241157773936344 0.59075409414952407 -0.43663577207863458 
0.37326482511834685 -0.073868812637080672 -0.48359837772211411 
0.27960788483958854 -0.33082729397115596 0.13262216787963632 
0.11194716728337716 -0.11585140462313162 0.024187733996484346 
0 -0.12348127743866219 -0.031259027515070398 
-0.33025987724423045 0.37265915180804488 -0.030656314765371638 
0.20339844324446188 0.13038909805248614 -0.23989816919102327 
-0.23854131096601203 -0.20567421779904366 0.23730648065363963 
0.86166595995130146 -0.50959188389095755 -0.83869274108964531 
0.16854896790886062 0.020299561961674248 -0.14013160914139808 
-1.1094255227643617 0 1.1167697848499769 
-0.46612296885494281 0.15032527047170516 0.53142261121839063 
-0.37932174144602582 -0.10967436572831729 0.21020904574956648 
-0.42227389617104533 0.29053202264437916 0.35574516829550051 
-0.56767889441081021 -0.047898427784609954 0.69534513242091489 
0.66263949007744072 0.30097048213462346 -1.0130085883795965 
-0.56767889441081021 0 0.69534513242091467 
0.79778096375573704 -0.20832271323074752 -0.60781483259137459 
-0.05642172104809904 0.0010141758774725729 -0.12218687654411968 
-0.14356858108605661 -0.27820865638437114 0.21231698052806899 
0.85694895279887506 -0.20832271323074752 -0.78356176631749896 
0 -0.20832271323074752 0 
-0.14638488598716548 0.16927979274168733 -0.018809039861013274 
0 -0.20832271323074752 0 
0 -0.20832271323074752 0 
0 0 -0.20302041410140154 
-0.65318872552212326 0.036441191250968286 0.48473185795812346 
-0.087344231332713893 0.80680722545971961 -0.39282382969619506 
0 -0.079889588274099838 0 
-0.079248619088666941 -0.0032333688341722872 -0.24317131640767278 
0 -0.45807905612909672 0.062013066594935953 
-0.61383410351376921 0.29526897766911858 0.38481840558399971 
0.28888539556056952 -0.33005342415640065 -0.272157659354825 
-0.54168410895044883 -0.15815812295607695 0.84854022994841249 
0 -0.20586839546048474 0.062013066594935953 
0 -0.20586839546048474 0.062013066594935953 
-0.62788246450531571 0.48918488712925423 -0.026283517792171932 
0 -0.079889588274099838 0 
0 -0.079889588274099838 0 
-0.2139030621832132 0 0.12337479170070492 
-0.46027826562864882 0.61750080321616041 -0.13931145119185631 
-0.089636996063940336 1.7347234759768071e-17 0.096799982119106107 
1.0868442339317903 -0.68850495092593733 -0.47631668279370432 
-0.44621722251789947 0.11611892237236894 0.030793478981195187 
-0.26514629583130866 -0.20818606781988747 0.30805471664298029 
0.20471916265228501 -0.095585770000297193 -0.057000191201111119 
-0.11127988399581054 0 0.16877202044136344 
-0.19793838485889045 -0.11213941245728597 0.39341524308025061 
0.1420547863945234 -0.19799132069077419 -0.057924709653491425 
0.60695695017397178 -0.99586665621568615 0.20732994290444154 
-0.088443802546245592 0 -0.11789030410939977 
0.039241808953584957 -0.39931320725368535 -0.0032128130563790782 
0.46122893612304594 0 -0.72050181166990845 
0 0 0 
0 0 0 
0.43928787477051245 -0.65082026185302699 -0.082732979614824745 
6.8264310896498491e-18 8.6736173798840355e-19 5.1387663635296427e-18 
-0.82370257948820036 -1.3252645200271032 1.7372330113384535 
-0.41991852661724022 -0.37140235084954465 0.45376977066186991 
0.38283937867057738 -0.24555928520439094 -0.033059231122224586 
-0.38207635113595234 0.8545714406172763 -0.55826510772241889 
-0.026443465059028573 0.28688570488069931 -0.18343784764969723 
0.19345352677587332 0.1160943411799529 -0.33147611319736348 
-0.04564099251663295 0.0079442843132682926 -0.078943185039831457 
-0.4525739500327759 0.43825350530942891 0.14665520892878528 
0.25887269482019665 -0.18215539027907152 0.02845012321146196 
-0.31166584374104084 -0.12846561087641536 0.69694708139977479 
-0.15841927653025781 0.1073873230780749 0.084904941007669502 
-0.34759206863317638 0.016044716941650855 0.26066091136721126 
-0.31166584374104084 -0.12846561087641536 0.69694708139977479 
0.15697681181578141 -0.49733997725465429 0.51837430904987936 
-0.53564126739459994 -0.38530620606169186 0.51502867749081704 
-0.047884997483023453 0.11021064024392228 -0.13968779675397688 
-0.22884257644733458 -0.1644052694810732 0.24191406219876793 
-0.14859147782849189 0.17758068330504689 0.15210880369664023 
-0.02781988352088105 -0.0048700055907965794 0.076162937479503631 
-0.09578803146014378 0.030757574242921432 -0.012596935174684486 
-0.14090486538171471 -0.42814571096557313 0.24141127330000578 
-0.02781988352088105 -0.0048700055907965794 0.076162937479503631 
-0.027819883520881064 0.088607440818508826 -0.028523360203541476 
-0.22391488642652591 -0.060927438258399358 0.27521507026183795 
0.27162714582949549 -0.53640135124197119 0.27521507026183795 
-0.47603508538239375 -0.052189336984546926 0.32655569302842363 
0.048316417006483377 0.04253157090435964 0.032396439164958921 
-0.25826675242016545 0.20085318195496354 0.088364879422352494 
0 0 0 
0 0 0 
0.81838607221783255 -0.59923539415917149 -0.4075831308239305 
0.20007506550704424 -0.052130656774624314 -0.21154943869680204 
-0.031217398712592982 0.22242359993712726 -0.071644873518981605 
-0.00042851716534835171 0 0.13091487705090477 
0.035853698248186926 0.026174640606555361 0.11675849604165858 
0.030069622203338205 0.46805006491747431 -0.68678893582540201 
-0.59397963087179062 0.13387963211227549 0.37096291485643584 
0 0.38229428186832215 -0.43637840012423423 
0.05250187618780601 -0.13588802296289682 -0.002164325917704075 
0.51749065002585648 -0.58699561661220701 -0.12428065158855979 
0 0 0 
0 0 0 
0.29472762528502944 -0.010952952679251858 -0.61302045343268186 
0.58593873814173081 -0.16105780209539533 -0.35584884990174104 
-0.27746230599389921 0 0.2349544850223412 
0 0 0 
0.12556741413567576 0.1119261269348658 -0.19873999037526618 
0.55294862808648748 -0.71490246098193377 -0.21251661465533395 
0.017650557749059274 -0.48157359866836563 0.064359025937890474 
-0.97105351876843959 -0.44719778961903711 1.1993014493948666 
0.76829470643230435 0 -0.10803522255708713 
-0.52679830010903206 0.10162712736549004 0.20035129753233999 
0.74177024098492839 -0.28010989470660352 -0.26800920093966657 
-0.86947862240851859 0.9666095382305544 -0.1371020075547556 
0.32961357063600544 -0.12658189218078703 0.106332252718381 
0.36796204017869666 -0.13559262097372912 -0.17821449559339875 
0.33347393181319762 -0.058378469841221151 -0.044216858378461739 
0.018421877938322333 -0.25373532023330092 0.0083425435881351109 
0.0090037248646757592 0.11405444808731324 -0.015539813003427447 
0 0.22913525402361939 -0.12530415640921272 
-0.72867809898589919 0.91556374774059968 -0.039941852109417995 
-0.21923893553237819 -0.25219884993811487 0.33177841033051647 
0.19543424954887198 0.27549374646403335 -0.41996232827862789 
0.58873876396692548 0.2697699415764736 -0.91163869399801412 
0.061773194851247326 0.3407253373884932 -0.40864604982638214 
-0.33066195082332506 0.22867763736044935 -0.00010069676776415782 
0.048871022745957823 -0.20835829799926706 -0.096583263521219084 
0.048206816197671629 0.049136705216099232 -0.063383609750644887 
-0.027159180780812375 -0.14226787558022105 0.29514939939633272 
-0.027159180780812375 -0.14226787558022105 0.29514939939633272 
-0.027159180780812375 -0.14226787558022105 0.29514939939633272 
0.10316717579153158 0.5328933536616165 -0.43589468983740914 
0.97621515033960782 -0.23825558754940251 -0.92568617248441076 
-0.50637485200490928 1.1089841824530664 -0.55615514685007506 
1.0917898737435676 -0.7234560888670325 -0.8377007532840024 
0.061841187663055498 -0.13331208920440082 0.034304933774997749 
-0.2128723546992293 0.32594441426972814 -0.47461803441207595 
0 0 0 
0.34912684156017282 0 -0.27359151325157477 
0.0054951089203537709 0.04391222163763879 -0.060404206711668511 
-0.057638710931683101 0.076972068579011774 0.10082552264545888 
-0.23595549181914174 1.0114597843652304 -0.92396503254334661 
0 0 0 
-0.99446522226611123 0.11046452088301206 0.52769626870979536 
-0.074303482838102161 -0.24528517962779128 -0.087744087420279282 
0.12890137953091219 -0.15271870945976168 -0.16444164422592497 
0 0 0 
-0.4494258665502272 0 0.39251476937690333 
-0.383648588219347 -3.4694469519536142e-18 0.068442855051886145 
0.68272160229327994 -0.42365739998859997 -0.50967683261216845 
0.10458897536457702 -0.074085059897945671 -0.004796403471491662 
0.089237506879399658 -1.7347234759768071e-18 0.1443045069635786 
0.34242031625433156 0 -0.35319377254374223 
0.34242031625433156 0 -0.35319377254374223 
-0.043422745895876691 -0.15938988967411818 0.096064878761057265 
-0.53504307848079802 0.0015496176595459106 0.15286023033361992 
0.17713338243833948 -0.17566614257593838 0.075199211235481234 
-0.20498789033248241 -0.01548940936432968 0.22897120677927188 
0.5169814879990704 -0.38618741331252388 -0.12689242848477877 
-0.67443658060342315 -0.23867078811291575 1.0345573348255714 
-0.03326125571294606 -0.036349878789795682 0.41189849948683577 
0.061021863849029315 -0.034531277948457409 0.016482930979285972 
-0.20948863477714066 0.28529023168246798 0.12142877918714511 
0.38930089810299512 -0.16503098440342764 0.060920282023674027 
0.70153501420191633 0.074141864227965024 -0.26945857869211587 
0.28478327436501832 -0.30107234330509802 -0.20370192216806149 
-0.024852954236272172 -0.014070299036570401 0.25281220788439379 
-0.23514095208793404 0.1684821013703269 -0.045832741067430176 
0.058973478422465656 -0.30625323267848281 0.12640998616306012 
-0.024852954236272172 -0.014070299036570401 0.25281220788439374 
0 0 0 
-0.2631555442688196 0.013306856052173067 0.1014488161379294 
-0.32559114554517909 1.0025600524633576 -0.67004587756675948 
0 0 0 
-1.0982939954439295 1.6358424331954105 -1.493711916441588 
0.057675234397717275 0.26059082711588066 -0.095822007962521188 
0.17789294521064311 -0.030808428082126055 -0.066677594674076579 
0.41122273600224296 -0.2005989129958432 -0.33219835614549637 
-0.38329505931376046 -0.33319952335318664 0.46839857820615782 
0.53810836288990793 -0.45380632043936381 -0.29042506312744626 
0.14629942781136304 -0.20059891299584315 0 
-0.11945087755792777 0.6857539317808341 -0.4008991526991349 
-0.20763762026816787 0.016251451493412859 0.19395960144798013 
0.45860864147524033 0.48936259174393704 -0.41220187760308707 
-0.21554711503592841 -0.38492144444881715 0.43487390306013252 
-0.40427732938271838 0 0.29409498009286594 
-0.8937660403630332 -0.051065421949652877 1.3522193317841784 
0.41423688074264448 0.097933172511498343 -0.44824624570661764 
-1.059380550569202 0.29894056126314444 0.72334525563436447 
-0.033990131657975008 -0.1114195216205813 0.066766223393400145 
0.25604070781467403 -0.28701824490761396 -0.09107016778731658 
0.095319434836246525 -0.14211401948823765 0.088563599744590452 
-0.033990131657975008 -0.1114195216205813 0.066766223393400145 
0.10966757826300191 0 -0.29049863204589649 
-0.4506579421696516 -0.66863023293190393 0.63098970350646499 
0.11186521698718023 0.025245670670186696 -0.27715469312490176 
-0.47802538265033812 -0.24821492278508867 0.36430728754371294 
0 0 0 
0 0 0 
-0.69999426571946022 -0.16976590275950804 0.76419952828922011 
-0.059303452393676494 0.44270290386291994 -0.30519300886030604 
-0.047414512925726647 -0.015198218456811449 -0.15053769153942992 
0 0 -0.17972821445648163 
0 0 0 
1.2780627379028309 -0.22920330055789068 -0.87384220167673277 
0 -0.18236327664180124 0 
-0.078751000493031062 -0.11674050853297914 0.26355753852040692 
-0.44148986490696129 0.15207735065164948 0.33880997188683726 
-0.078751000493031062 -0.11674050853297914 0.26355753852040692 
0.20122641037965433 -0.51569388683546236 0.13289945854093513 
-0.12328911241928625 0.31590150301962222 -0.032031390907060898 
-0.37205362207984466 0.054824577942864522 6.8516884847061908e-18 
0.22090284141344205 0.12285205608685033 -0.11901011997633257 
-0.53104119205060607 -0.028649911554958281 0.67464104150536552 
-0.120092219564725 0.19329601624002291 0 
0.16279405326781912 1.0540351873892539 -1.4513892563057511 
-0.120092219564725 0.19329601624002291 0 
-0.42169228269904607 -0.27666777178530017 0.61182885796967579 
-0.42169228269904607 -0.27666777178530017 0.61182885796967579 
0.49884662777426886 -0.086628663722103816 -0.17008772111641401 
0.24884188020322623 -0.12461423047476759 -0.12645795339189334 
-0.024969137694153945 -0.0079193786890479727 0.03379957003745411 
-0.26178513358669681 0 0.36097359940734286 
-0.55449683625755375 0.085475265812058054 0.10743424495100713 
-0.26178513358669681 0 0.36097359940734286 
0.40135343912454963 -0.2010113868450481 -0.3865468570523608 
0.12516807269651101 -0.56446558333315378 0.26796913356762658 
-0.28064795952095867 0 0.12135494281265696 
-0.28064795952095867 0 0.12135494281265696 
-0.28064795952095867 0 0.12135494281265696 
-0.28064795952095867 0 0.12135494281265696 
-0.10781010115213142 -0.54168148956619755 0.66871635841662125 
-0.38167527580275329 -0.62437791006993015 0.46687561093614571 
-0.27989266423729059 -0.18662657128162752 0.23371710883071417 
-0.024188017682787555 -0.26954959398802497 0.31752652791799435 
0.2474350660956989 -0.025937775879895788 -0.1279339583758522 
0.2474350660956989 -0.025937775879895788 -0.1279339583758522 
-0.27772368294481103 0.18471723431861672 0.03648612488727724 
0.2474350660956989 -0.025937775879895788 -0.1279339583758522 
-0.30156611736290817 0.33312010010552001 -0.068267031479464627 
0.2474350660956989 -0.025937775879895788 -0.1279339583758522 
0.2474350660956989 -0.025937775879895788 -0.1279339583758522 
-0.31311721945995041 0.18631517371269504 -0.027227673793883984 
-0.31311721945995036 0.18631517371269504 -0.027227673793883984 
-0.31311721945995036 0.18631517371269504 -0.027227673793883984 
-0.31311721945995036 0.18631517371269504 -0.027227673793883984 
-0.035775742289159432 -0.0066368916897151025 0.077293863812870428 
-0.035775742289159432 -0.0066368916897151025 0.077293863812870428 
-0.035775742289159432 -0.0066368916897151025 0.077293863812870428 
0.27875971937506283 -0.09775993734724038 -0.19140928485550932 
-0.035775742289159432 -0.0066368916897150939 0.077293863812870414 
-0.035775742289159432 -0.0066368916897151025 0.077293863812870428 
-0.035775742289159432 -0.0066368916897151025 0.077293863812870428 
-0.035775742289159432 -0.0066368916897151025 0.077293863812870428 
-0.035775742289159425 -0.13315935612721186 0.1467143226061543 
-0.035775742289159432 -0.0066368916897151025 0.077293863812870428 
-0.085116031174275103 -0.012805296630854411 0.059434105751981915 
-1.7066077724124623e-18 3.4694469519536142e-18 0 
-0.86302301741037257 0.15494411555787524 0.0086794470470897469 
0.90300382053252659 -0.24866190319416026 -0.81536734630415031 
0 0 0 
0.25623827268556992 -0.13785775432686989 -0.05410308023210323 
0.20468226723417676 -0.0010626021267054044 -0.22772517363741784 
0 0 0 
0 -0.10722811190386537 0.23028045572081957 
0.040172700167144609 0.037833169006964998 0.14745545545585956 
0.57524095117123475 -0.13812680327930615 -0.25291063779055684 
-0.31111386865903995 -0.28723303309519405 0.49666299699016087 
0 -0.10722811190386537 0.23028045572081957 
0.042021309687867471 -0.2132148298987501 -0.08848807189357169 
0.046959615271130177 -0.37278917182896631 0.48263947300697352 
-0.13736321659937378 -0.34205265114526645 0.39771248151196198 
0 0 0 
0 0 0 
0.35219653617661772 -0.24122290824358913 -0.0042036977841856255 
0 0 0 
-0.24578734600180624 -0.20569691352130173 0.10624413670402449 
-0.062185842066950714 0.017827444006047147 0.060712749875820399 
-0.66744999968970575 0.55863557949977038 -0.090927060636272761 
-0.23790771776953776 -0.037809771326965468 0.26564051934602001 
-0.23790771776953776 -0.037809771326965468 0.26564051934602001 
-0.23790771776953776 -0.037809771326965468 0.26564051934602001 
-0.033512620502794022 -0.025971205097878459 0.13835779341395665 
-0.032194567297832079 -0.26559966590582867 0.17586038741349563 
-0.36619730461045352 0.50763525919270247 -0.037217284038709629 
-0.38358004148451658 0.33405519578674858 0.45673516912756756 
0 0 0 
0 0 0 
-0.2348360544004047 0.011170350424029635 -0.02217600856082411 
-0.12375708263462756 0.018319117636510236 0.14500797077889496 
-0.090112393181992101 0 0.12327543332542647 
-0.0038578139824794301 -0.4484628613062287 0.12620275428873884 
-0.064846701662878189 -0.22640113352884669 0.12327543332542647 
-0.090112393181992101 0 0.12327543332542647 
0.73084357526076016 -0.18042645580338823 -0.75833231144004964 
-0.27309347349707219 0 0.16042059793045879 
-0.27309347349707219 0 0.16042059793045879 
-0.27309347349707219 0 0.16042059793045879 
0.085748692342258834 0.38275655040450657 -0.30831972554842968 
-0.015448396937390462 -0.083946871001932474 0.036127317069533781 
-0.27309347349707219 0 0.16042059793045879 
-0.27309347349707219 0 0.16042059793045879 
-0.27309347349707219 0 0.16042059793045879 
-0.18088375319623612 0.26462660815267647 0.040977594588809577 
-0.28195456552712467 0.029052167727006209 -0.0032687208273216571 
-0.18088375319623612 0 0.069349204391362343 
-0.18088375319623612 0 0.069349204391362343 
-0.18088375319623612 0 0.069349204391362343 
0.25019540768425191 0.14213267650337913 -0.22943323976379904 
0 -0.23178053564111517 0.041797940102041777 
-0.40066473986772627 0.76205650576841177 -0.44016298519253549 
-0.46439328437019528 0.092808676531838732 0.25332612707703123 
0 -0.23178053564111517 0.041797940102041777 
0 -0.23178053564111517 0.041797940102041777 
-0.39201081576461716 -0.55588014356604076 0.71424498913365098 
-0.0096094567423224402 0.78163478273747478 -1.0097370792864822 
-0.35922337228336038 0.32519791684548899 0 
0.020220645933519067 0.30012128449741193 -0.24855982504318413 
0.41030490702055383 0.066306400355191836 -0.44354907584745146 
-0.35922337228336038 0.32519791684548899 0 
-0.35922337228336038 0.32519791684548899 0 
-0.35922337228336038 0.32519791684548899 0 
-0.014680323266406685 0.14220390220628773 0.25798797919109606 
-0.086072784751176162 0.41118368164731356 -0.231012332364573 
-0.13480253128834613 0.44253601503293438 -0.27411438869944665 
0.10897176721473525 0.13767231979359087 -0.22109670752411184 
-0.085288145899318615 0.022467444902654003 0.12338593405324035 
-0.17519551899132693 0.015252161050042689 0.25750634991775229 
0.093523667594757887 0.37545529273119482 -0.38015554953080932 
-0.13480253128834613 0.55581039684154987 -0.30321375262136374 
-0.13480253128834613 0.55581039684154987 -0.30321375262136374 
-0.2688620825078708 0 0.26357496105334344 
-0.33148047526979524 -0.33256133210898386 0.41779197125589351 
0.075200745924053167 -0.36216146611470396 0.055535337772720697 
0.054052994064463643 0 -0.032290286338366732 
0.054052994064463643 0 -0.032290286338366732 
-0.17674557221769496 0.75650841955302828 -0.22009879805553839 
0.24095701894019658 0.22369632786352944 -0.3930257301980658 
0.52176453493194053 0.18185844012285329 -0.49295053373145953 
0.18468351798801996 -0.020984521025826795 -0.25397607835255481 
0 0 0 
-0.029143569345854124 0.26598776464590029 0.15740635672901576 
-0.058482959173601468 -0.12743133542616583 0.30189881680667002 
-0.058482959173601468 -0.12743133542616583 0.30189881680667002 
-0.66626739127531709 -0.3751883935280228 0.72647505006314328 
0.24776924988247723 -0.24348433082808918 0.069667878990265858 
0.51971188056458062 -0.31854524105088616 -0.057744796479065552 
0.25368536613113385 -0.37171734952647301 0.16249578692580172 
0.19546713692036133 -0.35465691338098843 0.36185964982425101 
0.510015956735826 -0.075613035527682254 -0.057744796479065538 
0 0 0 
0 0 0 
0.14587133977288538 -0.6229756326080389 0.52889421152620508 
-0.084086604799823245 -0.35131675589950739 0.55784781852282084 
-0.25986047080978403 0.35158448637777595 -0.22240996129379983 
-0.20769163088837198 0.62218844638975257 -0.22150038350001017 
-0.20769163088837195 0.61587198694417777 -0.062668179842708435 
-0.64344461808246833 0.47382650446584684 0.060929857287542959 
-0.20769163088837198 0.37789170937704419 -0.2215003835000102 
0.13903039694475863 -0.10759975664596017 -0.12512027676559848 
0.050383437196696211 -0.30673035634802442 0.27415673073991481 
-0.067620142119854676 0.2082476235241702 -0.16626540834379833 
-0.067620142119854676 0.2082476235241702 -0.16626540834379833 
-0.067620142119854676 0.2082476235241702 -0.16626540834379833 
-0.067620142119854676 0.2082476235241702 -0.16626540834379833 
0.28544385542797296 0.50962734517623276 -0.57993123565910898 
0.70504842754282149 -0.47205431132327702 -0.3974999952683686 
0 0 0 
0.31591002822142455 -0.93569220450637203 0.084566546158698505 
0.43697257742761375 -0.44088328132266896 -0.17101103772252502 
-0.55062630218881559 -0.75309810558071832 1.639222952290498 
-0.063937988143964064 0 0 
0 0 0.22179009875350947 
-0.77091559385313013 -0.091448033315827973 0.43061516044665815 
-0.44284797587798064 -0.0077620724701097134 0.40966414965166303 
0.19849104793343894 -0.017364317663804169 0.16883701902959783 
0.013939379648839546 0.5123704414003043 -0.42014418849482316 
-0.064530890564499413 0 0.072917620587492626 
-0.064530890564499413 0 0.072917620587492626 
-0.064530890564499413 0 0.072917620587492626 
-0.09577263795652137 -3.6429192995512949e-17 0.16574911434138262 
0.54193502338694266 -0.018359241858173586 -0.51831080048401046 
-0.1075377109255732 -0.43966713589552975 0.053323053517197037 
-0.94714302870514633 -0.050348948554149751 1.013871316075017 
0.19757790131916142 -1.3877787807814457e-17 -0.0084508148792144053 
0.19757790131916142 -0.38498354386133293 0.15758955112668291 
0.38508973530983914 -0.46378446662059669 -0.24955692216082612 
0.072260350882505209 0.14648736816811597 -0.16810934114500678 
0.19757790131916123 0.023858031627276715 0.035717570545520008 
1.5090614303256178 -0.14131554141471847 -1.6237327481768846 
-0.077702356727526456 -0.16119411216343438 0.22419244782040329 
-0.077702356727526456 -0.16119411216343438 0.22419244782040329 
0.21009089174855083 0.19327324174016255 -0.40763435716057272 
0.24779351129071556 -0.16119411216343441 -0.18717984350472427 
-0.053796776796464198 0.13201287872806172 -0.010487226753502367 
-0.10139622760910498 0.26477842790427225 -0.27155469554877326 
0 0.13483554364198883 -0.24848918299473644 
0.13385555917284048 0.12825865335757938 -0.29669109157902374 
0 0.13483554364198883 -0.24848918299473644 
