solver_type L2R_L2LOSS_SVC_DUAL
nr_class 3
label 1 2 0
nr_feature 25210
bias -1
w
0.39515135187414419 0.21284923092021371 -0.5256059675242607 
0.036360868103038381 -0.056964028234464593 -0.068271860045454907 
0.2334124698213931 0.016456322294214953 -0.24774581304274998 
0.1599128932085945 -0.17326391181882297 -0.10377859665136568 
-0.011029969025905103 0.034079877021041746 -0.11082595517531782 
0.95982315510409422 -0.39127764011517324 -0.55156729016624417 
-0.10248220662197582 0.078387239771324044 -0.058367046137675203 
-0.017348461925335536 -0.055684141397318976 -0.052364035349251568 
-0.0092480917742386072 -0.080519010832171944 0.037305243240622496 
-0.22189296634268463 -0.44453549239708695 0.4785488663933346 
-0.033624288553460176 0.11088551366720756 -0.040695126601106059 
-0.051587118024118417 -0.097432526808095651 0.11394564048944113 
-0.48432351775983895 -0.10442578545215901 0.25077038722876804 
0.028970610353931201 -0.00097783565643141663 -0.051220674121183432 
0.94640454870579149 -0.41593332871266031 -0.5819577261051827 
-0.23804571231850477 0.005543616090750666 0.11760271472057818 
0.0036792242970398194 0.11197190642172929 -0.13041078408822815 
-0.0075990213903464878 -0.0011285771581977626 0.0060025908370788224 
-0.26171580039599973 0.9593064107481647 -1.0941214739443204 
-0.0075579895411806283 -0.097333262221905553 0.040841564698184389 
-0.58017600547496495 0.175518081190954 0.2181076099129601 
-0.035580108928252037 -0.010503466025291756 0.012955549494292682 
-0.12351295861146735 0.46524547448346687 -0.86987142283755736 
-0.48438343406962808 0.28206938603151671 0.073837628143485934 
-0.08657789836934203 -0.12913231681566611 0.070048448047136808 
0.30453346428637568 0.21562309639203259 -0.51020856860262709 
-0.36248453840116546 -0.46515131278327021 0.40502080530220025 
0.24024460471465214 -0.067896489116818365 -0.21410839840992438 
-0.38496454972433125 0.67518861598297364 -0.28200439422127455 
0.11244300551684476 0.040630734132944817 -0.16071820547665239 
-0.023753020246860258 0.033967775767706064 -0.057657353025263564 
-0.37166330286389593 0.4302612982355265 -0.51974541746247938 
-0.071396872274884712 -0.53175566176816613 0.22778971450788679 
-0.012476801911044125 0.11049055126899397 -0.064212921329137765 
0.081379320329841368 -0.039788030418441783 -0.13375050164520783 
-0.89025864158232249 1.4577747121692615 -0.47345873379332604 
-0.18064852489587768 -0.16321225892919297 0.037702155827896412 
-0.10069025410735583 0.12828299882451227 0.15308838564885568 
0.55835116970319443 0.404566751389769 -1.311938432394183 
0.91315889654454263 -0.52982065147573343 -0.47577119191826717 
0.0073832462787984891 -0.025817355237222363 -0.022645761125776983 
-0.73526581379339662 -0.10820762039539063 0.5703708122817317 
-0.056282921195684767 -0.12010413599363558 0.18753581535012803 
-0.35619221876049856 0.17430970285548905 0.35335447575564566 
-0.10694640867532471 -0.28857534868719037 0.25352069270882255 
-0.3586175854392043 0.39229232926339802 0.045582200039739437 
-0.4399617895746249 0.12044224972467929 0.32637098766069544 
-0.056282921195684753 0.35456201821605093 -0.25567863614944619 
-0.139597097569884 -0.059776366340044886 0.11044374199812218 
-0.056282921195684767 0.35456201821605093 -0.25567863614944619 
0.58921776899089684 -0.15631274751241286 -0.38810391813980205 
0.10663363538400999 0.29629794367636803 -0.38590714068892606 
0.10620001634263672 -0.13773814427690606 0.020813716150732384 
0.13601462613731141 -0.2407734712370535 -0.01659764640950917 
-0.31309273750450167 -0.40292311070115217 0.32699627828160949 
0.097246937346359891 -0.15216835697357203 0.0052781563923833654 
-0.022906825175094903 0.005236540337584689 -0.0075427865309932712 
-0.056282921195684725 0.25032490635594551 -0.081472713985073733 
-0.11557624226239829 -0.022572318841693327 0.10869531869942478 
0.35916037285467606 -0.14669091274125726 -0.20482202153768503 
-0.20313976201245557 -0.57076608132558881 0.51914654404231675 
-0.022733951699204627 -0.12385982007816154 0.19233991442072396 
-0.26386370859602892 0.26727437319978659 0.15977527986105647 
0.10531065164825454 0.15689796623224422 -0.33118577373782571 
-0.022733951699204627 -0.12385982007816154 0.19233991442072396 
-0.27508378515030135 -0.12385982007816154 0.33959886860592453 
-0.012452341381834068 -0.090011182764582712 0.0025691576970132846 
-0.022733951699204627 -0.12385982007816154 0.19233991442072396 
-0.022733951699204627 -0.12385982007816154 0.19233991442072396 
0.062485218830842494 -0.27829227875610901 -0.1489259908704271 
-0.022733951699204627 -0.12385982007816154 0.19233991442072396 
-0.26356607694889245 0.51253520051672474 -0.29600232153937212 
-0.4063592361535277 0.16977791952330926 0.30461871980502203 
0.096269619734454359 -0.43203772999463991 0.10089735010726238 
0.79066007314445119 -0.20662582771347385 -0.81527109107321905 
-0.5413280125839276 0.32104172333347142 0.16850990432319357 
-0.1947682559689079 0.038501482693820394 0.11274528809499551 
-0.076348706431891566 -0.005686858147377306 0.046986172635396999 
0.28562587381351878 0.022559357398025486 -0.25325853661268094 
0.093081740465013968 -0.092922820576416876 -0.022154988618347853 
-0.62240218924245017 -0.089647123523268771 0.47883142668625517 
0.11684311644142216 -0.2425618101715685 0.13075260109014181 
-0.056078638531761989 -0.27372389962720617 0.11478748552766245 
0.20547032587684069 -0.33292173950155224 0.0030837312665032554 
-0.2728201597453509 0 0.30882717254430481 
0.49030114505008354 -0.42328403842915041 0.0012989233364679217 
0.042881341959709017 0 -0.06578382054539933 
-0.12219338808154859 -0.10205614000415714 -0.094477535817779984 
0.23450498813368489 0.1149079123510042 -0.29456624076937066 
0.015368533365466152 0.060110722471438977 -0.1717165438653086 
-0.1352216178386936 0.01271245714510429 0.08671007225262567 
-0.012402831566864156 -0.083864211928336166 0.054770479331419979 
0.03291444391144463 -0.43342144036861147 0.2203781643262494 
0.89983529648957072 -0.75359166464902438 -0.94722097374667691 
0.044019331588316966 -0.10954003350053008 -0.088028098392730542 
-0.0065651405119213479 0.0068868263899290747 -0.027175839844130151 
0.21055093969602065 -0.10845331315112546 -0.16070669080202601 
0.60727190019003174 -0.44027745568507176 -0.31324498992171806 
-0.29846272167598981 0.10328250149103402 0.1451338266726559 
-0.062315466444049963 -0.13181815295070984 0.010000217460515116 
-0.10202694895938916 -0.05751333866869119 0.083389025312870485 
-0.56496971838741927 -0.079905032988291408 0.25973886782962702 
-0.37228052201776252 -0.42253702707500401 0.33550831081235721 
-0.082824915580622008 0.019584242524025696 -0.026346782248023486 
-0.36997100224229607 0.14350091676527701 0.094275516757439032 
0.040147270859123986 0.37123687105903419 -0.45730536501329261 
6.831335310775895e-18 0.056070922056672787 0.26494006361333028 
-0.45841665101059537 0.29469907672769857 0.11127843411755689 
-0.048705967812822035 0.068992559263555603 -0.017752749991828118 
-0.044700716600998752 0.022176434929812333 -0.058907960557269448 
0.15726182544799047 -0.088732853713247573 -0.24703042196100627 
6.831335310775895e-18 -0.39245618749884825 0.083694422216977704 
0 0.1559563650316719 -0.21203375586251361 
-0.40246382323161095 0.055240000778108179 0.28777915035552187 
0 0.1559563650316719 -0.21203375586251361 
0.033564047124261864 0.045436755616438493 -0.046585391785345945 
-0.72391734583578349 0.70890601748583382 -0.1814033431562542 
1.4756987495848655 -0.64992633253199228 -1.288970222722766 
-0.29791852119685419 0.42484919869863591 -0.032924883973817487 
0.12671189924190737 -0.24147125557665816 -0.059949917670686831 
-0.98175131924410053 0.31440320396104554 0.58909592938500155 
0.00055018180412552643 -0.33158486669677412 0.26779163304843778 
0.17500617311130817 -0.8726912479572535 0.34592678881301642 
-0.27242628108447114 -0.79212145560657043 0.67048011468846747 
-0.27227904231898314 0.25487184717230155 0.241215516883064 
0.14903285166458499 -0.037790524921565122 -0.13582331578173504 
-0.10191768930824667 0.15837860512020904 -0.068755348662289162 
-0.35441337639891912 0.14417044516162741 0.20272186371374687 
-0.11484432515369154 -0.090867642175547644 0.09643656026730868 
-0.31568610760897331 -0.048626222831614198 0.040320754823350867 
-0.053089285779264417 -0.026323779250492094 0.060329258182694689 
-0.56459781845511647 0.76585542676880991 -0.26958826612731962 
0.67809241835188983 -0.092600345172262843 -0.61515814900534693 
-0.50537505315763864 0 0.10560672696233783 
-0.43906002480407402 0.12454607202524645 0.13015215919498166 
0 0 -0.30024246831507934 
0 0 -0.30024246831507934 
0.16938310412794055 -0.75727982028674801 0.25861033009627254 
-0.68797569924774982 2.559297082447218e-18 0.85277944801666883 
-0.60380009797522571 -0.33625615443372975 1.045149747885123 
0.36111618983621929 -0.22718042826798085 -0.50743308530326903 
0.58882025993195519 -0.10080736095878921 -0.61858982129573403 
-0.064037102069129478 0.54576880543608852 -0.65651245847882167 
-0.05726479008526552 -0.063599044024187062 0.096390883701570784 
0.06973130844989596 -0.017957827892265167 -0.038752481315029244 
-0.41450225252029654 0 0.50093336938164845 
-0.18315620666339713 0.31384790513220145 -0.12723870517274294 
-0.016866482194341812 -0.26309962190281888 0.11680839100085273 
-0.0061809158646259086 -0.14143085170362851 0.1064520304509554 
0.30845562068453869 0.15863613361295736 -0.36672153448542927 
-0.0061809158646259224 -0.14143085170362851 0.10645203045095535 
-0.14790027833252101 -0.38015075410121302 0.35587010691869192 
-0.1981099853421304 -0.01787118345768798 0.19196430874789319 
0.029311607375229219 -0.29695334098022858 0.1134773881399193 
0.13577762345196082 -0.28301689614901954 0.012396615080639509 
-0.20288765447206444 0.61517735094053727 -0.24981807534046613 
0.1198728093635264 -0.11938920064459979 0.080688050678872691 
-0.42831054030488785 -0.3270298372945763 0.33482602018064417 
-0.0061809158646259224 -0.14143085170362857 0.10626004586316476 
0.028537871738051029 -0.35380114556387099 0.4260073252263048 
0 0 0 
0.17359498225326481 0 -0.1628668940338272 
0.17359498225326481 0 -0.1628668940338272 
0.17359498225326481 0 -0.1628668940338272 
-0.17585972416619919 -0.15998375531159187 0.18454269812670043 
0.17359498225326481 0 -0.1628668940338272 
0.49138452232577212 -0.083384709490300593 -0.45228078687890239 
-0.0397956729789751 -0.05917374900906551 -0.044340953828515585 
0.022403973802950058 -0.77657687423560384 0.35925813225273379 
0.21709202492899141 0.049910662216814845 -0.32116551254722664 
-0.077881743729936198 -0.13313577848444397 0.088786502501050329 
-0.60132136463160613 0.60274757377044608 -0.083566964353677289 
0.024106613038295713 -0.34975982244519588 0.10065725691198577 
0.17359498225326483 -3.4123961099296238e-18 -0.1628668940338272 
0.0018753140293700573 -0.60144871380351028 0.29747909635981989 
0.1367228776028459 -0.16328996280977895 -0.066044754927931063 
1.4061693792100067 -0.51899250111106843 -1.3132295714635154 
-1.0172242584261204 -0.11697703749959613 0.86241559766711318 
0 0 0 
0 0 0 
-0.28753186596506902 0.18205530023911665 0.092677758183993444 
1.7736299212454369 -0.77033308257540056 -1.5039982134941805 
-0.042645988458890394 -0.061934270246028954 0.0080113021257131756 
0.053127937489954064 0.12684116642037344 -0.18531678274276503 
0.034255308125192722 -0.18281876579158493 -0.020995500347143994 
-0.20907039791175325 -0.086003387632836631 0.097919162744983357 
0.17322492355276189 -0.079669369425027975 -0.1764324946611826 
-0.41287034512628912 0.0014127117948982033 0.37982156385246579 
-0.047589602322192892 -0.11220960106033882 -0.42316555663718841 
0 0 0 
0 0 0 
0 0 0 
0.032667515461931897 -0.29168892008566799 -0.14140540319468012 
-0.39476058201163372 -0.39498611904390235 0.44469730749341824 
-0.058473427800784641 -0.26329490891831386 0.25917403933712435 
-0.15895079588516967 -0.15143403166137284 0.20112450614699526 
0.15607533357769524 -8.5309902748240595e-19 -0.1715222120366241 
-0.44710222412172373 -0.11894834070562683 0.52136335592572347 
-0.23722321528326176 -0.29207175755629011 0.22860109863042113 
0 0 0 
0 0 0 
0.63756736220623145 0 -0.5645032350404221 
-0.47121108896149178 0.89356996443474646 -0.47229895548238432 
-0.12654166297871616 -0.3846281604972635 0.27297351710574702 
-0.2659207591531661 -0.10787317676756258 0.19836993215923931 
0.056811708819956716 -0.27580712023956738 0.15732210471779895 
-0.31168596857814612 -0.59317282359039647 0.45447225790828905 
0.012905981867210202 -0.22612622095535703 0.040382049194993927 
-0.15991402065509316 0.31446717308492478 -0.17071240308394472 
0.10867081840533649 -0.19475925442021821 -0.03228212181984226 
0.35743543027050323 -0.040193513915935598 -0.20754230297106188 
1.5847068681542114 -0.5850349641761764 -1.5001366482072211 
0.075254686544438759 -0.39824176538650624 0.16251473297134614 
-0.16696613330971138 -0.41880323274951781 0.37786649000765538 
-0.31771958035222914 -0.14154762086370806 0.39434395085898921 
-0.063279004277530013 0 0.032471959829084678 
-0.063279004277530013 0 0.032471959829084678 
-0.67035418560335469 -6.8247922198592476e-18 0.57225306575241897 
-0.34186999304788712 -0.55957581932433198 0.41877917519313052 
-0.076782419448699735 0.021468123360923477 -0.23179446403284434 
-0.38701326544534193 0.2361961466743018 0.22140786164999168 
0.27143381825976853 -0.33613509605910996 0.070057366464491441 
-0.30841241459861707 0.077620745207999303 0.25105799703069437 
0.19767024642333095 -0.3790403828926846 -0.075300368762694248 
0.070473666435142329 0.24871603224490821 -0.13263269811048833 
0.49599454937449472 -0.14651282996848219 -0.52661973628393233 
0.042279885553701005 0.3610273913682161 -0.25257572094027725 
-0.32633304169645466 0.18976270447204416 0.15410794854352025 
-0.15530708455414516 -0.047324763117989763 0.16440038681077049 
0.071080131169925093 -0.25497818795296734 -0.016843694687679274 
-0.0039442154796414091 -0.42634759036699327 0.30426174296870756 
0.17511837028909982 -0.48945463229820929 0.17297109687173012 
-0.026721650974111711 0.090811050272666269 -0.19367360369905925 
0.18514267788944061 -0.24607065836051481 -0.10227850956669916 
-0.067743442677147617 0 0.12225256107936139 
-0.067743442677147617 0 0.12225256107936139 
-0.17250266828142632 0.11590827305474413 0.274133671825884 
-0.067743442677147617 0 0.12225256107936139 
-0.11314606468510414 -0.46015863470472629 0.17169152303155927 
0.076797760382923311 -0.05967963137173702 -0.20345102577523291 
0.12090886293079199 -0.037641391231622461 -0.10640271993423289 
-0.50142485855345964 0.04161747352571421 0.27514803417349354 
-0.23391978220680784 -0.27863760843700669 0.2797123813566047 
-0.067743442677147617 0 0.12225256107936139 
-0.067743442677147603 -0.028492614911819182 0.17332921446835378 
-0.067743442677147617 0 0.12225256107936139 
0 0 0 
0 -0.22872699292100138 0.14380054789101313 
1.5221025274402664 -0.56079301326419806 -1.4499425343954928 
0.020820905817861758 -0.054528122624396658 0.078221230417278312 
0.22288878398762524 -0.036115524200894693 -0.2957820170555594 
0.1500337946153065 -0.064306161315162341 -0.3238620817516113 
0 0 0 
-0.33735061307162595 0.38737336436969044 -0.1217353097523582 
-0.25164569160830608 -0.061907540659536901 0.28735494270975287 
-0.15845139467628444 0.4479174466349089 0.049217240584549633 
0.051724013113056085 -0.26009468547761927 -0.032630251091064613 
0.36258537268516039 -0.17102187629748003 -0.1731170805006616 
0.0041038809362149015 -1.1253268541714605 0.33103290351914855 
0 -0.18838069904173912 0 
0 -0.18838069904173912 0 
0 -0.18838069904173912 0 
-0.13449438609129888 -0.027485179993606761 -0.026114805975219747 
-0.55413365104991552 -0.34108317813696787 0.89060784364934409 
-0.63995375191447856 -0.16519571967241953 0.58930516523650267 
-0.1230245135492874 -0.25733680814731047 0.13794991432858231 
-0.51499704372062582 -0.18838069904173912 0.42177545863335686 
0.16525691066508608 -0.037865560929835534 0.14406450956880507 
0.18291348387630549 -0.41347718711356385 0.10652490947353913 
-0.29811431597678451 -0.063901445294020517 0.33207009208014959 
-0.62718791371291904 0.52560861640492396 -0.23723009032362483 
-0.68747806456943872 -0.18838069904173915 0.63854077833769707 
1.2174805774501509 -0.42841155784804091 -1.2597057240703853 
0.0070640456106433403 -0.13647533549664967 -0.044894859320185783 
-0.41408010457103972 -0.20780275929739978 0.60148860750304545 
-0.26857327962574196 -0.42473524684652886 0.25172441650515331 
-0.0021179132116845995 0.081727950095656865 -0.059006596816046607 
1.2412448652647468 -0.40922638582131005 -0.72705342550846097 
0 0 0 
0 0 0 
0 0 0 
0 0 0 
0 0 0 
0 0 0 
0 0 0 
0 0 0 
-0.082394882950139928 -0.20923623596064245 -0.05765670209530907 
-0.086085507868084818 0 0.077251652114619124 
-0.25154272154548796 0.16501477780473289 0.1495550099398939 
0.11418100459384184 -0.065174747000999803 -0.074823990731903392 
0.24836663502329615 -0.025993326233675035 0.064531916095474984 
-0.086085507868084818 0 0.077251652114619124 
0.16862433247562736 -0.18010485160191189 -0.067632668344739882 
-0.16526154154555414 -0.063106652642413177 0.2077458304159602 
-0.086085507868084818 0 0.077251652114619124 
-0.086085507868084818 0 0.077251652114619124 
-0.086085507868084818 0 0.077251652114619124 
0.25249799141484275 -0.049048824024799299 0.0041887927902599697 
-0.14737459252658172 -0.26439735965339212 0.030574447507240161 
0.16470381015016083 -0.18448128911932096 -0.24279729601170175 
0.020950747424499989 -0.45955316344879776 0.19952128261749832 
0.55047863629388616 -0.46262970171756373 -0.051428179550912868 
0.44618339172884969 -0.067297953248768513 -0.23851527079532173 
-0.19232001253040773 0.19784587759273212 0.19224780343548578 
0.072720563100382371 -0.34539294550331917 0.087128357615722324 
-0.30158522523818082 0.86440978742761254 -0.64650267824124075 
0.17688619332112682 0.38205822105263165 -0.50697729560730875 
0.12114003616992645 0.14490013903166049 -0.16797441417105508 
0.028520528719768866 -0.10056609268188174 0.11855856014164802 
0.39733478783818199 -0.43029126562125047 -0.016689214882421283 
-0.2516569804294902 0.018802595408598209 0.11144446963092097 
-0.10135050484395002 -0.41446376403816648 0.41805674731637416 
0.19326258174551747 0.57705110182264852 -0.72815804684365026 
-0.33891429455648203 -0.063740015476354925 0.87049934071226864 
-0.28621979744564652 0.49367011180044112 -0.27622659008287931 
0.075655317632573368 -0.19226865742084995 -0.054456622226312361 
-0.28509148902816872 0.24499690026317675 0.16180146804017895 
-0.25585181303141158 0.082463246423073511 0.28789825454071849 
0 0.35677217520376475 -0.65289672727061332 
0 0.35677217520376475 -0.65289672727061332 
-0.05992347942112411 -0.061045136222829754 0.13251748163641142 
-0.144441844924868 0.066310949445477163 0.028528383452950681 
-0.34882028949879706 -0.1387878141902994 0.21753670560447427 
0.0062752858580827683 0.3249324576308581 -0.32072723409687381 
0.094015579268310043 0.065148959154808034 -0.20952424533873942 
0.17646800253478132 -0.23287180889899994 0.095666120536179303 
0.0037779250620914384 -0.1693310253983451 0.054397968731666885 
-0.038509700340532187 0.18098158378896931 -0.11103704596822633 
-0.11987470359421611 -0.20576140429468606 0.21760148094204596 
0.24533442317866797 0.26479324986596037 -0.77470034461423687 
-0.27518744801975725 0.49119845994879396 -0.2697916699772735 
-0.053097049340572071 -0.069080561296080853 0.21588574702920119 
-0.11424422424637974 0.02238592891948317 0.10093353060863643 
-0.52220889438964946 0.46551104701388418 0.17329695832814251 
-0.038509700340532187 0.18098158378896931 -0.11103704596822633 
-0.038509700340532187 0.18098158378896931 -0.11103704596822633 
-0.038509700340532187 0.18098158378896931 -0.11103704596822633 
0.19395628588936509 -0.10212710166382417 -0.086520534444629343 
0.2169080542210883 0.060247412706020777 -0.28883812903847922 
-0.034579082712323669 0.085624933168868614 -0.17061792430374956 
0 0.34385324549409801 -0.3272837189540615 
0.062594105236003408 0.19130595925358251 -0.1952588078397143 
-0.1347375599846925 0.10760213208120031 -0.017159436770256699 
-0.17859942290753864 -0.14824090065355491 0.20350193071003897 
0.071669446689737362 -0.32665181610578858 0.034358217751113355 
-0.13479473334066452 -0.23104149023370193 0.21084461155517906 
-0.22565577809393977 0.29225625053010501 0.1088666871276741 
-0.09203389543930067 -0.15001277282706077 0.15208308901793424 
-0.19535911560354285 0.21305822289409687 -0.072944359621104127 
-0.2318983486781479 0.44295524049073187 -0.27267734024064511 
0.017139027753252177 -0.064111533904234547 0.0024764204507554521 
-0.023614640624810543 0.20560565057502292 -0.012991571269533975 
0.055315421229616649 0.11516581306296544 -0.1480334244888688 
-0.02261637410363488 -0.27321571031821329 0.0895721015913164 
-0.31804599550909152 0 0.13744053492838376 
-0.16648287602280873 -0.11698871232820121 0.036013029118055803 
-0.16320836240230779 0.087625434954118106 0.070613861479382437 
-0.31804599550909152 0 0.13744053492838376 
-0.37051325756564329 0.18216700695359003 0.16227712388986268 
0.089443618902731212 -0.14038226378048344 -0.11645548239579098 
0.0068489207321964108 -0.19763743780179932 -0.071132988332413202 
0.085771045983302929 -0.16309660751533567 0.046219620616964899 
-0.10449121516734834 -0.0082402808207210024 0.11609282690461557 
-0.10449121516734833 -0.0082402808207209938 0.14421475528895417 
-0.070275513972733752 -0.28650919810307479 0.23511957464531807 
-0.10449121516734834 -0.0082402808207210024 0.11609282690461557 
-0.10449121516734834 -0.0082402808207210024 0.11609282690461557 
-0.10449121516734834 -0.0082402808207210024 0.11609282690461557 
-0.10449121516734834 -0.0082402808207210024 0.11609282690461557 
-0.0643932370840712 -0.29532492248374653 0.10418765299984536 
-0.19420849026076725 0 0.21504787329172936 
0.28392603969772867 -0.1333711872528614 -0.09484651622574404 
-0.77793467864444255 0.18504438821263947 0.53470808034949879 
0.32550706814950264 -0.36103414622992713 -0.16985647584153352 
-0.19420849026076725 0 0.21504787329172936 
0.35528937631575375 -0.40934305667275045 -0.019177554720767691 
0.14689293727212283 -0.046408456693848341 -0.11161011389476534 
-0.18583508925598349 0.55063628149632582 -0.20459984999587238 
0.20034645784880975 -0.020405403860472796 -0.1932217434247348 
-0.11609712313184481 0.047641753930228424 0.0023947371225990092 
-0.31763584386422267 0.085535345546413261 0.21791294633999908 
-0.13115983754612751 0.47754187812843052 -0.49443295810271187 
0.13061662334549637 -0.10501492174794791 -0.20150485097790269 
0.27999390848064343 -0.11688912997346157 -0.30983176267645557 
0.33831921325550413 -0.28469646559989825 -0.20042787685944669 
0.091275678649089129 -0.28469646559989825 -0.026390967326404845 
0.15116755981949875 -0.28469646559989831 0 
0.15116755981949875 -0.28469646559989831 0 
-0.22897312264978026 0.35173059648700217 -0.034870672443954448 
0.2762393386817778 -0.21874618606402696 -0.34757113234453557 
-0.25521969254584215 -0.068294983155027036 -0.21932798861007033 
-0.010934016696354109 -0.048608524207356438 -0.011771382294795641 
0.15116755981949875 -0.28469646559989831 0 
0.23369910375950015 -0.082563645436127653 -0.18180509583796353 
-0.074916811649579196 -0.14994198291534375 0.19136714874538033 
0.12168894133639949 0.17135152940628084 -0.59606896409692067 
-0.28656827177778682 -0.49085247389778286 1.0613862994115904 
-0.1675877119884667 0.29741334448976681 0.36005484357263684 
0.34153524396881513 0.16106249179802073 -0.36265909390873691 
0.23369910375950015 -0.082563645436127653 -0.18180509583796353 
0.39305011563160108 -0.23186733728464881 -0.29600994272928055 
0.088807093511636487 -0.081348627765400611 -0.11489757200671802 
-0.19337881998327042 -0.16230936147633881 0.23370889857674867 
0.39290619301800661 -0.19135859171331207 -0.34927562623835789 
0.029834499766044558 -0.098494432624924619 0 
-0.072855854129497993 -0.098494432624924633 0.039470285759062203 
0.029834499766044558 -0.098494432624924619 0 
0.29477037371427817 0.087124942002475503 -0.54683854391835052 
1.2202870347314498 -0.34249620489649213 -1.2162334917399109 
-0.38474816052515221 -0.14674188438980304 0.23136571818656965 
0.3503597346645046 0.21397868653786239 -0.50729657478499146 
-0.18493233028679254 -0.098494432624924619 0.057900642769496392 
0.029834499766044558 -0.098494432624924619 0 
-0.46324487527863178 -0.13653572369899225 0.56260773888982507 
-0.0016106202511182179 -0.14339555495426129 0.02475000482739205 
0.24952878370498782 0.082081365500966591 -0.51032073665815514 
0.029834499766044558 -0.098494432624924619 0 
0.21812246305459579 -0.32340886632823346 0.046496920371619462 
0.040120232461260709 -0.09566968759772719 -0.14088032786023527 
0.09927922482353628 -0.40370665724891813 0.19574161897746423 
0.27117268521026383 -0.04347398916491766 -0.13350334569783631 
0.063305732320027341 -0.11600200824196434 0.10208839075892832 
-0.23887839342855369 0.23174273567174108 0.055739097153954108 
0.35058272914004729 0.028523127929961947 -0.55714798610337579 
1.4888895825485251 -0.95254346431173176 -1.2418174973343414 
-0.27658746564862674 -0.044045797891760607 0.097394539781714806 
0 0 0 
0.01936405640713636 0 -0.079250529740424638 
0.43081676996448687 -0.15062041692924408 -0.23276616583051069 
1.3115866042565043 -0.35522719473594233 -1.1032141695419089 
0.01936405640713636 0 -0.079250529740424638 
0.01936405640713636 0 -0.079250529740424638 
-0.1058290238374312 -0.06319940281396029 0.1655208934027772 
0.14939431245277057 -0.31856500701606039 0.038712135009118749 
-0.13733158122221487 0.14396897932602071 0.11500699996092005 
-0.17299262494041262 -0.099847926566967615 0.12715477602939357 
-0.18475548233911954 -0.45411101493279277 0.24707101251574162 
0.034660051104110835 0.36931436995671529 -0.22652239030104038 
0.34558628964621679 0 -0.3475071706173658 
-0.36606866438620339 0 0.31916611377064186 
-0.56100245705553753 -0.24352536860386562 0.53785660494245791 
-0.14579627143138932 -0.083207846446458275 0.20659112897599055 
0.35507419738346091 -1.2012847177495438 0.24437270215950643 
-0.01573645876145836 0.2090062477890568 -0.17784502242637076 
0.16800653009127825 -0.35466377891697964 0.015923070996854933 
-0.21122414831343897 0.12454607202524651 -0.01043120607578471 
-0.36606866438620339 0 0.31916611377064186 
0.48070658061839749 -0.22029219024426852 -0.3051711555908232 
-0.27799663262622776 -0.28358571032501079 0.4263198949447396 
0.42264732371592045 0 -0.53711599397188003 
-0.12698225072074953 -0.046899921489811064 0.049145414270414543 
0.42264732371592045 0 -0.53711599397188003 
-0.15451504525312207 -0.078114865224552937 0.19782888494980197 
0 0 -0.12427914166104741 
0 0 -0.12427914166104741 
0 0 -0.12427914166104741 
0.050184257558560534 0.42556295348060141 -0.56705501560072424 
0 0 -0.12427914166104741 
-0.39809722581781393 0.27265516931948885 9.8041884882805151e-05 
0 0 -0.12427914166104741 
0.16606522403868237 -0.085024825517248465 -0.11294282156914624 
-0.20259319712314744 0.14174326965912862 0.068531853242604204 
-0.48066227530323302 0.47056795180868588 -0.04059018444560121 
0 0 -0.12427914166104741 
-0.61676725425835088 0.86724535652273682 -0.28883089935336259 
0.30914128488139692 0.098959701257005206 -0.26782979243148258 
-0.14323926297999728 0.70622862118000973 -0.59279699452690737 
-0.75327478092367628 0.33916930433254233 0.32616655610927087 
-0.0056479530999256743 -0.1706045041640642 0.24848254762921498 
1.0758149767655911 -0.20092903648839944 -0.83125359419237199 
-0.160741169342177 -0.19927428342727921 0.26798965578182132 
0.018398087575025167 -0.19927428342727915 0.091187061655741836 
0.11218858885388266 -0.30347468667429861 0.17298562042480156 
0.05182106325098694 0.020704491177480015 -0.066890246498567812 
0.3664074776497479 0.64990352701617782 -0.54017204627530124 
-0.2918704074353406 -0.32344280942525161 0.30967335006077329 
-0.099174328100518697 -0.0087415749909951802 -0.037343883548192854 
-0.26023157916064066 -0.27551214066158092 0.083532269735446515 
0.25336970014048799 -0.5647977919343079 -0.046552428341835789 
0.61600128398067178 -0.31330011822850484 -0.38178854932196121 
0.23743823423998006 0.35931381912232296 -0.96463414850801199 
-0.050690209527250646 0.14014122283372016 -0.048584141871642401 
-0.17269631971176772 0.13552865579872497 0.093205020768150348 
0.41616772341876068 0.050181337340122478 -0.15120882271444921 
-0.012806828889362314 -0.16079278501070698 -0.063769707943817172 
0.023841870850432802 0.080308171332737988 -0.017377637121513245 
-0.69153264193421471 1.2767724383825838 -0.59170014841435259 
-0.48970042788988161 0.20061564056213771 -0.25707155728475134 
-0.30263413382241033 -0.12143192322026987 0.10820829501903764 
-0.45113947519997716 -0.22236340913903963 0.55431870531365857 
0.38222805922926878 -0.20921498699995389 -0.24128125310833343 
0.030263697262955344 -0.10596649375932833 -0.032321864088103558 
-0.23597836261898458 0 0.31454154645861354 
-0.068273587921867884 0 0.015789015054156735 
-0.068273587921867884 0 0.015789015054156735 
-0.068273587921867884 0 0.058587292371635333 
-0.10946172236886105 0.067782213982938669 -0.054625619443993599 
-0.15401038607111128 -0.015446177836725078 0.12714126326759731 
-0.39419077257398405 0 0.26499663790447398 
-0.068273587921867884 0 0.015789015054156735 
-0.23818622790512309 0.18981104346129118 -0.1906279282589573 
0 0 0.14162597542714239 
0.26699530405863714 -0.18651940820462704 -0.14602742110006417 
0 0 0.14162597542714239 
-0.57948619573161264 -0.070024834666355021 0.35135754621904997 
-0.61741261936629876 0.0868809258185059 0.42594004490272569 
0.23375113083152216 -0.17758310524337173 0.099830102569771928 
-0.47943104782143842 -0.13541031953617469 0.363044396925846 
0.21656198527961873 0.12322581085419372 -0.30497054333712725 
0 0 0.14162597542714239 
-0.048197428818088299 -0.22157198814379239 0.15289274797698973 
0 0 0.14162597542714239 
0.3386530788309069 -0.088699296232655753 -0.29910835833672389 
-0.43368478320496906 0.19712668799775887 0 
-0.02360153900497108 -0.0013427806027037177 0.061913743357588591 
0.3192344010949712 0.32337056845665668 -0.70594572162444857 
0.41953330730129473 0.063298336030957011 -0.46457609175624054 
-0.30328686016234946 0.11226285836644369 0.17551956258558921 
0.13963095692772601 -0.29288359840318956 0.015202053300674008 
-0.43368478320496906 0.19712668799775887 0 
-0.43368478320496906 0.2963977621499006 -0.21650413222338058 
-0.09103581707478961 -0.016230449889005145 0.053466049702588343 
0.30282948333531767 -0.34139424265980045 -0.34461981259466173 
-0.075034117287374705 0.090401854349006369 -0.027719179540367265 
0.038317118388964011 -0.024398626812967603 -0.15000463996298563 
0.10267509710894972 -0.13996309020331704 -0.14648535931764511 
-0.24100530525404557 0 0.18772127518383022 
-0.24100530525404557 0 0.18772127518383022 
-0.24100530525404557 0 0.18772127518383022 
0.39340393493967873 -0.32303984027215427 -0.081835794078947879 
-0.24100530525404557 0 0.18772127518383022 
-0.24100530525404557 0 0.18772127518383022 
-0.15504761199970057 -0.0072343727664332686 0.045572196448751323 
0.364349364270315 -0.36853687719728878 0.018794757371640519 
-0.24100530525404557 0 0.18772127518383022 
-0.1208673289548808 -0.2183119679445816 0.20002336051008288 
0.10640607422624064 -0.44235792066853441 -0.090095405735316034 
-0.35373997146098302 -0.27602371429842032 0.36279286346652873 
-0.20614293662124084 -0.20160939679727735 0.097435736459176275 
-0.23871013689525616 0.10404834194301803 0.073203979187799167 
0.16801940046467639 -0.072302062271075482 -0.049196306931145954 
0.16801940046467639 -0.072302062271075482 -0.049196306931145954 
-0.17526866588135043 -0.0055907218429447122 0.24052531836224711 
0.65543041863460549 -0.036498872984987343 -0.73267799698744296 
0.45688506363728426 0.14996356040563741 -0.73709731827187364 
1.0167148434224322 -0.31165825852052709 -0.39937418442033917 
-0.038883714349227702 0.085272196098258063 0.072863691479686202 
0.1853535390186577 0.087264427918452098 -0.1444311737319357 
0.33404867457766674 -0.092912425381866171 0.087752926182886729 
-0.068753758459221742 -0.082988944427145009 0.20677644918202751 
-0.074658650903367207 0.21558092366719636 0.38634051573300104 
-0.13709137128032159 -0.21997525329676565 0.08468120611237312 
0.2231054392732652 -0.45929700423384939 0.036158052641421669 
0.0085430230009625931 -0.0072085957625931665 -0.091470011583001581 
0.11418279873725155 0 -0.188407658652089 
-0.086725330584582899 0 -0.082286075914044493 
-0.085319292339906996 -0.15814736947165325 0.021086406066706052 
0.11406442254247434 -0.39798808190132096 -0.070962500948418564 
0.33366557688084836 0.14703903906296101 -0.42897779545182957 
0.11418279873725155 0 -0.188407658652089 
0.11418279873725155 0 -0.188407658652089 
0 -0.048371196709097009 0 
0 -0.048371196709097009 0 
-6.831335310775895e-18 0.38620167362726565 -0.81354965944455548 
-0.028489878341703703 -0.048371196709097009 0.10320035077285043 
0 -0.048371196709097009 0 
0 -0.048371196709097009 0 
0.32583270588454516 -0.092980930605645856 -0.51517773669238698 
-0.029776808694422063 -0.026084621935100177 -0.053598817958944167 
-0.086027224369305627 -0.16413971769031377 0.12306662285263194 
0 -0.048371196709097009 0 
0.38084339763652925 -0.40253322964593141 -0.27766305362720639 
1.6116659606245394 -0.37002329329890549 -1.2490194667014858 
-0.3852799665900879 0.27788980668223734 0 
-0.6700062493381872 0.38116649750724391 0.30658374391601079 
-0.067091113164448588 0.20541386347502119 -0.15426663901199383 
-0.3852799665900879 0.27788980668223734 0 
-0.3852799665900879 0.27788980668223734 0 
-0.02567995163493338 0.24184016181037321 -0.28135598717339672 
-0.13882053579922554 0.029173643252874311 0.11057218007899625 
0.3292490233266594 0.10490049380814388 -0.44600241535533125 
0.17358014219136825 0.10661497759141483 -0.43214526166609502 
-0.24435000891824193 -0.065257445877050804 0.29247845894680313 
-0.28953406869721776 0.10515481814238435 -0.15905811257317209 
0.15871210805564909 0.073893420534378793 -0.38096683144379456 
-0.63906007953760757 0.23962531842645821 0.1321088091570958 
0.21819706334653746 -0.28925775648439078 0.2945712818164482 
0.13516347876643245 -0.055884332904214309 -0.097561032722263616 
-0.072803291697976585 -0.29264461456970331 0.23640987920918927 
-0.22711022749777948 -0.12715786318553576 0.13273608896437405 
0.5076647305661558 -0.099799644490106892 -0.58817862061187165 
0.20033872856693052 -0.063661373867728563 -0.1409712896660841 
0.17675614015103908 -0.10760793635508033 -0.30637624603820313 
-0.12437627783483279 -0.29168185688269788 0.16304622885615952 
-0.24435000891824188 -0.038325016214959512 0.41292220601344776 
-0.025329290335742674 -0.089968423317491122 0.019850685925695003 
-0.051622337797849582 -0.04040135490519451 0.084422091646291553 
-0.22434051853647924 0.10730327348592643 0.22449246621765476 
-0.057029190019793778 0.27038147081999592 0.036091876168126716 
-0.35971383077188418 0 0.20173655055414882 
0.29596800020858849 0.08908564767691543 -0.72267913281286444 
-0.37921762443514179 -0.29166631340711746 0.58000551971717407 
-0.32428965280602734 -0.54313451461480056 0.36517293804973877 
-0.19436148483852728 -0.56771769451669274 0.30775588631646456 
0.038145976376587398 -0.25816365063652996 0.046913398857814953 
1.1664541289804158 -0.48997278641797343 -0.69640063873404545 
-0.29346220966955389 0.26964746742203149 -0.27511453202580627 
-0.10601025955218014 -0.040385623796273612 0.10769642565470899 
0.14154528608237882 -0.079003163111361976 -0.08711288583776175 
-0.32063052372222756 -0.15810670072716479 0.3984727428413023 
-0.12587781213434451 0.10971076435717222 -0.067145875234443389 
0.16594262505700799 -0.082005795440936474 0.019372879586696489 
-0.49460895948910222 -0.12410123693484058 0.26381078784760675 
0.049249958097608959 0.42581102215249245 -0.42334866995865061 
-0.025036296303932875 0.23233162989477171 -0.37041322719797398 
0.10972418410034795 -0.21529938548777616 0.18557510200922611 
0.15462962434546398 -0.60213018152146369 0.32065390009347056 
0.0070125970490236573 -0.24371549473973417 0.081034343239873172 
0.38431285374924407 0.054854427325566987 -0.2015088045428188 
-0.40291269172140276 0.082089408620666215 0.15101708085268592 
-0.076014266940687941 -0.07900316311136199 0.1549440870501973 
0 0 0 
0 0 0 
0 0 0 
0.30464365101208518 -0.29845237074888931 -0.13181498269052372 
0.051105753836061404 -0.027209121442413883 0.055068093542397813 
0.044627632566126008 -0.27622551627628467 0 
0.57390974062977773 -0.15292361182836711 -0.47710988725524101 
0.41145844696216882 -0.54340030611211043 -0.13982089852356272 
0.33786556620605385 0.54095664163803459 -0.67282986047093796 
-0.095408263092809767 -0.088497751764836291 0.067393048812660533 
1.2199183755079057 -0.93558230182705782 -0.93637216261807121 
0.088396188070986426 -0.21246439530378225 -0.32175357645679187 
-0.13647017321900565 0.20578675248256703 0.037297119204822801 
0.12464063876696049 0 -0.15734162252549749 
0.12464063876696049 0 -0.15734162252549749 
-0.24325315570672992 -0.22157198814379239 0.28622247513143984 
0.12464063876696049 0.2445713532330259 -0.61546005264127901 
0.3328020437101234 -0.14810386626199423 -0.26012039468743969 
-0.088335256537197315 -0.1744205376288816 0.20649673552515041 
0.61736549119112794 -0.31504964649712436 -0.50582193192113956 
0.12464063876696049 0 -0.15734162252549749 
-0.29616156611192973 -0.18865482099777808 0.44239982500469044 
0.2263106181492974 -0.044056344625102377 -0.27751405996762218 
-0.32918015671565454 0.080928129363475793 0.45370436831753841 
0.023644206023260294 0.024395069917984291 -0.0006148621141514256 
-0.29616156611192973 -0.18865482099777808 0.44239982500469044 
-0.1182078183804763 -0.02776165358589253 -0.079028482351554644 
0.19770526456496879 -0.52318757997070819 0.14897935463341855 
-0.055322078213431714 0.17598257826077762 -0.061279420565758642 
-0.40336935240136157 -0.34303083909995941 0.64071598358070669 
-0.26995782712760863 -0.05783076973657815 0.1921443575521169 
-0.039957877455960009 -0.013122094475042673 -0.0083997460370037139 
-0.14471028777733755 -0.1623855232818753 0.17058520611440051 
-0.19217278463264098 0 0.49732885760665002 
0.82344142719187241 -0.44542870409932761 -0.50918215685734036 
-0.19217278463264095 -0.050351442478000101 0.52008449961140912 
-0.48001135830887537 -0.022516061374576065 0.55567719274080163 
-0.33876037368335254 0.31136053286094578 0.064061948767106067 
0 0.20703338364503968 -0.21592502481974968 
-0.29491384596792181 0.4698793178840926 -0.30546118079886725 
-0.95091357933700438 0.37267700853887531 0.25923633160905507 
-0.4902044398134377 -0.3598518049860629 0.52225734798276302 
-0.25979431822914878 0.80424993346625706 -0.59341201806534338 
0.17909906372095313 0.14037360974604471 -0.22329511029661495 
0.20622997880336397 -0.071757851436034178 -0.29136577777609352 
0.27045732755267438 0.62122245398609788 -0.77833468787311122 
0 0.20703338364503968 -0.21592502481974968 
-0.59847616418654104 0.093788725350482799 0.26785731971370536 
-0.0093817082895203737 0.23993892364426639 -0.20083742444655045 
-0.19499300681147935 0.42096889857641717 -0.32046846856533323 
-0.19362933584501754 -0.37512121789653419 0.27747286458855352 
0.28714919105159675 0.16072972816636447 -0.46823099764597548 
0.48408520202807975 -0.1297938323562331 -0.40108250139120905 
0.36972555194160117 -0.86612296062821759 0.081311543424968935 
0.48408520202807975 0 -0.40108250139120905 
-0.39063960468849074 0.064340663766503242 0.3350125356742612 
0.20463338153129904 -0.019621634407723292 -0.20794257653599665 
-0.0019526776081278383 -0.16945316796066498 -0.048495192332663951 
-0.082244532398496356 0.03303231987244349 -0.030034752514645983 
-0.044158662249693767 -0.14175180490998979 0.017927322364053738 
0.45821646423280277 -0.49678127207487421 -0.1036363233802764 
0.62889577510579897 -0.033347004879765961 -0.60745093241299319 
0.27774730912247403 -0.21187710590361875 0.006688317310804142 
-0.38777576436652933 0.12182295139793275 0.16389463638488974 
0.36766776446823074 -0.84790626915981759 0.32300769574462929 
0.22394896681165055 0.072785097313450328 -0.29539732069658564 
0.28976768040547846 0.11492065930802456 -0.64429401533830455 
-0.2519368934688902 -0.15967956746035314 -0.11533606600174569 
0.43097312287938788 -0.20368580934524 -0.38014430428725238 
-0.18898118894017654 -5.1185941648944361e-18 0.66491343518905821 
-0.17027470056732147 -0.3050499833477856 0.45209251713240661 
-0.037068032201913778 0.18837041839935173 -0.21606415982036292 
0.27156019789341979 0 -0.17588318955862584 
-0.28226039432112293 0.31322997355827448 0.14139986950270167 
-0.38619722973726572 0 0.27449501271472365 
0.061913052359266994 -0.049619081908167245 0.055974021609791237 
-0.38619722973726572 -0.22989062710628611 0.52173895781307389 
-0.38619722973726572 0 0.27449501271472365 
-0.18106405674584822 0.0012421442760970007 0.16497349149420767 
-0.23360192071073851 0.24194172261011546 0.32531368264006244 
-0.38619722973726572 0 0.27449501271472365 
0.55168045625961781 -0.53559916172228073 -0.099161860551043687 
-0.30074668262264298 0.22942518739257617 0.11046777014419219 
-0.12673193203638936 0 0 
0.30211812498979712 0.33894522418172063 -0.45604896333669698 
0.04833131325926257 0.0065201614756264159 -0.123167069323687 
-0.02780121981342067 0.42232777977060348 -0.42771072790387743 
0.42235069992007573 0 -0.33887500662854164 
-0.31438121209993763 -0.12072556269069233 0.10076668365488803 
0.025421477788493272 -0.059004532754679789 0.059872302723324972 
-0.24860508528475403 -0.31791200814839693 0.24378591746303249 
-0.29925997179411379 0.12552448243249717 0.066697213117480947 
-0.027945865753947731 0.19589128731359118 -0.10442584486059527 
-0.15348237243672921 -0.15008569388984574 0.17772915398735786 
-0.33878258700569652 0.056875489758900381 0.31228607965407595 
1.1499210368407571 -0.21555314291144681 -1.0139953930326502 
0.40444405822228785 -0.1717044575729095 -0.33883584740494815 
0.1136256870704468 -0.21677765216968892 0.083379819255709045 
0.26980354687519992 -0.25663724700298446 0.039654470134429493 
0.27354377402374325 -0.033171264396206497 -0.20173961768610177 
-0.086781196127913837 -0.23490713204916872 0.12650160182118284 
0.099694933108917833 0.15297346297234191 -0.18469911681862911 
-0.19988908121717061 0.025279947209761951 0.086799527000055374 
-0.24501751430453664 -0.15978011688243501 0.21003895305684744 
-0.081499648113182166 -0.19705332845427748 0.25989136235954541 
-0.32304250995665373 0.597763077963815 -0.18784619389329885 
-0.36548768821878413 -0.18795841796661178 0.54197597040339718 
0 -0.15978011688243496 0.12013607143011149 
0 -0.15978011688243496 0.12013607143011149 
-0.40465144876042758 0.84939360667699848 -0.41404810092616162 
0.4622719739519574 -0.81193058129514095 -0.17965772030390509 
0 -0.15978011688243496 0.12013607143011149 
0 -0.15978011688243496 0.12013607143011149 
0 -0.15978011688243496 0.12013607143011149 
0.26257110047410115 0.053851357036826787 -0.40109734731060537 
0 0 -0.12210689500692101 
0.24954032310065516 0.22062806750041505 -0.20073588092651931 
0 0 -0.12210689500692101 
-0.1564162887635456 -0.32049677792133702 0.39241042565875356 
-0.05009179660859623 -0.2265680224895904 0.20958826862544896 
-0.094975906634941126 -0.20549716930980083 0.24934697322862814 
-0.26717889104771414 -0.45621161063299076 0.75409912525651113 
0 0 -0.12210689500692101 
0 0 -0.12210689500692101 
0 0 0 
-1.0912926426624145 1.1717913105004905 -0.36909133793802995 
-0.32889086571455606 0 0.24426002429373089 
0.27850033721194939 -0.11397469377160779 -0.1236367275354055 
0 0 0 
0 0 0 
-0.53549652794543401 0.93204128768673833 -0.36827937527320576 
-0.25668618851878444 0 0.3560697002096494 
0.25519828153541346 0.15770077379600569 -0.52753341191485781 
-0.51328059282301397 0.039967004791248116 0.60290857578806245 
0.048080298406916057 0.12331023613289281 -0.2507781214334292 
-0.14067501500408494 -0.47750913910657034 0.12995965606583748 
-0.22935052399802344 -0.2029010424326757 0.35836254681268803 
-0.12413067934528361 0.78131356345437208 -0.65754700044412284 
0.38415343889649656 -0.27492614323600212 -0.27842459642339323 
0.15477947001454251 -0.17291092872809835 -0.15329781900115372 
0.07347256063945122 -0.50397666373565775 0.091032869554342283 
-0.16962555361724937 0.24426437972026616 0.17307130351096164 
0.61861529944733917 -0.34530495646868731 0.12045724094013438 
-0.36346473680145386 0 0.50254892190637368 
-0.36346473680145386 0 0.50254892190637368 
0.60766567902283486 0 -0.714353502267281 
-0.15703863277083596 -0.35598237934592697 0.16585529092321341 
0.19891973381004993 -0.13264811954332578 -0.10877495551312899 
-0.21492470249641471 0.36255390358701228 0.0019974551948743857 
0.049747744660174897 0.056581912740430902 -0.16860595597904371 
-0.0059297426445684628 -0.0099253441859875058 0.0049620139790956764 
1.2780148124840489 -0.69102822114397888 -0.60526705827032767 
-0.4563388710843802 0.25588306126892446 0.03019060758990284 
0.26695897517896594 0.15474803899760031 0.08233440008166483 
-0.17999816023299761 0 0 
0.010510591986196962 -0.37936963338414631 0.40924162548615833 
-0.29601137357353591 -0.057102716581553255 0.29350665307920543 
0.09949067787904084 -0.6567450963025796 0.41668656090297845 
0.10580866281867746 0.029148423160770567 -0.70423127465132862 
0.35820814012896818 -0.5638905424015993 -0.16744277897741447 
0.17880131504044799 -0.046995142459798966 -0.22956548435855031 
0.023886959395381963 0 -0.35761718772075207 
-0.095137271183033376 0.31402817949109291 -0.079365163410603276 
-0.48507751784568076 -0.40661038589057352 0.58548135348030506 
0.12868141117858395 -0.38086747216450695 0.054068870146872457 
1.1110290768506366 -0.3694897479065033 -0.90516769471169822 
0.34555511416342388 -0.1901866105910574 -0.28993453566031629 
-0.15432280788845251 0.50526469976165556 -0.34278729155071863 
-0.01284241786419245 0.21130074482538738 -0.14990756596053734 
-0.53378485712788981 -0.044036341498657344 0.43089018121491546 
-0.17612857169208271 -0.18791987271627481 0.23794153448504571 
-0.23564753969755786 0.39776951482743667 -0.31086419210535648 
-0.071496803050726462 -0.63014520017591891 0.53203680680743703 
0.094010311245756317 -0.026904666720217036 0.23466567401445496 
-0.028489878341703703 0 0.10320035077285043 
-0.028489878341703703 0 0.10320035077285043 
0.20592804439627416 0.17352486640939113 -0.25582688647827129 
-0.1551262677199606 -0.12105488785191085 0.14545192787733641 
-0.32462230264894903 -0.40882266307866955 0.56345545209606873 
-0.20014115903222776 0.58223124249413605 -0.51155617531592323 
0.0012397244683568349 -0.00022513713463939884 -0.20526779583163721 
0.060791187947654118 -0.020203659310902705 0.10466213213114761 
-0.42788320020625314 0.27744035460609662 0.16393320797255345 
-0.096881388406463362 -0.69295286314519455 0.58455979204997899 
-0.028489878341703703 0 0.10320035077285043 
0.13300379266338708 0 -0.16239927948994975 
0.24864955661745161 -0.39973360981898576 0.21792240601417798 
-0.35262795430264254 0.56903026715076799 -0.29502740677742756 
0.051711180377163969 -0.23550666573251694 0.1548174742956028 
0.18866722801008406 0.033438321633300822 -0.34456149974348949 
-0.16666899983432548 -0.17451504612556809 0.23834576602772983 
0.29535999113892331 -0.43449887869720177 0.061770048544531955 
-0.50439589951903718 -0.27592427456649959 0.40945267123371909 
0.13300379266338708 0 -0.16239927948994975 
-0.15129354093629058 0.044103773695805287 0.074121102023283661 
-0.18377429726528313 -0.064978693910533084 0.25813934094057289 
0.21855726459727134 0 -0.16239927948994975 
0.088894523334946157 -0.35909386786524133 -0.065265979741647343 
0 0 0 
-0.2310477211428078 -0.041853644163521102 0.16876302274353355 
-0.054571812836634585 0.019728367172768303 -0.057114094779842625 
-0.30284054304929919 0.059996560682723098 0.17427426538015836 
0.06125902871280281 0 -0.28990368178338161 
-0.45079930799805529 0.43556782228329988 -0.031687292193404715 
0.049680524600922912 0.44435719179503474 -0.36466436394550988 
-0.052566299324700805 0.04021051745714626 0.20167041750250661 
-0.20115547331203565 -0.4116448717113651 0.49067330096761069 
-0.31749175421545273 -0.17816669968000196 0.35191919161382701 
-0.21312753699551693 -0.1833622464406946 0.22566326369799125 
0.71117784055658817 0.044590737362401107 -0.95360008280141195 
0.10362295172982974 0.18179683073494965 -0.2872027635633751 
-0.23613248642371695 -0.12375228066914355 -0.01031606108809683 
0.30729076769550179 -0.11283440573168513 -0.061985347619474725 
0.015363459408823098 -0.11283440573168513 -0.030188005859809415 
-0.13233731469745022 -0.15436304405704171 0.3555039002128989 
0.30729076769550179 -0.11283440573168513 -0.061985347619474725 
0.30729076769550179 -0.11283440573168513 -0.061985347619474725 
0.13480670665063699 -0.040841030958625436 -0.13949799103374447 
0.0087439530501703007 0 -0.084900080028509795 
-0.27131838174151413 -0.44553378016679851 0.50745429365633565 
-0.041808601877134442 -0.13261252021524408 0.040017957255135329 
0.18059247817798316 -0.049626885590936524 -0.28175023468548738 
0.047523248894932701 0.22666008782041233 -0.093580903935869042 
-0.27131838174151407 0 0.30239158855183829 
-0.24469707376999766 -0.077559641863781503 0.3282031942450665 
-0.27131838174151407 0 0.30239158855183829 
-0.036909198979170527 0 0.27094220276561221 
-0.010031017454286516 -0.63412090473552274 0.278050051883448 
0.14980705435035968 0 0 
0.14513042555873884 -0.0030196165616848138 -0.10044301686509001 
0.14980705435035968 0 0 
0 -0.27890473197671672 0.1451499073777523 
-0.25861552677114846 0.30356075381446973 -0.074857693646283502 
0.28678104241737179 -0.27948174848156293 -0.032506526010367742 
-0.71901908460732267 0.10955080199828143 0.35502638737251352 
-0.15225803112457817 0.10911206579940512 -0.14878565304252883 
0 -0.27890473197671672 0.1451499073777523 
0 -0.27890473197671672 0.1451499073777523 
0.066990124471447185 -0.27890473197671672 0.14514990737775224 
0 -0.27890473197671672 0.1451499073777523 
0.080270853525541336 -0.62443132076267105 0.54377949137192283 
0.81231420089173589 -0.092322327810027 -0.79667007335800222 
-0.39838937199971047 -0.20502180862406558 0.37007982572302434 
-0.12915474801216226 -0.12112801484551053 0.28192875679638341 
0.066598095593433229 -0.38009776684013619 -0.13335853918113064 
0.045570830778436683 0.23567151850014359 -0.20263329443958958 
0.031125538415508573 -0.43421126812931232 0.17159623881262456 
-0.13741618331136005 0 0 
0.36152160102624237 -0.04096360729196729 -0.11809453309670156 
-0.13741618331136002 -0.054923134259844145 -3.4199984286178018e-17 
-0.4460194825311245 0.039204868574254786 0.17358298827417942 
-0.27056288182699367 -0.54574611054882083 0.65584751662398733 
0.37648283099049445 -0.34108441256310806 -0.17112031576605977 
0.43550936401321511 -0.35188896436297801 -0.1663620048772963 
-0.32206429055962621 0.38866182392390414 -0.20063380681823884 
-0.18233556287889546 -0.12454694620546768 0.1870507868362159 
-0.20787787622231671 0.15091565993500514 0.030435462765385977 
-0.34236322544491404 0.11854886638971719 -0.017721050548176964 
0.15459237699311285 -0.35778069064093748 -0.07435985081598584 
0.064901822765681003 -0.22394034160066226 0.34317421351066946 
-0.10522328602932715 0.22706709563137575 -0.12996865451840497 
0.016788091720075744 -0.13293157028961228 0.47158598094738219 
0.46717043391438035 -1.7061980549648119e-18 -0.30820336071904375 
-0.058708037916943019 -0.16975435996602131 0.20272989432188215 
-0.20599192986476136 -0.26103961416076038 0.64164279498248811 
0.13463021835610348 -0.15107884602688249 -0.19233512045685178 
-0.058708037916943019 -0.012495252730882164 0.14975315479763401 
-0.0045209542139129826 -0.012495252730882164 0.0065281061466083623 
-0.0077737023149077149 0.075623471530146272 -0.02187891908937124 
-0.058708037916943019 -0.012495252730882164 0.14975315479763401 
-0.058708037916943019 -0.012495252730882164 0.14975315479763401 
-0.34337221361897496 0.20708288742943537 0.036148688925317231 
-0.18423190714752294 -0.045845604290687784 0.10822577294709332 
-0.058708037916943019 -0.012495252730882164 0.14975315479763401 
-0.17647238529632667 0.50999468253660418 -0.27627980776731187 
-0.058708037916943019 -0.012495252730882164 0.14975315479763401 
-0.3254098586803798 -0.24702888322299724 0.27016674447630751 
0.13071874544427264 -0.15022978902764861 -0.179615947511331 
0.5564090226033811 -0.015658080963816358 -0.48748563787856874 
0.046593970731585603 -0.7116546754128743 0.23733893428287869 
-0.36333855931350134 0.21298850743564093 -0.056524735141505258 
0.26457276469610425 0 -0.37069410074280018 
-0.097523866156729394 0.053281219098974847 0.062074776251531488 
-0.33314736643620563 -0.43410553472642044 0.58892347529577826 
0.17176718738347055 -0.0065413917251860741 -0.23896994621263556 
0.13516625486795256 -0.30347861068690779 -0.12344147684440805 
-0.22964272219029666 -0.32438890281279187 0.23063696468700298 
0.42536481555420891 -0.070149577519806383 -0.38413779302377593 
0 0 0 
0.32385208268559729 -0.24447363582953779 -0.096845128708240774 
-0.067796663275160651 -0.52570353922716495 0.22391364485403698 
-0.63558882095876701 0.83361798612827442 -0.25417158344178048 
0.29575511805924587 -0.73228761781378915 0.21488682291728162 
0.074454623942870599 0.0024671761514784129 -0.1718284669817037 
-0.13974482206581282 -0.12783000547895459 0.15093430772958946 
0.10683495117035546 -0.17191785709379079 0.17983103161563599 
0.29596340659860482 0.046139861009625346 -0.27795213415993958 
-0.37681395403913936 1.1845367987861335 -1.0627848912960132 
-0.035963750080482221 -0.76600761675892182 0.69886637452198908 
-0.024130523209823968 0.13359635365206346 -0.13991035555258319 
-0.040879661319503498 -0.070640278119333266 -0.1501800229780173 
-0.28477603624035297 0.95854323477331538 -0.41939312382454036 
-0.054380826411304255 -0.2922560489495406 0.38996477337959301 
-0.1629194886704835 -0.34802684960178981 0.5005531196354539 
-0.054380826411304255 -0.2922560489495406 0.38996477337959301 
-0.25844529485522982 0.20693281385741755 -0.087370150172809913 
0.38628408944048609 0.21339352813083073 -0.52839799249415742 
0.10050031240384308 -0.11932336906608736 -0.14712399763327874 
-0.12969338308217462 0.1382985914527709 0.12796626633823566 
-0.054380826411304255 -0.2922560489495406 0.38996477337959301 
0 0 0 
-0.097647649844187084 -0.15650313464903726 0.32290533929719023 
-0.46889652352705313 -0.5070529490668374 0.67377847303528193 
0 0 0 
0 0 0 
0 0 0 
-0.18006649322045259 0.27333695080261827 -0.031375265178769617 
-0.038564517644520423 -0.52412601822180094 0.43277106432556384 
0.041818700830797077 -0.46056239061138998 0.18504713207644374 
0.4504360442498983 -0.091651049450898026 -0.44448476309398521 
0.014380539901944919 -0.79773858349414406 0.36542443064044988 
-0.32478251801522079 -0.14069452248655409 0.34075656553130707 
-0.14661535789983393 -0.083402572347518231 0.17742301998262472 
0.3194606448478971 0 -0.52782818393836983 
0.62598268731815743 -0.057444913770013782 -0.52096262885734534 
-0.099437552607841706 0.10366908885479939 -0.17604599712897634 
0.3194606448478971 0 -0.52782818393836983 
0.23628930775852361 -0.048177687346956918 -0.29300522077062119 
-0.17194105372424845 0.024322871044435652 -0.070660439388978466 
0 0.12186969556188322 0 
-0.46102520226707477 0.810349984793031 -0.79789455377965679 
0.34694845533844176 -0.66975135472742886 -0.11603632285862328 
-0.36498751611557478 0.80291162204806765 -0.48052054811557693 
-0.55334069315306955 -0.14382889769093254 0.70006656737135697 
0.027768563936673055 -0.079239453503957322 -0.04131735604757053 
-0.60425918114503707 -0.19381593570821512 0.46347528428584811 
0 -0.2483317603914364 0.11209523846670885 
0.028052640379063052 -0.0074240395975363957 0.010922120659759327 
-0.17279294144197974 -0.10181132640004449 0.26354569833847619 
0.14194009582538272 -0.22476794039151665 -0.094866246258663744 
0.18355242014812581 -0.34932442625804988 -0.0081658645417735688 
-0.81802545213392552 -0.4269004365665573 1.4695115262277496 
-0.0039426637114909849 -0.10518937317740391 0.14687521341030055 
-0.092821207843013898 -0.08143912010568212 -0.065548370269617698 
-0.1519205546538567 -0.01197409192216529 0.31559299177651767 
0.59789785969619413 -0.19589302142969486 -0.49989793637360069 
-0.24183213376623289 0.31998385703700155 -0.18080197068282733 
0.31979982769873427 -0.11492519218945477 -0.081733018604851895 
-0.054361886593465823 -0.01197409192216529 -0.086283382257239513 
-0.29061754953782926 -0.28673575052227873 0.49129454605605599 
0.16468974616194854 -0.26385908271954117 -0.062273298892012295 
-0.29724825738983579 -0.016703114969634301 0.20101887955185288 
-0.1519205546538567 -0.01197409192216529 0.31559299177651767 
-0.1519205546538567 -0.01197409192216529 0.31559299177651767 
-0.1519205546538567 -0.01197409192216529 0.31559299177651767 
-0.46330364933532475 -0.28473802089798222 0.49272598560744996 
0.34808190916946069 -0.19569903971841729 -0.083370351321220004 
0.54465305653852059 -0.40162822514794144 -0.53304053219509828 
0.13161205930407244 -0.31317357481407393 0.10180602174886907 
-0.25293762237670314 0 0.063387772403859372 
-0.14632863613260391 -0.49851008264597108 0.14056899943240822 
-0.15063032147693961 0.34838462091188171 -0.12216703506681076 
-0.22247615533047913 -0.22020291565682226 0.29345864117746134 
-0.37529798697920741 -0.48336242168962251 0.56131461492198709 
-0.25293762237670314 0 0.063387772403859372 
0 0 0 
-0.11869012747960539 -0.09345511893283158 0.13147221390589647 
0 0 0 
0.40361312744169425 0 -0.12475004917775087 
-0.47299630186751523 0.34005578232110456 0.35957015068808817 
0 0 0 
0 0 0 
0.055533467504373345 0.11765148812844098 -0.29381580426233123 
-0.56051067222481932 -0.021347846098571831 0.47975434966152319 
0 0 0 
0.34080813286657768 -0.30078982477796495 -0.52463015232977073 
0.18744318750152603 0.19212797103576262 -0.37420289811455315 
0.17433642951444114 -0.32940940820196274 0.17655209695113711 
-0.06842625378701786 0.23587962752731906 0.11846718393148739 
0.79330825764798796 -0.054534358558264585 -0.88476821385286353 
-0.029350718076932965 0 0 
-0.42412176226267023 -0.31544536460302741 0.38197259248376852 
-0.12023480591090699 0.022715143093432123 -0.035007149064319801 
-0.41386521436749246 0.23567969787053941 0.48607308280677991 
-0.10507554430674072 0.13434950244449156 -0.019569795916150403 
0.10981578007511769 0.0063168068819259475 -0.12859140824034002 
-0.10507554430674072 0.13434950244449156 -0.019569795916150403 
-0.10507554430674072 0.13434950244449156 -0.019569795916150403 
-0.10507554430674072 0.13434950244449156 -0.019569795916150403 
-0.10507554430674072 0.13434950244449156 -0.019569795916150403 
-0.10507554430674072 0.13434950244449156 -0.019569795916150403 
-0.10507554430674072 0.13434950244449156 -0.019569795916150403 
-0.11875753445238153 0.033451545212299316 0.14816456297246802 
0.25590074696933768 0.1746532400612596 -0.2006546477524557 
-0.10507554430674072 0.13434950244449156 -0.019569795916150403 
-0.20172147765199197 0.030661796383450117 0.047043512317179063 
-0.29505237914309956 0.0033130645663722474 0.19651892613288446 
0.39239403157367053 -0.032250839520371041 -0.61306933077217507 
-0.084049303702450173 -0.092347613610750334 0.11441839765501105 
0.20788643774712046 0 -0.11365744232310208 
0.33780520010141435 0.044007765300329404 -0.61576936908819302 
-0.46807921494060462 -0.35076158179500755 0.67264107683409291 
0.094404705930179245 -0.14047168903253152 0.038244355425466087 
-0.14159621040208323 0 0.033505190160615303 
-0.14159621040208323 -0.08235979908038675 0.1935623945953345 
-0.82913221528835035 -0.0036416636563725933 0.5245307636758143 
-0.17174936655845471 -0.22640350585911287 0.41727178081512756 
0 0 0.13917759814631606 
0.14331547952310861 -0.37206794837330537 -0.066826243374200192 
-0.40057319265670105 -0.37526670551577068 0.51101235638237097 
-0.039178831877656459 0 0 
-0.39824077260478513 -0.3083807687571159 0.7139329348708876 
0.12004099511191393 -0.24137667156276713 -0.0084069849303949375 
-0.039178831877656459 0 0 
0.32883109793675719 -0.097311511118598551 -0.34887063469689389 
-0.039178831877656459 0 0 
-0.10325612134752493 -0.24120401585604068 0.41518299022852223 
0.23403918707959054 -0.0508583419034353 -0.20849293710992614 
-0.16589205469482465 -0.067322391093034561 0.23831924478597843 
0.020430366161425236 -0.00076191031636837592 0.037076698177135235 
0 0 0 
-0.66889467602239805 -0.073519361084072379 0.72576758998583946 
0.14480987186549613 -0.098918939761827113 -0.20090669004635561 
0.023239026341582456 -0.44909660168661247 0.42081157205577152 
0.24808770588586918 6.4765676953685186e-05 -0.22840652992043015 
0.17775444211665153 -0.23377746008656461 -0.11346620092388696 
-0.19829172318539351 -0.067516470303065498 0.16611689332406035 
0.12821440440529494 0.021813776686093887 -0.21136007912470917 
0.40259466298030572 6.4765676953685186e-05 -0.34063279564884857 
0.47027106497575649 0 -0.48283838288879755 
-0.15468835725264785 0 0.24996628273415136 
0.043606735200796116 -0.22042793928884893 0.13550512485939856 
0.014763454759698411 -0.24899102812519106 0.055086450763979826 
-0.050107047835273033 0.11935489159447239 -0.023585800417848992 
0.072975310392129414 -0.073027728978368234 0.062091960427352655 
-0.15468835725264785 0 0.24996628273415136 
-0.33656657582056332 -0.039330190339000426 0.52242477367329165 
-0.57672740247558518 0.18090435721969569 0.30545857501491325 
-0.070833446821576482 -0.17261874615123607 0.21267877468272633 
-0.52940229714873899 6.8247922198592476e-18 0.33325878759912525 
-0.029982057795312437 -0.20578958721590598 0.11326561869542491 
-1.2881761026462935 1.5172258596583807 -0.66422135163717944 
0.22378341524251349 0.10182840408144139 -0.25979947696994271 
0.91919992587021515 -0.5018667693474238 -0.96581846834013507 
0.94034418972111344 -0.22874619321401746 -0.77953427977526224 
-0.15051489723306097 -0.040892515111787715 0.22962041503953351 
-0.31617222917530935 -0.21821690614263653 0.28535359360307694 
0.36824886002987312 0 -0.10059249592927655 
0.36824886002987312 0 -0.10059249592927655 
0.20747624984477767 0.39254878919369751 -0.50741165124023757 
0.09956906367305729 0.11523794640647925 -0.12407167974398212 
-0.39946151922837841 0.48763432185145866 0 
0.087169834042515229 -0.18321768084383241 0.11692376830612686 
-0.069427178298868908 -0.083872687277510599 0.14611348823942336 
0.23178103032011796 0.19009673305124605 -0.18566827329063404 
0.020072064232649824 -0.49779758425044912 0.31562796455958014 
-0.010685566329715866 -0.065979452785868836 0.007019234774990786 
-0.19232528707792321 0.37629883137191328 -0.016645918130141216 
0.14261961045342175 -0.06597945278586885 -0.3522808091650631 
0.42636034939653616 -0.31451363331868171 -0.18022385101000318 
-0.19525502320247984 -0.45584148405327224 0.6807479430147424 
-0.54308434909222281 -0.35955759118248992 1.0813282391804402 
-0.060742515984626502 -6.4851438134245335e-05 0.057132466309912672 
0.42073356476847945 0.33311650510908603 -0.71837885719741557 
0.50938522698345423 -0.084755939549764195 -0.35481234989646909 
-0.060742515984626502 0 0.057132466309912686 
-0.060742515984626502 0 0.057132466309912686 
-0.060742515984626502 0 0.057132466309912686 
-0.060742515984626502 0 0.057132466309912686 
-0.089808820820503205 -1.6635431035906917e-17 -0.20818626871488755 
-0.060742515984626502 0 0.057132466309912686 
-0.060742515984626502 0 0.057132466309912686 
-0.58383129756667751 0 0.94917006999498743 
-0.58383129756667751 0 0.94917006999498743 
-0.11851616656407474 -0.02225120608033266 -0.048749696900948027 
-0.29579091562915116 0.4809404782152274 -0.079738331527372044 
-0.58383129756667751 -0.063401066319266799 0.94917006999498765 
-0.064430121954119277 -0.078340796850423847 -0.093263678790535542 
-0.38577209325793776 0.31548547844996894 -0.072184895285009404 
0.0017814889499233163 -0.51450182897145125 0.49959201851362051 
-0.17821440095517646 0.043913166232955346 -0.078580512222277452 
0 -0.048755504251028405 0.01658521378478672 
0.19312500138416194 -0.17363360158834112 -0.11989655206698305 
-0.10565353841817425 0.28780448152088689 0.0028860454961401301 
-0.2377796044986327 0.26966812694044756 0.016585213784786716 
-0.5340331869047511 -0.090830803766512758 0.65972919103955185 
-0.068889603679600439 -0.16053687531689928 0.024367063569821736 
0 -0.048755504251028405 0.01658521378478672 
0.059970333974731713 0 -0.054190707311791618 
-0.1696516735381495 -0.35402615663419074 0.10316119500565259 
0.059970333974731713 0 -0.054190707311791618 
-0.070753767788101926 -0.50335508182588939 0.52306219303981683 
-0.22654291927231651 -0.079734424143881585 0.25202004320456439 
0.059970333974731713 0 -0.054190707311791618 
0.24709189603397511 -0.62615817388684569 0.20821222643388229 
0.59100107382480394 -0.24071655319418248 -0.029429192896956384 
0.059970333974731713 0 -0.054190707311791618 
-0.29024208551455288 0 0.18272837017532037 
-0.29024208551455288 0 0.18272837017532037 
-0.29024208551455288 0 0.18272837017532037 
-0.57068061055999253 -0.16819185173303647 0.87869791486041327 
-0.29024208551455288 0 0.18272837017532037 
-0.43503662691185441 0.048280905619711233 -0.025182164190778358 
0.51754124988324401 -0.20590574119990324 -0.42697821178877293 
-0.010143938014656644 0 -0.089190350792083678 
0.58485037316954569 -0.9269163779718772 -0.13103762231601587 
-0.17898356053092959 -0.27720086095482704 0.19130515569747045 
-0.44998012002201582 -0.26680227765836212 0.47155075978359134 
0.58860601225917286 -0.15783422475336706 -0.29241855578226328 
0 0 0.046283219572950035 
-0.15905468401552267 -0.064191795883582745 0.053943637872434558 
-0.51880424442343676 0.13501473771933753 0.2448407666022642 
0 0 0.046283219572950035 
-0.058729191520362385 -0.017871183457688008 0.13910765371588435 
-0.058729191520362385 -0.017871183457688008 0.13910765371588435 
0.19858194870762821 -0.083070778990141675 -0.26582686730350891 
-0.058729191520362378 -0.47005438336580219 0.54896408851257028 
-0.15198589586935027 0.23166591280826729 -0.0073977013294822189 
-0.14438236731650328 -0.6246173159836832 0.28886321987765534 
-0.058729191520362385 0.43629156995134666 -0.35877639063066341 
-0.058729191520362385 -0.017871183457688008 0.13910765371588435 
-0.31874394850723275 0.54502695014483471 -0.22926065709228682 
-0.20694721850155975 -0.15032032382190874 0.52591350421813687 
-0.46245267237117099 -0.016883884247445972 0.69128119532187526 
-0.44090264783779898 0 0.65047756550076585 
-0.27819991211947759 0.17540038893884158 -0.053737234552796817 
0.58479250035075558 -0.49874322569614293 -0.45683380061595752 
0.35680881768235778 0.3325010168731718 -0.40627799139738002 
0.14909284281378654 0 -0.17029279068188932 
-0.12187365417877688 0.14031944595923332 0.10677078694672358 
0.14909284281378654 0 -0.17029279068188932 
-0.073213767461825952 -0.45339848872425853 0.1509804153229275 
0.57958968484327433 0 -0.51031676412240878 
0.12162031760949218 0.18371264696656145 -0.22859495077645023 
-0.16767664749335565 -0.11553410123139211 0.4474759897191557 
0.21664353283899432 -0.21600383529443887 -0.18639656533781582 
-0.27107190870133435 0.3530891895108294 -0.46292347116276233 
1.047196924259864 -0.79082782808570307 -0.68258438953062361 
0.22243261451495153 -0.5277904293385145 0.0075849221498373066 
0.10559266078760014 0 -0.030402088836097269 
0.82599250405956426 -0.037441361813422246 -0.79231006807880722 
0.10559266078760014 0 -0.030402088836097269 
0.22431177807552119 0.27065688203173566 -0.40702835446033347 
-0.041983361269941281 0.046890377083435117 -0.010414831853241178 
0.35263106313517223 -0.27361449357194073 -0.20662993188714063 
0.10207790288269859 0.083541057659618223 -0.16590449637838994 
0.7170434195156532 -0.57420871895044667 -0.46680495146270939 
0.49768640197623865 -0.46410192211761447 -0.50351600664508445 
0.24112649115112897 -0.33070584453716917 -0.16274644468268432 
-0.40570277202038169 -0.25485950993516282 0.34268477744873393 
0 0 -0.23556588707312515 
0.1695556771747701 -0.15678492428991586 -0.086648004279425817 
0.026352647959705058 0.13993328304007235 -0.084007524096587086 
0.3060492503584008 -0.088043333671924962 -0.24014688647008414 
0.34833703298860069 -0.15620884486681044 -0.081114639618873094 
0.062029069855959566 0.005980949152695811 -0.075138502708718954 
0.44505830969258953 -0.19629608365652632 -0.27777372732805544 
0.38258346409439731 0.096881174708026402 -0.49774063995955647 
-0.21495220742557264 -0.58033783863472266 0.47945847027633343 
-0.42588709597183522 -0.042743096061031972 0.22117995540109348 
0.20909823906294608 -0.17371216663381417 -0.063374192067332857 
-0.11374837633898734 0 0.10146591914415795 
-0.11374837633898734 0 0.10146591914415795 
-0.11374837633898734 0 0.10146591914415795 
0.061495325173334753 -0.1293886298471971 -0.0073389395286258333 
-0.11374837633898734 0 0.10146591914415795 
-0.11374837633898734 0 0.10146591914415795 
-0.11374837633898734 0 0.10146591914415795 
-0.11374837633898734 0 0.10146591914415795 
-0.19540200417163642 0.12331617199372855 0.13834765679324479 
-0.062766592855549863 0.92408238877410631 -0.84590889210395026 
-0.20633893579720214 0.31706241965007503 -0.18580671106900565 
-0.24866081228887266 -0.1879680810426857 0.36891580762372728 
-0.24690053101195086 0.42740674739112239 -0.42529406251869212 
-0.010739704024337328 0.032833343065301911 0.0086479004299403733 
-0.75650988436544819 0.14308583647788845 0.58224751019693155 
-0.13753424576283468 0 0.052296636841829273 
0.098569825577517575 -0.012656367163767434 0.15673667117842613 
0.26395661421618882 -0.00051597004149250229 -0.10598378017819678 
-0.022722840135252356 -0.37090997123542124 0.12848953979108574 
6.831335310775895e-18 0 0 
6.831335310775895e-18 0 0 
0 0 0 
0.57078429409715181 0 -0.41954950952625947 
-0.13801530852584723 0.50028254581314346 -0.25752899270054591 
-0.27480661700559084 -0.7094310393945864 0.5120858331538154 
0.57078429409715181 0 -0.41954950952625947 
0.11499055722311993 -0.56345016751059851 0.22265489677641617 
0.15705364078378309 -0.019308992742930815 -0.61220336174047685 
-0.017824256480824353 -2.559297082447218e-18 0.054967867267282325 
0.38707006008630029 0.22050477606689231 -0.52146168905186441 
-0.012321465153709216 0 0.054598127562480371 
-0.42438261325590115 0.088040787369586093 0.69640834413459285 
-0.17137379482430709 -0.2269839893088362 0.18353345799927023 
0.16633159706550482 -5.1185941648944361e-18 -0.2381339082183678 
-0.029389706088579295 1.7061980549648119e-18 0.16367950641111179 
-0.045281340291648757 -0.32580183617711533 0.29153727201438812 
-0.31301790695585757 -0.14864045860934999 0.65616807058853677 
-0.74277767824232166 -0.02971907162957577 0.46681515577858229 
-0.1204170393079733 -0.18390651876240038 0.091344173607210019 
-0.017407249136215483 0.32689019626154048 -0.22097608741665192 
-0.12063129339786657 -0.24820994547540304 0.062577658536361672 
0.16776734977458349 0 -0.073875458027043928 
0.16776734977458349 0 -0.073875458027043928 
-0.38026059810660506 -0.23921813701515382 0.2979107458983869 
0 0.091605525544743854 -0.059519637563058447 
0.11095428863287068 0.023866892673061402 -0.32010065015957351 
-0.014079596141657375 0.19445778516594781 0.013262167895958974 
0.077023608040573302 -0.33684425407142571 -0.037725680594246754 
0 0.091605525544743854 -0.059519637563058447 
-0.11807256435414283 -0.23386991517657019 0.027037549795781966 
0.10931485099645434 0.070893555457101243 -0.25261104899730502 
0.22671140833648706 0.071230018373926327 -0.28055044089903569 
0.22633793990052026 -0.09843598490198939 -0.059231759906031835 
0.22633793990052026 -0.09843598490198939 -0.059231759906031835 
-0.16311418589131071 -0.41950161435379391 0.14412483933046641 
0.22633793990052026 -0.09843598490198939 -0.059231759906031835 
0.56384031411293145 -0.4902138607492566 -0.059231759906031849 
0.22633793990052026 -0.09843598490198939 -0.059231759906031835 
0.22633793990052026 -0.09843598490198939 -0.059231759906031835 
0.22633793990052026 -0.09843598490198939 -0.059231759906031835 
0.20130922943042517 0 -0.30636645641804394 
0.20130922943042517 0 -0.30636645641804394 
0.20130922943042517 0 -0.30636645641804394 
0.20130922943042517 0 -0.30636645641804394 
-0.45670816309392409 -0.45000837392806109 0.64315765150917648 
-0.23145592756951788 -0.12124391286509469 0.540768806374613 
-0.21167881717440321 0 0.090834269061583706 
-0.21167881717440321 0 0.090834269061583706 
0.29808445492176566 -0.076194887245361734 -0.098975485716152514 
-0.24927969182967782 0 0.23148766351299768 
0.23306110029986168 -0.23760086418456319 -0.13024979841568121 
0.34801080244362143 -0.23760086418456317 -0.17314930643955406 
0.053802652826417156 -0.23760086418456319 0 
0.11528403022082233 -0.4084881821377041 -0.14618083726392708 
0.25976790876735401 -0.12566455738316132 -0.22910669750454965 
0.42499830495899699 -6.8247922198592476e-18 -0.17638089660065395 
-0.3626571534178239 0.49405563508115108 -0.055487814936945642 
-0.046982302087621719 0 0.18142357139618065 
0.174026192725491 0.11002699339670381 -0.19672305517698568 
-0.14843001586540916 0.018361286852568649 0.27039207080620936 
-0.046982302087621719 0 0.18142357139618065 
-0.14829994146830869 0.18103308100544921 0.053253441740511158 
0.051950063148242451 -0.034459812263143791 -0.37855353959012117 
-0.25109715185248982 0.11356221454550518 0.18142357139618068 
0.70110517863691879 0.038862333817601617 -0.71272339525443873 
0 0 0 
0 0 0 
-0.23877246905857641 -0.071067499314395113 0.049109148310200412 
-0.32507172961465641 -0.27075343164986937 0.32973756322527797 
-0.61662115405867035 -0.16639437224239659 0.52357050511169423 
1.1530411863390124 -0.15845605595811474 -0.79455896760726719 
-0.61966905962742735 0.13213895317040256 0.45103869018679776 
-0.057466592512640177 0.56091000283056347 -0.1026150882143325 
-0.34891867133014864 -0.1044768171927842 0.2124987077673704 
0 0 0 
0.39954139950815276 -0.043107220302348731 -0.26152539950819581 
-0.090286892121532417 -0.031029432707349328 0.068071339724703694 
0.25845649095329343 -0.18201678886216052 -0.123312571371695 
0 0.098970318780624261 -0.025824759004997443 
-0.012217720943651983 -0.54540022959269119 0.28480270791999424 
0.12880205949883419 -0.25584621816509945 -0.14393945604963199 
0.17576792858278714 0 -0.1926831507039084 
0.17576792858278714 0 -0.1926831507039084 
0.031844418831424151 -0.47727732224979491 0.091744914886343287 
0.17576792858278714 0 -0.1926831507039084 
0.17576792858278714 0 -0.1926831507039084 
0.12981011874099643 0 -0.19268315070390837 
0.17576792858278714 0 -0.1926831507039084 
0.17576792858278714 0 -0.1926831507039084 
0 0 0 
0 0 0 
0 0 0 
-0.44221816253662999 -0.094616010055547428 0.3103819471253178 
0.44042757436809077 -0.56177835480002258 0.043011741167236134 
-0.11201364905985077 -0.064605195460420595 0.013475160181433384 
-0.49554654400759363 0.165572008894526 0.031967774727375671 
-0.25550417382564716 0.47026377861844249 -0.22952985696860931 
0 0 0 
-0.34578733419468194 -0.038016626829875673 0.061165706568030373 
0.049633135420767138 -0.045501846258488007 -0.14743655024091232 
0.024216986466230918 -0.020332958696806978 0.0051324939692482859 
-0.44673313840166973 -0.17038088792258441 0.58992380596269267 
0 0 0 
0.24800115314162452 -0.019000569199736188 -0.22254085594125572 
-0.038434974907410338 0.44398023377619689 -0.40378822215094817 
-0.44639213588295129 0.087741411556409021 0.1187241004589811 
0.24611706234257361 -0.089487579914952459 -0.17160411748064194 
-0.28833936864901971 0.39265101322866292 -0.13038852788765184 
-0.41930952560728596 -0.08969125689348012 0.42975991823108928 
-0.052167028341982793 -0.23053614036686021 0.16332595977312092 
-0.33201175175886077 -0.03409846954239204 0.59229794554687265 
-0.61461140193738406 0.21877717783618511 0.22375152260872028 
0 0 0 
0.21113059104287649 -0.10594503282114197 -0.15015409422861897 
0 0 0 
-0.1493263737390193 -0.40837261987519835 0.40578797710447279 
0 0 0 
0 0 0 
-0.68792204148064984 0.14412948308009141 0.3040902312851349 
-0.20414000991971581 0.40091393327816588 0.019748366436949841 
0.16738457502052181 -0.30398742193172756 0.11050487781523854 
-0.022981697638418484 -0.092614403429106859 0.16426072416914103 
-0.4774801993581928 0.20146582305955005 0.11338127090171864 
-0.7446797008899918 -0.20953218244666225 1.054602526393748 
0 0.1526812036424296 -0.028171775769272607 
-0.013525357417187198 -0.28204255938487977 0.24134194089642647 
0.071363011307528021 -0.54683790824910006 -0.0038084679104428421 
-0.26882485143499274 -0.40579058924697048 0.4511235446768615 
0 0 0.10210658667110706 
-0.2565056390840097 0.19345477434333488 -0.19805359622269814 
-0.36366799991033316 -0.012933362567414753 0.44322407111359524 
-0.24437130888117511 -0.27315874285479258 0.35992924703072138 
0.012993154626437079 0 -0.17624449063064385 
0.020051585028444653 0.17271564370636369 -0.19088230055093142 
0 0 0.10210658667110706 
0.3736828673420548 0 -0.44601874804505814 
0.1322455172293783 -0.044952769320836299 -0.12399753989638689 
0.29493436445687016 -0.59891414201916771 -0.24644447420417687 
0.3736828673420548 0 -0.44601874804505814 
-0.36073659034864436 -0.12490562393106816 0.30349573441266048 
-0.063100866051987961 0.20402719899935826 -0.16729669715245682 
0.43805869564197741 -0.55310445265951069 -0.1044562938493773 
-0.027567223497922035 -0.0587696038817445 0.063970714796735176 
-0.47704313020276629 0.12733937442140039 0.37866525366795983 
-0.027567223497922035 -0.0587696038817445 0.063970714796735176 
-0.027567223497922035 -0.0587696038817445 0.063970714796735176 
-0.027567223497922035 -0.0587696038817445 0.063970714796735176 
0 -0.36186497722748118 0.29822686359789141 
-0.39531836546196136 -0.31700286531494087 0.68972090415676102 
-0.70556315086101684 0.6951513539460209 -0.30631689418654079 
-0.57582558721394717 -0.27250833446750578 0.4747846908578966 
0 -0.39192886842077801 0.29822686359789141 
-0.22649241632206818 -0.056123401238765754 0.2987420968573351 
-0.22649241632206818 -0.056123401238765754 0.2987420968573351 
-0.22649241632206818 -0.056123401238765754 0.2987420968573351 
-0.22649241632206818 -0.056123401238765754 0.2987420968573351 
-0.22649241632206818 -0.056123401238765754 0.2987420968573351 
-0.0291916077777883 0.1840761174225517 0.0083174233926805122 
-0.051325087670428017 -0.18556058686498098 -0.037274431572298455 
0.41543954893445595 -0.084900527716763846 -0.19365892385808814 
-0.13605695786379807 0.087798638200076204 0.14538441809020919 
0.26529228945042521 -0.18163457628798299 0.15018131045814831 
0.39608696677972932 -0.084900527716763846 0 
0.22731377925517385 0.39917419770259377 -0.35568180907310071 
0.39608696677972932 -0.084900527716763846 0 
0.29225538993084182 0.40031167026962949 -0.97793455361950299 
-0.32979200067152453 0.024259588165237083 0.45847541783087414 
-0.45794634202368772 1.3358717735030277 -1.4938550816538354 
0.43747019887091104 -1.0723201197591732 0.18944183552979318 
-0.090729195194018827 0.239496166629795 -0.16685573331380979 
-0.090729195194018827 0.239496166629795 -0.16685573331380979 
-0.022552156338070232 0.033301651802358598 0.0063829346136713792 
-0.24645653560993139 0.24439428168008223 -0.047895304556405859 
0.10239369929754881 -0.12387582777943519 -0.13964755888343347 
0.62102226646601788 -0.37580980672210779 -0.21276270239463116 
-0.088369964555584546 0.18427672836416045 -0.1591051024931173 
-0.15253211154896795 -0.20838609925235616 0.31056927679309299 
-0.075590429801313988 -0.20838609925235616 0.17311668614599943 
-0.15253211154896795 -0.20838609925235618 0.31056927679309287 
0.05410239293307377 0.19202826917235302 -0.27629203381959061 
0.12103087106294926 0.19423440598358055 -0.27034439336758176 
-0.62300610415718416 -0.22819822293383898 0.74163355287028865 
0.21191594036188049 -0.45746881075354529 -0.077866862807221701 
-0.063358410755438993 0 0.010613375750240154 
-0.063358410755438993 0 0.010613375750240154 
-0.063358410755438993 0 0.010613375750240154 
-0.4549105642036087 -0.20844392445057514 0.54107365224612647 
-0.044684051549427173 0.18004712056004704 -0.082428163856606215 
6.831335310775895e-18 0.20843652467199239 -0.1966844200768556 
0.41378074140331333 -0.057746951545738077 -0.10152384458329335 
0 0 0 
0 -0.10628051245382895 0 
-0.13095699422383333 0.40842897257976196 -0.16570559644430988 
-0.1001609788461043 -0.16006955577898532 0.15883076913814248 
-0.11761357151104664 0.080659420561290801 -0.04285808392929151 
0.26774269185630528 -0.23060937173364074 -0.11292392450054493 
-0.55456557043450516 -0.10628051245382895 0.62970000437396834 
-0.053561057866422145 0.024542435287150086 -0.075248787600108447 
-0.11683486715592163 -0.31976389668022981 -0.066286043306802864 
-0.14976133361307986 -0.36451364866032415 0.50700785555681538 
0.17376776700745208 0 -0.29600860459642769 
-0.010439210640694533 0.32695551925179644 -0.55532576594908267 
0.17376776700745208 0 -0.29600860459642769 
0.23652595971612353 0 -0.39339306729792656 
0.57499957106557342 -0.50658495741820653 -0.44432676845068247 
0.17492407166632609 -0.059238602381624879 -0.065669555632312845 
0.021395752565790918 -0.17190092974819934 -0.0088555404544432264 
-0.42562124365029358 -0.059238602381624893 0.61922893067926077 
0.091699313021685436 -0.11831195202772182 0.02755483518634691 
0.098919711237804103 0 -0.027507355588150179 
0.23652595971612353 0 -0.39339306729792656 
0.23652595971612353 0 -0.39339306729792656 
0 0.53345880221990227 -0.52356587579911873 
-0.95638351464585969 -0.12196330104419975 0.17619266497444822 
0.2003761156702269 -0.21460378528560517 -0.11640221629041622 
0 0.53345880221990227 -0.52356587579911873 
0 0.53345880221990227 -0.52356587579911873 
-0.59010176507724277 -0.061652602299862663 0.45310109986614044 
0.343428494101643 0.22420659527714468 -0.41670778616346049 
-0.17024710503625143 -0.11754674063653682 0.35210508999122803 
0 0.53345880221990227 -0.52356587579911873 
-0.09652368720913676 0.013082398539177456 -0.075111065132487956 
-0.19744060812333111 0.19604614913286375 -0.053921710605733454 
-0.19744060812333111 0.1561203221770418 -0.052569921355843083 
-0.13412995172199504 0.085022379490265004 -0.0093448629678142339 
-0.19744060812333111 0.19604614913286375 -0.053921710605733454 
-0.12226138229979157 0.60154055842394161 -0.33991839594300877 
-0.66205993839017963 0.40756820229437551 0.15766937883918686 
-0.019947633197376417 0.034438252811916481 -0.0434933899200265 
0.10577543860685029 0.2169429677499394 -0.32312482690002542 
0.61152806344904653 -0.35591739091919755 -0.0034362206924154065 
-0.41941426638515 -0.079385024327034426 0.33082353187950286 
0.059927761457775147 -0.33606236578426307 0.078347653870363507 
-0.15171387929386498 0.61290892669774055 -0.23252677541897113 
0 0.4492197921639447 -0.21492505332848769 
0.58503350332899429 -0.08222200021099961 -0.62765799741570405 
0.6836857259918272 0 -0.68749505206444128 
-0.18498429204687891 0.10481410919437273 -0.016840489475799202 
0.0564868947438961 -0.012933410197949772 -0.092184534325043893 
0.36727951669221154 -0.12691023659288572 0.049437702267661102 
0.06754289777358688 -0.010507425218836366 0.1489475937690054 
0.060789396495543956 -0.039894296579190948 0.0045991002951624909 
-0.028838157592377719 -1.3649584439718495e-17 0.044550638902197209 
0.47587603445740051 -0.38810502845253503 -0.22483432205654763 
1.0085012165587435 0.011542195277986621 -1.0922603974768836 
0.035820730028572903 -0.36196556376622702 0.19084725484350917 
-0.18115043836627201 -0.46790924726711525 0.48121001861381085 
0.14927290072953561 0.27657747086940654 -0.47236854045676691 
0.033656586080690415 0.13091024421481462 -0.19324688702242529 
0.066808890587324588 -0.095535216906272424 -0.24560171798326919 
0.15761160977211389 -0.24412506339606732 0.26481449802411278 
0.0049665889269588518 -0.00067424139611216684 -0.035484906506263486 
0 0 0.042890034545948516 
-0.11750177662153886 0.16083479146551297 0.033167061108742769 
0.11723838770671867 0.41518219107359666 -0.19554004214174803 
-0.15574283879541553 -0.17181394004610692 0.32524353441222081 
0.79647422920946265 -0.43267446336630522 -0.81276408805814793 
0.26067515935626162 -0.078786091811297906 -0.26499768159922171 
-0.65989983408522657 0.12734052685596087 0.42731678886093188 
0.33944235768845604 -0.13029932376280717 -0.1915020598632487 
-0.76300418586882868 0 0.75819780982974583 
-0.47828477682589776 0.17066341899438126 0.45960341687612655 
0.022352753538123337 -0.90476125495262971 0.35100214780249178 
-0.41829538579687597 -0.32386262535096466 0.47689267310556305 
-0.31232964538777153 0.12779704652092452 0.10578722363714604 
-0.45581171472222737 0 0.30373981103917536 
0.51103764389499196 0.26475508526874092 -0.70338099398671439 
-0.45581171472222737 0 0.30373981103917536 
0.50132283565295954 -0.17211803526977509 -0.48474645592625287 
-0.10113434358384391 -0.0073554921670218694 -0.069247251993135306 
-0.089238614881834877 -0.26359261005657469 0.22758097238767686 
-0.061390376878813102 0.095675324504846782 0.096496879458128099 
0.81348420196799698 -0.17211803526977501 -0.74409851194822774 
0 -0.17211803526977509 0 
0.012928615733244135 0.18441004917511938 0.019697590477003039 
0 -0.17211803526977509 0 
0 -0.17211803526977509 0 
0 0 -0.29971298275133318 
-0.7808211857350511 -0.0041447202349612963 0.55675542093396546 
-0.16126363297032228 0.59115377673822622 -0.23835281972108407 
0 -0.092803792827734807 0.073741093349493886 
-0.051843620499401569 -0.02355761150978386 -0.20116738092701214 
-6.831335310775895e-18 -0.35091913550015708 0.10609854516786733 
-0.079013665884903175 -0.022298883852661221 0.10609854516786731 
0.32056939200320583 -0.24427483036602396 -0.23739655607185328 
-0.50116464593325649 0.090009536057179609 0.42276995240941179 
-6.831335310775895e-18 -0.17251013125828574 0.10609854516786733 
-6.831335310775895e-18 -0.17251013125828574 0.10609854516786733 
-0.63980582307472089 0.60198190509111782 0.044265391716916777 
0 -0.092803792827734807 0.073741093349493886 
0 -0.092803792827734807 0.073741093349493886 
-0.17748778475784965 -0.045841582857879114 0.17868546406553312 
-0.30321144323158478 0.56117549431902269 -0.10955147225058438 
-0.017059678336454484 -0.0458415828578791 0.068807724082038627 
0.96324085375319601 -0.71039727102011219 -0.48181846025191882 
0 -0.045841582857879107 0.062392375451866489 
0 -0.045841582857879107 0.062392375451866489 
-0.11579539352629632 0.091087068641917415 0.16156014818501918 
0.12828889165246798 0.36161513867973238 -0.37789994572787816 
0 -0.045841582857879107 0.062392375451866489 
-0.099853087255991874 -0.045841582857879107 0.21986862302636562 
0 -0.045841582857879107 0.062392375451866489 
0.31433751579087338 0.12724717206861327 -0.53648049421993804 
0.54567865507821656 -0.70045700344354811 0.21167169464707195 
-0.033184099367661209 0 -0.17064229349579046 
0.17171766203043648 -0.33178158764942323 -0.025025703487949198 
-0.0019274920127597918 -0.074927998093451686 0.066239310344651914 
0.64315902430637395 0 -0.67097087783989751 
0 0 0 
0.57603171334333447 -0.47125256718438596 -0.24608204736903086 
0 0 0 
0.3175775005558451 -0.44740966890921524 -0.071728355969914712 
-0.018082200780157202 0 -2.051999057170681e-17 
-0.83635712366396087 -0.53774914325157375 1.2550612226298199 
0 0 0 
0.12803463432621842 -0.1444242463221472 -0.13568248650167139 
0.016467114236477443 -0.023356997571401441 0.026587380976764968 
-0.2751641759075602 -0.22805077677775928 0.35611869142386909 
0.18980569606025419 -0.11312906595362508 -0.19559292239506224 
0.14937281722244591 -0.27102899773925304 0.13550656848637002 
-0.28059805211527489 0.21329859138598084 -0.12367817115570522 
0.040776684514241456 0.45411222812212088 -0.63439855994934125 
-0.12565759791428835 0.17551145117327846 -0.061236722153261453 
0.004171920078480924 0.052243343452734105 -0.018944704092158551 
0.10206340379744798 -0.030026991287646708 -0.29559424109699933 
0.083543820798772719 -0.53127242612635139 0.095205974368387042 
-0.25146618432259921 -0.0059687907749959856 0.53100395834703962 
-0.51959225010612708 0.45631416343138531 0.30438591313229046 
0.052712659887741389 -0.40249317378421035 0.095005282647512942 
-0.16283591426646271 0 0.31959707240381641 
-0.016393251922225443 0.010264840175647969 0.076950395387110695 
-0.51696294298037371 -0.091264179143627985 0.42046581048344811 
-0.16283591426646271 0 0.31959707240381641 
-0.8384321468200383 0.48249372571249793 0.43034210954469432 
0.017141154124334736 -0.45004323432802606 0.1720368395519335 
-0.39624261548184458 -0.02940667204080636 0.18582081614612159 
-0.1278548678406333 0.31207152826187384 -0.093638019881962603 
-0.29360225248428562 -0.511797529547245 0.38407331251414617 
0.0015144579958880004 -0.2468582034060634 0.091209016256752665 
-0.36778732530777902 0.27813759135327304 0.46775719321412268 
0 -0.057107529166053994 0 
-0.36525230807165798 -0.16918967681422178 0.21870199170155835 
-0.22238214448011995 -0.16252615307551382 0.27675697531020599 
0 -0.057107529166053994 0 
-1.8145734419248469e-18 0.13370375058490813 0.10023811123141436 
-0.15491071175315199 0 0.30824370240731763 
0.15482410097344415 -0.3657973930469598 0.25676421100175684 
-0.45011699060579868 -0.1674950490450195 0.40582353606456367 
-0.12795240150035861 0.1154678445174994 0.13525112345015722 
-0.22825874593390225 0.051075139279757292 0.0043611759072394798 
0 0 0 
0 0 0 
0.53852289441378365 -0.13697553976215965 -0.6647059130742351 
0.56841900941763646 -0.10672106239639385 -0.60587952293999703 
0.031745670924035886 0.10230091530778576 -0.11931561592465471 
-0.0902970133455296 0 0.33924922032825766 
-0.053986437251958189 0.077112615172950566 0.042743434245358133 
-0.025244601530490053 -0.14782301261385533 -0.047827580171827748 
0 0.36862703351540765 -0.32171703294200105 
-0.27720102811608954 0.067437776761219689 0.065418224355077423 
0 0.36862703351540765 -0.32171703294200105 
-0.18967056706752217 0.3404114651178537 -0.23914925949470262 
0.13510547800917044 -0.29784257805962638 0.22968442443790951 
0.49039026982004785 -0.59917721649010802 0.010038596847261699 
0 0 0 
0 0 0 
0.11097394624252228 -0.25468716279388276 -0.066032233754553457 
-0.21965851346368839 0 0.047391423792139412 
0.44296317680296726 -0.10850953825731999 -0.20121128723810119 
-0.031770857941799395 0 0.04864687949177629 
0 0 0 
0.21226617515312454 0.20865904769039781 -0.15578580949166296 
0.61896606673928334 -0.59494543916614728 -0.22339295337842 
-0.079284242381606751 -0.39982034216070456 0.12599579277877507 
-0.94723143152158695 -0.37773925306180189 1.080808628623279 
0.77955366552075889 0 -0.31866314808533064 
0.40947767864029339 0.10980145608010704 -0.64765538368838838 
-0.4340933384364441 0.19193456632723332 0.10874245162380271 
0.53127119344054374 -0.31856167298378818 -0.18509643087310623 
-0.73139372773622957 0.81862100860481779 -0.21229514095983029 
0.24432036188783546 -0.18745488976735136 0.085870502039731345 
0.33597010590087861 -0.1028760012932412 -0.27225290568660943 
0.34244270467286902 -0.019409986424873869 -0.098522664354277548 
-0.068150422300836816 -0.34161717624849597 0.17629826219423514 
-0.14937484704038548 0.12882921946533879 0.17895699019411213 
0 0.0076928521957356768 -0.061127254770052077 
-0.067040455181324565 0.099572137386978718 -0.075361760179531972 
-0.13573788240659498 0.14630974743761688 -0.055944600748528764 
-0.54853187925576896 0.7876058978679823 -0.19603392287324303 
-0.12877035818481875 -0.047212488848298463 0.13399131374990683 
0.23593373724986147 0.38573652824289312 -0.66562948400987521 
0.363262237087704 0.35030357761806546 -0.66656068304131721 
-0.0084460799580083797 0.35045004324694717 -0.3536900567512814 
-0.34535956285143232 0.18172380188198051 0 
-0.10503803424910922 -0.34105152490074553 -0.078817828997549549 
-0.24507483025798829 0.011302422537426674 0.3037872083162752 
0 -0.26490691360780133 0.24247135547179319 
0 -0.26490691360780133 0.24247135547179319 
0 -0.26490691360780133 0.24247135547179319 
0.0079657164603977523 0.42681418571201207 -0.30293677143359515 
0.68431530636723803 -0.23117780905998905 -0.55478855998206844 
-0.24045801770555625 0.23039079527783435 0.020147545173789989 
-0.42591988999518515 0.9057102888569003 -0.83862163894669395 
0.98251918400457061 -0.33696337378616603 -0.93266512507575883 
0.19511566935781524 0.0017593772886779105 -0.30531337137884346 
-0.25991965647756082 0.29952630645704659 -0.17812532883193399 
0 0 0 
0.2382622553365962 0 -0.11456242040706872 
0.82160492295137533 0.16253412162538852 -1.0463408394577141 
0.16904630518750743 -0.023519454307340315 -0.3326224508031484 
-0.1731200362918579 0.10336187216181583 0.36212622682152767 
-0.013473539001142126 0.70058137066497406 -0.85010969526994129 
0 0 0 
-0.99488149084730026 0.10715016921421827 0.56206217338120024 
0.041226980418791553 -0.26930446148284382 -0.17335354760772836 
0.13894493127607208 -0.12143474625661782 -0.14400927899463781 
0 0 0 
-0.34132419146603432 0 0.36767636519438757 
-0.49076527391236952 0 0.25882784638406875 
0.8033288600203482 -0.31939951986879395 -0.54467294155518131 
0.070778364065878868 -0.064766156413677098 -0.018253543796394486 
0.26021154166083371 0 -0.21629535724886587 
0.04200865568340012 -0.15439187015364475 0.068019097011308746 
0.26021154166083371 0 -0.21629535724886587 
0.26021154166083371 0 -0.21629535724886587 
0.080582789728040449 -0.17523522420803006 0.14615532710854351 
-0.25324676615027292 -0.11220960106033871 0.15594858325178809 
0.026069780490374565 -0.19797142050682648 0.075148070937919212 
-0.17496939079184137 0 0.23224338237313549 
0.083280626354821544 -0.30429250894666743 0.077281720517924091 
-0.48486204629736979 6.8247922198592476e-18 0.63175689754962749 
0 0 0.23224338237313547 
-0.0056547569642816072 -0.023663730240680005 0.07055222591066844 
-0.12898697823602079 0.31135716401390084 0.064451118214418956 
0 0 0.13338994627029269 
0.37368457009258171 0.13592144430706105 -0.4138169160204187 
0.21054014466191937 -0.20480634092971203 -0.17294569268718504 
-0.018082200780157161 0 0.13338994627029271 
-0.18274852616316548 0.21538876372717547 -0.070257400376295243 
-0.12989803198599575 -0.15233979253632682 0.10805118236924544 
-0.212526839888072 0.64737019076066826 -0.33296260201179301 
0 0 0.13338994627029269 
0 0 0 
-0.14722688650311655 0.0012660893597391662 0.089459219565282397 
-0.40959869371297958 1.162157476998583 -0.70922534662323111 
0 0 0 
0 0 0 
-0.97307391218717565 1.4803818709680467 -1.4466872880617538 
-0.23185433858934421 0.24703125442295037 -0.27036294760621382 
0.16081747186997761 0.15778836041314109 -0.21304539879476214 
0.31910203283564376 -0.12305396940399062 -0.019497181667284431 
0.24428214207437171 -0.18836871132647406 -0.18275599938959711 
-0.55209909767928211 -0.22063589976129955 0.71030435335489495 
0.51472197793085017 -0.23519338002332532 -0.34897411399994172 
0.24428214207437171 -0.18836871132647406 -0.18275599938959711 
-0.057214317173638153 0.60287979655163482 -0.31270616138389912 
-0.39642763085410088 0.078843176539147061 0.31587578700130997 
0.38063334394051146 0.22745061319999543 -0.17879422966960126 
-0.031165625301798078 -0.31318197140989779 0.22869830192379439 
-0.23145912387035497 -0.010190577394179178 0.36770376418347855 
0 0 0.020692568059673965 
-0.80708301968837304 0 0.93752326773148076 
0.48711961797711989 -0.0075708532683298069 -0.44631727943154353 
-0.98336004763756579 0.38149872948092289 0.24073690630957878 
-0.063637728198593466 -0.053565646451021479 0.063496598335954446 
-0.066605722885496266 -0.17723315707265933 0.43341611305881389 
-0.063637728198593466 -0.053565646451021479 0.063496598335954446 
0.21902031828152779 -0.18045867903245139 -0.038676234905196019 
-0.063637728198593466 -0.053565646451021479 0.063496598335954446 
0.031027258241755038 0 -0.24769838995085244 
-0.3322555514284225 -0.58618673124368437 0.52189505524693547 
1.0414400578061067 -0.093746433890849565 -0.99102500945703198 
0.23083496752501392 -0.2099185297892143 -0.25027275148208067 
-0.058329707689790948 0 0.082202186976496602 
-0.058329707689790948 0 0.082202186976496602 
-0.41928730797145641 -0.023410917676926258 0.35300652909407454 
-0.6468917793788922 0.34249319496507102 0.23888177106352546 
0.067326892577562455 -0.099584475392928029 -0.23771274677095744 
0.0132773494917654 0 -0.052149391797531842 
0 0 0 
0.9910095385136557 -0.29822178111176129 -0.57706653251345408 
0 -0.087191681760015446 0 
-0.56004390413944916 -0.24824488181365131 0.63427584689685967 
-0.061562373780457667 -0.059238602381624879 0.32774175377779613 
-0.27004792801741778 -0.09465011958225579 0.39507646907204502 
-0.10197587589615811 0.56159005460119171 -0.46885043312763763 
0.046650623415981897 0.0064490002274288551 -0.26405827817986122 
-0.061562373780457667 -0.059238602381624879 0.32774175377779613 
0.16790795108211831 -0.66781173276180184 0.17363957668002003 
0.25028564501261641 -0.184503105833455 -0.20542320905085368 
-0.11566353388564551 0.31292799026276313 -0.16962055221132438 
-0.094803527946004301 -0.093961209717062302 0.08457762210115552 
0.40075215230010047 0.054632127838682355 -0.18169841239389109 
-0.26646016928078248 0.2246037136828905 0.091877429517750159 
0.59707583828090682 -0.023404539086191303 -0.4111264677262737 
-0.0053971401547419961 0.096920457066102139 0 
-0.66045714908379893 1.1455571432008169 -0.90228406653730142 
-0.0053971401547419961 0.096920457066102139 0 
-0.27766401876799612 -0.12555927713510198 0.4062714930082591 
-0.27766401876799612 -0.12555927713510198 0.4062714930082591 
0.45351379607348602 -0.16688154869982469 -0.1818751924765403 
0.38374041484618798 -0.1109334372815122 -0.27686153708701811 
0.092726854476725559 -0.12555927713510198 0.028902582820616918 
-0.36008765054512254 -0.21696420128310548 0.43692145733558563 
-0.004656362105247093 -0.037410780353372787 -0.069519371626940954 
-0.17142017529372022 0 0.15730849683374129 
-0.10214766180029482 -0.2553949840636433 0.32017619981678069 
-0.43000234918717439 0 -0.019318439440039029 
-0.17142017529372022 0 0.15730849683374129 
-0.6581908824160021 -0.047426879664526703 0.67674285071276474 
0.47229404272000736 -0.30151476143865946 -0.43369026165764385 
-0.171999823225508 -0.62691768355689947 0.4582927107307419 
-0.21898105860819236 0 0.069945650388106198 
-0.21898105860819236 0 0.069945650388106198 
-0.21898105860819236 0 0.069945650388106198 
-0.21898105860819236 0 0.069945650388106198 
-0.10300348207560135 -0.25302703218256323 0.41670092758636973 
-0.31461149960705687 -0.40954467694985053 0.22195576908512252 
0.24259275830988647 -0.76827398041171324 0.068110578520130194 
-0.38369771953166865 -0.1688864107794173 0.28676019275503151 
-0.13854340775563409 -0.28578366734946858 0.46641582429931255 
0.20631243555353787 0 -0.21058102694766975 
0.20631243555353787 0 -0.21058102694766975 
-0.057443275976066389 0.020103663582981449 0.097876705720880974 
0.20631243555353787 0 -0.21058102694766975 
-0.27528695581487406 0.30210228623462015 0.043717914986408313 
0.20631243555353787 0 -0.21058102694766975 
0.20631243555353787 0 -0.21058102694766975 
-0.28323432252450592 0.14640048209143353 -0.024146393738437966 
0.064167797618309319 -0.055040874216885555 -0.030447987043822306 
-0.28323432252450592 0.14640048209143353 -0.024146393738437966 
-0.28323432252450592 0.14640048209143353 -0.024146393738437966 
-0.28323432252450592 0.14640048209143353 -0.024146393738437966 
-0.13881189774208005 -0.12826304683536993 0.15366564786642656 
-0.060507890034964061 0 0.064583000083521816 
-0.060507890034964061 0 0.064583000083521816 
-0.060507890034964061 0 0.064583000083521816 
0.30971870838684318 -0.055221997205312331 -0.22689057648760697 
-0.060507890034964075 -0.04824965638142778 0.064583000083521816 
-0.060507890034964061 0 0.064583000083521816 
-0.060507890034964061 0 0.064583000083521816 
-0.060507890034964061 0 0.064583000083521816 
-0.061331870030072518 -0.076116684690778577 0.12493058843562133 
-0.060507890034964061 0 0.064583000083521816 
-0.10320491985825708 -0.068650654443405332 0.093047953158335847 
6.831335310775895e-18 0 0 
