solver_type L2R_L2LOSS_SVC_DUAL
nr_class 3
label 1 2 0
nr_feature 22423
bias -1
w
-0.29793959473710591 0.63037967041027798 -0.24211152486217052 
-0.22291055348941996 -0.088267333792599115 0.10951981049572135 
0.033670115350307998 -0.094963811653738475 0.037755592858255006 
-0.1056095272844438 0.12096261907589584 -0.15314604976501014 
0.80707183175344277 0 -0.21293739816989862 
0.19599419907441065 -0.11103453726359525 -0.18182519273020289 
-0.15496520662942462 0.11299110706085262 -0.044520068381664744 
-0.25894295092034747 -0.28812865177042291 0.19604996369174971 
0.070999624563567801 -0.033679684800408435 0.072835900269753048 
-0.40266088385825993 -0.55857682934818953 0.48160245555109066 
0.044791895571796046 -0.013872762195029165 -0.10181808271100952 
0.02719710848241139 -0.14050911607188926 -0.067774101296523184 
0.57481126771238811 -0.68557685367009202 -0.32114818369213705 
0.88448477343556775 -0.3259130534481583 -0.59102465037934571 
-0.32873732794764038 0.13992446196944594 0.28640887373644475 
-0.29177726845315999 1.0117835668433239 -0.98966774874243835 
0.0080216930928467909 -0.054593164580855398 0.0069758979168504055 
-0.2265808008539173 -0.15379510982449246 0.24651366165650401 
-0.57119900001722135 0.094829788835350176 0.42942193962408531 
0.33217306711143696 0.5790981759953816 -0.89944092434051215 
-0.53827136955092103 0.19349387716502151 0.005825182201521186 
-0.29415161263057232 -0.49503789116382213 0.38118246785211429 
-0.030070416976562743 0.44602014828352687 -0.52464906847183546 
-0.038746954556304419 -0.035432479899241358 -0.01433399144299442 
-0.81444739877227446 1.6889366372931731 -1.1259624250757978 
-0.24181386116744796 -0.13535630761968395 -0.045257752816248761 
-0.32791981144461624 -0.36891606383346615 0.770143770653268 
-0.083356072308395451 0.77353701081166182 -0.67812076599333004 
0.95111110155448975 -0.51351899442898319 -0.73045850162399217 
-0.350888981426488 0.1972068946092323 0.1723718245550904 
-0.156211748071828 -0.15422509252308253 0.26687501632578642 
-0.22994875274860374 -0.21206558148520066 0.25384896092914427 
-0.078030117774646579 0.0065273378427441152 0.041921632531728092 
-0.016828472227381798 -0.27907835465276548 0.32676415592942237 
0.10602981628306657 0.19484048717798214 -0.43107407009955784 
0 0.19484048717798214 -0.31105200863124005 
-0.48701238049880957 0.70532360907530989 0.078536197477299508 
-0.13200282385205209 0.23974026195368553 -0.19261260065717606 
0.1506681588673571 -0.059962406956108959 -0.042664843286444591 
-0.27426012164381247 -0.40906462026177859 0.418026096047107 
-0.12920823308344478 0 0.058156126964009978 
-0.4347026675343208 -0.0055480411359843567 0.22520765089147665 
0.47665281288080458 -0.22228737499651316 -0.20162235711801302 
-0.0088718976150289879 -0.265623097598082 0.20032246220357294 
-0.12920823308344478 0 0.058156126964009978 
-0.12920823308344478 0 0.058156126964009978 
-0.045137904901462057 -0.16132093054918062 0.053977234288336444 
-0.12920823308344478 0 0.058156126964009978 
-0.10572656595185781 0.12613037268362023 0.39448908156497703 
-0.020793824878259908 -0.079744052669097815 0.0020587433706789429 
-0.033781832449669612 -0.29463546839153509 0.11757512718991717 
0.42298787602943444 -0.074570217921423987 -0.51431199864455024 
-0.22811852207027439 0.52523751028094678 0.014228895933092263 
-0.63618663033730094 0.33857929686954036 -0.095678101826363118 
0.14711214456635452 -0.19850906297450055 -0.15377898121885555 
-0.74171065199704767 0.017077086408398921 0.51903239089300768 
0.038170902484995342 -0.66564612141727619 0.14185215337585461 
0.069968861726530274 -0.16865113081268773 0.11464684444670752 
0 -0.28162665529897057 0.51150057814164462 
0.51999070547734161 0 -0.39638257571853786 
-0.092158095996429573 -0.20091535157438614 -0.011235307328609251 
-0.19199912259297525 -0.085361433634246711 -0.19117288631791579 
0.27215587295251514 -0.058584668680637796 -0.33864455713368052 
0.10584747432630649 -0.11062648337517532 -0.15942723991234803 
0.048690048627638614 -0.57690302442968244 0.17817515869560788 
0.85214817513513585 -0.22116956859821377 -0.49117784504608625 
-0.075243058175325839 -0.071686426088968858 0.15978698944308603 
0.026570700746332585 -0.056549751272008827 -0.003732265993184596 
-0.40250993100226196 -0.12497901863861771 0.31428751270764926 
-0.2616649537347433 -0.44683113923695311 0.29379396959115367 
-0.033147625728771168 0.16184559594506628 -0.010603086391767219 
-0.35319909001624783 0.39603327942909239 0.26349172881192212 
0.10480289588762162 0.108932879070483 -0.29848193891175256 
-0.29424750508433289 -0.041768225107420724 0.22310279021944576 
-0.63195617050324926 0.39150284031988053 -0.76768570268824443 
-0.051957880008790619 0.06618097763970808 0.14149438449230775 
0.0015275148183657879 -0.041880010705337624 -0.029798767359380068 
1.5747418985111616 -0.7132607385718881 -1.370386271813459 
-0.029601512443454384 0.028311685213818348 -0.22517200872308987 
-0.17956416581937551 -0.7257775363599428 0.72962756165900811 
-0.41878884488355572 0.79607843236834153 -0.031206635118983913 
-0.30655946814369761 0.043500138787125511 0.17042123137014084 
-0.080026766552597703 0.14504613265355223 0.030398631683128369 
-0.13624602626762808 -0.43363054789298783 0.56500165099814037 
-0.66322306799987474 -0.49865049649276671 0.7668194620777129 
-0.56012956075801634 0.37031596010536327 -0.12788391347364772 
0.068741229726312414 -0.0053473003993590356 -0.043544883473041515 
-0.46313311046829658 -0.14248052622878601 0.4215448632252029 
-0.47950470037478937 -0.097453471788680079 0.32016506566521147 
0.4599243927227773 -0.3155155320054378 -0.45253285290574058 
-0.097738026514676848 0.30823239313688855 -0.36959446489910303 
-0.37849591732025978 0.35197827675169102 -0.11113878872476297 
0 0.36022395393536927 -0.36959446489910303 
0 0.36022395393536927 -0.36959446489910303 
0.050864419421218485 -0.57581482149263341 0.041436591198340554 
-0.49199636653728551 -0.099755484488810331 0.80753179030229749 
-0.44639292777554573 -0.62928053976487164 0.97865107225402914 
0.13829917405126418 0.048297738280904917 -0.45182814949950056 
0.53784919949982291 0.093481252749632454 -0.68187289246472682 
-0.40018350738579861 -0.099554092547233006 0.60404056791504512 
-0.65220001242722159 0.50470950551797933 -0.094926237229586735 
-0.093354959860833184 -0.34534560331002778 0.52482756469322489 
6.8688105861431242e-18 -0.21147483653180002 0.12651987601393136 
0.56171066703704986 -0.26989281172242729 -0.27761558345706944 
6.8688105861431242e-18 -0.21147483653180002 0.12651987601393136 
-0.19503580580923977 -0.53178167850133606 0.28192317030234382 
-0.42300222770481477 -0.164683819156689 0.40227682232226408 
0.28113274649193748 -0.048440093765461205 0.090822673458270581 
-0.068902081951025457 0.32033951138000383 -0.39588529110092235 
0.27502543640268351 -0.31676387919210058 0.081853120017531616 
-0.39212224676870566 -0.22267335980999289 0.2036871403527124 
0.030922471333010397 -0.5105810410228897 0.43134396841078132 
-0.36260840499013863 0.086437353063103836 0.22127346237017209 
-0.20278986175295538 -0.011824985607963953 0.1269505407612308 
0 0 0 
0.095928628489328843 0 -0.19860675482274057 
0.095928628489328843 0 -0.19860675482274057 
0.095928628489328843 0 -0.19860675482274057 
0.095928628489328843 0 -0.19860675482274057 
0.39299691613423099 -0.062144885314799413 -0.63583959025902537 
0.024899136390733725 -0.31915405583236456 0.038461598628035096 
-0.035295860370352192 -0.28447910642003071 0.24577681348637717 
0.01886706683251357 0.50078184182583296 -0.29330863550533326 
0.1875401368233949 -0.37344877102387963 -0.078244795819064725 
0.36862642387543082 -0.10212612450772432 -0.29302300062580339 
-0.56581341475062075 -0.53015838496380474 0.8324388741033385 
0.49292689135610834 -0.82509138375606361 -0.28542692949292986 
-1.0679884395970887 -0.20030882312789419 0.83365357714640986 
-0.11985076628598589 0.4674030531457859 -0.5893463372080755 
0.072419826938131759 -0.11487081221976142 0 
1.451180218567474 -0.075233218912137037 -1.3815325059224033 
0.12400275884695312 -0.28654801032504751 -0.16057852503525444 
0.039134114766431215 0.076903703398226816 -0.60922427016709735 
-0.67879784624520068 0.03881605813056261 0.33634073520171764 
0.28688644807748398 -0.19247071121799048 -0.26011606717157365 
0.072419826938131759 -0.11487081221976142 0 
-0.010667045547067154 0.011615599528921203 -0.055202468313899695 
-0.031430827685547578 0 0.10074413735463998 
0.061014876425875199 -0.29299718920152718 -0.22615128773203422 
-0.35663734361763877 -0.49946251683015991 0.5424997576813122 
0.13019055193660833 -0.10474329973115871 0.1760685411799334 
0.13151105714526293 -3.1289096111473434e-18 0.025002152905226765 
-0.22249253461811336 -0.11744765975187656 0.21322393411610144 
-0.18434523764977859 -0.12525214087895092 0.1266031587212661 
-0.031430827685547578 0 0.10074413735463998 
-0.031430827685547578 0 0.10074413735463998 
1.7212519438184859 -0.082910316975582835 -1.7252565408473601 
-0.13386331186275338 0.2328791731576591 0.016583585759187801 
-0.32340274177320394 0.03806514556572297 0.16071332163239294 
-0.11151070342008793 -0.67734308442373392 0.35692348901415344 
-0.013127688806579168 0 0 
-0.013127688806579168 0 0 
-0.61042880196918847 -0.27418778322440529 0.7818003592167535 
-0.26988612723183841 -0.62265931062575974 0.47529473188510241 
-0.31798088332624619 0.2757635112933472 -0.087383464248868725 
-0.41906255411895704 0.048959657690668464 0.25877897123029558 
0.3243929821668583 -0.56146917921860018 -0.051097362213323477 
0.43729756759232202 -0.47182502165804002 -0.32879593035116406 
-0.023097408483105819 -0.67335870838385958 0.46035942578868994 
-0.13254076877494991 0.42493697750855491 -0.47754311044902686 
0 -0.067308617045995639 0.13537354375700952 
0 -0.067308617045995639 0.13537354375700952 
0.12315712220824876 -0.15860261297191172 0.077840269831664491 
0 -0.067308617045995639 0.13537354375700952 
0.15892832414689428 -0.41961406750272379 -0.091616254326521804 
-0.32959564964292792 -0.061959260707442482 0.38351369063459206 
-0.11669900180570392 -0.37722522739267311 0.33219601976381596 
-0.70598611235992303 -0.12562676461033165 0.64804711494112732 
0 -0.067308617045995639 0.13537354375700952 
0.16195007486301283 0.15994582793287998 -0.26983297693034353 
-0.038936963759649813 -0.067308617045995611 0.27034187696499162 
0 -0.067308617045995639 0.13537354375700952 
0 0 0 
0 -0.37338769540796152 0.44452482788861286 
0.81292731816001007 -0.20744174797403636 -0.77715184159862349 
0.38965295392299265 0.33935973297265276 -0.76785118328895874 
0 0 0 
-0.47302077725088398 0.2179184857299257 -0.0096621219337378189 
-0.0041995446587498111 -0.167158646828765 -0.30491324104856776 
-0.12223736600567145 -0.5389601989960332 0.24145751384556788 
-0.1057191779710417 -0.7461311752877462 0.44200443524035349 
0 0 0 
0 0 0 
0 0 0 
-0.58733307138728386 0.16517065867164207 0.48378292458968858 
-0.59289158096952421 -0.44521340913183588 0.72606391339289211 
-0.48182766812038258 0.047624635078568227 0.10524778841099951 
0.064922624563239523 -0.28706463139667376 0.01570480440758772 
-0.39553330440077594 0 0.30504588314945164 
0.14102694441050556 -0.29458958292493326 0.30784498529448284 
0.18052733933053644 -0.36442897841029787 0.34375801347385548 
-0.62618908228248549 0.36970676941446956 -0.048876815517002389 
-0.40671850357604467 -0.14312910605996754 0.6874477069068079 
-0.11372605784693361 -0.97388228082760142 0.66114137137695994 
-0.19583274611105825 -0.33834861175724884 0.19762249827826009 
0.89532131791931202 -0.54676964754985125 -0.48784828373150813 
0.003729297562239331 0 -0.14099729512182926 
0.003729297562239331 0 -0.14099729512182926 
0.003729297562239331 0 -0.14099729512182926 
0.003729297562239331 0 -0.14099729512182926 
0.003729297562239331 0 -0.14099729512182926 
0.003729297562239331 0 -0.14099729512182926 
0.003729297562239331 0 -0.14099729512182926 
0.003729297562239331 0 -0.14099729512182926 
-0.23685610238967228 -0.41691436473954835 0.057878702917106006 
-0.47281021474918616 0 0.22939437636718935 
0.26162534786677449 -0.77183821415451703 0.048328098835411754 
0.016422864661925159 -0.13787530551685354 0.14810461491205068 
-0.47281021474918616 0 0.22939437636718935 
-0.021381318115713237 -0.15730674711924855 -0.11398048687023345 
-0.47281021474918622 -0.15730674711924855 0.33889015141828555 
-0.47281021474918616 0 0.22939437636718935 
-0.47281021474918616 0 0.22939437636718935 
-0.47281021474918616 0 0.22939437636718935 
0.20027620832804102 -0.11469391042439303 -0.12855454605399164 
-0.037816179613257797 -0.001101257692010599 0.013468562764500437 
0.0003468080721029331 -0.22262296792644912 -0.066369046731157233 
0.21721722245328487 -0.3962206709382316 -0.08377540085634802 
0.26575999278098195 -0.45222369382991551 0.24330260627460648 
0.17838001061560324 -0.54664353282831013 0.20779645029246513 
0.087095325105137955 0.1202658042771975 0.0039733045803551905 
-0.19651374482545425 0.61002447688513151 -0.46426731047742564 
0.0061191740525482329 -0.23258444492891275 -0.011840283087640997 
0.23627267206309024 -0.030544275912822612 0.099461284601462058 
-0.32945184941573286 0.29914504331036817 0.53718223347752314 
0.51986124389974753 -0.80696485545484176 -0.063271910193098219 
0.36702839355643935 -0.39572265212595303 -0.16216471854989398 
-0.1916648152864405 0.50685895110931289 -0.29128430004150024 
-0.14729900513383015 -0.0024970133634039369 0.099698560809141135 
-0.13843380670571989 0.06226809352943026 -0.036708530432680478 
0 0.24613187471156908 -0.41548566317345492 
-0.032635270568320614 0.022908300104553261 -0.041297477734239842 
-0.17649051125637272 0.2203662891902913 -0.13467565538749557 
0 0.24613187471156908 -0.41548566317345492 
-1.0092668590259462 0.80951335016060055 -0.013351759191751593 
0.031693207147526298 -0.14926366694800455 0.017269810983175309 
-0.30825104285308902 0.30128728996392912 -0.21361096733791612 
0.24773534187493443 0.054735946135467048 -0.95536817359508963 
-0.28843257705018854 0.44816976982987333 -0.0136196432948843 
-0.38628322554846706 -0.13930557498149704 0.2402913881100131 
-0.30728993125944604 0.16236755878718992 0.053376786705423972 
0 0.30163741417719409 -0.20688211606506551 
0 0.30163741417719409 -0.20688211606506551 
0 0.30163741417719409 -0.20688211606506551 
-0.1148539691083266 0.25632990609758755 -0.044476586769024148 
0 0.94097256932807372 -1.0967924282102268 
0.061774352281389729 -0.17037023089214109 -0.0015020084925945762 
0.15370320109730146 -0.48942973332661671 -0.087778407838047662 
-0.014037534968344402 0.1992551974690574 -0.24554488982748099 
-0.26136737576712732 0.082924228035531233 0.23765009106762205 
-0.19797542672404117 -0.0019326374022914186 0.096550501203437611 
-0.46428932948868867 0.29854540591647893 0.16965224743043161 
-0.27940468619243275 0.36529120194737175 -0.33087046617708771 
-0.25597181342237046 -0.24306469141560166 0.47167390912572787 
0 0 0 
-0.87832410887242018 0.097584308152268526 0.59255558059026181 
-0.11102906581956765 0.089793315860963424 -0.020328732867560172 
0 0 0 
-0.67878530648667812 0.11348322546599593 0.53896609445022226 
0.19263541276645413 -0.16114508141097675 -0.22165584007037742 
-0.11609930949050559 -0.31646745318340341 0.17625926307664849 
0.0205723516486471 -0.33033629853825258 0.44935719027352766 
-0.18322547359147442 0 0.145398512024737 
-0.20531643608791766 0 0.145398512024737 
-0.20088672456186885 -0.18066184380955602 0.21118000354183314 
-0.18322547359147442 0 0.145398512024737 
-0.18322547359147442 0 0.145398512024737 
-0.18322547359147442 0 0.145398512024737 
0.40013801020536305 -0.73122630189331683 -0.38813679442622973 
0.2545602219028002 -0.62037672861862581 0.150496395152003 
0 0 0.16333970271557877 
0.4662264485419656 -0.33059212742141214 -0.25410206028781496 
-0.59529789641689534 0.065414903712703795 0.12896841752924526 
-0.068334659218659499 -0.40584494330025694 0.40798384472763 
-0.51304123583653682 0.18791872422131711 -0.062875925817745329 
0.031907903341341762 -0.33053856953852567 0.30272650501221388 
0.12168894835199941 -0.3617323389338637 -0.011712770233857403 
0.07150560382424595 0.17652905201117125 -0.19025174122259536 
0.0364996089817506 -0.37407972531775646 0.16083694517467434 
0.1240943629762698 -0.13955250397366678 -0.29890611959456198 
0.84419372752740218 0 -0.9376763075780884 
0 -0.039342155475324082 0 
-0.22973673258902141 0.52259720341219418 -0.59748661600010544 
0.78167432618338883 -1.1003095877190299 -0.21633657421846755 
0.16272275376785825 -0.26016649934861946 0.11658724500940579 
0.34009265506980607 0.13718824887332709 -0.34969152007355242 
0.17411710549239137 -0.15269400085721743 -0.051514682900802876 
0 0 0 
-0.2558409503281841 -3.1289096111473434e-18 0.44161881807606013 
0 0 0 
0.28751313460875938 0.82736420958264878 -1.2797753714437954 
1.304002999468391 -0.32588784054666531 -1.076901655227166 
-0.11141001140517984 -0.30155297401327064 0.20811076618334803 
0.97712763631048893 -0.46706024131866952 -0.47647830528172347 
-0.15974403827868147 0 0.084500976106725564 
0.50080828423245183 -0.05736560762366584 -0.37130860009173305 
0.28404211601130008 -0.16681732155904672 0.010990986366211031 
0 0 0 
-0.16012848618882611 -0.055503296476923911 0.28436789598192652 
-0.034642310951297384 -0.21395290957594995 0.16566078992510669 
-0.026691671460849213 0.069994416213823407 -0.17055926634550747 
1.7574459517658321 -1.0656809933700406 -1.3860721478264231 
-0.5184308684473673 0.34023743691176289 0.25092027762892516 
0 0 0 
0.21985035969165576 -0.090698537676918434 -0.029096112593219526 
-0.17055630382338988 0.35370546159270611 -0.26384924929589471 
1.3072226439610153 -0.4357713000507436 -1.2206389986546036 
0.21985035969165576 -0.090698537676918434 -0.029096112593219526 
0.017485954652038314 -0.090698537676918434 -0.029096112593219529 
-0.15094167109389509 0.21519627121082333 -0.2707219712320319 
0.24886332337468506 -0.39281327985288861 -0.029513983756295319 
-0.39458757274471512 0.34270761607736011 0.025026997300043125 
-0.13124676885460482 -0.54940913752811038 0.25688750577455643 
0.13498358598578619 0.16943399656354463 -0.21507544743170118 
-0.15975968483203695 0.42872733633009519 -0.28098641888979459 
-0.56168337470259322 0 0.73532099247711724 
-0.34298199872095192 -0.097928026094180887 0.50818034158654646 
0.10436501830846555 -0.48507854293002517 0.0048087827498676924 
0.54786438192372866 -0.37905409314898819 -0.43948142631119658 
0.2577117716250672 -0.57463890346864743 -0.15703887352211607 
-0.19434433857578681 0.15243493238146527 -0.039823502083096096 
-0.56168337470259322 0 0.73532099247711724 
0.65927207452407877 0 -0.65569597346315023 
-0.58439351936185446 -0.56126287279272324 0.57683885596443063 
0.65927207452407877 0 -0.65569597346315023 
0 0.16063183026694056 -0.22852142135379128 
0 0.16063183026694056 -0.22852142135379128 
0 0.16063183026694056 -0.22852142135379128 
-0.2388582097139608 0.097780342441043402 -0.0034668664420220794 
0 0.16063183026694056 -0.22852142135379128 
0 0.16063183026694056 -0.22852142135379128 
-0.63123285081735636 0.22715559658694046 0.16862546985324275 
0 0.16063183026694056 -0.22852142135379128 
-0.17649804168480721 1.0134987095748444 -1.1067282693728426 
0.63015529759861511 0.22723405086096279 -0.58485123405767092 
-0.68828529710172359 0.39371243866845024 0.19019355621522482 
-0.13741884968089968 -0.13975562582668599 0.11326310922282833 
0.89650266878235052 -0.3215887985590058 -0.61087546191035147 
-0.045589275760621939 -0.31693754677944141 0.43763530895656982 
0.056071007818050113 -0.3169375467794413 0.20783645723443794 
-0.06425601708922031 0.063075236664058495 -0.12992485709382659 
0.21899868625149502 0.53409521919752823 -0.67821358658670428 
-0.32204932765775673 -0.35154444368455429 0.34768782976691476 
0.46538147169790922 0.112970442383063 -0.68123039569774713 
0.090998444140236515 -0.60358138642950743 0.14159034334418302 
0.37043816748887581 -0.85731191080143521 -0.097697263727130168 
0.22361134618750217 -0.33510975784287378 -0.19246327371311328 
-0.13709674950849185 0.17017499565490921 0.060533135482980956 
-0.034600793652929791 -0.20979730876239674 0.10023650016964936 
-0.81532757473136508 1.3608660448837939 -1.0567630520098592 
-0.22627886738834793 0.0062783828434750614 0.013565322227136507 
-0.082232599896902445 -0.16556641702907882 0.036284178613646779 
-0.49415929926344937 -0.21621077527833227 0.67506187521318672 
0.38845361679598006 -0.21621077527833227 -0.13517049965024727 
0.38054426131141111 -0.21621077527833246 -0.31645550363443753 
-0.40655716764501182 -0.032517511165036768 0.36600494334764838 
-0.069470752429389312 -0.032517511165036775 0.22575994194201443 
-0.069470752429389312 -0.032517511165036775 0.22575994194201443 
-0.069470752429389326 -0.046046850634333676 0.23012011310456673 
0.013735815896252999 0.32328053638077292 -0.43588913773571974 
-0.069470752429389312 -0.032517511165036775 0.22575994194201443 
-0.31434068879502303 0.46806601252358015 -0.43537608158621466 
-0.069470752429389312 -0.032517511165036775 0.22575994194201443 
-0.43921879810742448 0 0.32955760286685298 
-0.64912649231493369 -0.10333155739690621 0.56472520414386862 
-0.03178308674130622 -0.25107193983563231 0.056351771554976629 
0.078276191314803872 -0.065400242029562489 0.12842143958518745 
-0.045713132137178265 -0.47768574080840237 0.11873520891406249 
-0.13003527352414168 -0.54365501183484344 0.11476197662784397 
-0.43921879810742448 0 0.32955760286685298 
0.32887797797517193 -0.090489319124492554 -0.26324608729590387 
-0.22176170761923017 0.18891133990739598 -0.076899539984670626 
-0.0047014146256103674 0.20295744792985668 -0.31667051651122796 
0.34739043297066319 0.021511358327042238 -0.48169317046447563 
-0.15033739199891386 0.14692852150098332 0.0025099593499849039 
-0.22176170761923017 0.18891133990739598 -0.076899539984670626 
-0.22176170761923011 0.28582513301658602 -0.22934205954350573 
0.33002423740689529 -0.37358466494871712 -0.40389652969846507 
0.33872575656017334 -0.38636845032926259 -0.32454520430099493 
0.034446271095341638 -0.12343682403860981 -0.041796642748374066 
0.23516579447932962 -0.061891741129971214 -0.25601404110765447 
-0.32031099333685215 0 0.30481162509737492 
-0.32031099333685215 0 0.30481162509737492 
-0.32031099333685215 0 0.30481162509737492 
-0.11613798117512662 -0.38986664135923749 0.17327530507346184 
-0.32031099333685215 0 0.30481162509737492 
-0.32031099333685215 0 0.30481162509737492 
-0.25050322550307219 -0.21656184590205921 0.030312991421710737 
-0.25491189434545891 -0.54388554955705637 0.45431712154255888 
-0.044449179705046291 -0.28503137612503476 0.2673522956173372 
0.10508217414427908 -0.27995644459865604 -0.1235560631540203 
-0.58140568341194609 -0.16644630040106603 0.44054009987563952 
-0.119292497184025 -0.086600976919088843 -0.075830033644994813 
-0.19703314104255104 0.022048878655903988 0.18262984569866861 
0 0 0 
-0.12995279483048772 -0.056005878646238322 0.38530560636266992 
0.25249850184574069 -0.38572746392587826 0.12550649216030429 
0.069860593644916924 0.33474410907483826 -0.49718011192673306 
0.66486746100374994 -0.31588070873067819 -0.51942131291987315 
0.0045267190046771929 0.010722281934367434 -0.00047794931745467081 
0.19768621733575317 0.078202956693823544 -0.40644677800464729 
0.49400484558501223 -3.1289096111473434e-18 -0.37368519473738698 
0.11674117767821506 0.13162639285006128 -0.18999860040841304 
-0.042457824530472366 -0.13707120008785526 0.15656028476573858 
0.62512158436266718 0 -0.51793657916339553 
-0.43357247463971921 0.47817809599019379 0.10148580600174703 
0.1026404632012594 -0.36151189177304693 0.12619536750339891 
-0.47290698013312837 -0.29005016165568626 0.64839310908042325 
0.26384335437259898 0.0013118259797524766 -0.16982494961610475 
0.10797045526250992 0.0013118259797524701 -0.16982494961610475 
-0.21076907855850496 -0.30366218928209388 0.16565123673948648 
-0.48031156046474793 -0.67254455555368686 0.70410033183726062 
0.21796589282246234 0.37394654668685001 -0.37049015153907161 
0.26384335437259898 0.0013118259797524766 -0.16982494961610475 
0.26384335437259898 0.0013118259797524766 -0.16982494961610475 
0.28270106049085569 0 -0.12674965816120956 
-0.24218779850816233 0.96656017725418997 -0.61967087367703855 
0.28270106049085569 -0.019657015305232853 -0.011467345471381578 
0.28270106049085569 0 -0.12674965816120956 
0.17489529668305259 -0.20042656232501813 0.10516331823366327 
-0.29249215804380962 -0.21042498700605242 0.40992105845767079 
0.048468548068542644 0.11841435825230721 -0.60902138949565776 
-0.51861692436168727 -0.82717835100494053 0.75183531948129512 
-0.42056067407120834 0.24492695567360762 0.45951804594697032 
-0.084192236304536983 0.12807955471782484 -0.17583381967263317 
0.32628792114136812 0.044486761302895785 -0.42170928257768903 
-0.71048916921232053 -0.11242540013900604 0.55867277088297385 
-0.084192236304536983 0.12807955471782484 -0.17583381967263317 
0.073031079725504169 -0.13776421144537013 0.067220386222927461 
-0.39951056164255372 0.099780840507950511 0.19086066252397238 
0.59114716319135119 -0.059510401549097286 -0.71204394392867254 
0.12080129526439747 0.19057845106482413 -0.26945731225079844 
-0.35700304799322524 -0.38556845502357989 0.51579081423939133 
-0.30245271548746638 0.18558190061748869 0.018604011338652537 
0.52242069232400035 -0.25661684666108081 -0.29136564631771295 
-0.29265730453442096 -0.15175605751909088 0.22585905352065871 
-0.54237839628696294 0 0.60894471910748893 
-0.11665472939171501 -0.11673471624215423 0.1760567601780402 
-0.01491895797865507 -0.40144384968933555 0.25440913877481969 
-0.9693626113932734 0 0.67811778738231854 
-0.010539089059098054 0.0463148890907834 -0.25963481551834267 
-0.051470911984575735 -0.26221364985547491 0.072047408083646694 
-0.31725139190928675 -0.67230395202893056 0.39836082194167682 
0.0069716069713029304 -0.6863543964543215 0.099917177435476762 
0.66542318617270968 -0.41249459704115321 -0.10351423802780191 
-0.22537996714757993 0.20348879312977053 0.018818849159937683 
-0.18224853620378526 0.22792579888678124 -0.083861091435328425 
-0.0085920202626108399 -0.25862497357926012 0.079179731146117122 
-0.47857828776821981 0 0.11320800317323554 
-0.63325228464318817 0.65858540646966068 0.11372734785152742 
0.097294934648755105 1.2515638444589373e-17 0.038379740182286223 
-0.20889974585592558 -0.18559450032751515 0.21725380842445238 
0.30162188893936537 -0.28300466865862922 0.39347296035705759 
-0.289735714067269 -1.0582157006629376 0.44927144207677944 
0.07950493798173966 -0.44640663449629059 0.031297635340722593 
-0.39879790140964583 0.080014093496312486 0.32707441975287099 
0 0 0 
0 0 -0.00909079035546668 
0 0 -0.00909079035546668 
0 0 -0.00909079035546668 
0.25852862889693645 -0.068144308893592506 -0.2405456397236968 
0.98856040490434338 -0.4092344380066737 -0.20028878253293872 
0.31444889098751427 -0.19217682999904515 -0.46983062286683769 
-0.0092961643702552908 0.53101431612658423 -0.97176702264170556 
1.1517075928013545 -0.93567939790562316 -0.84140565824318847 
0.24965084085326578 0 -0.23308293275683059 
0.24965084085326578 0 -0.23308293275683059 
0.29475875954872532 -0.27002451883713297 -0.15217700744491761 
0.24965084085326578 0.17858366272518628 -0.6880361901097104 
-0.23924101275032283 -0.15684936263344898 0.44381083234689567 
0.018454378989397918 -0.29517563557486332 0.020572888916076355 
0.58159483655271771 -0.38939597306256379 -0.31702768036446455 
0.24965084085326578 0 -0.23308293275683059 
-0.35744354687083069 -0.070117752056550076 0.50963275377881567 
0.36831945061420934 0.044702569951735306 -0.57521532066204462 
-0.29724285463742656 0.4577599822080024 0.14981804045089442 
0.19767398527448976 -0.11364104053281519 -0.069818504582784671 
-0.35744354687083069 -0.070117752056550076 0.50963275377881567 
0.23938274749104821 -0.37631498499030874 0.42055672002684791 
-0.024335891245551324 0.33580220968715796 -0.38440747191406294 
-0.65859558016339481 -0.37445101794828178 0.69327553431483169 
-0.63245163648489189 -0.25967843646656164 0.60866789959813095 
-0.24399790668177865 0.17227127831520667 -0.077071312632686698 
-0.41548165706345475 -0.38367882130140241 0.82032323718193034 
-0.16409386940405807 -0.4088658405167987 0.34446466767903178 
-0.44378420080109221 -0.20211020892758044 0.29205765710453407 
-0.28120251883044117 0.086005504707274971 0.22040077235821531 
0 0.58798407645305728 -0.38191309205970125 
-0.14154763811935744 0.76222021246104654 -0.57386325501623803 
-0.72606570422703187 -0.42373851042602761 0.66718624801309501 
0.052912262893157917 -0.040731624094568784 -0.21599514367955086 
0.36281666975972698 0.78125395682100851 -0.70826830467555024 
0 0.58798407645305728 -0.38191309205970125 
-0.45363638606482265 0.02374329053166328 0.34531189427863174 
-0.091512084298603039 0.10580652545188622 -0.34265969665402735 
-0.54092014873318806 0.61621140664145546 -0.26892826751702426 
1.1236683314267268 -0.10385557205024598 -0.86876240195785881 
0.31680754411982132 -1.095654309045168 0.48825754007511529 
1.1236683314267266 -0.10385557205024613 -0.86876240195785881 
-0.17489380891917661 0.11368334145336674 0.17579203109110025 
-0.0061744532937582182 0.10043785320462491 -0.060949232182041006 
0.086178910115225757 -0.25336960925925578 0.11585998603246898 
-0.091144105508233042 -0.16980847676715155 0.16179370526440975 
0.41774978840422566 -0.67102676390839289 -0.14862751880697375 
0.50063526368153888 -0.11123273988434078 -0.4493676486458249 
-0.050529381868958979 -0.62940341357031315 0.36276442456878233 
-0.14073435779260557 0.1568613782340455 -0.22036974710940815 
-0.013976784284518434 0.14245591069782054 -0.29926029040584806 
-0.098313024585712172 0.17215679975230669 0.013822554973779324 
0.076729194403795914 -0.099901405741991911 -0.024172030761979438 
-0.24459079802804129 -0.33436202655802311 0.57065214320697966 
-0.14569989510788753 0.051468568822709351 -0.22746453084457957 
0.64847886981429803 -0.099901405741991911 -0.77634144011860617 
-0.47683418890361617 0.31095828780945878 0.37355120355539262 
-0.81553209798206683 -0.18130927915843045 0.96324048245971106 
0.0061082162424354125 -0.31067387207598068 0.14238066522841353 
-0.15451650584470131 -0.18130927915843045 -0.091919285348489227 
-0.81553209798206683 -0.18130927915843045 0.96324048245971106 
0.50047871341788763 -0.65943704446492668 -0.17500640279005764 
-0.59062517616523524 0.46084261139133986 0.46761672553441391 
0 0 0 
-0.30044366153773516 0.47617129718264317 -0.25817998391756336 
0.51864142126722901 -0.42556855615547562 -0.24967512046486312 
0.33527500818047951 -0.16872481839167822 -0.3398867920869173 
-0.049004313194095185 -0.26183569803030515 0.061574959530438435 
-0.097488994861694489 -0.30567527544201728 0.13548790310739739 
-0.20028081188234353 0.1307169559918534 0.136987375379204 
1.1642799707332201 -0.85789091701124065 -1.0710857763801196 
0.42072799375647862 -0.1491725517168328 -0.20613442743997798 
-0.13748591912060951 0.13586977294819338 -0.004840035426217755 
-0.16497314811610661 -0.3746302302781907 0.17577539671099626 
-0.54134546248996107 0.0093755401531014429 0.43969836576287213 
-0.43979558718336592 -0.32642384490624138 0.3406931889364303 
0.11648512281055474 -0.36178476770923307 -0.058265270039861018 
-0.284533204066927 -0.13649234703386984 0.45984966964881674 
-0.18195192318472916 0 0.17778950931490331 
-0.044703300529126008 -0.19667930517034618 0.19204180492677775 
-0.18195192318472916 0 0.17778950931490331 
-0.18195192318472916 0 0.17778950931490331 
0.012125468229983559 0.79570207646640723 -0.76101098028013148 
0.76722666014809404 -1.0784373249485513 -0.15887878827421401 
-0.18195192318472916 0 0.17778950931490331 
-0.18195192318472916 0 0.17778950931490331 
-0.18195192318472916 0 0.17778950931490331 
0.67721659986106264 -0.035000201526671562 -0.44665630400128137 
0.14356356449743923 0 -0.16348547504058761 
0.14356356449743923 0 -0.16348547504058761 
-0.016266247821324721 -0.30003260953105276 0.27944328938295415 
-0.039741860374357355 -0.10341670833675724 0.093622403845843291 
-0.21929544018808714 -0.00078341711823829991 0.27497261541032159 
0.14356356449743923 0 -0.16348547504058761 
0.14356356449743923 0 -0.16348547504058761 
0 0 0 
-1.7297446266549459 1.8150174381084689 -0.06364536807976412 
-0.20332887629007368 0 0.22744621681385011 
-0.15834820568548741 0.60641763930251213 -0.40280539255638653 
0 0 0 
0.3331744809578378 0.44532460863412032 -0.87840328495658604 
-0.40988665384910472 1.0271097336028383 -0.21942409219567707 
-0.0086293810951137053 -0.43293807878043794 0.12134373260521508 
-0.041932124209362438 -0.24625513924642595 0.074871811654671633 
0.01838414287758261 -0.32803171364547001 0.12918715761358679 
-0.078792502776354897 0.10255326811193417 -0.19841720262754101 
0.031539114745100988 -0.22530531409408525 0.2542437057607802 
-0.25561393478569971 -0.10055611868176853 0.26529396361387936 
0.082287730191811889 0.20319529096118105 0.064734062509218898 
-0.083421914596309474 -0.08170621151655641 0.17384212956415082 
-0.083421914596309474 -0.08170621151655641 0.17384212956415082 
0.79556983948157045 0 -0.68275266595875306 
-0.34747514242407362 0.061866250284025932 0.20704513107784861 
0.15178053788802215 -0.3001828500431033 -0.064248170258930634 
0.013918428441322043 -0.10969183299002809 0.14173605718364188 
0.73219828917518848 -0.46391919999820991 -0.73480063743580559 
0 -0.24638488777675363 0 
-0.16619119990521383 -0.031182779452473684 0.21435314546546672 
0.42811631095022168 -0.54056741862273916 -0.09237975314922052 
0.21054475168255166 -0.029240298214942756 -0.35544975651175781 
0.23976391664176191 -0.50256287431340996 0.1287017579589424 
-0.10691341968977423 0.12410116144698786 -0.054557878260279559 
-0.56048189744004884 -0.5050960361813468 0.71690194451002143 
0.60566055413164888 -0.13269697330256464 -0.69740017316089975 
0.88589146612573955 -0.27333847515566695 -0.80346375245580193 
0.54588491015102891 -0.39977371414515966 -0.4854243140637905 
-0.086991891953995801 -0.33176326993878219 0.13957347930579564 
-0.037935585591036602 0.24371895053938228 -0.31864590675776577 
-0.2238124879269657 -0.42219752286623807 0.9826236630515145 
-0.52398055734742621 -0.017189295032773805 0.46329019254689491 
0 -0.019657015305232853 0.11551813965865336 
0 -0.019657015305232853 0.11551813965865336 
-0.066136156569318275 -0.25009360837223005 0.070712767232097642 
-0.09389130550990217 -0.24004380055322064 0.52617384389708355 
-0.18812915634257629 0.53186659472594555 -0.53595136011098066 
-0.54859965916057929 0.3281835585076161 0.26567228263346887 
-0.22362011619910876 0.47861376265500966 -0.35313310692972122 
-0.16088651315159896 -0.45074241846943514 0.3327025081012262 
0 -0.019657015305232853 0.11551813965865336 
0.40080360848628466 0 -0.48821318815540615 
0.39120434883170047 0.16291965691082377 -0.53621575492084472 
-0.20888554142979149 -0.060520159029726871 0.19869426689593897 
0.10843688438472318 0.19521407878913771 -0.50816987717190942 
-0.72394305543951121 0.16835123658338477 1.133819241801183 
0.19342230329465468 -0.21157334762349911 -0.18402075758385894 
-0.49384972800581578 -0.50843293125095335 0.51807779981404634 
0.40080360848628466 0 -0.48821318815540615 
0.0096914788453433889 -0.28645440298707436 0.24422439758119516 
0.72678229695967711 0 -0.60555253886156046 
0.02907933360671755 -0.56118982527512051 0.039006830376017161 
0 -0.030729444764595115 0.33458135871299982 
-0.4003634510224871 0.14758554504809399 0.54760198963189888 
-0.039176095990645005 0.02756491498776607 -0.029174362771240671 
0.52389538378868483 -0.11143312532161334 -0.091972168505034757 
-0.68399998628185044 0.43348110206234242 0.19689717096808354 
0.18389058303086742 0.2830357785799964 -0.41465917013655862 
0.17330692526040414 -0.18938071738922777 0.016517296376313603 
-0.16548841409948564 -0.075408162949019863 0.21036543831591989 
-0.35864956313993046 -0.19769728001084538 0.039778892147667083 
0.53568134190496219 0.042112566029614412 -0.8056404174774241 
0.16607731547979968 0.20057720267365114 -0.24643694136486211 
-0.15226006574413647 -0.3007479918869399 0.16706769279704975 
0.7249896496288506 0.11513065664269882 -0.41246459458722246 
-0.49080658375610398 -0.5655906787139019 0.52517921368454101 
-0.11180993565554241 -0.091775693511243692 0.22838959322969141 
0.14245076366530204 -0.048996748827484338 -0.16290623000552601 
0.14245076366530204 -0.048996748827484338 -0.16290623000552601 
0.3356150615823712 0 -0.29727155363993135 
-0.17831905607264559 -0.19718309989533661 0.13387238922417602 
0.03930544786821661 -0.023392850869766172 0.24145587626679599 
-0.17831905607264559 0 0.1338723892241761 
-0.27730077422167909 0.12578699424264761 -0.032897926114825428 
-0.17831905607264559 0 0.1338723892241761 
-0.033823719704785031 0 0.20954074563898994 
-0.045379572909879505 -0.28638463792206242 0.11684496511308734 
0.25321382702191442 0 -0.12559962850521444 
0.26253711496893922 -0.0048314689684919553 -0.11301646562125561 
0.25321382702191442 0 -0.12559962850521444 
0.31596139290684222 -0.23879149199754041 -0.41083437318790078 
-0.3924183968574676 0.14233581495812941 -0.040320559131753218 
0.40016777847562723 0.050605386866184827 -0.15824890513966589 
-0.15418058869435669 -0.25096328615346403 0.49166631911167791 
0.071911476992183268 0.19159562528311461 -0.45584724603418075 
-0.15418058869435669 -0.25096328615346403 0.49166631911167791 
-0.15418058869435669 -0.25096328615346403 0.49166631911167791 
-0.15418058869435669 -0.25096328615346403 0.3592213395278227 
-0.15418058869435669 -0.25096328615346403 0.49166631911167791 
-0.28509222001807849 -0.21317747782620355 0.44789710192596199 
0.42785736562078164 -0.15034326584232494 -0.33944154158022255 
-0.23474680145607082 -0.16051081278587251 0.23280088432204937 
-0.072576549119018369 -0.57982711522761543 0.19690676598884993 
0.50106232042440801 0 -0.58135269004613899 
0 0 0 
0.12103372786421776 -0.10390130730583676 -0.05079298341254402 
-0.32993740685488698 0.22634599187017065 -0.012125678064413049 
-0.32853802415004874 -0.55626185292043739 0.55639871919137274 
0.11748647064385483 0.009865840425534891 -0.14098101693033688 
-0.098776705865340361 -0.13469585321790473 0.23843627170635726 
-0.21365349185919985 0.25544661419845838 0.087306632976840007 
-0.049705895098101346 0.15025178101684938 -0.18522668120444799 
-0.19820881081075425 -0.53685747207183621 0.3398958826564909 
0.14611359366785803 -0.18124358288043874 0.11334220675625672 
-0.072962422657058434 0.10042305200200564 0.039792878031450894 
0.082150246670940702 -0.22331015537860874 0.27526754620292126 
0.48931764786023263 -0.081843537848104705 -0.17061211586688149 
-0.18566272827089675 -0.018550482688177848 0.12334043240659602 
-0.19520367895435106 -0.46157321040523164 0.64995729753639819 
-0.19281751093010924 -0.19274015070023615 0.11054624788383369 
-0.44000491131832659 0.25604571057607856 0.0025847071516391603 
-0.18566272827089675 -0.018550482688177848 0.12334043240659599 
-0.18566272827089675 -0.018550482688177848 0.12334043240659599 
-0.071857299191084634 0.14269110136451649 -0.0086229738076084566 
-0.17817677989304537 -0.3887702420965824 0.11797959372815266 
-0.18566272827089675 -0.018550482688177848 0.12334043240659599 
-0.41066389395124675 0.39938202790963873 0.2203998772274211 
-0.18566272827089675 -0.018550482688177848 0.12334043240659599 
-0.082851371147422637 -0.29814008770524081 0.13196607616820491 
0.65373180126499442 -0.042744513467261158 -0.62788553540317416 
0.85888140743036734 -0.24973280866845635 -0.66721311112828763 
0.27059103677850777 -0.54709100345010475 0.11977650260586313 
-0.52117048306118807 0.11648581170190857 0.35706491858718409 
0 0 -0.32767164091003809 
-0.51886634816942845 0.07402497804262638 0.4261777966536594 
-0.40295464197362552 -0.55569696423822124 0.42319695509965244 
-0.016017090015900046 0.28639915445222341 -0.15051428031719369 
0.20248261344801147 -0.42564275814019331 0.033267426487705441 
-0.08142473524536438 -0.27250577965839812 0.12184368283019889 
-0.072302157598337982 -0.14231189411049144 0.034066696752944964 
0.41052717218675189 0 0 
0.056725276608741181 -0.50444445954050732 -0.15132777106946749 
-0.63335394180531435 0.53230279590759155 -0.55316956740199441 
0.026498978511546391 -0.66580323513003203 0.10309393797849468 
0.33129239031390301 -0.043834497881540306 -0.20821122657782054 
-0.10221815024255219 -0.13601942363392897 0.001476944094252148 
0.34982818601455273 -0.28120209446608252 -0.051655633006247245 
0.04429669728007788 0.03217858130534508 -0.078696149711882962 
-0.90328311683807849 0.94619792042150452 -0.55865706102447299 
0.08012076893227317 -0.34298358253949368 0.30165103890513051 
-0.010762887705049039 -0.10066456147219095 0.19671447192940208 
-0.010762887705049039 -0.10066456147219095 0.19671447192940208 
-0.54630573582284814 -0.060934376802856134 0.37712023526025645 
0.20189264280426061 -0.20374216119901528 -0.15366596951486497 
-0.010762887705049039 -0.10066456147219095 0.19671447192940208 
0 0 0 
-0.095292428639370694 -0.35147369759781855 0.20660192464691043 
0 0 0 
-0.55521380446679425 -0.55939281096797022 1.0092154884342839 
0 0 0 
0 0 0 
0 0 0 
-0.0048027352410146759 -0.66201030667026139 0.32329452201178532 
0.13296042821998258 -0.13244886234780237 -0.30513972814368856 
-0.19276226834480203 -0.56280255105884591 0.63722100250178559 
0.055819968588554945 -0.39831586448405387 0.33449513136833869 
-0.81270482106997355 -0.12722898198278143 0.61340248720137647 
0.43471477738599984 -0.12009307521502204 -0.46129763823735676 
0.55886221133689307 0 -0.66051390930980558 
0.43913783486662472 -0.25398000059068382 -0.091443942390661948 
0.46139164434813223 0.21561843600772609 -0.82269062565326034 
0 0 -0.23266760672491038 
-0.62800351265240817 0.86254621819258981 -0.94605083640857068 
0 0 -0.23266760672491038 
-0.94355063681386497 0.46224921823353954 0.3369305805642136 
-1.0289626359923274 -0.035388479893702543 0.75836600167702239 
-0.25606787227721678 -0.46404205576689067 0.34446699060866659 
-0.41834910533408753 -0.046463276842508922 0.42876486762807575 
-0.38531127633579398 -0.041554596911634406 0.10387853922206323 
0.15156836337955365 0.11179524535118694 -0.45558362117665158 
-0.19069516857385341 -0.68377920519542656 1.1407105412001823 
0.3903067530475165 -0.41633382214071213 -0.28098350745301193 
-0.34291854836688301 -0.47664634857921306 0.51445328544357871 
-0.76853812041393188 0.67651769260638117 0.47242563515875574 
0.48418285799363575 -0.18556750493453192 -0.32921089978342044 
0.23256400316634557 0.2699253447923205 -0.36810038424983788 
-0.74098298654000294 0 0.75682303388456662 
-0.094336295639354265 0.21227963705577427 -0.039638461329844978 
0.13952825129175575 -0.021392900816121854 -0.21122605908760061 
0.03216950752163459 -0.25814074907068102 -0.015403361903491418 
-0.1225116057240096 -0.33684130692173347 0.047853800204655815 
0 0 0.057173822009354835 
0 0 0.057173822009354835 
0 0 0.057173822009354835 
-0.38226858683865095 -0.45956594157818709 0.53947497878235784 
-0.14811233843091798 -0.19119901566102246 0.38498888903406769 
-0.27526433615141821 -0.11583746885741883 0.26880868832045662 
0 0 0 
0.2571401003940465 -0.76583090144760457 -0.062207009035416615 
-0.41844152032910509 -0.14629259009560072 0.61575713683095401 
-0.24811511228844349 -0.15748881152038618 0.41538113101330992 
-0.37771788764494663 -0.49261817693840998 0.53117592290316762 
0 0 0 
0 0 0 
0 0 0 
0.4041192118501945 -0.11195463243814174 -0.2563609233580148 
-0.39134270014554301 -0.0041844232459040537 0.44933939976837728 
0 0 0 
0 0 0 
-0.33301756233497054 0.35261949535569159 -0.07487695222564697 
-0.26872875573386268 -0.25814755480812812 0.38977485471949835 
0 0 0 
0.1716325950146638 0.55475200236133415 -0.83824828446379629 
-0.14233144096643924 -0.91728822850574931 0.75270012534421982 
-0.20144427875853313 0.2624194006138289 0.076598843769249608 
1.0306459051662558 -0.26490265961568388 -1.1020796295874986 
-0.47129208495432262 0 0.0025675976978192985 
-0.56021649264285667 -0.53876180163522291 0.57932840430172938 
-0.041524726753550852 -0.077601996643312063 0.097229498248424015 
0.47173753864310536 -0.52778323410741712 -0.11286196586976852 
0 0.051382175739132764 -0.34020301208825732 
-0.4505978331358978 1.0189033273131061 -1.0859533588420114 
0 0.051382175739132764 -0.34020301208825732 
-0.22329965122531192 0.070885777187565946 -0.055734201621566747 
0.15333285637432673 -0.06961404069615687 -0.23282883880687505 
-0.043467568844409131 -1.0075673225477515 0.57618369906966405 
0 0.051382175739132764 -0.34020301208825732 
0 0.051382175739132764 -0.34020301208825732 
-0.35092681392442893 0.051382175739132771 0.11647906802007686 
-0.87974846452464395 0.37241713896900053 0.57957025982161114 
-0.12965606193221516 0.37385461948929272 -0.031898054851588448 
-0.59013347518177539 0.69549550027064633 -0.040689047028772463 
0.0060662371984420106 0.30987873593433929 -0.4099159493956458 
0.13972894654029588 -0.26664041718171855 -0.064035164419955506 
0.18331706720314703 0 -0.28088631341090198 
0.078568077166607464 0.22707106239954117 -0.30138800811325522 
-0.082451236090566316 -0.59802741811455107 0.28160576456934272 
-0.16778836867365421 0 -0.012165497323066024 
-0.19446919474853278 -0.053941341341798066 0.26684343293720292 
-0.1470549491576362 -0.24707099483749989 0.61674254586916821 
-0.42056480903713989 0.096025679977817718 -0.05392741267825283 
-0.19751160796144798 -1.2515638444589373e-17 0.17695393697093736 
-1.0198881661615922 0.11773256590984375 0.85193457953356189 
-0.34105377741752513 0 0.12472071528413083 
0.25115311737927637 -0.79956226994514912 0.015109180691575186 
-0.37395050441287286 -0.098619243315382438 0.42009875330061391 
-0.40067577530887821 -0.20581571571540536 0.39213227253322075 
-0.34105377741752513 0 0.12472071528413083 
0.15461046660498354 -0.54131195785050312 0.26907737708759616 
0.12450820954614115 -0.66866858383741767 -0.014479202775347552 
-0.21086985708332553 -0.046109002631032299 0.21027011418111022 
-0.2812920399215843 0 0.36150319494805649 
-0.46385807703646786 -0.19766469147954507 0.63637518125523473 
0.24489165063614826 -0.16518437034017672 -0.078786693658096041 
-0.24278195627460661 -0.7970043743647699 0.82828761742061119 
0.17499149235714914 0 -0.41798993045251787 
-0.043087485401300092 -0.20574042066462092 0.14386674668058241 
-0.31445616583862485 0.077566824630625003 0.12430674862392632 
0.32800345538709885 0 -0.5425493645295183 
0.44932600648506765 0 -0.62320189156848471 
-0.090927570306225988 -0.13654757858830058 0.25004764205859348 
0.11185431487936238 -0.071109063931148589 -0.036052064686146572 
0.34153754143180659 -0.24395824654798937 -0.37381624054432372 
-0.090927570306225988 -0.13654757858830058 0.25004764205859348 
-0.35546857531731985 -0.22113668476351439 0.77183662429662458 
0.097940416302258054 -0.06337897034036187 -0.19851182818650767 
-0.67809171095138787 -0.13654757858830058 0.49678780833768682 
-0.22953013017646148 -0.14409386535288923 0.32196131767286701 
-0.86887314864642562 1.1008611232773591 -0.70021554148608534 
-0.082455403109176123 0.16184367645605796 -0.31627328990159193 
1.0196312930571658 -1.1308407216354621 -0.41787396169962338 
0.091332453287448767 -0.066495012047506727 -0.39878665288068266 
0.1152825087338262 0.017505659218922578 -0.23374914220261656 
-0.2569492094983104 -0.22367670175882085 0.29114529705960779 
0.20111427398919637 0 -0.22632112642923793 
-0.087982493094380693 0.14160233972765801 0.02346107066663821 
0.20111427398919637 0 -0.22632112642923793 
-0.24577015294201141 0.16284900081347672 0.11069193812809501 
-0.82316448832185829 0.70393278043605612 -0.44754993835780404 
-0.054188383992525915 -0.13558197653358078 0.49672752820404653 
-0.014136642728278859 0.0055234808098453703 -0.12573221000805554 
0.18422991928155069 -0.63281132144302321 0.3045357728275136 
0.58703925190014439 -0.35519198765206522 -0.28370982526996275 
-0.51067746869584318 0.16473986242709326 0.43527423455679348 
-0.054188383992525915 -0.13380346682584213 0.13866933713587434 
0.42789306175421254 0.14241185482703017 -0.3284459495134211 
-0.16682465302451283 0.29127223577653233 0.070778376218965683 
0.22670165033402676 0.20701348445621315 -0.6797418554629765 
-0.088705955626275673 -0.022033840988548273 0.14784828098935768 
0.49423896264551676 -0.40203609811106433 0.025176687154424306 
-0.088705955626275673 -0.022033840988548273 0.14784828098935768 
-0.12401206621063607 -0.069013610449081678 0.27691817630602733 
-0.088705955626275673 -0.022033840988548273 0.14784828098935768 
-0.088705955626275673 -0.022033840988548273 0.14784828098935768 
-0.088705955626275673 -0.022033840988548273 0.14784828098935768 
-0.10667134804318193 0.095369576102761006 -0.14028903969977977 
-0.088705955626275673 -0.022033840988548273 0.14784828098935768 
-0.41458399951024333 -0.57224815463180889 1.0125153145750743 
-0.41458399951024333 -0.57224815463180889 1.0125153145750743 
-0.081390015909161756 -0.4034014517761309 0.044249091681063779 
-0.24530447991510521 0.40623963330119195 -0.26084232168398486 
-0.2264998158188882 -0.49240824126971094 0.63608053906887896 
0 -0.094577859752583066 0.0041111602505311522 
-0.10931136268458874 0.059822403952534381 0.18197866978971547 
-0.33895836149540476 -0.6330752112038035 1.018406209223123 
0 -0.047396645495950546 0.0024547987075953658 
-0.50533768771243548 0.58231969895568603 -0.13141405431454523 
-0.25619650374586461 0.44151276143519758 -0.23384445918489299 
-0.50168006223583983 -0.22882246468918419 0.12647873203292334 
0 -0.047396645495950546 0.0024547987075953658 
0.16223430202599015 0 0 
-0.24377205429406559 -0.39930356303078918 0.1287549501506603 
0.16223430202599015 0 0 
0.29514991461420031 -0.82462879662641875 0.28944958606945148 
-0.20381680271028879 -0.039454617720228888 0.36983001714803171 
0.16223430202599015 0 0 
0.46247945735690249 -0.44201930621306745 -0.35902791574736553 
0.16223430202599015 0 0 
-0.1503181934787772 0 0.13300499521376163 
-0.1503181934787772 0 0.13300499521376163 
-0.1503181934787772 0 0.13300499521376163 
-0.7538938497342792 -3.1289096111473434e-18 0.92664487688272235 
-0.1503181934787772 0 0.13300499521376163 
-0.62866720360916617 0.32518857790994976 0.33034588047215768 
0.47551206192764217 -0.38161635288121287 -0.31051011580900756 
0.25782570524834342 -0.39943141457783732 -0.09449911063868402 
0.011345717245119956 -0.33742007382748157 0.087342127930607985 
0.85097807678238857 -0.14252584012487637 -0.25009740404680203 
-0.25010110122023682 -0.0014103511734436412 0.57927585611802102 
-0.096300867256604555 0.018286689614733242 0.071815686006453688 
-0.19499576463585624 0.41991680248621899 -0.025182590547684451 
-0.25010110122023682 -0.0014103511734436412 0.57927585611802102 
0 -0.0017804540693630282 0.098447858307014011 
0 -0.0017804540693630282 0.098447858307014011 
0.021873081901036352 -0.10121486646982222 -0.22880595904736128 
-0.44662348544587893 -0.27834065566221078 0.37868356454578467 
0.079084764891739143 -0.61333913142724616 0.17398981088384063 
-1.7172026465357811e-18 0.56131726675198212 -0.53699203566122256 
0 -0.0017804540693630282 0.098447858307014011 
-0.58829015364006643 -0.046294372081408852 0.36745200425400926 
-0.50676988805531553 -1.0186280759386737 0.89371404735560289 
-1.0478098194988343 0 0.65685105739826943 
0.78777074516432133 -0.24601895047367942 -0.64700063519221651 
0.22995020895003138 -0.071005603025005665 -0.49594768160439495 
0.18471489710777741 0 -0.22869979331902893 
0.32467286024462533 0 -0.48796422660457522 
-0.43866206614335179 -0.42784812649844089 0.58861495591648549 
0.50495706589419442 -0.031846321535239176 -0.31660133537863172 
-0.035947152235150777 0.013969511155387875 -0.3766652745937345 
-0.16169169024716737 0.33714597036797167 -0.33663028976621773 
0.85315897518142314 -0.82163119937598217 -0.17769914274913481 
0.14868445656772489 0 -0.31685599946979653 
0.15209815072494848 0.13551842499176733 -0.21137101988864362 
0.13717248358803397 0 -0.12691941128085388 
1.1726739367038219 -1.0481328961687377 -0.80751849691886979 
-0.29850174094273041 -0.34302147653117332 0.31953699992534496 
0.36906909554281347 0 -0.70362766732401716 
-0.14692445255681713 -0.44258270628076418 0.25031564103454984 
0.43396764593019865 -0.17407768864905404 -0.63300719626252278 
0.65683235947975638 -0.22731742018748882 -0.29486421196481366 
0.19411555854727283 -0.21243544833642708 -0.16587137162104973 
-0.2608400063477907 -0.26200861389838881 0.52623416800884071 
-1.0614625187510114 1.469281703134824 -0.59365950760231079 
0 -0.037337574849206537 0.15705947915269963 
0 -0.037337574849206537 0.15705947915269963 
0 -0.037337574849206537 0.15705947915269963 
0.22173999719842857 -0.22403613793633176 0.052116125629297266 
0 -0.037337574849206537 0.15705947915269963 
0 -0.037337574849206537 0.15705947915269963 
0 -0.037337574849206537 0.15705947915269963 
0 -0.037337574849206537 0.15705947915269963 
-0.4243828615933613 0.20919978928042049 0.15283003665243816 
-0.20665203175226221 1.2190379623577992 -1.4193155608322343 
0 0.20919978928042046 -0.10755273508811108 
-0.048192104542908398 -0.32534417268532828 0.38918174108184334 
-0.058978777052267582 0.42948080613870943 -0.46669406260355972 
-0.53961362190428919 0.078713229881902103 0.3048859707328056 
-0.0037932112508124913 -0.050248283364881546 0.048018296275869399 
-0.10026513968563106 -0.083394557747515252 0.048018296275869413 
-0.0037932112508124913 -0.050248283364881546 0.048018296275869399 
-0.0037932112508124913 -0.050248283364881546 0.048018296275869399 
-0.0037932112508124913 -0.050248283364881546 0.048018296275869427 
0.79121773474208212 0 -0.71401755525200039 
0.79121773474208212 0 -0.71401755525200039 
0.22374242597904351 -0.40945686788526464 -0.04796704027369899 
-0.060817107012830204 0.2558378167564726 -0.31478157912936 
-0.29066251469710708 -0.36637597853578396 0.17871056812710523 
-0.037906401195618354 0 0.072406903127482464 
0.014487675036174775 -0.02768988856213896 0.42359595792433663 
-0.040540476876258301 -0.048604306806627078 -0.10128944427133051 
-0.077659009324016523 5.4755918195078511e-18 0.035999015942730112 
-0.53233145870424692 -0.081620697960754302 0.55809648061026418 
-0.45030977385511911 -0.19885396879624531 0.45230346836333174 
-0.046807412900413049 -0.087140661030441727 -0.10072998019106146 
-0.032065312132651333 0.19398333889718977 -0.20569106152366515 
0.085162328841915172 -0.17576884400383569 0.028492965475462703 
0.71158801957103646 -0.42738466187728152 -0.25155948144854429 
0.40973459410081853 -0.023077700722147113 -0.18667449688985846 
0.40973459410081853 -0.023077700722147113 -0.18667449688985846 
0.40973459410081853 -0.023077700722147113 -0.18667449688985846 
0.5659094783049492 0.10569349471968302 -0.49676489068723478 
-0.11364804976293776 -0.42313809015803644 0.25447064801071895 
-0.63006364067622356 0.4129342763892036 0.17722570589425518 
-0.28342580642022691 0.32641491343301621 -0.067199533267430639 
0.33000824510901622 0.12497681668350141 -0.60257760280605566 
-0.054931381786419285 -0.080568439141934414 0.027887049648909173 
0.16963001831807986 0.24872096237248043 -0.32214463350723233 
-0.36185019787408079 -0.34519540263231818 0.12331878958324788 
0.14445049702247031 -0.067707963115194156 -0.1410015234168524 
0.14445049702247031 -0.067707963115194156 -0.1410015234168524 
-0.121097648035869 -0.24951304936349275 0.11757206179953632 
0.14445049702247031 -0.067707963115194156 -0.1410015234168524 
0.5435320669367717 -0.23544042665603657 -0.31942614848801715 
0.14445049702247031 -0.067707963115194156 -0.1410015234168524 
-0.043136867348821786 -0.071281781125003496 0.058294249999935058 
0.14445049702247031 -0.067707963115194156 -0.1410015234168524 
0 0 0 
0 0 0 
0.15591402684032341 0 -0.16909187764465181 
0 0 0 
-0.49356401106302344 -0.13761210538555238 0.56041533488926609 
0.41415952382583521 -0.26908080543147278 -0.36572082339322204 
-0.23175074398956005 -0.27486515726037081 0.37005811491601703 
-0.23175074398956005 -0.27486515726037081 0.37005811491601703 
-0.32419647430138249 -0.27486515726037081 0.37005811491601703 
0.43109700007951324 -0.1414439639589147 -0.24894113860669395 
0.72981872844582574 -0.12658033562373222 -0.49487230786238456 
-0.22097262261567843 -0.45242268477403891 0.54672362073559666 
0.60873119417483035 -0.11023667523854315 -0.34339725361424422 
0.81708764412261636 -0.028773819435020088 -0.63634687088853559 
-0.632505380782864 -0.23982639350173168 0.45657476377577338 
0.10468308080107021 -0.0033776452673925203 0.020182028071921009 
-0.13738994406748303 0 0.30471800281826705 
-0.51526149331334947 0.24113325175620828 -0.032241543352178596 
-0.13738994406748303 2.5031276889178747e-17 0.25840117805336577 
0 0 0 
-0.26229128326536993 0 0.062759112228523012 
1.4263257531598361 -0.64680121290513259 -1.3494301064388359 
-0.50243688858044466 0.067838273091708118 0.25020134050850967 
-0.50416837972441808 -0.43359146598069642 0.6324288553611912 
-0.31271091111299709 -0.16708785509713286 0.36519198957706978 
0.93473724785620516 -0.25189308261381443 -0.74690858927091397 
-0.74537955749006723 -0.029302248922663181 0.55382578737976429 
0.051824125841654523 0.19690205776338546 -0.13945150736607659 
0.066760054275465761 -0.52534885038558066 0.20320164654087031 
0.23977207368975531 0.44543674047064941 -0.21828277971134843 
0.49395927781988413 -0.94383845608823058 -0.13686002359042573 
0.07497483503692165 -0.64529569652448582 0.095568150653109848 
-0.1617308318148003 -0.12839051163233106 0.13938042473640913 
0 0 -0.058008903144508621 
0 0 -0.058008903144508621 
0.17243853739592502 -0.48989281376542371 0.25183467648553459 
0 0 -0.058008903144508621 
-0.40545217828530739 0 0.23067148979475896 
0 0 -0.058008903144508607 
0 0 -0.058008903144508621 
0 0 -0.058008903144508621 
0 0 0 
0 0 0 
-0.18949060968661402 -0.7015782419059613 0.43435776021919098 
-0.5230480954914406 0.29627685097982787 0.38688449948796749 
-0.34908405941937315 -0.13785424527431217 0.63054303590601901 
-0.57462205175743386 0.04688930567434503 0.40183751587328759 
0 0 0 
-0.50052491209419292 -0.0037375651508082092 0.24793112608325671 
0.22178708926186805 -0.34434259936849876 -0.1325145884261241 
-0.0051610873889753545 2.5031276889178747e-17 -0.080730039426815697 
0 0 0 
0.09207071415825889 0 -0.38134794442800535 
0.29740572519487279 -0.076123497658289643 -0.28056017181739612 
0.089463901945342234 0.44507727780756334 -0.57194816820520311 
-0.45277417824519167 0.23934880708035552 0.090119424764646947 
-0.44537130083212767 -0.17358513098079839 0.53503365447882245 
0.26373948105631323 -0.38150350465215982 -0.061367767948651668 
-0.58701337643483009 0.91039866767660849 -0.18372923862501347 
-0.10693055234340168 -0.23214596138600219 0.38200635109047598 
-0.0018683259191052859 0 0 
-0.0018683259191053134 -0.086214705766527705 0.050481111562139885 
-0.0018683259191052859 0 0 
-0.18874791193267132 -0.61674177862606505 0.3177458206465209 
-0.0018683259191052859 0 0 
-0.63457440960871669 -0.25189308261381438 0.80839432401494871 
-0.36080372732174426 0.10099345191612413 0.025883208548322857 
-0.32355391229970198 -0.052242281113801387 0.44955494802971235 
-0.0069707844176297015 -0.35565212626793219 0.27876467874511041 
-0.59298697345379692 -0.5722914475171853 0.59029364905330306 
0 -0.081479775945698524 0.023953239382515732 
0.15280927487428705 -0.081479775945698524 -0.33101353672578609 
0 -0.081479775945698524 0.023953239382515732 
0.3693108716344165 0.0014627365415709034 -0.47581083170853583 
0.27310696083069469 -0.078515893613184826 -0.21036119104144493 
0.3693108716344165 0.0014627365415709034 -0.47581083170853583 
0.37322898493511625 0.0014627365415709034 -0.55343754676045831 
0.33467071701191087 -0.13881658336297834 -0.37453362627532766 
-0.34301010419934147 -0.19450444999537136 0.57685097925707063 
-0.13605393343322122 -0.0034037846298141474 0.16173853419824064 
-0.13605393343322122 -0.0034037846298141474 0.16173853419824064 
-0.13605393343322122 -0.0034037846298141474 0.16173853419824064 
-0.13605393343322122 -0.0034037846298141474 0.16173853419824064 
0 -0.21508384492693111 0.046175680003662206 
-0.51347987922356109 -0.27806325961637357 0.52971810583343848 
0.051824172866509574 0.20358538881300184 -0.076208779115820469 
0.34598628750396004 -0.4030345083353144 -0.11131962267182532 
-0.2671668146540318 0 0.30613316299621135 
-0.2671668146540318 0 0.30613316299621135 
-0.2671668146540318 0 0.30613316299621135 
-0.2671668146540318 0 0.30613316299621135 
-0.2671668146540318 0 0.30613316299621135 
0.03066277933554816 0.11352982690904567 0.12540746805818262 
0.29084166856861771 -0.23466108617953887 0.0175165572084242 
0.24041786878884863 -0.6187229137180531 0.54166889528222262 
0.56183738638309411 -0.13206740716735488 0 
-0.28442446420898276 0.81773757452109819 -0.31619385135128808 
-0.28442446420898276 0.81773757452109819 -0.31619385135128808 
0.22814291617313523 -0.029115673254529906 -0.24853913309900369 
0.076036700751490022 -0.17136832223099788 0.041069239420464212 
-0.42295007469517171 -0.30834757679300412 0.80540206572456252 
0.32351279268428723 -0.18546151335164085 -0.16631319677245199 
-0.41564470814942905 -0.30834757679300406 0.66514226699850454 
-0.21232761955398918 0.13946355771709729 0.03110438345380194 
0 -0.12197260357016775 0.13093108186341118 
0 -0.12197260357016775 0.13093108186341118 
0 -0.12197260357016775 0.13093108186341118 
-0.28204409480635567 -0.096650320502989856 0.28393929259915829 
-0.30335605535498389 0.98791988819391541 -0.35491194392228426 
0 -0.037487658534230216 0.14498137343606193 
0 0 0 
-0.20730919696774847 -0.31474109749891271 0.4492437776164952 
-0.024282012332800664 -0.15711502065446015 0.22911421894107367 
0.09043424777139128 -0.26073989458958613 0.014391769539996479 
0.3467161783688808 -0.28419561495422557 -0.2248456880219448 
0.079827315241546917 -0.12154603403647805 -0.23603119734747385 
0.60858642081732306 0 -0.83602869861308116 
0.18437739575604972 0 -0.31801799029370431 
0.46988687832823489 -0.60441084622139318 -0.22041152860525021 
-0.28576940389723382 0 0.2200449273325584 
0.04642166490331058 -0.15767078366270565 -0.18117824265274918 
-0.3473568932103806 -0.61535504540405361 0.45484621615485543 
0.018389036491840708 -0.29050193356217985 0.15186435157932646 
-0.18717282920965195 0 0.36623609178034772 
0.18437739575604972 0 -0.31801799029370431 
0.18437739575604972 0 -0.31801799029370431 
-0.0023682305299542843 0.44378390545118818 -0.32984423064859753 
0.13504403384751959 -0.30322264446985775 -0.051534076388151391 
-0.0023682305299542843 0.44378390545118818 -0.32984423064859753 
-0.0023682305299542843 0.44378390545118818 -0.32984423064859753 
-0.89304268966154898 0.0057695759538602225 0.33819360113708086 
0.40651599345689149 0.31354046254770079 -0.55525867623180403 
-0.0023682305299542843 0.44378390545118818 -0.32984423064859753 
-0.016741017213493886 -0.019784423331981778 0.063974596073701706 
-0.15290934753775426 0.41978973810867437 -0.089045877270875776 
-0.15290934753775429 0.38848522269987962 -0.089045877270875776 
-0.221064518309466 0.052861979212210412 0.10913080292321738 
-0.15290934753775426 0.41978973810867437 -0.089045877270875776 
-0.45202565674164469 0.34340703814123769 0.06922935391340633 
-0.28584671765568614 0.067212968890538016 0.51684481037758134 
-0.05905023925241476 0.25406931574694236 -0.42522693453531379 
0.42065392456404538 -0.33492213000081894 -0.18464282194967416 
-0.42338750449135587 0.64241799922461529 -0.0085644092538522953 
-0.10509752228724477 0.47279023431658579 -0.31182647512126793 
0.45320144739086615 -0.19380392176398437 -0.4788204644082738 
0.24054872122748608 0 -0.26128684662150964 
0.18126724933862479 -0.47157211290019146 -0.0022938196403179739 
0.62315794180332251 -0.23334555786463076 -0.26719996590650558 
-0.14812762362900517 -0.036749684022956149 0.25455805888442384 
-0.0355795572014245 -0.29959569682920206 0.1571072391488966 
0.24441119176785894 0.011869062172164517 -0.18449663270893041 
0.30830360924872091 -0.28175946838934701 -0.045501381880885573 
0.9033402892008795 0.18332683743661157 -1.1851144774230828 
0.58711069479701505 0.072587358823646253 -0.84683625669910656 
0.0036300564385880071 -0.19816862564533866 0.38760740816257011 
-0.18625492421113229 -0.59107990544917699 0.38836170023404276 
-0.30987710658192752 0.19249676456463052 0.21937177139674116 
0 -0.013466529919314414 0.0042398918614552691 
-0.033868965164140841 0.15319986824522527 -0.19476155283009444 
0.090709137496603934 -0.1992165562574473 0.16813776603162403 
0.43648890319508626 -0.3903389548474796 -0.3453109617285019 
-0.3647209525685704 0 0.49735402067302359 
-0.3647209525685704 0 0.49735402067302359 
-0.50339541835505042 0.17139483952776205 0.37082889156513404 
-0.55345952694523326 0.043922525876198652 0.32405380653235183 
-0.67277441169907248 -0.11689244202512349 0.8500484921073127 
0.9303074173181678 0.20731478301831338 -1.0866306187605073 
-0.67277441169907248 0 0.85004849210731281 
0.91681811585349804 -0.16415719991416805 -0.53630897397178123 
-0.41094817101741998 -0.16200585509182508 0.56068684853954398 
-0.078928058936091908 -0.16651776522999534 0.24899198856018878 
0.62525644512821987 -0.16415719991416805 -0.76307737677401888 
0.0524623247926988 -0.16415719991416802 0 
-0.36189245135245862 0.3538895669295069 0.030055937783077118 
0.0524623247926988 -0.16415719991416802 0 
0.0524623247926988 -0.16415719991416802 0 
0.18491418217071051 0.25712366927343305 -0.66012609282804791 
-0.9118501677294556 0.41367455258756525 0.46127391319913058 
-0.28481104392158985 0.82590422116466589 -0.45167891197246102 
0 -0.00039890984651980561 0.0079445784811493347 
-0.13225656043170134 -0.12634141263145568 -0.018094583835275388 
0 -0.23524962778840122 0.007944578481149326 
-0.63379928305958111 0.22438677454208455 0.38573480001160376 
0.28067171349358189 -0.19058338841852654 -0.22519226607752355 
-0.68394785893690391 -0.26254748426521357 0.68505740406790294 
0 -0.082389571513230744 0.007944578481149326 
0 -0.082389571513230744 0.007944578481149326 
-0.74492446985455407 0.47510844006307562 0.24606258750371682 
0 -0.00039890984651980561 0.0079445784811493347 
-0.54984873429610859 0.85105610221977779 0.061973974856575249 
0 -0.36888033629810757 0.12608204358364275 
-0.5401197398493679 0.24048194961191538 0.10345940814967973 
0.17571114654249906 -0.48396616277282267 0.21604205894508957 
-0.37621147934249621 -0.059859618187116798 0.19281762048720863 
-0.66714308756930107 -0.15520572661740384 1.0705262167644929 
-0.40596066638153933 -0.023898763420239846 0.077682067367605731 
0.63996606081929064 -0.9042771029521679 0.49777420842777725 
-0.12117327786271569 0 -0.0090931161973587197 
0.087049046183972481 -0.23190840857454958 -0.048206549437805175 
1.0482442494605411 0 -0.98666190530065345 
0.14139839278485819 0 -0.03049946465584338 
0.14139839278485819 0 -0.03049946465584338 
-0.22460980052945995 -0.34154810559387727 0.17409811520327115 
-0.1530829243357818 0 -8.341949967508057e-18 
-1.0431701134909563 -0.95213739092506311 1.4196139554731768 
0 0 0 
0 0 0 
0.47088354675043614 -0.0033851892128797657 -0.079703097811349238 
-0.66821563788050309 1.3018985876743787 -0.67631342435273278 
0.52993511542599503 -0.20524780342186896 -0.57387505070571154 
0.57082555892128628 -0.080847105118856732 -0.27529824512959927 
-0.58323195455254451 0.4460850969081559 -0.35489372317362167 
-0.66069924301991834 -0.17930702757182132 1.0861638751399056 
-0.20014056904700034 -0.47870808476057092 0.13245620190209501 
-0.66069924301991834 -0.17930702757182132 1.0861638751399056 
-0.12366982825737068 -0.24822375340315189 0.48102313268170882 
-0.40625571388031023 -0.18942305570123019 0.5112154057677829 
0.028197802946233409 -0.069414181255172305 0.070415430550074931 
-0.35939133350286379 -0.33203107920470748 0.35240481609704671 
-0.056276957664980198 0.24861760078823852 -0.30502435825934865 
-0.20355607585428601 -0.073289627813647715 0.22280806930504804 
-0.1013913578922034 -0.047346982472782448 0.084753342915008995 
-0.20355607585428601 -0.073289627813647715 0.22280806930504804 
-0.20355607585428601 -0.39981692470956343 0.57866666653060206 
-0.4145894284811148 0 0.48693676225430388 
-0.27877139536916717 -0.093855217892864121 0.33915725027696403 
-0.056194476050392093 -0.27033184172371072 -0.058478812513062882 
-0.71832738859365031 0.20902342945259911 0.32590071267783427 
0.091046394302538289 -0.3436394035577876 -0.016328634972514949 
0.021729896408146855 0 -0.11493211810500034 
0.021729896408146855 0 -0.11493211810500034 
0.48042989058729418 -0.20944714250072777 -0.39833714168655093 
0.69806866947830704 -0.040580811796590323 -0.71062656652593414 
0.22732048508859157 -0.28602765717672501 -0.17207067756490332 
-0.78510841621063399 1.2396413755657603 -0.1295434206357762 
-0.11915052403636441 -0.080700956579326674 -0.018003879397195992 
0.43381182610763114 -0.32807199999480952 -0.21171175639463 
-0.079738109798613288 0 0.026649573145495514 
-0.079738109798613288 0 0.026649573145495514 
0.24601604442362671 -0.11611375145929234 -0.31277774698264355 
0.60774539396614591 -0.10297131593940047 -0.58077097873970018 
-0.49142668003279782 0 0.3754400511947722 
-0.079738109798613288 0 0.026649573145495514 
0.60376453414438469 -0.90583140388770256 -0.364380459013739 
0.69765485520229875 -0.35586294402798047 -0.41447108757049056 
0 0 0 
0 0 0 
-0.57356703064028947 0.083101085125295793 0.18207319448878134 
0.58730504323585841 -0.52514274505990688 -0.017786903339698682 
-0.30855345208706908 0.9554552570073267 -0.8056498043027609 
0.29371818453843368 0.098658415321587895 -0.19454353311628195 
0.26512662974163481 0.073400744792213174 -0.32422436385659159 
0.4377659242983919 -0.090072296904053925 -0.12052372089641682 
0.10450569425523951 -0.33658782466547771 0.10153363571374396 
0 0.48243394287276159 -0.41477961742396791 
-0.34484390979454621 0.11411186350000195 0.027462126824171866 
-1.1961204968753767 1.3918572188653688 -0.87617594152460876 
-0.40971736727498553 -0.27615865345893698 0.50286350876871344 
0.70515671534520519 0.37044484832913105 -1.0182126581080164 
0.16813498730302326 -0.01840753701162209 -0.56992649289041886 
-0.72471537864502766 0 0 
1.0335170571339602 -0.94576447379654194 -0.4337661650410275 
-0.030967155328539078 0.14795551361508277 -0.090069193044599802 
-0.57008577793125459 0 0.41104628613900696 
-0.57008577793125459 0 0.41104628613900696 
-0.57008577793125459 0 0.41104628613900696 
-0.22463812279815246 0.45116513622760207 -0.36857584475881144 
0.70495392501234688 -0.33007499056327472 -0.68361741300091228 
-0.9272908088152253 1.3660597721427632 -0.91568931790077157 
0.59735488196108488 -0.35282952475479806 -0.30043529085081977 
-0.087893842240779688 -0.35144805357759173 0.14261164107364235 
-0.039625822339071692 0.24920750047672302 -0.435631704206836 
0.31374178039631362 0 -0.21767406527715927 
0.053288809528323898 0.30035898369847325 -0.49491795133000421 
0.0018797902487558481 0 -0.062392385092623806 
-0.80666953671758779 -0.77522308704308385 1.2120275517414598 
-0.53344276636949561 0.55675569660436675 -0.023739504390826061 
0.3166964608897887 -0.21912667608480002 -0.21130572039944553 
-1.0433845103666544 0.99391762607268352 -0.70816465564805098 
0 0 0 
-1.0089081948540919 0.34847833356656227 0.50690153150045292 
0.30956002406371974 -0.47820435243698617 0.0069972990945633591 
-0.26410564441850115 -0.31804376860632871 0.31669347753592869 
0 0 0 
-0.023802219714365712 -1.5644548055736717e-18 0.065789160153724102 
-0.58095553205593919 0 0.54206411413891753 
1.6379165335248027 -0.88724548603123443 -1.4404907536235911 
-0.087531029264637961 0 0.11772950729714882 
-0.34897581941712175 0 0.23967483207205226 
-0.49255950315906449 0.44927910592634096 0.6149885674409391 
0.30822881469518576 0 -0.26093471569252058 
0.30822881469518576 0 -0.26093471569252058 
-0.10395705543259547 -0.20215288409998075 0.13055764595305 
-0.19164442460584757 -0.10365626320789564 -0.020786654607756753 
-0.31708882754678541 -0.0047908179515270786 0.22292237510118765 
0.45540804591397793 -0.052437949911161449 -0.21873168701922954 
-0.55562821378784133 -0.065523273638771307 0.65555683958272981 
0 0 0.10258737162158156 
-0.06128203044256296 -0.39101237355126733 0.24590119427956811 
0.16401382382739432 -0.40158793220680183 0.35795786025656301 
1.4021100920854928 -0.024868416426451014 -1.1526736632832435 
-0.15308292433578183 -0.18666079652773751 0.30020115386574581 
-0.16684497259005229 -0.7179328476731287 0.48832779466049003 
0 -0.18666079652773751 0.30020115386574581 
0 0 0 
-0.88333640779661005 1.4331135445550318 -0.43298634665972446 
0 0 0 
-0.95726261445153804 1.7514827235661483 -1.1380186256186804 
-0.30912279572167345 0.35778366701757619 0.09096962521994563 
0.14198202053168418 0.045421353152959344 0.049070583409528322 
0.29671830517865139 -0.24951714458614199 -0.098709290757524049 
0.10977295403750119 -0.2968238354502048 0.21647404445594728 
-0.075035483164337183 -0.049272146021448207 -0.10133459826673499 
0.3628166697597266 -0.30938457267866415 -0.18729834816105842 
0 0 0 
-0.17345434836079529 0.71690259758259733 -0.46674551234120648 
0.19601096108687185 0.8534802236217609 -0.5069975328584656 
-0.36131530273376827 -0.31899284745606232 0.57263697606245678 
-0.61517873978460169 0 0.63571414715338059 
-0.43116623953720717 -0.004472920070937649 0.66175076142584877 
-1.0073550842960017 0.15973941535368633 0.90136747197860201 
-0.30748115890945149 -0.23473943831147198 0.44195843218270608 
0.016302763857316258 -0.33228131724738991 0.44625554314243537 
-0.091074523381453026 -0.33560905365183191 0.1973702521008317 
-0.30748115890945149 -0.23473943831147198 0.44195843218270608 
0 0 0 
-0.34672103183824698 -0.59262619922396931 0.061447202135300291 
0.72852585268040948 -0.25457069657191694 -0.5905489881084578 
-0.57126559577399882 -0.23503394558001872 0.62370690066456724 
0 0 0 
0 0 0 
-1.6466094522898296 0 1.413717878355969 
0.64505436661522286 0.16155078133561618 -0.74184566348366277 
-0.58162066409629243 0.13319298061691937 0.16106009302997107 
0 -0.020458071247513112 -0.17297434675546156 
0 0 0 
1.063632913108868 -0.054039418707344862 -0.88508601562179168 
-0.21381565106297432 -0.49966798119601258 0.41954672818104471 
-0.47016481868413035 0 0.53815208063261089 
-0.36263457947007677 0.22560938091401134 0.24506318037451505 
-0.47016481868413035 0 0.53815208063261089 
0.4428735516836112 -0.53922981306328055 -0.28689614493832849 
-0.16400749433025794 0.10218630298974835 -0.1956315030611829 
-0.4034167183659727 0.27639337564604832 -0.020844736354776496 
0.26776846804006249 0.10246072518861606 -0.30691188036279066 
-0.45964298019475563 -0.076672346510583383 0.25997912189684791 
-0.40341671836597276 0.32474608916145814 -0.042784101412783014 
-0.40341671836597276 0.32474608916145814 -0.042784101412783014 
-0.61778719711467334 -0.02644208149034687 0.77352028481882773 
-0.61778719711467334 -0.02644208149034687 0.77352028481882773 
-0.16988621220575453 -0.040133609339125222 0.34875924075496689 
0.56281502580160292 0.095722861477277543 -0.61422093007977352 
-0.06304952413827275 -0.037332328983828864 0.24067016772033378 
-0.14641668016838169 0 0.43294937621891338 
-0.4355725604850616 0 -0.080567697427379389 
-0.14641668016838169 0 0.43294937621891338 
0.65728310315260452 -0.33012494247996388 -0.71431933866188302 
-0.11028276926116425 -0.73764517511457595 0.53909228548081101 
-0.41368762592939345 0 0.28054378755991433 
-0.41368762592939345 0 0.28054378755991433 
-0.41368762592939345 0 0.28054378755991433 
-0.41368762592939345 0 0.28054378755991433 
-0.4359867449128681 -0.60214733260341469 0.84830203399384319 
-0.43357623973611076 -0.60214733260341469 0.53390818076367075 
-0.032593002811556172 0.26873086871745572 -0.20343861107717115 
0.23126327073267627 0 -0.15400154786497702 
0.23126327073267627 0 -0.15400154786497702 
0.23126327073267627 0 -0.15400154786497702 
0.072961410678105978 0.31981814415222576 -0.24873146740809673 
0.23126327073267627 0 -0.15400154786497702 
0.23126327073267627 0 -0.15400154786497702 
0.23126327073267627 0 -0.15400154786497702 
-0.052683367900617881 0.063285474773412717 -0.1961936787070036 
-0.085317259938419418 0.23233110212945143 -0.32454676485192896 
-0.085317259938419418 0.23233110212945143 -0.32454676485192896 
-0.085317259938419418 0.23233110212945143 -0.32454676485192896 
-0.063886768996622947 -0.028326023107402312 0.1792299237517235 
-0.063886768996622947 -0.028326023107402312 0.1792299237517235 
-0.063886768996622947 -0.028326023107402312 0.1792299237517235 
0.59960681914669234 -0.25196385187122911 -0.27365313358461341 
0.44618315746769222 -0.18566264547627717 -0.29482513676226818 
-0.063886768996622947 -0.028326023107402312 0.1792299237517235 
-0.063886768996622947 -0.028326023107402312 0.1792299237517235 
-0.063886768996622947 -0.028326023107402312 0.1792299237517235 
-0.063886768996622947 -0.20996485218642455 0.32762935684035543 
-0.063886768996622947 -0.028326023107402312 0.1792299237517235 
-0.2611229606729169 -0.11706336790350488 0.37151858302439889 
0.0044513716759687957 -0.11706336790350488 -0.031981671452140412 
-0.34348141242599473 0.23724715784775124 -0.0063055294973552289 
1.2983770771867951 -0.11706336790350488 -1.3957262362427403 
0.10963290844827601 -0.11706336790350488 -0.031981671452140412 
0.29041105144561596 -0.13164348015595476 -0.20369537896083023 
0.10963290844827601 -0.11706336790350488 -0.031981671452140412 
-0.2348934040444513 0 0.27601549148656185 
0.69265319390101576 0 -0.84040009627387924 
-0.72313319744073601 -0.29988611073195282 0.66473185599868301 
-0.2348934040444513 0 0.27601549148656185 
0.14042215733577021 -0.48704375105625736 -0.094233018239067726 
-0.213440084182909 -0.6893599780074805 0.74813169067249685 
-0.32676036508609607 -0.23428523387656131 0.80736010195720009 
0.30504460129998978 -0.046773435173588798 -0.052977235997801346 
0.30504460129998978 -0.046773435173588798 -0.052977235997801346 
0.20188567234343144 0.024082640061947033 -0.20435639647427808 
0.30504460129998978 -0.046773435173588798 -0.052977235997801346 
0.30504460129998978 -0.046773435173588798 -0.052977235997801346 
-0.39389134268475456 -0.42540064779421832 0.6662724256825987 
-0.76103115415062228 0.22309210527240339 0.32954362676739485 
-0.34464934923802054 -0.039807883284108211 0.35277565526182597 
-0.34464934923802054 -0.039807883284108211 0.35277565526182597 
-0.34464934923802054 -0.039807883284108211 0.35277565526182597 
-0.37735152367805996 -0.14065403479362804 0.58104751252723785 
-0.31396833244778632 0.10393670631702434 0.3499480644878542 
-0.68558619531203557 0.18131276364420176 0.67999460060218686 
0 -0.2406266673107304 0 
0 -0.2406266673107304 0 
-0.6053149803582889 0.25895871901683054 0.02404587371008482 
-0.23783999099521314 -0.24014321819435158 0.19150716588161609 
0 -0.082109087945334655 0.22877893659060644 
0.39950918350624864 -0.44682515596811767 -0.068384155200033242 
0 -0.082109087945334655 0.22877893659060644 
0.067958357439631648 -0.24214943102691144 -0.26414756697499014 
-0.28264211621148871 0 0.23137742386582977 
-0.28264211621148871 0 0.23137742386582977 
-0.18824913352002481 -0.033658013894445268 0.079096935440408148 
-0.28264211621148871 0 0.23137742386582977 
-0.28264211621148871 0 0.23137742386582977 
-0.28264211621148871 0 0.23137742386582977 
-0.27539166044389046 0.2786354020489038 -0.45628661346774663 
-0.27539166044389046 -0.21929171541105091 0.25333327763080732 
-0.27539166044389046 -0.0052149600047517401 0.31880633977298839 
-0.27539166044389046 -0.0052149600047517401 0.31880633977298839 
-0.27539166044389046 -0.0052149600047517401 0.31880633977298839 
0.40540235688782156 0.079197335101671221 -0.3162436386483945 
0 -0.12187230433010279 0 
-0.34063742917541506 0.24697200681839263 0.21187129896608328 
0 -0.12187230433010279 0 
0 -0.12187230433010279 0 
-0.58096611175886725 -0.37036205234686459 0.62847591852965901 
-0.086347750748180949 1.0660765137159278 -0.77326679451250624 
-0.32489424263548006 0.2127237260241974 -0.07520427186861707 
-0.61275988099354828 0.24911772480693228 0.22861562873350244 
0.49210366881494966 -0.029981215439224582 -0.4868384168639554 
-0.32489424263548006 0.2127237260241974 -0.07520427186861707 
-0.32489424263548006 0.2127237260241974 -0.07520427186861707 
-0.32489424263548006 0.2127237260241974 -0.07520427186861707 
0.40550466895481757 -0.14319653433910265 0.023163780075728946 
-0.24384099737628176 0.3122812427398402 0.02297036689917567 
-0.17060539765961194 0.26378837840189334 -0.10920793784977018 
0.031291284041987916 0.32192956906971043 -0.18801850077007751 
-0.054098536728517159 -0.17631622027861971 -0.060406366227987653 
-0.057239059097793088 0.13315730414030907 0.17365866150564027 
0.10219340948060779 0.14317314312053808 -0.35738761919291701 
-0.0644832056167602 0.43721794111547474 -0.35738761919291701 
-0.0644832056167602 0.43721794111547474 -0.35738761919291701 
0.022466870352365366 -0.17387925946464775 0.15057136046474784 
-0.1944857606031902 -0.23516314012372172 0.28973786313596034 
-0.1944857606031902 -0.23516314012372161 0.28973786313596034 
0 0 0 
0 0 0 
-0.33805157149422599 1.4845234864921937 -0.97913078929484754 
0.013018804161192584 0.51219091398729233 -0.32216421929321348 
-0.26533847502690155 0.22369558129225603 0.13213443895876328 
0 -0.015602674664603642 0 
0 -0.015602674664603642 0 
-0.65248825847028358 -0.091074696231048108 0.59272707807066782 
0.20688183065752172 -0.1018823832858106 -3.9326335561109425e-17 
0.5536013178565633 -0.18945004628041837 -0.07929777924357119 
0.091459540056449143 -0.22212080260724631 0.46292251013185864 
0.16172821389666348 -0.35278804917436196 0.55656416103419337 
0.26442840715064975 -0.18945004628041845 -0.07929777924357119 
0.48870085825027826 -0.10510419134166807 -0.40839750410788905 
0.48870085825027826 -0.10510419134166807 -0.40839750410788905 
0.03833150555636225 -0.71899837591351401 0.42779518715702824 
0.28310126842638894 -0.36484989256021427 0.27218278471583307 
-0.19929401929830598 0.36206489365810485 -0.16967407796849285 
0 0.71868597083854691 -0.63420542450586392 
-0.12829052504935159 0.54543271697475104 -0.24507370763552858 
-0.35414738320158756 0.36781312321071424 0.031270633274264457 
0 0.42868273838637044 -0.63420542450586381 
-0.079258244441324233 -0.43550243163048902 0.27484136010654159 
0.25996623174899253 -0.7394619792128686 0.42121592169857153 
-0.34264927587439031 0.52563582802478359 -0.31948000982683772 
-0.34264927587439031 0.52563582802478359 -0.31948000982683772 
-0.34264927587439031 0.52563582802478359 -0.31948000982683772 
-0.34264927587439031 0.52563582802478359 -0.31948000982683772 
0.046549135428146739 1.039118457065229 -0.72950631688509793 
1.2889479916773532 -0.94232901411363301 -0.72125357380105015 
0 0 0 
0.7399926115646791 -0.72167965587513627 -0.12885259060381429 
0.52604610179169842 -0.44145377777890465 -0.1619092652261917 
-0.39348005986188117 0 0.21833618665859891 
-0.39185256042520672 0 0.16142869526489176 
-0.14114207336120663 -0.19357089922766002 0.35670998652921126 
-0.79769414317892973 -0.11313873961494161 0.62955469717121193 
0.18839093252141789 -0.43665166114517956 0.27110120725953918 
0.098795577341696639 0.41154243812361185 -0.32158719801908353 
-0.1411420733612066 -0.15138427745706429 0.35670998652921126 
-0.41200509785768896 -0.029812904381957224 0.49585746000144437 
-0.41200509785768896 -0.029812904381957224 0.49585746000144437 
0.089328764058143204 -0.029812904381957224 -0.45355546568197974 
-0.44158372230382609 -0.0298129043819572 0.63676001805826998 
0.57705327989192423 0.2128511000121448 -0.53064082718293792 
-0.36418183061577547 -0.2602522057704334 0.09884628538668272 
0.51395863333765535 -0.077762012767107022 -0.61411901105651967 
0.38345967379699847 -0.18578964201135464 -0.21231353836800909 
0.32803673645745307 -0.51789655279509428 -0.17528477957765096 
-0.037737951549835308 0.11057073103713849 -0.13619325725143022 
0.0049801783643774137 -0.62981411504877749 0.40025924831892296 
1.2527258390645788 -0.37446389684509551 -1.3208630454739509 
-0.20931965804657832 -0.22298969068711177 0.35796127624789503 
0.17100783806692008 -0.22298969068711183 -0.060867572999153269 
0.021872402350659712 0.12064456599017119 -0.2203008967451785 
-0.41015530264868083 0.37245892133046554 -0.02920903918461432 
-1.1623373868373026 -0.15620907909723167 1.4674850786396965 
-0.095676066021597825 0.21723468637424972 -0.38143552848745771 
0 0.21723468637424978 -0.43337878865905965 
0 0.21723468637424984 -0.43337878865905971 
0 0.21723468637424978 -0.43337878865905965 
0.72928294421196282 0 -1.1276879072024244 
-0.31050703854027906 -0.41655065812478026 0.070027535969885812 
0.057450831523422327 -0.062144885314799378 -0.045464559673439084 
-0.40309207696559773 -0.039020241757452293 0.78109942849890146 
-0.064365572772849405 0.18347957841194615 -0.22310793508655902 
0.18778533416609086 0.20245762150217439 -0.12778295374152218 
-0.085955778176294184 0.28250346120726749 -0.38942445618596 
0.98359007902798234 -0.51600940980542542 -1.1002145845640845 
-0.1753136968524453 0 0.64800279903168623 
-0.22938081069136693 -0.32317101121562564 0.034659973368465075 
-0.17015199004338336 0.7980122113510445 -0.46712271253587845 
0.1910578657898693 -0.69916119991650716 0.15515625629137331 
1.1439021497688961 0 -0.87784121823772987 
-0.57771900431014123 -0.14011693773965841 0.42573536503384773 
0.13518192623905836 0.39842985442791479 -0.51560340386364478 
-0.072785524839864835 0.14054122057242355 -0.14060420764332568 
-0.43013222428705594 -0.17577487323097582 0.52851384814510238 
0.27147511878794672 0.25520266947303455 -0.39506496828675142 
0.21881075475001477 -0.19168045107878398 -0.24152019536235383 
-0.77619251808483269 0.16324519968865714 0.59819159237739072 
-0.072785524839864835 0.14054122057242355 -0.14060420764332568 
-0.1885902454555265 0.14054122057242355 -0.14060420764332568 
-0.072785524839864835 0.14054122057242355 -0.14060420764332568 
0.09975119464403108 0.22373864163392582 -0.29797745442372237 
0.45267529877195634 -0.070451055373966537 -0.67043530683405117 
1.6177225512664117 -1.0487458799827094 -1.2944918707327624 
0 -0.098325413877560844 0 
-0.5538094960670461 -0.43970191410337822 0.63818331976928377 
-0.94759901742847286 -0.10952409720223907 0.69787073641292641 
-0.37082825479499104 -0.10952409720223905 0.41581372583945742 
0 -0.10952409720223905 0 
-0.26485589339768151 -0.31974177130063447 0.42875583257121563 
-0.25895672699182665 0.50901611947283576 -0.49774048290561873 
0.089819666985666194 -0.11348035629407616 0.1239963693083579 
0.63798904673056733 -0.23453330267793229 -0.34279012945837423 
-0.2478697839291446 0.50134016979727936 -0.067507372146004344 
0.20482233820763274 -0.11348035629407616 0 
-0.26652957070944605 0.12512526275707728 0.10792693426815389 
-0.74098298654000294 0 0.69962411729390117 
-0.50223571415428103 -0.30885628928250081 0.78241992321705078 
-0.31409197256047638 -0.30885628928250075 0.56421731399596931 
0 -0.10611892135094086 0 
-0.57987567618270031 0.40369450873334423 0.12727708552505479 
-0.44908770214944183 -0.35148202058680394 0.46671701820103378 
-0.3786980010620638 -0.012161956999732194 0.33376457870371401 
0 0.40785434402091597 0 
-0.027941346450013602 0.098446412401885758 0.12255122233681676 
0.049747340033740019 -0.078971507110146499 8.639876752061919e-18 
0.64609379642348996 -0.76955524948889786 0.10202317535033263 
-0.057652140244485742 -0.44049960991322828 0.33235285426425376 
0.060182012143078611 0.018367047648159145 -0.026849018294532553 
-1.1786427357936644 -0.59421447947427564 1.4187745848687416 
0 0 0 
0 0 0 
0.21980549800222315 0 -0.29237197580628077 
0.21980549800222315 0 -0.29237197580628077 
0.21980549800222315 0 -0.29237197580628077 
0.21980549800222315 0 -0.29237197580628077 
0.35624658459502423 -0.018627197134402577 -0.29237197580628077 
0.21980549800222315 0 -0.29237197580628077 
-0.31190229206308395 0.52263599513201831 -0.18076711378662194 
-0.18456970335441306 0.52263599513201831 -0.28294419849150471 
-0.023566545878912774 0.49232161145805742 -0.13373889859070512 
-0.52527225790996923 -0.020913832312854208 0.18556206783031978 
0.096644851589901354 -0.38954509449248015 0.024322132187901711 
-0.39073818290780277 0 0.035467733422285173 
-0.02744898315257429 -0.13176855004843627 0.090482448203521013 
0.022074557832396993 -0.50217035109843189 0.57646701181545956 
-0.35041676279423178 0.64962746965494522 -0.33472487850079852 
-0.20888983439156764 0.23203657361387914 -0.16058139848073069 
-0.40331421928455469 0.23203657361387914 0 
-0.23291435393231311 0.44910763124593933 -0.47241625447422908 
0.67310775098420672 -0.4381041521511565 -0.39382667212273326 
-0.26314810358714508 -0.43471984272543818 0.38707955298976449 
0.032459013587569363 -0.099218078710370888 -0.17631033916712979 
0.74135596499202461 -0.086380574904299082 -1.3370462148281994 
0 -0.11007454535372999 0 
0 -0.11007454535372999 0 
0.19681403659462704 -0.37950803299795782 -0.18666261581563057 
0.99053963955979885 0.21197923923159959 -0.91288658404613499 
0.19734098360523003 0 -0.28490861257638322 
0.19734098360523003 0 -0.28490861257638322 
0.19734098360523003 0 -0.28490861257638322 
0.076516974599209558 -0.23747279211149547 0.0092746372683102426 
0.19734098360523003 0 -0.28490861257638322 
-0.42863986066112492 1.1086123971167383 -0.7109537546143424 
1.7140745885127597 -0.88163612282756199 -0.55597457113789939 
-0.4392762298227138 -0.093676396546795618 0.41557246381400281 
-0.70521340765668805 -6.2578192222946867e-18 0.74753369233538636 
1.010724082400696 -0.11476897505034644 -1.0442555031877978 
0.4988629453584747 0 -0.35600810277885103 
-0.92165123784264602 0.6518299307159614 -0.18617431734020443 
0.61944357022019336 -0.025151608167357516 -0.54677244923960844 
0 -0.16611736651165787 0 
0 -0.16611736651165787 0 
0.14844800708264577 -0.0131235558496789 -0.40779140805486974 
0.20285225901882362 -0.28999019099975054 -0.19760273549767834 
0 -0.16611736651165787 0 
0 0 0 
0.2324983700932659 -0.45733815577209208 0.20807009939898177 
-0.11483346346845758 0.14277752170499033 -0.22544819441336014 
0 0 0 
0 0 0 
0.44349436413373566 -0.28094975351794371 -0.62376110836681975 
0 -0.46987616763620904 0.46826777935263741 
0.27848860914188711 -0.94506129122081051 0.25599622501970909 
-0.61443123750809481 0.060768845364693014 0.40681890714060132 
-0.0069169747191440171 0.078461982067256519 -0.069527702128753283 
0.022546436513017194 -0.34712669353505504 0.34595792817630955 
-0.05579073089568929 -0.39092655051382746 0.2511150779180184 
0 0 0 
0.2091893574110143 -0.0043736934018721186 -0.14837368180077484 
-0.38996042480079757 -0.27940407012782825 0.2962958539720062 
-0.56878991301115756 0.72625606554624544 -0.65774129061150477 
0.016617903151019183 0.1003425763500595 -0.22293318257225442 
0.016617903151019183 -0.24230597811142712 0 
-0.029309896091493967 -0.18315508499753588 0.29619329124182431 
-0.0093539740750104069 0.35475512646685037 -0.33405750516978894 
-0.67504481838861319 0 0.46283828796570359 
-0.19561139555097801 -0.2280450008457609 0.65253227939486191 
0.1502838396669714 0.23544188722537354 -0.57661054864877825 
0.040521270181134265 -0.38779125260113229 0.33619583186717161 
-0.11700302012723104 0 -0.13034962885574816 
-0.38280899408798758 0.89075182262841568 -0.97950295125600861 
-0.092742142684803977 0.7045062843407317 -0.74388974414889342 
0.27420978219537107 0.39661240413094945 -0.73166048445645793 
0.13312385262582307 -0.039235113653240811 -0.012826510208081064 
0.3920495123033666 -0.039235113653240797 -0.43939577307629635 
-0.37992934795855438 -0.040048966028661009 0.40315251895677323 
0.081637290197619464 -0.040048966028661002 -0.082999159424374205 
-0.37992934795855438 -0.040048966028661009 0.40315251895677323 
0.88030677285591941 -0.18658991733992225 -0.607527131571162 
-0.38475608005441886 0 0.44137880911826161 
-0.38475608005441886 0 0.44137880911826161 
-0.38475608005441886 0 0.44137880911826161 
0.25512308210292112 -0.084676052849432623 -0.33455778901044464 
-0.38475608005441886 0 0.44137880911826161 
0.08242222479542112 0 -0.0075481048121898951 
0.57344974994097697 -0.21034734156056084 -0.70395605525119676 
-0.061102191836823069 0.54998180339482994 -0.91308676793864729 
-0.1843723732605578 -0.74114083012281884 0.37921028374274973 
0.68668620704848071 -0.11510498143348399 -0.54965752404549051 
0.32937871146537956 -0.046803094383607718 -0.23598933358566132 
-0.11349823913829406 0.43464712757810092 -0.32271648016661553 
-0.34117605207761037 0.86868356975318939 -1.1001207591450284 
0.93203663049545116 -0.41483029320572262 -0.48389516335971183 
5.1516079396073433e-17 -0.046803094383607718 1.9067314211446991e-17 
0 -0.046803094383607718 0 
-0.78844802518117962 -0.11326735997185489 1.1590174358522849 
-0.0081906973595138183 0.58716265046893112 -0.44792370205866344 
-0.47050575343566015 0.023723402595208585 0.5188606786270431 
0.072597764862564404 0.21468815456946722 -0.65657892285466735 
-0.0081906973595138183 0.58716265046893112 -0.44792370205866344 
-0.062560713206233895 0.28567242257160536 0.029401560592263995 
0.65374315879532385 0.25769547389381964 -0.76592083113021603 
-0.22014255921900466 0.58716265046893101 -0.44792370205866344 
0.68564264326820334 -0.27033184172371083 -0.64236570274422256 
-0.17287532695299851 0.011370696874159873 0.17091971258716701 
0 0 0 
0.35440243635857421 -0.17620609289913267 -0.44244239036827537 
-0.51232890243172258 0.26167471385661989 0.079019925500691396 
0.26462279147360218 -0.46437520299270257 0.28631803637843661 
-0.054329909948812496 0.11467164504361543 -0.0098980900250714814 
0.63733456139516687 -0.029735774073839736 -0.56309852260418047 
0.29653045519794807 -0.077000407383081657 -0.13834935423612429 
0.29653045519794807 -0.077000407383081657 -0.13834935423612429 
0.39023628105229929 0 -0.35138312387035414 
-0.55095286730803217 -0.067551853533902251 0.7730622243558033 
-0.27746661044701837 -0.65159997155309535 0.36261028187434696 
0 -0.056915910954239354 0.071223332902606379 
0 -0.056915910954239354 0.071223332902606379 
-0.36331524062103315 0.29217893496150571 0.18652422535779495 
0 -0.056915910954239354 0.071223332902606379 
0 -0.056915910954239354 0.071223332902606379 
0 -0.056915910954239354 0.071223332902606379 
-0.051708153338243648 0.29342185601863824 -0.11296606192293832 
-0.051708153338243648 0.29342185601863824 -0.11296606192293832 
-0.5032954299081599 0 0.3842163463413158 
0.21946910834108879 0.048678026502176647 -0.20728641931521632 
-0.13370310249367218 -0.34378759531667535 0.19013543969899174 
0.12231829340946433 0.20239079952761971 -0.19388323192972046 
0.23167344096953293 -0.15615239693636182 -0.048772255469591186 
-0.5032954299081599 0 0.3842163463413158 
-0.5032954299081599 -0.076062061445357765 0.3842163463413158 
-0.52320462050402161 -0.40225621246634885 0.73945602022588386 
0.48009182763059155 -0.24426490201857076 -0.34853906570058907 
0 0 0 
0.0039783825246978927 -0.37809459313068028 0.13908766730762584 
0.060673188628239068 -0.35629217693742071 0.075906772875425244 
0 0 0 
-0.35269267692219392 0 0.20527282175022099 
-0.33645747634441897 0 0.027203659671971355 
0.30063941941116173 0 -0.036706809044654412 
-0.33645747634441897 0 0.027203659671971355 
0.70418983359411047 -0.20215848820655066 -0.37106329446039665 
-0.33645747634441897 0 0.027203659671971355 
-0.33645747634441897 0 0.027203659671971355 
-0.053050746470559323 0.12182155709862448 -0.070943428544891773 
-0.053050746470559323 0.12182155709862448 -0.070943428544891773 
-0.077718837233804169 -0.13570048472804114 0.029876657381706011 
-0.10608019710363874 0.24375492548214475 -0.14194507643515988 
-0.053050746470559323 0.12182155709862448 -0.070943428544891773 
-0.058921203369168701 -0.17669250024981414 0.064657872120148799 
-0.053050746470559323 0.10616885596115574 -0.070943428544891773 
0.80440472521959017 -0.25104877146140037 -0.51467016882441441 
0.072121176625626782 0.12182155709862448 -0.17423049633138785 
-0.053050746470559323 0.12182155709862448 -0.070943428544891773 
-0.67273335268210188 0.4417969355653063 -0.049940733864904545 
-0.40528067242681548 -0.31282239012743679 1.0987772843852839 
0.33854341011338707 0.23818702264583924 -0.81410459259256329 
-0.18488274945921412 -0.23062407580048203 0.57466851272631914 
0.43175345672574605 -0.049466703584968914 -0.1829405577797214 
0.22071718671127036 -0.22966227277056442 -0.1153705057323277 
0.43175345672574605 -0.049466703584968914 -0.1829405577797214 
-0.26189987202071752 0.74743822499943047 -0.96484177701290996 
-0.69480975171989523 0.27124494547593619 0.58174360947963011 
0.97121016501050361 -0.76995263464996944 -0.81116450478797442 
0.43440583480603179 -0.11605712332266611 0 
-0.03023099097657253 0.4858749476821419 -0.51406388742557907 
-0.21944447879763701 -0.13981840149815336 0.2865685936567931 
0.49041604836327574 -0.3235519502842088 -0.23177364259287481 
0.98404519544049818 -0.32355195028420874 -0.67569122803840131 
-0.4092965466515523 0.49466197284777308 -0.37164615222275987 
-0.56539415886137356 0 0.068970062757446729 
0.2655716356276569 -0.074354658026155318 -0.29422790102464852 
0.015205941117861903 -0.16001511611505131 0.10526431519116225 
1.5766958308645593 -0.25973461152954735 -1.6068690792992919 
0 0 0 
0 0 0 
0 0 0 
0 0 0 
0.50526704016327839 0 -0.36741353787889891 
-0.47627776769626179 -0.012528410843983227 0.45805080412480936 
0.082060846925756784 -0.57089609708438471 0.35417415561525012 
0.49655465679777988 -0.887684605997761 -0.086280509846927561 
-0.073770458771534292 0.6131228917385052 0.012919026768498354 
-0.46638677300441544 -0.012528410843983234 0.41798422308036121 
0.14562924550041739 -0.012528410843983222 -0.13364891937737111 
-0.46638677300441544 -0.012528410843983234 0.41798422308036121 
-0.0070628142177130955 0 0.089168720019400918 
-0.0070628142177130955 0 0.089168720019400918 
-0.0070628142177130955 0 0.089168720019400918 
-0.0070628142177130955 0 0.089168720019400918 
0.41883458419571556 0.5100148918794466 -0.65738366230432732 
-0.060325541542011155 -0.55063739817596846 0.30405777145658541 
0 0 0 
0.30400050402593709 -0.2027795393652401 -0.08485093153272022 
-0.12375464679023347 0.31560799508269349 -0.1502788303272399 
0.2735991790018325 -0.48443860305058006 0.14173019255331767 
0.33046724960703977 0.11232639822046414 -0.34666373301407649 
-0.12375464679023347 0.31560799508269349 -0.1502788303272399 
-0.12375464679023347 0.31560799508269349 -0.1502788303272399 
-0.04430263269747943 -0.30893188115622172 0.31359237516369409 
-0.46584844790103874 0.65953922736613368 -0.7858768689401654 
-0.12375464679023347 0.31560799508269349 -0.1502788303272399 
0 0.57365907689219597 0 
-0.069608996534576889 -0.38282586302521132 0.47714683722269502 
-0.4720178776742352 -0.016613878366772472 0.5506832768431501 
0.12613286000830234 0.30776714924758969 -0.44550267626329437 
-0.30948814572793937 0.032992391706551633 0.64721795364326307 
-0.19052772061353851 1.1299183870421274 -0.68224295424083936 
-0.19052772061353851 1.1299183870421274 -0.68224295424083936 
0.44159199963491891 -0.50086944609131678 -0.41780180601480976 
-1.0507166303574824 0.39595970047490964 0.81538821226928893 
-0.65301191884459098 -0.40003388610692298 0.80038550553033394 
0 0 0 
-0.045889320895241566 0 0.080691142266582958 
-0.21692473885354627 -0.01421342629130048 0.093444102461917491 
-0.11517586303905991 0 0.080691142266582958 
-0.045889320895241566 0 0.080691142266582958 
-0.09515819511682147 3.1289096111473434e-18 0.080691142266582916 
-0.045889320895241566 0 0.080691142266582958 
-0.96991815063340636 1.8743140266461633 -0.92718398890805476 
0.76533809193853719 -0.81808251778001306 -0.36073497308453861 
-0.022343259700813717 0 -0.037211568917154485 
-0.5428041168166351 1.3721920139000157 -0.86508019891149701 
0 0 -0.059364583390332432 
-0.08005096602520087 -0.15018601434605222 0.070655194136783603 
0.16117184199949547 0.37603395681884627 -0.32142109320027501 
0.2353323116237292 0.31637306809841259 -0.54998568026389083 
-0.16461830813418452 0 0.027969819218743003 
0.24813770300011342 -0.097916051397278242 -0.31048756004584144 
-0.20452182661130675 -0.59211460123738724 0.51363323559189633 
0.88352255545771519 -0.20460444256271204 -1.0225193625177589 
