solver_type L2R_L2LOSS_SVC_DUAL
nr_class 3
label 1 2 0
nr_feature 22186
bias -1
w
-0.15116283710517417 0.3724531017674107 -0.41561497049600371 
-0.11649703615009836 -0.13926146874504466 0.0097864219902413091 
0.051435473940135798 0.044031632805795369 -0.10155123350677929 
1.510523757841475 -0.24037881070799819 -1.085639641868166 
-0.055793233689463831 -0.49899978891743979 0.1921650654075294 
0.030412757979822659 -0.019866831939073369 0.018436249332896282 
-0.457600045698006 -0.48806801582766757 0.51830034825390703 
0.90185405046168876 -0.4397749302676171 -0.60863905996055156 
-0.35520127501084853 0.032850966732868622 0.090486314705174389 
-0.31094503412194774 0.93797061175992413 -0.95063401237677769 
-0.15317489645812385 -0.078210576528593451 0.15198126762630157 
-0.60154152397432537 -0.10289525088899934 0.30827807919005901 
0.36868263726452866 0.53602974886490373 -1.0079746816591157 
-0.45631294726892385 0.48255026907620702 -0.22295080251205274 
-0.35428482832676522 -0.37283851605179535 0.33054922394760405 
-0.1635527165166113 1.0909573561929808 -1.2295675639993031 
-0.058045483436521182 -0.08372483792924304 0.0026461795739426853 
-0.78643186489179229 1.52914494793954 -1.113494832280759 
-0.046433625935558789 -0.18914365021342278 -0.20805294340314551 
-0.413687731601041 -0.29981426143463225 0.83815996829305317 
0.89558858949898701 -0.088606941651285243 -1.0430727366298751 
-0.67026200501875643 0.25111186260757973 0.25267113198430724 
-0.13726996814386455 -0.025756576271231124 0.021651209796885867 
-0.30219724621750071 -0.3943008204301976 0.28087856992900029 
-0.52350091788630038 -0.034121780251178194 0.3225395747659599 
0.012995015247498673 0.35960650079328077 -0.60782744535133537 
0 0.35960650079328071 -0.60782744535133537 
-0.15000294988282575 0.20700269574494212 -0.11005706095938948 
0.11249331059955639 -0.2579203317657528 -0.19156113686869564 
-0.19077263828816649 -0.55154281952689488 0.31754419712517623 
-0.19943910055523137 0 0.12545617416496252 
-0.19983932665774912 -0.06279233839176776 -0.00059763412996937694 
0.13391196355901669 -0.13656338474638224 0.034342287242067504 
-0.045212613839813703 -0.40195023685075565 0.38787841267555062 
-0.19943910055523137 0 0.12545617416496252 
-0.19943910055523137 0 0.12545617416496252 
-0.19943910055523137 0 0.12545617416496252 
-0.15559947252650458 0.080466974148955747 0.42597913044081892 
0.10533351121699047 -0.35265040759943173 0.017772362577727144 
0.75487399906715058 -0.18321026039441796 -0.76998200598196564 
-0.4918279926773203 0.36146583141464594 0.26332317861371501 
-0.52512462381996539 0.36977977220782804 -0.044161154111666677 
0.0824862206405369 -0.05216536319108897 -0.22513497137286748 
-0.64286879909107952 -0.17740240723608797 0.62930739731039265 
0.14641397772787026 -0.50525291410945616 -0.082552830956475282 
-0.10294948924770916 -0.49248427232396219 0.40747479505869638 
0 -0.12628985151516989 0.28085897414233257 
0.4155151856804663 0 -0.31540679090015439 
-0.072242502428088246 -0.070256290925329201 -0.098475584926791482 
0.1461940574770767 0.011202389282773763 -0.34071294569478106 
0.19960730345357436 0.062068708883264087 -0.20320839646926314 
0.039679991361587404 -0.059814053164711223 -0.096059845148561224 
0.11774279339965429 -0.68356817970326578 0.030262799350866097 
0.68566150013528837 -0.29274602275331496 -0.41563885053670702 
-0.075922448526321379 0.020515945591684501 0.054371066112503433 
0.070238131803498277 -0.099100939072980454 -0.064034550004086671 
-0.29658187241936751 -0.20027709132161786 0.28022449338165328 
-0.28205060753220601 -0.36989629136806335 0.20830191619390676 
-0.26763827827669201 0.39073390628699523 0.078917530742586922 
0.32108794989685041 -0.0023771872721271153 -0.47613425607634435 
-0.40875630190687301 0.33487894436704257 0.10596802187102167 
-0.81955505669279172 0.50664456264830948 -0.14571033568272707 
1.426826113699297 -0.77539131259462757 -1.1846880731830283 
-0.2078255694859851 0.19163536547639229 -0.090705270428064338 
0.12299074722255934 -0.28432027600248283 -0.032262733777092614 
-0.95997996926556828 0.79238627666723271 0.23421800835788045 
-0.2759475837001743 -0.057872838299202922 0.17285366354656606 
-0.0076364610608163214 -0.87539028863607704 0.35928609290523256 
-0.78510880709027819 -0.36907107394833644 0.66239155468305655 
-0.56111838876227482 0.27668736924521936 0.32540895636023071 
-0.34067155010833972 -0.16547539368962177 0.37414660920972409 
-0.55979903246313634 -0.26613868254248368 0.34245211791827579 
0.4860110311777483 -0.30159566397616061 -0.47074362821656762 
-0.051220452329027971 0.60266341110964372 -0.54346143562647009 
-0.30480390232441762 0.28160278152424389 -0.26413813746191483 
0 0.60266341110964372 -0.54346143562647009 
0 0.60266341110964372 -0.54346143562647009 
0.078533756593102133 -0.61568492572298372 0.10993591636571501 
-0.67949112555421765 -0.048723980001115351 0.6997433780140927 
-0.31749795238729989 -0.62172466284082706 0.73088564599828598 
0.20484474703480926 -0.26841115048625969 -0.4472352316453797 
0.68779522470634413 0.0049053348021769333 -0.76080317921552232 
-0.61489340746702759 0 0.40875278064590104 
-0.37429946656313895 0.11450545540155073 -0.16292350088903917 
-0.20087536147537599 -0.12985505588796326 0.46505253610130531 
-0.064989692759219397 -0.12985505588796328 0.24540982231530775 
0.50025880694845382 -0.081839347124303061 -0.29389463803850213 
-0.064989692759219397 -0.12985505588796328 0.24540982231530775 
-0.27303299461786457 -0.56067665168054703 0.403828463366455 
-0.70689049383340175 -0.083790367459274803 0.4534673425635144 
0.32021129617519856 -0.1467482039511348 0.29703042853704359 
-0.0618313169460541 0.50927673812355967 -0.61363442622461517 
0.18540330086454343 -0.37980605890079794 0.13917137619154249 
-0.3668579184970846 -0.23698593893515171 0.14481152385197119 
0.038873152473372079 -0.5698308695699591 0.3558964442976687 
-0.2965729728747496 -0.020086001036293533 0.1584392834667484 
0 0 0 
0.23132052440396597 0 -0.24322137407541825 
0.23132052440396597 0 -0.24322137407541825 
0.23132052440396597 0 -0.24322137407541825 
0.23132052440396597 0 -0.24322137407541825 
0.3692026044894251 -0.2264050027969938 -0.58388173559211642 
-0.073159314752456461 -0.2990176516772407 0.31685473234159856 
-0.34676126605379565 0.6283515633075698 -0.11257682636488051 
0.13509981816451869 -0.3790334524878422 -0.056447129540623593 
0.34242140225666995 -0.24019350589851426 -0.26370358095187901 
-0.22840962711247642 -0.62165821253460185 0.55019395736908283 
-1.1083740567051579 -0.16423083734502747 0.89769146698221536 
-0.23563813552743285 0.43141719704186265 -0.25120298709785605 
0.14943641962579668 -0.26621733208564613 0 
1.4092809658687939 -0.10625800910482913 -1.4270805844809549 
0.36435492530469049 -0.39619324813057089 -0.056799740499703461 
0.10328860762125143 0.066655069926080751 -0.65835008248244797 
0.14943641962579668 -0.26621733208564613 0 
0.14943641962579668 -0.26621733208564613 0 
-0.084831803907285036 -0.042638674042036528 0.072770113437478953 
0.16629700876418119 -0.10210852635939333 -0.18717150963220763 
-0.36669923276258198 -0.56702453062231195 0.63036847493139747 
0.24913750096966186 -0.16470147963834825 0.15066834760055409 
0.14912409391733053 -0.042638674042036528 -0.12203981368955456 
-0.25357152901127827 -0.11953607735091284 0.18453532553776525 
-0.17392212311388988 -0.020180237242080803 0.05388118421996315 
-0.084831803907285036 -0.042638674042036528 0.072770113437478953 
-0.084831803907285036 -0.042638674042036528 0.072770113437478953 
1.3834785207439004 -0.058665647456148808 -1.4284514029949049 
-0.20778178481319109 0.094463895187625435 0.072573727604099858 
-0.19001655880628354 0.13388582183664816 -0.045717751729700544 
-0.13309781823381978 -0.64348882924684359 0.37011419199094608 
0 0 0 
0 0 0 
-0.61517518592717324 -0.2821979202528711 0.68235684996639545 
-0.24075707300584556 -0.38573236457983284 0.33327556542457154 
-0.7458313491272216 0.43415956225086383 0.022447305113847127 
-0.42121300128260258 -0.22622215599826662 0.47482430649825164 
0.23042527868900048 -0.48952049734707503 -0.12821131548319811 
0.51313075303085931 -0.52603107899691648 -0.30455837064319052 
0.089109697347529437 -0.77001964576700288 0.37329119649864384 
-0.25091788859292874 0.28991112511491951 -0.42476957446011532 
-0.035603531105408509 -0.10008642275650845 0.21967158007821405 
-0.035603531105408509 -0.10008642275650845 0.21967158007821405 
0.29295104736782013 -0.10739690009143429 -0.14411146930595342 
-0.035603531105408509 -0.10008642275650845 0.21967158007821405 
0.11070734319127219 -0.41632710158732894 -0.10897181740871192 
-0.21686788626025569 -0.12404200689374559 0.38304480132138458 
-0.44317124607420588 0.36736331476843609 0.04347126843478695 
-0.13714793172428091 -0.42840498805182092 0.33156266629287218 
-0.035603531105408509 -0.10008642275650845 0.21967158007821405 
-0.035603531105408523 -0.10008642275650842 0.41092251516418071 
-0.035603531105408509 -0.10008642275650845 0.21967158007821405 
0 0 0 
-0.11149129124987581 -0.39018947925005287 0.65245851798446219 
1.0444680481918935 -0.59661176771138791 -0.73282858799659101 
0.37789989867870483 0.15416856749257671 -0.71107759474852061 
0 0 0 
-0.45708247867703516 0.13035927894977836 0.14578635379934521 
0.044861557751301455 -0.079659143087479803 -0.27519397628619763 
0.01946546152464906 -0.85871177764502782 0.038798764873639827 
0.12825042795243374 -0.82138410979173926 0.2834734575317549 
0 -0.056214341032794789 0 
0 -0.056214341032794789 0 
0 -0.056214341032794789 0 
-0.63622607870563042 0.25213826955897112 0.6092677400688038 
-0.6908636856453314 -0.45058772308455519 0.82348016713713201 
-0.6915754549189842 0.21573891514897009 0.22534173083495407 
0.073863080874560172 -0.30564637237059311 -0.029652975386922964 
-0.20884271019530898 -0.056214341032794789 0.2491656467967277 
0.37405290860319024 -0.25139048225003818 0.14060318007879261 
0.17122511407682392 -0.39017973815617196 0.34839322936766803 
-0.487741555894392 0.4269697756216782 -0.17063135444374686 
-0.54178773788473011 -0.26482006744667969 0.7188203149300173 
-0.69151790553822301 -0.59420109239216856 0.84880388042423482 
-0.19388394305669868 -0.29074428170564715 0.068186505230091038 
0.98426992346039566 -0.56230264149053422 -0.54561126341591604 
0.068685151982781703 0 -0.1363876722755975 
0.068685151982781703 0 -0.1363876722755975 
0.068685151982781703 0 -0.1363876722755975 
0.068685151982781703 0 -0.1363876722755975 
0.068685151982781703 0 -0.1363876722755975 
0.068685151982781703 0 -0.1363876722755975 
0.068685151982781703 0 -0.1363876722755975 
0.068685151982781703 0 -0.1363876722755975 
-0.083984838478253013 -0.27527530324771687 -0.066722668164006946 
-0.20900500715735093 0 0.052235990815696166 
0.20799707669017289 -0.85163712436051064 0.33228897015684467 
-0.20900500715735093 0 0.052235990815696166 
0.14482772702210775 -0.31745819198380953 -0.013724398498453812 
-0.45557729595662577 -2.6020852139652106e-18 0.15305197704145998 
-0.20900500715735093 0 0.052235990815696166 
-0.20900500715735093 0 0.052235990815696166 
-0.20900500715735093 0 0.052235990815696166 
0.107057950212533 0.10282074641248952 -0.14640693170041091 
-0.028405725419736932 -0.18174685610978408 -0.098072091158244917 
0.10645126592507594 -0.36630717646552546 -0.14438924647624712 
0.23118264581967218 -0.45975939027138057 0.24279286101080275 
0.21821215518568135 -0.33540474740091941 0.16260401139931391 
0.18614673800836817 0.01902022760620823 -0.17126403831317094 
-0.26543727600418549 0.54234413304939488 -0.10542585384942332 
-0.0014597357162048465 -0.24000873208397105 0.012379971521729462 
0.31667545827997107 0.063567861939519577 -0.45410225361492584 
-0.54599618261480098 0.086372822874639626 0.40430636169009448 
0.68365900536394109 -0.92472757580175191 -0.15356021101927503 
0.39171470949916731 -0.39065654258605975 -0.1888331914652254 
0.040826882989977817 0.32156284432720272 -0.4169969853810907 
-0.088124126746641732 -0.12790955647302121 0.17206847034209766 
-0.09650120580926673 0.066119320466840881 -0.094444008610446453 
-0.235511182481033 0.28474631315953941 -0.43292937601611325 
0 0.38443010324667654 -0.86045511235549121 
-1.0878996457150305 0.80167057577785017 -0.0093280697738535243 
0.045299077804943542 -0.17730178914345784 0.068908715588633346 
0.076649748423729097 0.35988149613389703 -0.53071468639958286 
0.072018919241736534 -0.038339106192088496 -0.78021405471034544 
-0.58275245471314951 0.55653894234336598 -0.27958648195493796 
-0.34285214317655127 -0.46793537588662476 0.37697094643052326 
-0.4280923327330573 0.53211084504914097 -0.1743387732525562 
0 0.21964224941423349 -0.052666699281885318 
0 0.21964224941423349 -0.052666699281885318 
0 0.21964224941423349 -0.052666699281885318 
-0.1268619204539487 0.15703451896599036 0.029201684563910719 
0 1.0841153276722062 -1.1191311190596209 
0.26943418389927604 -0.43564343327722443 -0.087486061588657918 
-0.2672205751347197 0.29269197895230248 -0.19210668006744086 
-0.41714279834910434 0.023062105176789915 0.37710313823192154 
-0.042226029955964341 -0.11724020795991492 -0.027389882600336792 
-0.43515132736225026 0.20968750819560672 0.16483172470471397 
-0.20903720632039444 0.30499521718186795 -0.1802179707312821 
0.10891238109941206 -0.52287908824040319 0.11238927498947593 
-0.2770512999497855 0 0.10576728776559527 
-0.56125029357035383 -0.10268292804365456 0.56670315474559207 
-0.12801260528897379 0.022502051096304571 0.068787755795504363 
-0.2770512999497855 0 0.10576728776559527 
-0.62576776872916084 -0.090411531888530877 0.56886846087541165 
0.17230997831586642 -0.21727616139294953 -0.072652648245469881 
0.023667517636991271 -0.26555718273193363 0.068408619019906275 
0.15307778023473487 -0.52653768527909139 0.28653668392449372 
-0.095836509597488101 0 0 
-0.095836509597488115 0 0 
-0.13560111255953888 -0.19801219769676714 0.19124580901511543 
-0.095836509597488101 0 0 
-0.095836509597488101 0 0 
-0.095836509597488101 0 0 
-0.095836509597488101 0 0 
-0.16944725722379547 -0.12054275374041594 0.29027533236908071 
0.47966389137778909 -0.26242499371477479 -0.33819500065867208 
-0.68058335898100564 0.33921761626390734 0.28163904991484029 
0.052318131962236725 -0.45562575605517142 0.25319684828641825 
-0.16944725722379547 -0.12054275374041594 0.29027533236908071 
-0.3632661769709119 0.44567896899875403 -0.16563626849552426 
0.047959850320753797 -0.55148985287629515 0.28554116432366811 
0.099823784115858044 -0.2646274548668664 -0.10381052006163774 
0.32818628892521318 -0.3410413826914393 -0.17789303261811557 
0.11781268656147813 -0.57269652149066264 0.14096240958715822 
0.14534481577280814 0 -0.2749514364088485 
0.14534481577280814 0 -0.2749514364088485 
0.14534481577280814 0 -0.2749514364088485 
0 -0.13774881706274941 0 
-0.14504805031919804 0.27340266392085727 -0.47322132246799586 
0.8518157774987648 -0.86586982608080387 -0.40455856652140448 
0.12672169062568175 -0.1830168441297397 0.17327640238862524 
0.38774226504444909 0.28335013496011502 -0.56584782751645379 
0.33520522079880255 -0.32380200153152416 0.07977267895752238 
0 0 0 
-0.43160430313740467 0 0.50712198486219329 
0 0 0 
0.35544507701069955 0.80835704381033047 -1.0387818532088631 
1.4502479495647485 -0.60978528258287557 -1.3632803006996661 
-0.061399694944828949 -0.48885332977829754 0.11396771483284285 
0.53150783605233698 -0.09277174526047631 -0.42252908034126924 
-0.18917701775416185 0 0.034799628533647251 
0.50011101664939273 0 -0.45457551336168889 
0.24242296780555928 -0.13398336160140395 -0.09434267127658047 
0 0 0 
0.067972565440128987 -0.61439838527022317 0.25059158282368232 
0.10699099142643297 -0.39434986491934593 0.069538666041993616 
0.067539764600680258 -0.25322834020646195 -0.2836453210177593 
1.7246524830035499 -1.0637473562524082 -1.444856334445713 
-0.37698035209728697 0.21810482643301549 0.12925398161583834 
0 0 0 
0.10308278419339253 -0.14082625656231804 0 
0.10857053623917749 0.50393108267351083 -0.63135929872211216 
1.3309639767426884 -0.47206890764228571 -1.2519288723362823 
0.10308278419339253 -0.14082625656231804 0 
0.10308278419339255 -0.14082625656231804 8.6736173798840355e-19 
-0.02682011430156666 0.092616399964839113 -0.2554333205111467 
-0.1200392324387875 -0.40190914113195197 0.17331706152861892 
-0.23532288988550762 0.1668447163775319 -0.0065859669037344488 
-0.15438210617982154 -0.3985713142625012 0.16035426486099186 
0.27115018579062861 0.21806446148280778 -0.54895437042147543 
0.1349400458200711 0.31520752672576507 -0.42729045340806004 
-1.0636291430014437 0 0.83365706828101349 
-0.27462732669948536 -0.15145409442301555 0.28477507608331604 
0.017340266051940296 -0.23976609467724516 -0.04108998712258425 
0.44505040859662665 -0.81577357598084765 -0.22542302359138419 
0.72135458178942968 -0.41051301784484856 0.52539580430388311 
0.26745473444309664 -0.54303845237659665 -0.21475186790267684 
-0.46833570929113361 0.076060012325533263 0.15081265848907238 
-1.0636291430014437 0 0.83365706828101349 
1.5529781262049664 0 -1.5771853937808373 
-0.45779867715197498 -0.64357855716101653 0.55107739300383995 
-0.053896095982154175 0.12902416246448759 -0.21046349612848869 
-0.053896095982154175 0.12902416246448759 -0.21046349612848869 
-0.053896095982154175 0.12902416246448759 -0.21046349612848869 
-0.27026746013925212 -0.013495331995521151 0.26037608102356491 
-0.053896095982154175 0.12902416246448759 -0.21046349612848869 
-0.053896095982154175 0.12902416246448759 -0.21046349612848869 
-0.39948674718327953 0.22328837923419309 0.028783559704459089 
-0.053896095982154175 0.12902416246448759 -0.21046349612848869 
0 1.0799226762687466 -1.6278444330312332 
0.49837446604618307 -0.087147344112391723 -0.22349783217647107 
-1.0700621761881703 0.35340811730968058 0.67264243058611184 
-0.14816664838823471 -0.11068186968164019 0.17389419156711111 
0.93841826253763472 -0.16750349654691976 -0.91059355707310929 
-0.18197329057637832 -0.26836707175907248 0.46608274716283377 
0.058449161540962136 -0.26836707175907248 0.041369591759809844 
-0.027641540131529883 0.10364032228464878 -0.15153457357546635 
0.25935728746361197 0.51960137221250668 -0.83074353348324559 
-0.050367461412141157 -0.20394497884563045 0.099104628349861723 
0.24554016723804512 -0.62203342093615943 -0.080199188912664324 
0.052262308508366863 -0.28015205784591229 -0.11553194468025063 
-0.026859018890214071 0.39745953375896642 -0.1806438347537459 
-0.073050251493187598 -0.13232317261679702 0.066488742032035253 
-0.8413726542102471 1.6790515199887193 -1.2721090847017822 
-0.2451403452030666 -0.11835008727347748 0.013590765183036646 
-0.083392173116163704 -0.096598917247126437 -0.05197239283275093 
-0.42353863305535544 -0.319789214398149 0.64658501796655954 
0.53846336017277086 -0.23954480419833335 -0.27898887619870766 
0.24680511117699103 -0.23807019374947022 -0.15008119607026446 
-0.15344723736628518 -0.2012768643933539 0.22707927511470488 
-0.15344723736628518 -0.04432500770693764 0.23085878677387944 
-0.15344723736628518 -0.04432500770693764 0.23085878677387944 
-0.20953051541187523 -0.11139898574493597 0.47418861816667418 
-0.12047888433815164 0.45611146399659142 -0.20704536284245342 
-0.15344723736628518 -0.04432500770693764 0.23085878677387944 
-0.10620509868767146 0.40863192439618029 -0.61610698398164265 
-0.15344723736628518 -0.04432500770693764 0.23085878677387944 
-0.31071368889755729 0 0.24836410337891388 
-0.84058353368797589 -0.10042191061162613 0.70638053419412383 
-0.15391989535949324 -0.24592829834825486 0.06468481629309128 
0.20954343202424136 -0.16957293408154872 -0.1656605172294916 
-0.084920042739984131 -0.46908946173796412 0.25099552183340651 
0.056321337387257038 -0.70518450278323486 0.084414884761341707 
-0.31071368889755729 0 0.24836410337891388 
0.47405722280095003 0.011441324193634739 -0.46803162181499336 
-0.34992776996610137 0.24222403932557207 -0.0045321977467718943 
-0.10562913849573065 0.31038975986902712 -0.64404076834067214 
0.47805567411175232 -0.14434518927345386 -0.35484301457784617 
-0.27904035478038181 -0.011301981673005626 0.11350672749872405 
-0.34992776996610137 0.24222403932557207 -0.0045321977467718943 
-0.34992776996610137 0.33053132751059161 -0.10448376574845332 
0.063401892277299254 0.19845056448891696 -0.35206289142194402 
0.41036940861581916 -0.35208697788467813 -0.29229950715786684 
-0.088161037880288132 0.055420513775528223 -0.13442733181369507 
0.25993037191621149 -0.12979473272461484 -0.27078200324602236 
-0.29568577841744687 0 0.30089057915555695 
-0.29568577841744687 0 0.30089057915555695 
-0.29568577841744687 0 0.30089057915555695 
0.18106974034175785 -0.41009929272467649 -0.30583025668358998 
-0.29568577841744687 0 0.30089057915555695 
-0.29568577841744687 0 0.30089057915555695 
-0.40379461117965343 0.041860585327151874 0.24541570452695041 
-0.060215542169493548 -0.66266311989663529 0.36602396689151517 
-0.29568577841744687 0 0.30089057915555695 
-0.027991564697952442 -0.47074541830772515 0.25566353614851178 
-0.020833624260437368 -0.32757379416428012 -0.053738243032052983 
-0.24689247211988255 -0.4834942839767597 0.25557848926961985 
-0.071294166393418193 -0.11785388546791077 -0.14566483655860676 
-0.27167481689186068 0.044439694986957587 0.19903280211202676 
0 0 0 
-0.046611408525985401 -0.069640986103144981 0.21144210145496123 
0.20692174831044022 -0.20968164763377947 -0.020955046523505275 
0.13231323663083977 0.32268342478198309 -0.55823440274625313 
1.08953408516296 -0.38293737405222045 -0.81847126477038556 
0.099473915191174683 0.17493059377085848 -0.41777746528065585 
0.50449658628748828 6.9388939039072284e-18 -0.32512127807299301 
0.33106189301868183 -0.27705112403290416 0.0346442936782035 
-0.0099501098608162641 -0.46732255366187714 0.23457270426521354 
0.35088149746966324 -0.11191827354977602 -0.25477914383213818 
0.095612316974687472 -0.11191827354977602 -0.081348948496148071 
0.10678230439113694 -0.27179579024186318 -0.13528972927560434 
-0.46687239263741753 -0.72916247184590355 0.5459754387649749 
0.1959100737658771 0.35965360702042715 -0.38203548452505587 
0.35088149746966324 -0.11191827354977602 -0.25477914383213818 
0.35088149746966324 -0.11191827354977602 -0.25477914383213818 
0.23443253368817807 -0.20309530448898952 -0.084990541051697469 
-0.16385458520122492 0.82072009975279669 -0.5561767710394192 
0.23443253368817807 -0.20309530448898955 -0.027584102981969852 
0.23443253368817807 -0.20309530448898952 -0.084990541051697469 
-0.04148286506255322 -0.10677937658760767 0.040912811403510732 
-0.14533942266097805 -0.34872716920466085 0.22061152631598258 
0.23443253368817807 -0.20309530448898952 -0.084990541051697469 
0.27658707893546131 -0.16126988393474745 -0.26784885833347832 
-0.29577364897588965 0.11379277084674495 0.43603095905599976 
-0.1921415305131205 0.50902313384940279 -0.58573746770751145 
-0.1921415305131205 0.50902313384940279 -0.58573746770751145 
0.37950525275542457 -0.0038788077976154856 -0.42987076187062268 
-0.29651578679772883 0.11153416426986129 0.1252503861716322 
-0.146521659856159 -0.12553191476202047 0.16607849310413822 
-0.16441092050705369 0.07377910298911311 -0.020974235524745782 
0.73867108785184377 -0.12317253952677462 -1.11778533625147 
0.078808433245553922 0.05645912995510026 -0.14155181077269161 
-0.46881315828387171 -0.4052004300251425 0.68358567122501934 
-0.29820208595254405 -0.37158392581251537 0.19755389485159525 
0.58399976412552324 -0.31265170476477622 -0.3948871852239263 
-0.35571247106543763 -0.26054583429587536 0.23996635929099669 
-0.61679894156941661 0 0.62401759102479437 
-0.14116652107941746 -0.080122503035652576 0.12765376551520699 
-0.89390716657112612 0 0.46740283588823112 
0.27873522607404949 0.056390441050367085 -0.68741308111768229 
-0.19383119306681856 -0.41370446903972369 0.39979502242526244 
-0.3644832087994504 -0.36913920906953612 0.39750684875687647 
-0.010767823045404711 -0.694703072474951 0.091692683535058966 
1.156398821242719 -1.2566729284745841 -0.23646616275528134 
-0.26044891071409404 0.3542580612683513 -0.12382654701282014 
-0.080627888946256832 0.20981322270270505 -0.17510632054402331 
-0.022046555200030404 -1.7347234759768071e-18 -0.11043327443028689 
-0.4959733534581518 0 0.1689871111710497 
-0.56985095238326477 0.44918520180794935 0.0055908200137640973 
0.20397609120199153 -0.083433229964070099 0.075596207680670671 
-0.34563985979704426 -0.14468815116759315 0.36685204932024484 
-0.020918278711013011 -0.30251122326512636 0.55155443666701165 
0.1409674051607504 -1.0239596563011679 0.1161703132760058 
-0.018547684706903839 -0.94363530907066562 0.5354341665468153 
-0.34288922263120192 0.098822601331903182 0.2056741577078719 
0 0 0 
0.14680604957732005 -0.028079352627086065 -0.16275302425758237 
0.14680604957732005 -0.028079352627086065 -0.16275302425758237 
0.14680604957732005 -0.028079352627086065 -0.16275302425758237 
0.30235864330859097 -0.18698443804827908 -0.17955396601021295 
0.28118605255592521 0.25526384353790821 -0.59474435113993707 
-0.19228394246477074 0.74519389500978073 -1.0645436292864983 
1.2254039026793748 -0.9104955628842657 -0.96872854771884453 
0.25113753054353088 0 -0.17985743657093181 
0.25113753054353088 0 -0.17985743657093181 
0.074959095541088594 -0.59599810252763186 -0.011739068646991088 
0.25113753054353088 0.19324582672649895 -0.67269026393491183 
-0.14324204536794788 -0.043460843788711088 0.2777231160112173 
-0.18421778239082207 -0.45346782152040616 0.18135759688103789 
0.54246402702302454 -0.35516924227955238 -0.42965896552457977 
0.25113753054353088 0 -0.17985743657093181 
-0.28657711860317459 0 0.1955695720328387 
0.021665656585782199 -0.17661137651860359 0.020850117043869229 
-0.23486789709195929 0.41152211565277241 0.1564306660901133 
0.039581082724165342 -0.18890568397737692 0.093047707003797608 
-0.28657711860317459 0 0.1955695720328387 
0.055996106445173804 -0.29342920845326376 0.69195083989173911 
0.083193482413235376 0.22376622787854741 -0.38921725180905242 
-1.3041439380574578 -0.34385272338081696 1.0460140496093784 
-0.30756586294256727 0.13121002301138915 0.005811456498629311 
-0.64571635012513917 -0.28921129558880937 0.64816994555166263 
-0.1131775913001461 -0.34026299789921199 0.28786358145457008 
-0.24252174833441342 -0.40839966662868871 0.26640620023147882 
-0.241615471424386 0.22286676070479405 0.062120001138177186 
-0.11598080321773915 0.65108477752821159 -0.38364052064797433 
-0.20586786040140145 0.58291752961694143 -0.53122517702339733 
-0.59523840194830346 -0.36075148698983522 0.57519812643003121 
0.086407057496188669 -0.14256935177430621 -0.090999363564091454 
0.20225985855358497 0.84635337712026215 -0.81732512667823431 
-0.11598080321773915 0.65108477752821159 -0.38364052064797433 
-0.35333669349950209 -0.097263236553198393 0.37574725464642478 
-0.22353023254915438 0.2574780314975772 -0.24707596910087343 
-0.36970668629670567 0.67080610676269115 -0.6477352044388196 
1.0402379997312243 -0.1058438272414646 -0.51329081168623147 
0.31236872687879502 -1.2807456814394844 0.59840410063593086 
1.0402379997312243 -0.10584382724146452 -0.51329081168623147 
-0.32759427543468467 0.085875739244803434 0.18157358591618122 
0.13647672957023754 0.038698043269016165 -0.5270117522077743 
0.0055596868953180726 -0.35221746760784728 0.14700449425456297 
0.45541946104476755 -0.65484905034812613 -0.1843947673227731 
0.33785699379254469 -0.121782086080056 -0.56805074421935475 
0.36895027241140949 -1.0451520507388141 0.2961756450871722 
0.15117943286542093 -0.096532412326738509 -0.31273534362643651 
0.11373298955520708 0.29115688525726946 -0.68539999907034543 
-0.30955821717109211 -0.15064551510600535 0.66887341882026385 
-0.22529251067319866 -0.36910168800549192 0.50303610982508518 
-0.051931996023092848 0.079438734138208428 -0.42268253985156351 
0.67591356095380994 0 -1.0260230132865822 
-0.40032090917559676 0.26439236706986846 0.37185647937053545 
-0.78839919375137091 -0.13598459140021671 0.77484606919251742 
-0.78839919375137091 -0.13598459140021671 0.77484606919251742 
-0.78839919375137091 -0.13598459140021671 0.77484606919251742 
0.5328381357148656 -0.65469883307836585 -0.28597953135782156 
-0.094902357388083419 0.19717281339781501 0.19331125835299312 
0 0 0 
-0.010423238617377425 0.25390253112716688 -0.5134691745519735 
-0.55106406306998601 0.3476187032522024 -0.13102361912517133 
0.43155367655052779 -0.088913558618597746 -0.59045924228491387 
-0.17123949494556764 -0.19034931583933506 0.07632290830209236 
-0.17138880554022029 -0.24214940520176315 0.066282533416112205 
-0.24381833225525704 0.034576212245330196 0.13883135328150856 
1.2874521063301445 -0.58966081300591966 -1.1463103361571458 
0.069873424305930465 -0.19075301982601242 0.040579713987848279 
-0.30069600354675763 0.037166320827490135 -0.17318050850820027 
-0.23930937231914354 -0.52347882192533013 0.09172362512763016 
-0.36745722809596637 0.021902925316969524 0.27401168101105122 
0.28990802188864151 -0.3753513345756504 0.07785555068459124 
0.10589578624478808 -0.55083175800411843 0.048050479037969537 
-0.38942579563903978 -0.1184520351757678 0.49145196516812767 
-0.099641290869560709 -0.15751182024894778 0.25137342506620275 
-0.2652269927925171 -0.017887122357968816 0.23623091059399559 
-0.2652269927925171 -0.017887122357968816 0.23623091059399559 
-0.17168201827333707 0.87346730608876666 -0.75711101379461065 
0.62467069910322548 -0.57944992149704111 -0.32222016982374907 
-0.2652269927925171 -0.017887122357968816 0.23623091059399559 
-0.2652269927925171 -0.017887122357968816 0.23623091059399559 
-0.2652269927925171 -0.017887122357968816 0.23623091059399559 
0.26921200058879702 -0.021604489489413941 -0.47051437269411212 
0.31308026522966764 0 -0.39619657154455812 
0.3130802652296677 -2.0816681711721685e-17 -0.39619657154455812 
-0.011886595446626191 -0.28518471124485256 0.22719006080935578 
-0.024931839171035943 -0.23343444819146841 0.084884433844794396 
-0.15908030946187959 -0.086335227521862817 0.24629865011069019 
0.31308026522966764 0 -0.39619657154455812 
0.31308026522966764 0 -0.39619657154455812 
0 0 0 
-1.1502319776747982 1.3078936764791205 -0.31997622338765197 
-0.32945865353664172 5.2041704279304213e-18 0.29716505577750624 
-0.028733454743034483 0.43271309971106764 -0.44449548291945029 
0 0 0 
-0.00069658190951833038 0.60267906257250459 -0.61984675522715071 
-0.6118928788930994 0.95649880855769309 0.0019542029385690388 
0.11432006160280478 -0.40459616456044445 0.066650846330627345 
0.13703428936315795 -0.37811753135536691 -0.24133993913277471 
0.060032183706608178 -0.29756620480549456 0.021876497132172858 
0.029183594463336526 -0.131912787483046 -0.10634986229737073 
0.06183119422996354 -0.20741722286900047 0.21080197612847429 
0.0018757014739702108 -0.08440908169618043 -0.022402415903654258 
0.21385222185232589 0.20337719886718852 -0.19314869443608965 
-0.39630534961329844 0 0.43009107932014695 
-0.39630534961329844 0 0.43009107932014695 
0.78232452506066008 0 -0.76198008992557675 
-0.085168283179945875 -0.035945946735845717 0.069711070124874791 
0.21213474705399188 -0.17118899566524048 -0.11518675875699291 
-0.073397849234503557 -0.16576863489384938 0.19743992553840256 
0.59774114306249004 -0.63302580843304379 -0.62940629623793698 
-0.1336401687229356 -0.30006803677719762 0.11554802567126406 
-0.29672140283026605 -0.02290035576219614 0.31321713208988106 
0.6497684687512344 -0.74309493954503236 -0.034664738869830389 
0.2134613057656331 0.12164923030208663 -0.3007965066519025 
-0.050386449130700811 -0.053354812707505368 0.1884973465786679 
-0.20966498625688662 0.19009490764889209 -0.04528742619780509 
-0.71321850536794495 -0.32474233506143335 0.7326993624364303 
0.6331864200581101 -0.20911334848149543 -0.56102234431003528 
0.81221247139372266 -0.68371277380159678 -0.76882000768056658 
0.2430423455548924 -0.64978157918285728 -0.070923629389281456 
-0.23469058874306931 -0.032774896986504681 0.22378414274190003 
-0.33390685978387441 0.39666946907797768 -0.44368688483291197 
0.18288173601885921 -0.80610340276306114 0.88800127421312969 
-0.18764743956490079 0.21056927259614833 0.10455566163364977 
0 0 0.057406438069727617 
0 0 0.057406438069727617 
-0.065126766872990904 -0.23618714824556464 0.15548947275318159 
-0.2259301248817645 -0.29685877659264021 0.57993014365732676 
-0.088838452697964143 0.25002280438309932 -0.37340224749855366 
-0.069159301440451446 0.23700233744796087 -0.025634068924174126 
-0.36445518000302057 0.42549400308993995 -0.19335273195770059 
-0.33286700751041021 -0.55616404644858097 0.44234499453301834 
0 0 0.057406438069727617 
0.47072109318524541 -0.035526765245583458 -0.52027059226366834 
0.38029250935821007 0.43579842685809639 -0.43657000451823103 
-0.21876762941554262 -0.47346233336626942 0.27655755268105442 
0.29940423433382196 0.33130878901225902 -0.57674051660673353 
-0.87340346701531446 0.03114706616787058 1.043141430797349 
0.30172083935985988 -0.53136101599872498 -0.19360589021044561 
-0.60035587668743839 -0.46757682271884571 0.52982293334930242 
0.47072109318524541 -0.035526765245583458 -0.52027059226366834 
-0.13823235934200817 -0.21499861769556414 0.33047596908834675 
0.84977297297933108 -0.035526765245583458 -0.87009342071738183 
0.31249946621278968 -0.38703277124623409 -0.07678619597545458 
0 0 0.096722204959153693 
-0.26002265529516955 -0.27048766029748789 0.5974671061721929 
-0.07570921382369579 -0.0088687176173277427 -0.01796669123322293 
0.47951288591540192 -0.043838882157698336 -0.24869825338104148 
-0.70714998931456674 0.24446570518149907 0.3610549139160053 
0.040470630149600464 0.096114951314912461 -0.38401583296084651 
0.18493305569783938 -0.26514498563945543 -0.038252364456436413 
-0.48694946653714638 -0.24214219390466393 0.37574665032069005 
-0.47386757320282591 -0.04176012166725309 0.18958581903203731 
0.59007555845801951 -0.10476439945440244 -0.80368639787877272 
-0.041414882356235055 0.12502185709584157 -0.24671243204563373 
-0.045250804912850107 -0.26597711737267649 0.12766957452457148 
0.63056694545378233 0.2081080399297725 -0.56354790320095061 
-0.39540665579264844 -0.34669115847547138 0.51482018981399646 
-0.17826795512448426 -0.21193782055414936 0.2976962863386966 
0.18556637663126202 -0.10633650161205639 -0.18623647805922497 
0.18556637663126202 -0.10633650161205639 -0.18623647805922497 
0.41301573068208475 -0.13485885103227144 -0.23544431795620413 
-0.20015304359725622 -0.16708756421278045 0.21803075936859784 
-0.29452037817648169 -0.051661476253140118 0.24098248959677268 
-0.1282013980576229 -0.13485885103227144 0.17410115467412332 
-0.374837589645453 0.38372785003357851 0.049561494433319628 
-0.1282013980576229 -0.13485885103227144 0.17410115467412332 
-0.13746715528471712 0 0.087570320102081822 
-0.03740129661533069 -0.34424931590934849 0.045218163233998403 
0.24038526518603218 0 -0.29259893411828813 
0.1569910994362605 -0.059305549537922012 -0.17348532869124017 
0.24038526518603218 0 -0.29259893411828813 
0.33406794095478232 -0.124796454761122 -0.28344757214760902 
-0.46215945882748599 0.082619392179159368 0.0011202088334751996 
0.60231816414267758 0.078920684545555508 -0.63295930461917238 
-0.94197478194809892 -0.53266983441881643 1.0396772042111224 
0.019454729902560731 0.40024174275134483 -0.54633967628662305 
-0.10757807160263701 -0.12717025901661835 0.35214756145142523 
-0.10757807160263701 -0.12717025901661835 0.35214756145142523 
-0.10757807160263701 -0.12717025901661835 0.26721172493077822 
-0.10757807160263701 -0.12717025901661835 0.35214756145142523 
-0.098192987017415745 -0.013252676115296229 0.11861164788684821 
0.67100396023004627 -0.23977472669468042 -0.48323419807868984 
-0.16386985116426458 -0.24630119904319459 0.18648410813503327 
-0.072662980030266389 -0.58901514098549246 0.3387927736296017 
0 0 0 
0.022751680545348051 -0.11269624552430796 -0.010127798315486342 
-0.20044254230810615 0.20070657003757017 -0.12212799894088673 
-0.44933565638234163 -0.40134846597113977 0.58090779446928287 
-0.0057837230446166482 0.016981400024014853 -0.029107071304935749 
-0.012347582103431277 -0.070078669418937339 0.12332770754811223 
-0.086069399666448165 0.10887535639228951 -0.018513060988145778 
-0.18430898545257085 0.23125600569811736 -0.045185643382734612 
-0.19005582515023967 -0.47437281562264128 0.29151048014788283 
0.09655925458928645 -0.47437228992759589 0.14962097683520931 
-0.055348538098022024 0.094444117156269811 0.12492686308971918 
0.0022439255246644862 -0.27601564410151058 0.12238127446494182 
0.35846739305178765 -0.056955575505791819 -0.027128047680099243 
-0.14563790523246814 0 0.039723116253993274 
-0.40561442826050331 -0.70062813644276511 1.2064261451129454 
-0.11130340967666397 -0.3302288159519739 0.13518873450010824 
-0.27254814087577939 0.33010994455138121 -0.22892264147963631 
-0.14563790523246822 0 0.039723116253993329 
-0.14563790523246822 0 0.039723116253993329 
-0.50964074588945785 0.39490321837469455 0.11039165712571736 
0.08946021501950091 -0.50807194744102802 0.064055308182987228 
-0.14563790523246822 0 0.039723116253993329 
-0.40680770820326217 0.20025213797913036 0.46610773588804155 
-0.14563790523246822 0 0.039723116253993329 
-0.20375285289045214 -0.21642656930291979 0.2184284628858523 
0.78282324671765791 0.18719393454762295 -0.89535281920539989 
0.92822341232997241 -0.20791035174673603 -0.57686864861121312 
0.19069914059930426 -0.44876888554962302 0.073165062271278447 
-0.57001081018845934 0.16783372627502147 0.20470422229449328 
0.22178761971073932 0 -0.19903113660796506 
-0.43673971691933566 -0.02230847465505794 0.45504865283107154 
-0.29147847647177877 -0.6631975563024507 0.509816950743752 
-0.049101928893576549 0.37595836191634108 -0.68655078579071671 
0.19028380144187543 -0.42237364504353864 -0.031541629760055513 
-0.089769972986175131 -0.24864643122876195 0.11504423652172817 
0.34518313528554467 -0.019988970399150416 -0.23922954040197722 
0.56521588322163363 0 -0.22347687936526345 
0.23194141326664855 -0.38201511690603629 -0.17782398055614124 
-0.54401695950972617 0.82764200153957612 -0.73319427030963169 
-0.088645215486726686 -0.51740942854296057 0.25418790443649231 
0.12294490759213732 0.097909000232292945 -0.17473872641994162 
-0.096843311434809731 -0.15656218110434808 -0.055861239135119922 
0.40648815130961757 -0.39730827408922964 0.0081921621224732843 
0.15180176914586727 0.082241772329554583 -0.16947633621030844 
-0.69869348427845601 0.93014928659688756 -0.80982374332111129 
0.27374850030365261 -0.56338816555013638 0.36171102973134805 
-0.10533827724252881 -0.25340010279923392 0.26750053921272027 
-0.10533827724252881 -0.25340010279923392 0.26750053921272027 
-0.46401331516838495 0.09832105550633119 0.41442948893070303 
0.31733782888370221 0.13214556653649323 -0.49906313383222456 
-0.10533827724252881 -0.25340010279923392 0.26750053921272027 
0 0 0 
-0.38707077740902973 -0.18945765988867086 0.36510754256371947 
-0.57702602835740624 -0.58903018574451915 0.93593874814513267 
0 0 0 
0 0 0 
0 0 0 
-0.024175149958020017 -0.75716750289473689 0.39866514868908282 
0.080359131105651405 -0.10830622520032507 -0.31753410106953195 
-0.092169355900390382 -0.59699731732121908 0.57241385724740712 
0.1798755333266063 -0.54247011413982149 0.41711996253786926 
-0.68259354617473278 -0.33809713923783163 0.56631655971086936 
0.46040149455317936 -0.12580998327191839 -0.526669557789742 
0.57127530831908502 0 -0.66645343888752739 
0.30503341188724464 1.3877787807814457e-17 -0.37999138412903904 
0.40327361483472779 0.19763171714701103 -0.74054064882772741 
0 0 -0.3439751837000411 
-0.78498687852822946 0.83563069131818368 -0.95174882038103248 
0.27745287012926378 -0.5833852691553616 -0.035259125126570021 
-0.88570886778233793 0.47167916279236466 0.19510674823844518 
-0.90400451007366378 -0.064769321120690102 0.79876893723006015 
-0.31655333788454876 -0.17306953320084217 0.21067238798571422 
-0.10155775092926995 -0.30633698185309072 0.16835198248134908 
-0.084324163994470402 0.013458865851116171 0.11271267783901898 
-0.026637790866750929 0.26047332704387244 -0.35904799028505407 
-0.026778645589659818 -0.98137125300843897 1.0507003796970016 
0.29769849981301072 -0.32861424229820202 -0.23362736540505954 
-0.30879563926555098 -0.39426941014332323 0.61205085893344502 
-0.1516892824705475 -0.015937908382441524 0.30941094405508263 
0.71283648811232969 0.025082587712160858 -0.469887872969175 
0.18538801193978538 0.21700723394822502 -0.5324134601038174 
-0.54718744815814691 0.39700538784366718 0.13447472016575635 
0.085614328063497794 -0.01593790838244153 -0.089851067980102645 
0.025958688060771052 -0.37369000589423768 0.071973206262392217 
-0.11646677919699416 -0.078321851947861773 -0.23941207711399456 
-0.1516892824705475 -0.015937908382441524 0.30941094405508263 
-0.1516892824705475 -0.015937908382441524 0.30941094405508263 
-0.1516892824705475 -0.015937908382441524 0.30941094405508263 
-0.28846639650456957 -0.46980285513628472 0.5741218448328187 
-0.11921251577334543 -0.1259304977729305 0.42013746090572407 
-0.3993919445227489 -0.10545969828766406 0.3395121529649554 
0 0 0 
0.30914838047984 -0.59743016038732522 -0.15330862519834781 
-0.61498756395350362 -0.18209822510855919 0.59461849702265757 
-0.12892396012888199 -0.3757222162392998 0.34997771424161461 
-0.37673854044090538 -0.56967791508180898 0.67464419813148346 
0 0 0 
0 0 0 
0 0 0 
0.5600772523997718 -0.26798844775699887 -0.36434423381236652 
-0.36592081714690122 -0.0042527279899799361 0.435846885321165 
0 0 0 
0 0 0 
-0.26881341413202009 0.29770918080321029 -0.20684783861618805 
-0.27754204852211722 -0.32716558987060662 0.43824758083592474 
0 0 0 
0.20960378759402942 0.25115135473386979 -0.69337426389786216 
-0.1007085502117999 -0.83386758336366373 0.49807659729631187 
-0.15127895011758993 0.13625479229021972 0.19989751952356064 
0.96169641276646178 -0.044083562401041228 -0.99431197759633083 
-0.26831240340097368 0 0.19114195653861984 
-0.71017652508016416 -0.45370184413913939 0.62298039266032823 
0.088661722207389784 0.050220173399308177 -0.1344637947245878 
0 0 -0.060689225735264092 
-0.69354881167783666 1.171285553194092 -0.63962307544489982 
0 0 -0.060689225735264092 
3.9898639947466563e-17 -0.058552012666197889 -0.13679383617262764 
0 0 -0.060689225735264092 
0 0 -0.060689225735264092 
0 0 -0.060689225735264092 
0 0 -0.060689225735264092 
-0.44650197196418151 -6.9388939039072284e-18 0.32263626087063302 
0 0 -0.060689225735264092 
-0.098821637101530968 0.2980860752767755 -0.019862868528369469 
0.13546138539577235 0.011926037932797756 -0.42843263347409921 
0.070178097099930406 -0.26800189455466589 -0.024687826200302798 
0.075049263965410673 0 -0.11476635231122578 
0.25241512116442799 0.12649157543031075 -0.41268949977804076 
-0.13013063369066624 -0.36078255906119738 0.216186574539422 
-0.28757688007298032 0 0.015000435326970596 
-0.41094569801704417 0 0.42368140248640535 
-0.20176755516645239 -0.46434902176985182 0.68317787404011343 
0 -0.33009014804875586 0.35946186753643433 
-0.90053699709290669 -0.027278724804573409 0.88982728744123085 
-0.24919788230593545 0 0.26912288824257002 
0.084356840862650689 -0.92698364158087398 0.14469949133915905 
-0.36294092102814957 0.31685130275066553 0.13196459693235668 
-0.29971342110121935 -0.29482057969614978 0.43701146329570528 
-0.24919788230593545 0 0.26912288824257002 
0.018469649839665807 -0.74936883186124725 0.23864534929647505 
0.1496804545383964 -0.72274066759284283 -0.060055768254512254 
-0.14677601226771633 -0.14644227450460107 -0.013447278436294591 
-0.14512253213567414 0 0 
-0.58724078857608508 -0.51230110237034643 0.8821896830619318 
0.42817839456181883 -0.16797627833325865 -0.29141716092005215 
-0.1934497095151716 -0.81866017133502089 0.75303792405312164 
0.29401035760041611 -0.036520729590648532 -0.35181623975683984 
-0.045819018518185532 -0.11376552701086531 -0.068804488325831192 
-0.28306967549957729 0.043113294487509321 0.018026525536741705 
0.29401035760041622 0 -0.39996232461821601 
0.3925460171254801 0 -0.47126402230925574 
0 -0.18342891389333488 0.20336096395163117 
0.0061684803350996889 -0.16580907137003037 0.15982172707564832 
0.35057099203692937 -0.20363423425557564 -0.45409454590966902 
0 -0.18342891389333488 0.20336096395163117 
-0.22182863350557477 -0.28601310480683573 0.48643522965478636 
0.082415756361305298 -0.15292473522886543 -0.074736845585179401 
-0.65936222918623533 -0.18342891389333488 0.61324537611699448 
-0.26490070850153347 -0.17537263192544117 0.2548174085398468 
-0.69603763992617829 0.97002521835309352 -0.7075973375878426 
0.095831555382829503 0.095051324067453258 -0.24761679859017979 
0.7378981363209236 -1.2474320615056538 -0.56822817597708186 
0.50199308151783573 -0.56885940118223277 -0.54947793384707544 
0.38978678981790471 -0.39987337579900623 -0.24653437896108904 
-0.31932182407450177 -0.21404390598361531 0.22419193932352463 
0.10307899042092633 0 -0.20296100412817095 
0.10307899042092633 0 -0.20296100412817095 
-0.21009464592037325 0.11734459616607906 0.043319780166019485 
-0.88430393574356758 1.0231135595365997 -0.5297584286102357 
-0.13588566871615679 -0.083790367459274859 0.33483259395851045 
-0.10504879965554592 -0.039401523050647633 0.12977984255662386 
0.22969088833831883 -0.72259207743094178 0.23806451911731949 
0.41683034547855463 -0.042255859308209132 -0.36553920394656342 
-0.50216538623273443 0.10134094618230138 0.44096061596975233 
-0.072456086853964055 0 0.011467056413860081 
0.35551633666917271 -0.27357925192074756 -0.082673791119305395 
-0.12431452095525533 0.53233812864620245 -0.72704992254030454 
0.54809939217439629 -0.52127941768441932 0.086271532459632053 
-0.097367289242601768 -0.17372364198587792 0.2753146162866672 
-0.1838044990721403 -0.17372364198587781 0.45977121751745081 
-0.097367289242601768 -0.17372364198587792 0.2753146162866672 
-0.097367289242601768 -0.17372364198587792 0.2753146162866672 
-0.097367289242601768 -0.17372364198587792 0.2753146162866672 
-0.097367289242601768 -0.17372364198587792 0.2753146162866672 
-0.56862711581218373 -0.40049450461090413 0.87056000352149887 
-0.56862711581218373 -0.40049450461090413 0.87056000352149887 
0.0076064369381722424 -0.02841154069953572 -0.040097320928236979 
-0.37352755569739116 0.61073333265186114 -0.13054514770433925 
-0.18156579984075413 -0.4830082701349569 0.36540348797912447 
-0.22820955515545793 0.31695718130725253 0.10585845643661587 
0.058991537835193335 -0.035610061364065186 -0.077703318269325708 
-0.047743313388389268 -0.82272449804340142 0.86076635250625866 
0 -0.089200032653321687 0.13465396532583185 
-0.44963735205127747 0.53854182150053198 -0.16138303298157253 
-0.32902961018383936 0.40159752425205486 -0.20245765701870513 
-0.53587548325347056 -0.21124527246812425 0.37744341940468457 
0 -0.089200032653321687 0.13465396532583185 
0.31275118072755381 0 -0.16005910019816202 
-0.037033198871005923 -0.38923912101187791 0.16099091534955196 
0.31275118072755381 0 -0.16005910019816202 
0.25280941845143878 -0.7737677462666106 0.21953283158624201 
-0.27941179649233172 -0.061780643613001153 0.46331973921145297 
0.31275118072755381 0 -0.16005910019816202 
0.63425482943849809 -0.2755071885510309 -0.60761594000595154 
0.31275118072755381 0 -0.16005910019816202 
-0.21337227641745674 -0.019422901873909937 0.21124649882956617 
-0.21337227641745674 -0.019422901873909937 0.21124649882956617 
-0.21337227641745674 -0.019422901873909937 0.21124649882956617 
-0.53739064603155395 -0.049681473166849094 0.66579678585882096 
-0.21337227641745674 -0.019422901873909937 0.21124649882956617 
-0.86988769355061124 0.4808952200648508 0.16488579452502131 
0.45447681925489869 -0.30772248578903783 -0.26206302953700611 
0.33311319804073619 -0.19109042894349845 -0.24898369403246115 
-0.2915426541710241 -0.57239387256385199 0.19916443918512713 
0.75729133928172931 -0.21583345850460725 -0.28385066899081057 
-0.31279196096365852 0 0.49980614066503365 
-0.27637154032506722 -0.49931702938986972 0.35050605914795224 
-0.13040770246978275 0.39958954159593474 -0.15470062483479835 
-0.31279196096365852 0 0.49980614066503365 
0 -0.083790367459274831 0.11518988017251185 
0 -0.083790367459274831 0.11518988017251185 
0.13691902182059423 0.014957466707136685 -0.39874062130142363 
-0.20313025666085666 -0.17591020817690012 0.39517498311367383 
-0.0054734576776847843 -0.47419187382208222 0.068988977496394266 
4.3368086899420177e-19 0.54344410654143738 -0.59032876247385013 
0 -0.083790367459274831 0.11518988017251185 
-0.42733728556511935 -5.2041704279304213e-18 0.51177370932712563 
-0.84085039123511685 0 0.98857755278920323 
-0.39058056701415472 0.27842820596938067 -0.11359084315727813 
0.80166596011026103 -0.2869330403338613 -0.65301590694034839 
0.18433493305312074 -0.093197224132912787 -0.2841938955130015 
0.48064195208044375 0 -0.47801054160659007 
0.72090211637120782 0 -0.79016619257164533 
-0.57778569286779102 -0.48549025170139593 0.58841431866765959 
0.60133960051490387 -0.093194674035433578 -0.47801054160658996 
-0.32620181309073853 -0.0078988809773612029 0.06902362725608388 
-0.10165200986242751 0.40855404690248076 -0.39265002188049525 
0.75466963339600768 -0.93595537977717125 0.016017817991578191 
0.38930146998769888 0 -0.44279092918836144 
0.42512803580444525 -0.14941675322879577 -0.46354165439199702 
0.35159145112172696 0 -0.19113294803610381 
0.96572990680893456 -0.487418114740366 -0.93275157675235887 
-0.31820923204207469 -0.15560500538508659 0.28201491260770839 
0.45499106562431324 0 -0.46676422883341157 
-0.16679115340490805 -0.39310596464349745 0.17240865784769221 
0.52582058928334063 -0.094954160851231831 -0.59695038721433424 
0.53075758895635783 -0.24992694225463066 -0.45133554430852968 
-0.045735917060131574 -0.28285551357737987 0.2414809812085815 
-0.087503342509099094 -0.22654924429059287 0.11982893059972918 
-0.60190330324489549 1.0677172320604875 -0.8031037257490411 
-0.020389978035558594 -0.104882270542449 0.18392482033066512 
-0.020389978035558594 -0.104882270542449 0.18392482033066512 
-0.020389978035558594 -0.104882270542449 0.18392482033066512 
0.12732267938288855 -0.30877310997137686 0.087326365104670095 
-0.020389978035558594 -0.104882270542449 0.18392482033066512 
-0.020389978035558594 -0.104882270542449 0.18392482033066512 
-0.020389978035558594 -0.104882270542449 0.18392482033066512 
-0.020389978035558594 -0.104882270542449 0.18392482033066512 
-0.45016816964205891 0.11557263255173766 0.42042666109357435 
-0.2256179915028485 1.2201683928051819 -1.3480754361438725 
-0.10294805594727101 0.46667994527448953 -0.43888781597686655 
0.10121820893002875 -0.41687671546930272 0.18588522101863272 
-0.50516809240728755 0.05703897666507985 0.24098547072003693 
-0.091114163840933085 -0.12542868847453714 0.20562148507014968 
0.076193373780495219 -0.080116978175322082 -0.034049172718732867 
0 -0.054063413102527907 -6.9388939039072284e-18 
0 -0.054063413102527907 -6.9388939039072284e-18 
0 -0.054063413102527907 0 
0.81344148021495 0 -0.80745885009492413 
-0.46872253420053733 -0.75684508464978895 0.80730468066204519 
0.81344148021495 0 -0.80745885009492413 
0.018292354305680679 -0.41559012237120768 0.10395668248450758 
0.0040978183306761614 -0.09490149955755553 -0.40326576382004403 
-0.20299531658482459 -0.013786403531399366 0.030010773302307614 
-0.015966071894931485 -0.013786403531399358 0.047363679426245718 
-0.17731966086246617 0.05588608949517241 0.45501046072866175 
-0.10712786126703609 -0.08178723278931499 -0.054550394910750956 
-0.047898215684794451 -0.041359210594198018 0.14209103827873695 
-0.48111428452951077 -0.02571206576118729 0.32715015893937249 
-0.37633445477904848 -0.26912784005108481 0.30789808854435935 
-0.14156848418155143 -0.026283442242239219 -0.023973831203426471 
-0.067583860676239518 0.12825404472223764 -0.17979321833672837 
-0.0387084909796186 -0.12132916861492772 0.013904418094734082 
0.18751654151981828 0 -0.015649952875882032 
0.18751654151981828 0 -0.015649952875882032 
0.41968480323425539 -0.102799613718462 -0.50481555080085716 
-0.099951085126426989 -0.40084198452093994 0.20537643516345419 
0 0.38650204210037126 -0.41318564346834996 
-0.26827763717290132 -0.020518972108541655 0.24081171290600273 
0 0.38650204210037126 -0.41318564346834996 
-0.16827290198197734 -0.0001985235381930326 0.12672329380108582 
0.22193561657705071 0.2497053095703578 -0.23607334343070246 
-0.16575535012900169 -0.17973376072593203 0.1273263874831348 
0.18369033097265766 -0.086987541034401067 -0.16012588541812489 
0.18369033097265766 -0.086987541034401067 -0.16012588541812489 
-0.14201766639547433 -0.43471163916656841 0.12482168236926988 
0.18369033097265766 -0.086987541034401067 -0.16012588541812489 
0.47015062643240785 -0.25713548870714631 -0.23796078699517251 
0.18369033097265766 -0.086987541034401067 -0.16012588541812489 
0.18369033097265766 -0.086987541034401067 -0.16012588541812489 
0.18369033097265766 -0.086987541034401067 -0.16012588541812489 
0 -0.025251515351223719 -0.012827581700137907 
0 -0.025251515351223719 -0.012827581700137907 
0.13857952120501676 -0.025251515351223719 -0.22041929737780824 
0 -0.025251515351223719 -0.012827581700137907 
-0.46355043950687053 -0.064028299640713701 0.53821245706907372 
0.78239722451174132 -0.064539134983330401 -0.57395143838469287 
-0.29186207785354146 -0.29014096273826179 0.29102932735530634 
-0.29186207785354146 -0.29014096273826179 0.29102932735530634 
-0.2956547087557756 -0.29014096273826179 0.50560945214539976 
0.5935122563407621 -0.22604324024804748 -0.29613755935167824 
-0.62622680605617209 0.017891092176574391 0.7463134884536633 
0.65996383504130851 -0.22604324024804739 -0.28078809647596448 
1.255181315229128 -0.38462171071384921 -0.59291698071868182 
-0.4456215415621938 0.21672294996991417 -0.086655122894749553 
-0.70146228350033391 -0.30868417094680412 0.6573930202452738 
0.11736951147624047 0.045632483416121569 0.031897532518563504 
-0.17103438638370422 -0.012260038112861322 0.45585135072438882 
-0.3509997687067587 0.12153813892573163 -0.12055335136270151 
1.3877787807814457e-17 0 0 
-0.22516486921068435 0 0.1144072596345712 
1.4908605912109427 -0.87191472750724197 -1.4922493267020587 
-0.61289652837699282 -0.1218266300692126 0.31797120395863815 
-0.32431890210896736 -0.58617601892996718 0.55107542744622151 
-0.36300026740712282 -0.17102322200324485 0.38861682834985445 
0.87500710449880037 -0.35638707450493312 -0.94148573319888262 
-0.64448788752404251 0.067167873158618191 0.56787389156172385 
0.099957352642531389 0.34815964471189048 -0.50060408132427148 
0.25822718003598488 -0.53849256330097106 0 
2.6520285579792816e-05 -0.52793946401189651 0.11893613297546284 
-0.14157960453196233 0.5057812025391214 -0.23024771574308489 
0.25822718003598494 -0.41184602052227315 1.3877787807814457e-17 
-0.014930968974945426 -0.37957542203829936 0.031343176370726547 
-0.099385577997534655 -0.1927835705529537 0.023631216654822023 
0.06880964771440759 0 -0.096851099913473057 
0.06880964771440759 0 -0.096851099913473057 
0.18503557634602508 -0.44548356938592465 0.10833416722109881 
0.06880964771440759 0 -0.096851099913473057 
-0.30842683019220563 0 0.20934076449742553 
0.06880964771440759 -0.082060959269324746 -0.037232463192341643 
0.06880964771440759 0 -0.096851099913473057 
0.06880964771440759 0 -0.096851099913473057 
0 0 0 
0 0 0 
-0.41800137293195933 -0.43964682777896369 0.49778796975054984 
-0.84632030787348145 0.18979632620839121 0.44307634847588606 
-0.41360056690102548 -0.33453812766814578 0.45221364969518973 
-0.32816146935741924 -0.16765717213027403 0.42781609468539938 
0 0 0 
-0.68297369890409698 0.14396728326078601 0.19379124089511535 
0.35905328117520735 -0.34688672938933379 -0.29008541012299088 
-0.048788711072437721 -0.0051065928625044759 0.024693414071635313 
0 0 0 
0.26842145829308389 0.047490048108805027 -0.38846658519789506 
-0.17255793099503677 0.72377390280201337 -0.28872065058358437 
-0.57764538058293047 0.19241805629314973 -0.024549444649755867 
0.31175544501476349 0.16115900712634418 -0.52442063519952542 
-0.91537111638931223 -0.22009336547093267 0.74068123907289962 
0.049700626303275749 -0.42364617520165126 0.098561432288551132 
-0.24950886067773537 -0.22539613185171131 0.57962869780228121 
0 0 0 
-0.051408113742931263 -0.13491819821364995 0.27040813721838747 
0 0 0 
-0.42881642858844371 -0.61083736520412246 0.58983862106611396 
0 0 0 
-0.42388475856243463 -0.41945165172732041 0.85899655402461861 
-0.15543854790095751 0.19008031030888273 -0.15073855138993872 
-0.49442801655641544 -0.058503413287896364 0.4439809379992059 
-1.3877787807814457e-17 0.082178231601357454 0.10953815666835674 
-0.10238963984352979 -0.47351819557013708 0.2438519258675633 
-0.4577482217597898 -0.48268436390268643 0.52023892848432451 
0 0 0.067835739602823408 
0.18414816108380683 -0.011521805384118757 -0.22364220560715106 
0 0 0.067835739602823408 
0.2739661269240839 0 -0.34842778379104289 
0.51453186584204158 -0.23613456426049712 -0.40939997857612775 
0.2739661269240839 0 -0.34842778379104289 
0.16824742719274186 -0.070316860110834087 -0.17789256592767363 
0.041954829434295945 -0.28901769437610447 -0.078051487300085889 
-0.17632579621524472 -0.10175771759285873 0.15995702351160096 
-0.17632579621524472 -0.10175771759285873 0.15995702351160096 
-0.17632579621524472 -0.10175771759285873 0.15995702351160096 
-0.17632579621524472 -0.10175771759285873 0.15995702351160096 
0 -0.50583772286100837 0.48457994765415791 
-0.36555756199442857 -0.20385120779866667 0.59295557626572437 
-0.17096470386187274 0.02880943013347248 0.17230291982971332 
0.38186053232993511 -0.36541686709090604 -0.35341314921778466 
-0.40827236314804732 -0.0050688610734109006 0.40138481008759774 
-0.40827236314804732 -0.0050688610734109006 0.40138481008759774 
-0.40827236314804732 -0.0050688610734109006 0.40138481008759774 
-0.40827236314804732 -0.0050688610734109006 0.40138481008759774 
-0.40827236314804732 -0.0050688610734109006 0.40138481008759774 
0.14253302786288394 0.024990696679925699 0.037072039445868413 
0.30102965083395489 -0.20895970050233909 -0.29412200873964328 
0.13021043160729542 -0.30477845589200475 -0.023902665900679743 
0.18597326147593407 -0.60982643158934902 0.23051799776819157 
0.086489959013704709 0 0 
0.086489959013704709 0 0 
-0.32593111939988195 0.86205627948511976 -0.61028864138562988 
-0.32593111939988195 0.86205627948511976 -0.61028864138562988 
0.30335378318835016 0.0091180061498781096 -0.38390520504280057 
0.22137159242161686 -0.20870797024977172 -0.0061198714668026025 
-0.3085740094277748 -0.41234187682156814 0.75676744838847188 
0.099009999206319005 0.013420955596644173 -0.40940940472194587 
-0.30857400942777485 -0.4123418768215682 0.68851150990287413 
-0.26571399749637237 0.288889535067262 0.026145553933191228 
-0.62538245463583153 0 0.58060135168291449 
-0.62538245463583153 0 0.58060135168291449 
-0.62538245463583153 0 0.58060135168291449 
-0.34912381684703186 -0.15275412682866249 0.23353174700527929 
-0.012034170851467253 0.080002847786311726 -0.069156844430926859 
-0.34508431886039387 0.74625789013618682 -0.26016648350992433 
0 -0.25352602099857774 0.17041464833160236 
0 0 0 
-0.13790364302714825 -0.45766027217239325 0.50754332308856831 
-0.09373918232139522 -0.24454425794538978 0.36603494557419375 
-0.057000085708533071 -0.13848018350652275 -0.01613796754443305 
0.21811524525281653 -0.24505953274013212 0.051593111172419381 
-0.0040625728191737674 0.074043685606079074 -0.22619348712673523 
0.53557594638328188 0 -0.54725382929865074 
0.35044237017121527 0 -0.42547861090321226 
0.60253121405411991 -0.42212607309360639 -0.49069170246523897 
0.031040345602153241 0 0.12528789004302954 
0.053112403237284438 -0.15275207884961911 -0.19431284184924533 
-0.20052984204360016 -0.17855663684498374 0.23579464810432893 
-0.07157640289474454 -0.29747544865048703 0.2631374101866597 
-0.26651533065742405 -0.057791257666101471 0.43149128487039579 
0.35044237017121527 0 -0.42547861090321226 
0.35044237017121527 0 -0.42547861090321226 
0 0.41689149301853273 -0.46400049930927617 
0.14652323012588594 -0.23804343236320957 -0.033388090192362961 
0 0.41689149301853273 -0.46400049930927617 
0 0.41689149301853273 -0.46400049930927617 
-0.92755676659955288 -0.030294988791713769 0.5322102294779627 
0.020105467888450274 0.20287242960796759 -0.28930941092394635 
0 0.41689149301853273 -0.46400049930927617 
-0.084021799069881692 -0.075775669916887792 0.094714561017917004 
-0.25891434119785534 0.45268722058652 -0.063094448420648222 
-0.25891434119785534 0.34868879855770685 -0.063094448420648208 
-0.24529119394589075 -0.11584222330386168 0.28970007036919365 
-0.25891434119785534 0.45268722058652 -0.063094448420648222 
-0.31422889307543089 0.39068153614904061 -0.0058789715860298377 
-0.23330679796913742 0.073238586607274836 0.17035160402462626 
-0.13267159414537008 0.40020368358380071 -0.4710703854563934 
0.60628299688051113 -0.48450640212867696 -0.42237312089609924 
-1.220094826029986 1.6431077269453989 -0.45332810807548207 
0.60725395509461788 -0.31184083761327147 -0.52276067912538904 
0.33704577158098059 0 -0.45252989094417295 
0.1750934841138414 -0.47952069984871426 0.013394343087638014 
0.2168677961449752 -0.23346516417974267 0.22036134609189686 
-0.081827372601988912 0.20499759269385015 0.036220755297303418 
-0.1310334445873827 -0.30019486652135652 0.0024063299223354897 
0.14142084905283775 -0.12148773549658401 0.04425880688267661 
0.51196441092154088 -0.16410171785637728 -0.30056206047409978 
0.94989362562064161 0.081480685664779506 -1.0093012096686103 
0.72784262812981237 0.12618451783714105 -1.0210096627503289 
-0.082942296935804127 -0.29348588405349085 0.54445599381689547 
-0.2818999826998822 -0.50637720952699061 0.4103779391464174 
-0.056083278045589956 -0.067073978037998291 0.021009287854739905 
-0.31244509184926689 0.39414337213404615 -0.11062801454634177 
0.036619423605583672 -0.1620127197637643 0.12211697656833706 
0.58845118876546842 -0.42624170945980699 -0.49538782966387879 
-0.34008137934974403 -0.072714652806919119 0.64957678015520326 
-0.73951227252779528 0.51438838708568047 0.380382663080086 
-0.57363679846902127 0.2136808309977582 0.42444257150339898 
-0.73439864189906112 0 0.92096533497476496 
1.144518962495829 0.18330515801370253 -1.2378007489109337 
-0.73439864189906112 0 0.92096533497476496 
0.99631669697183733 -0.36146191748192391 -0.56428377226466153 
-0.25583373855088176 -0.11055737861903762 0.26715174182336382 
-0.027353973236980467 -0.2004570652373798 8.6736173798840355e-18 
0.91490296775545232 -0.2004570652373798 -0.89056224085843549 
0.034649705650162087 -0.2004570652373798 0 
-0.27145791411617448 0.42861534891394948 -0.15231105212788229 
0.034649705650162087 -0.2004570652373798 0 
0.034649705650162087 -0.2004570652373798 0 
0 0.27575404171804069 -0.60813174733785358 
-0.83395695269766446 0.39810548364925935 0.30667105778223547 
-0.13890595300357528 0.6372466852508184 -0.36656211592226096 
0 -0.088201658018507947 0.023711784856512146 
-0.071572145624284739 0.032227692599115954 -0.21344349995740106 
0 -0.41582168718843476 0.024196253903086416 
-0.78649777202127114 0.15242054476144751 0.65370150752965206 
0.35016006597217697 -0.29554428620258433 -0.35971003028596338 
-0.5957091729784586 -0.6564885072128801 0.69038491228573173 
0 -0.19478062110697419 0.024196253903086429 
0 -0.19478062110697419 0.024196253903086429 
-0.80435317341077073 0.60293601265607788 0.30366644250088848 
0 -0.088201658018507947 0.023711784856512146 
-0.58836445112127345 0.61411892428372783 0.064919467521830324 
-0.16420686400258344 -0.4387279577564891 0.22830001754390636 
-0.7532318809164249 0.13224230226426745 0.22190500837835656 
-0.079738589830898529 -0.19853373951186931 -0.096283351512520501 
-0.19495000666325168 -0.19392255250854198 0.29180690544954624 
-0.27052184308225879 -0.31198693775833208 0.60931133331408471 
-0.29263545585555484 -0.13616461078467226 0.042864673803702111 
0.82691988198273825 -0.70851899733660395 -0.14046058352329799 
-0.11222244890427657 -0.12328214870581142 0.20953692600294144 
-0.15526621223489964 0.025116167353550115 -0.037461256433165557 
1.0448330731555568 -0.04030719489332453 -0.62678232499532771 
0.071616238287481343 0 -0.015659062456330881 
0.071616238287481343 0 -0.015659062456330881 
0.12118161473728481 -0.62770092567254798 -0.008830761606867462 
-0.084697155096406559 0 0 
-1.1272665015465066 -1.0466603850597611 1.568586284942957 
0.1733356008306447 -0.14283181491765434 0.16114686123918415 
-0.83693480442345158 0.98867212187906028 -0.54345267231057748 
0.99272929166217139 -0.37673229477636277 -0.68092009980885282 
0.25644413899547774 -0.11194423144543691 0.026221902788434309 
-0.70402118634974875 0.4608277445836903 -0.29428492748287749 
-0.63432028162643816 -0.19324174743781569 0.83664342366443845 
-0.42751047558124344 -0.37896276751191726 0.34990960473154836 
-0.63432028162643816 -0.19324174743781569 0.83664342366443845 
0 -0.29418316909759801 0.32156066730367683 
-0.67458547783711043 -0.27597282068655282 0.64384280674078953 
-0.23818874515494437 -0.056934197079993941 0.27878301709037734 
-0.25139879805407361 -0.22534321664783327 0.17259426927405802 
-0.33381497076917155 0.28361203190169537 -0.14569638798924375 
-0.17326546639105242 -0.094293453590481038 0.35464478494679863 
0.051547081032970773 -0.16581075985482296 0.020991722585997019 
-0.17326546639105242 -0.094293453590481038 0.35464478494679863 
-0.17326546639105242 -0.38635695032937467 0.22731614234053282 
-0.30683332136076208 0 0.43923568596282675 
-0.045065381289398909 -0.27954580293452763 0.24369566348431648 
-0.037557441440845066 -0.39726329877103528 -0.0058066243386339922 
-0.41674986196245112 0.12299584425618158 0.10514619429260577 
-0.088206298077050119 -0.46006387532313869 0.12943292486516944 
0.21264023557755543 0 -0.3014741492766872 
0.21264023557755543 0 -0.3014741492766872 
0.30344694060307514 -0.46606025268325246 -0.14709895890664768 
0.69824730050551587 -0.1555030872745955 -0.72982624895534276 
-0.21689715003113452 0 0.24215543903533604 
-0.45426331366447176 0.21573394766427312 0.0013757351244446259 
-0.47000859934099692 1.3790881854224974 -0.89483215954723094 
-0.12254722945891361 -0.10300455878580024 -0.032217823344018903 
0.46072228085203909 -0.63876829693610215 -0.18269303553037347 
-0.13307481797033702 0 0.024328882785056447 
-0.13307481797033702 0 0.024328882785056447 
0.21256750173930991 -0.15535998391297795 -0.1851303123905669 
0.71813085445495872 -0.17998141548568838 -0.63337956879204971 
-0.22441403632998008 0 0.15654802662743506 
-0.13307481797033702 0 0.024328882785056447 
0.43276376751762113 -0.8993027967769307 -0.33691482454645783 
0.74107851257320567 -0.80733060215530039 -0.35534164923077383 
-0.60975937222311372 -0.76059782576103196 0.97385808208374858 
0.41773264721923442 0 -0.6826339332578375 
-0.55425659439517638 0.0287716637907602 0.12225016779258269 
0.5553248973428575 -0.30905080680797503 -0.25816494605518819 
-0.78718365877822183 1.2217630625053246 -0.60153192935678557 
0.1621810453079241 0.076607789622061051 0.11848833719029706 
0.34497224413353617 -0.14587608209473715 -0.28136456745998112 
0.51266481901458427 -0.1935575558059783 -0.23660338035934045 
0.10544245267779628 -0.54043779254404967 0.12331121954594135 
-0.15895636318715778 0.034662322938824375 0.070856982223172743 
-0.039104657286654791 0.51133175589036794 -0.3027837851086157 
-1.4906886701304116 1.144265413883873 0.3782423531721707 
-0.14184703940663343 -0.38152315036559903 0.36518044277763384 
0.3919719314746814 0.44549206763357824 -1.0140353708626384 
0.33939316941562037 0.020157528577040184 -0.47873524362079878 
-0.51519050178470138 0.083486826073684475 0 
1.1775897056663425 -0.83290939873108316 -0.39170741111685392 
-0.060114929643889384 -0.23776046804876014 -0.044441917409641998 
-0.57007151431552483 0 0.37034770724350474 
-0.57007151431552483 0 0.37034770724350474 
-0.57007151431552483 0 0.37034770724350474 
-0.015248049237928885 0.49809902201708234 -0.63239101899560379 
0.74458491750883626 -0.64496453759478789 -0.81194438383867884 
-1.0031192910757818 1.5337124235657691 -0.9121033501975464 
1.0645606831021628 -0.52808533654343326 -0.68498782838699368 
-0.081369414410454449 -0.31609705016118733 0.17199144375988751 
-0.17367036047928916 0.38885368371928264 -0.34969245183346082 
0 0 0 
0.040022712749144235 0 -0.13483901102011125 
-0.40075697225590884 0.3411696289269362 -0.00018452570655791076 
-0.12056813031141123 -0.091425423754121063 0.065789698695639234 
-0.53301253832688655 1.2100063365385247 -1.1407845441424311 
0 -0.10838182540238835 0.19066740873240831 
-0.85961313947598261 0.38834384227147561 0.46787842307504807 
-0.28115905158575738 -0.52837445488434365 0.40071385039138863 
0.13280581851790202 -0.3663997823566606 0.037791966217035185 
0 -0.10838182540238835 0.19066740873240831 
-0.035021975014762514 -0.10958099882876052 0.19066740873240853 
-0.45203916728591087 0 0.39407738743088211 
1.6373684856476545 -0.73838230660196502 -1.4112464597248944 
-0.067905484507479463 -0.014075078339504424 0.040724942604536643 
-0.32491970193995601 0 0.56992017322472899 
0.39556028077140448 0 -0.34449598498221673 
0.39556028077140448 0 -0.34449598498221673 
-0.018003529162017386 -0.21934412127418662 0.10050167598351739 
-0.90841065888369465 0.33287240201172741 0.21139863848340731 
0.13791479884526897 -0.08167077312154862 -0.1663834785017857 
-0.37348483181545988 0.049674105739638305 0.24079652533828363 
0.53090480602278323 -0.16746901726546717 -0.35264064450704879 
-0.60197810904630744 -0.42448798094401902 0.82807752581271377 
0 0 0.1851741538162158 
-0.19432479533529221 -0.31569077536221929 0.24462601820069166 
0.38408226745667018 -0.59281905064248031 0.23657092086105158 
1.0466427123984832 -0.015122238093928181 -0.81382209423912766 
-0.13442365117698701 -0.26889627338024735 0.47925814012829093 
-0.12314976239539627 -0.69297940795462309 0.56830071096544177 
-0.12789831147262823 -0.26889627338024735 0.47925814012829093 
0 0 -0.088140165243156585 
-1.0282366953309172 1.4698670661212139 -0.24077325585666834 
0 0 -0.088140165243156585 
-1.1512891619584453 1.809232141446401 -1.1966620384975362 
-0.18782377366969391 0.36146409196836538 0.0096138450220470406 
0.333286285035234 -0.27431482370447308 -0.12902662047946953 
0.32331948774525121 -0.012006585353749651 -0.1877839468841217 
-0.15490349933820621 -0.54856876287358736 0.29318707723789594 
0.70804573852286423 -0.58671515977322874 -0.22140359596638914 
0.034790524498097629 0 0 
-0.4504567027141102 0.91482773436152665 -0.59451018948379153 
0.17183720351346377 0.92238375793037775 -0.33787203209450406 
-0.42124498537528698 -0.51079031313251555 0.65248088031614215 
-0.93637432282005062 0 0.63163778976665286 
-0.58039030184201046 -0.44827237197560654 1.2712898031386479 
-1.2399320266758003 0.0058760784767615259 0.86072822719180775 
-0.20464878526323341 -0.21890254297691603 0.36751668447191166 
0.0783728760197617 -0.71063174001756679 0.38927680983947954 
-0.19425692212068435 -0.15537091799470781 0.14627670186229164 
-0.20464878526323341 -0.21890254297691603 0.36751668447191166 
0.13917943222633292 0 -0.069828506195895243 
-0.2234426772181837 -0.68147277650419191 0.21346805719438702 
0.20503674952428252 0.20461530020729909 -0.32880034051118384 
-0.53907142694761845 -0.14448270607103475 0.4512426954046902 
0 0 0 
0 0 0 
-0.40799903986601133 -0.37588024750988369 0.72581360556673447 
-0.24386675461458496 0.59611882829751561 -0.24404363011971877 
-0.038673378130181131 -0.043726810819619391 -0.08769803115623398 
0 0 -0.15435481017286484 
0 0 0 
1.1609467110322242 -0.38567169630575948 -0.93416882406378299 
-0.076802146685249276 -0.54541268784560548 0.32654465255934556 
-0.31940202456906203 0 0.5507665009462418 
-0.53597637722128144 0.12753870071975087 0.27039480183221876 
-0.31940202456906203 0 0.5507665009462418 
0.4996758843420564 -0.56333766854842127 -0.30583538113053338 
-0.2633693752733498 0.2633406279167384 -0.23980284706541 
-0.56056752036276203 0.26061288551031875 0.0063593079656371169 
0.091485352234972533 0.18868776024691419 -0.24391663213602327 
-0.23573185327414456 -0.1114914670243968 0.14484552632645664 
-0.30841275337770857 0.32525114499329633 -0.15280274521312823 
-0.30841275337770857 0.32525114499329633 -0.15280274521312823 
-0.68031679896559327 -0.17103529194006206 0.76289670631098427 
-0.68031679896559327 -0.17103529194006206 0.76289670631098427 
0.066708336360798343 -0.33285503036719394 0.15282078327178247 
0.52805636600416872 0.054097306809896994 -0.55024325521939532 
-0.073722128176076929 -0.082244346027933748 0.16332806212305512 
-0.2956260432453896 0 0.50892213673693543 
-0.57661111113311103 0.16950670866794162 -0.003579543063072288 
-0.2956260432453896 0 0.50892213673693543 
0.35861420220251627 -0.40257114294988011 -0.30070779255745911 
-0.018577275361985369 -0.747834889286906 0.36635588818963394 
-0.3306749347472876 0 0.20811808549193603 
-0.3306749347472876 0 0.20811808549193603 
-0.3306749347472876 0 0.20811808549193603 
-0.3306749347472876 0 0.20811808549193603 
-0.80161431923616433 -0.53862545111455262 1.2209821122296862 
-0.025133114318431342 -0.50829263930063284 0.25672086809278927 
0.16737733406621186 0 -0.16155825866684859 
0.16737733406621186 0 -0.16155825866684859 
0.084058023877672014 0.093842852032410773 0.011336517325169149 
0.16737733406621186 0 -0.16155825866684859 
0.16737733406621186 0 -0.16155825866684859 
0.16737733406621186 0 -0.16155825866684859 
-0.089783537221648516 0.21604318801252484 -0.23872514765545078 
-0.26551307614266428 0.21604318801252484 -0.23872514765545072 
-0.26551307614266428 0.21604318801252484 -0.23872514765545072 
-0.26551307614266428 0.21604318801252484 -0.23872514765545072 
-0.050600818355056622 -0.0061697465584439181 0.13256411229168863 
-0.050600818355056622 -0.0061697465584439181 0.13256411229168863 
-0.050600818355056622 -0.0061697465584439181 0.13256411229168863 
0.46635878704055728 -0.22161577108047215 -0.24183050507910253 
0.20603956710945812 -0.11300620607138091 -0.1639977929040887 
-0.050600818355056622 -0.0061697465584439181 0.13256411229168863 
-0.050600818355056622 -0.0061697465584439181 0.13256411229168863 
-0.050600818355056622 -0.0061697465584439181 0.13256411229168863 
-0.050600818355056622 -0.19959138317853631 0.26896166131317312 
-0.050600818355056622 -0.0061697465584439181 0.13256411229168863 
-0.40690420872687155 -0.0067655659793848981 0.42700079718622619 
0.070032359805003316 -1.3877787807814457e-17 -0.10120799335853167 
-0.31171388200329886 0.13744266335823141 0.0059262498229954511 
0.89841009949447292 0 -0.97930194131642445 
0.12108579658739738 0 -0.10120799335853167 
0.42870609925954423 -0.12156705993841144 -0.34367874211713778 
0.12108579658739738 0 -0.10120799335853167 
-0.14134179073471231 0 0.028869163170486448 
0.29695271917725985 -0.17366040379509634 -0.22223296440007476 
-0.6117529053205879 -0.43701068631349038 0.57695213822478297 
-0.14134179073471231 0 0.028869163170486448 
-0.11685910930253399 -0.376093308994354 -0.098697988188728464 
-0.61973457785035391 -0.51949479943859656 0.82575164404764156 
-0.45770622455446497 0.086617531391341013 0.66755186721188553 
0.44147183877250656 -0.14288577947533723 -0.14197231082691344 
0.44147183877250656 -0.14288577947533723 -0.14197231082691342 
0.35142308636682112 -0.49306526164889414 -0.0076096812031241287 
0.44147183877250656 -0.14288577947533723 -0.14197231082691344 
-0.37444035052790858 -0.41750336591015486 0.48532281532060978 
-0.93766534127178369 0.044087199517028844 0.11383425669176438 
-0.24980535399844248 -0.26511730976418679 0.36616237627727477 
-0.24980535399844248 -0.26511730976418679 0.36616237627727477 
-0.24980535399844248 -0.26511730976418679 0.36616237627727477 
-0.12737429131444308 -0.27005506388042499 0.37433625819731775 
-0.27572050357755107 -0.067838205072298138 0.25906793740982981 
-0.84412348529119896 0.082395897180889521 0.72775765672421866 
-0.043466974866954229 -0.31764541085520576 0.14028303868503117 
-0.043466974866954229 -0.31764541085520576 0.14028303868503117 
-0.46540177233903979 0.31249016036546456 0.090271751818791074 
-0.098744109992433354 -0.28135193304940709 0.16435809591399003 
-0.01057288032651625 0 0.15645127350951749 
-0.22919697901401426 -0.43280100839813607 0.53476797039001334 
-0.01057288032651625 0 0.15645127350951749 
-0.14129108819037844 0 0.12278248809293767 
-0.14129108819037844 0 0.12278248809293767 
-0.14129108819037844 0 0.12278248809293767 
0.015112303655352446 0.3510029661339592 -0.69887710636156219 
-0.2066437212936767 -0.099528917311501194 0.15911174088181426 
-0.14129108819037844 0 0.12278248809293767 
-0.14129108819037844 0 0.12278248809293767 
-0.14129108819037844 0 0.12278248809293767 
-0.30918901262629023 0.27787222947714652 -0.26857531691102099 
-0.30918901262629028 -0.16300103225005144 0.071647386565839938 
-0.30918901262629023 -0.065302436379105308 0.26262207517337577 
-0.30918901262629023 -0.065302436379105308 0.26262207517337577 
-0.30918901262629023 -0.065302436379105308 0.26262207517337577 
0.34951919062666886 0.075819465424395618 -0.085482127590299217 
0 -0.18658029950941901 0 
-0.35486288123763154 0.19617179094559589 0.14995969431766143 
0 -0.18658029950941901 0 
0 -0.18658029950941901 0 
-0.59231102301862693 -0.15578833872613015 0.60728984147324616 
-0.11550910201553598 1.1202081300137579 -0.8269797072045495 
-0.35861504299342584 0.25596799072743204 -0.037976039481613912 
-0.71358563464472091 0.17649368635886695 0.2087141084656402 
0.42718330924406789 -0.2467444096717995 -0.48705055737720393 
-0.35861504299342584 0.25596799072743204 -0.037976039481613912 
-0.35861504299342584 0.25596799072743204 -0.037976039481613912 
0.37777431353100749 -0.11681347591215188 -0.080395103079978394 
-0.13609420306207998 0.27815138533668027 -0.090844047501823566 
-0.19327785331660696 0.27261185511810004 -0.10262264312951733 
0.023252020215001081 0.16727562996817452 -0.19589866799334227 
-0.094014082228304569 -0.21187946726193507 0.13554280156430179 
-0.15271857238779638 0.092429023323006204 0.12635578417936283 
0.13725085812967611 0.11674007658045793 -0.27922889630846703 
-0.13462049568774268 0.46276297298333219 -0.27802407665387746 
-0.13462049568774268 0.46276297298333219 -0.27802407665387746 
-0.18845297239646225 -0.26706150526956507 0.38262173115425085 
-0.654150400406455 0.067873700880570376 0.33372942456207288 
0.0086675065953622024 -0.39818202906799094 -0.0028548385747300398 
0 0 0 
0 0 0 
-0.39838934090972228 1.4352398067625012 -0.96737279248627994 
-0.029085690938048081 0.63626046622213173 -0.49114740962424241 
0.013303440949552435 0 -0.012151076483959971 
-0.32938467390691367 0.15770594919941167 0.21269806280808878 
-0.071951645539633499 0 0.043929604694474267 
-0.071951645539633499 0 0.043929604694474267 
-0.67277694880541727 -0.31800182588898795 0.69580546913844477 
0.22689400348364205 -0.24296658559362871 -0.025485424645312331 
0.47814679831776347 -0.16422099626401993 -0.18212114301667184 
0.04753051544174261 -0.28906334379380116 0.36746569076208646 
0.0044115686203157617 -0.45892387367555598 0.60564796529933274 
0.31893397095565829 -0.16422099626401993 -0.18212114301667184 
0.46869217501905236 -0.061131905634627663 -0.36192481416801814 
0.46869217501905236 -0.061131905634627663 -0.36192481416801814 
-0.005369641073078091 -0.76260778504151316 0.37992961812555237 
0.15235503079862456 -0.59490104075404182 0.36739100334292601 
-0.29563200246158089 0.36717933185103935 -0.10031479091503168 
0 0.77604734279270671 -0.71973264108485124 
-0.23882381671713662 0.56317842141299079 -0.032876887064155119 
-0.67859166023499129 0.25346115975747285 0.32111785313000429 
0 0.35133024392477769 -0.71973264108485102 
0.041555167544475892 -0.36846932948200994 0.15828897884222459 
0.12524450412195959 -0.64507999218591205 0.42221663711333274 
-0.33625874928415955 0.40340220728960602 -0.2292449560521872 
-0.33625874928415955 0.40340220728960602 -0.2292449560521872 
-0.33625874928415955 0.40340220728960602 -0.2292449560521872 
-0.33625874928415955 0.40340220728960602 -0.2292449560521872 
0.36881036610152168 0.78133906745725989 -1.051367382842102 
0.97298312221593442 -0.82481314432755204 -0.47473551265228048 
0 0 0 
0.71901367576215103 -0.71015916561846859 -0.14771166726038104 
0.3767050052879739 -0.54493728943245112 -0.14208327212725497 
-1.2834556016001877 -0.79455985290516407 1.8669881257091905 
0 0 0 
-0.25358332744460022 -0.044289358355332736 0.73302292901237065 
-0.95726791913023757 -0.069353810247010622 0.67952744250745101 
0.26354887320597797 -0.42088979928533021 0.4492034834779256 
-0.016775650869553911 0.37042109501714016 -0.35855000042198154 
-0.42869228754076066 0 0.43931535006509898 
-0.42869228754076066 0 0.43931535006509898 
-0.42869228754076066 0 0.43931535006509898 
-0.48008298139313538 -0.002479918192502424 0.58627354289988398 
0.47987357431792177 0.24300956083670719 -0.46962939458512709 
0.12910301117160064 -0.91924226223088412 -0.23304874428086939 
0.51136617090429681 -0.02429874608603131 -0.55619669045257292 
0.51136617090429703 -0.25567350496412566 -0.18671417970428145 
0.3073417181152574 -0.52135526943042654 -0.16128119109094488 
0.083299013262329719 0.025558538568021739 -0.26593959583678023 
1.2856709891294824 -0.34215980052077988 -1.3575336399312292 
-0.061069013911984861 -0.25611626290813855 0.16277250219656572 
0.10438971020005008 -0.25611626290813855 -0.044882923599790098 
-0.16213081995691583 0.030275509784452738 0.038890262055066391 
-0.36564491828690032 0.2128254930486822 0.031539072932738853 
0 0.082178231601357454 -0.093969062140113455 
-0.11634860927004419 0.21024558235536328 -0.26731489502880018 
-0.1458090723951867 -0.013172509972347514 0.025963501721802243 
-0.12903191098716593 0.082178231601357385 -0.019674696801389904 
0 0.082178231601357454 -0.093969062140113455 
0.65504832705650395 0 -1.0977415370831072 
0.038414670001573135 -0.23175698156375002 -0.21394285636086893 
0.020282972706465001 -0.18929243686622188 -0.25767281266105407 
-0.52716232021003562 0.078691282074024954 0.97333627913003173 
-0.22510283968724912 -0.019282087713124996 0.059117163664830608 
-0.032962561001765506 0.12474439127890551 0.026220137751058019 
0.10358036704101245 0.23842559460159657 -0.52807620099949859 
0.9127158575874883 -0.55476692178485598 -1.0246262364549499 
-0.1950469706894456 -0.26993760451821958 0.8633209986980398 
-0.023787798077686842 -0.41665661926608644 0.097533460149624746 
-0.30345443196803468 0.59140206018876795 -0.414651436367449 
-0.023024576526417678 -0.39070695913629616 -0.035515188135159428 
1.1016103396635746 -0.065425770968125921 -0.84492147574478427 
-0.56199027681338798 0.04095277926816733 0.29906531894741106 
-0.087682872367442849 0.27824409408698964 -0.20874370700187148 
-0.53134981102655066 -0.22479190929105677 0.58118264740213954 
0.13741955486821109 0.14972163391128127 -0.24176152094234585 
0.37787923997551542 -0.20758879779539355 -0.35909432432904842 
-1.2505814221588971 0.33122130333165373 0.68549785431826515 
0 0.43953956369295832 -0.60628028262448108 
-0.32024788710674867 0.43953956369295832 -0.34493632299864724 
0 0.43953956369295832 -0.60628028262448108 
0.16307024321078908 0.072223515997346804 -0.3766297260889519 
0.35676841816714883 -0.21428762070737273 -0.25299099311544349 
1.5516451003228764 -0.88474656563597709 -1.4068016806494223 
-0.36731250621531703 -0.38644541760471818 0.7271658802701908 
-0.72810785956498225 -0.46538423400059642 0.69585878818869507 
-0.24918193504225253 -0.12186012172288768 0.40284902679962376 
0 1.3877787807814457e-17 -1.3877787807814457e-17 
-0.26069321585384664 -0.47638143469635047 0.45255767853849693 
-0.30613862175365825 0.81540629002284304 -0.70561048045755292 
0.029440276187040149 -0.11066120316617117 0.06748672787744471 
0.14955400873196775 -0.25023447972400703 -0.35482469787777149 
-0.21084184991295757 0.33726547235113202 -0.0079529118136787043 
0.1348731391495982 -0.11066120316617117 0 
-0.23908664154999995 0.23023597579372243 -0.07813542871416343 
-0.94943195855468021 -0.084119040026656322 1.3975082283352027 
-0.50979143758497902 -0.38212682346149263 0.75446716389459612 
-0.50979143758497902 -0.30102434306855269 0.70897594310267809 
-0.37996587289574085 -0.30102434306855269 0.4713248057923346 
0 -0.29160417570549224 0 
-0.62314407337462363 0.36513043015754482 0.12954416643927127 
-0.45383845003114026 -0.41434227089261338 0.4263013604072336 
-0.74822556801325801 0.18283058725424778 0.49539392703035751 
-0.10201184187764463 0.455867606576148 0 
-0.15884274421681727 0.22353882457361082 0.085590956817344438 
0.11978255862256725 -0.12235254124076864 0.014124547729464462 
0.53963787003247687 -0.84247196825211357 -0.071080557694523774 
-0.19810708949343056 -0.54932870115442411 0.40870739030781872 
0.083603852261016881 -0.12034629961254401 -0.012251536924674698 
-0.010467492616256371 0 0 
0.25579649973830926 0 -0.31260439323268763 
0.25579649973830926 0 -0.31260439323268763 
0.25579649973830926 0 -0.31260439323268763 
0.25579649973830926 0 -0.31260439323268763 
0.25579649973830926 0 -0.31260439323268763 
0.25579649973830926 0 -0.31260439323268763 
-0.20551935585181885 0.46768312041210269 -0.2106634495925894 
0.038948906340177489 0.4421356495815375 -0.39622261665274683 
-0.18183826204287662 0.57438018511714206 -0.1667619127205362 
-0.51357279168147818 -0.10154999099502557 0.30391841901386085 
-0.075363991248000584 -0.40225824215377753 0.22588225510466384 
-0.20837302527926019 -0.072831010336043167 0.055394131018900651 
0.38905496063747391 -0.22430424598541684 -0.030056800183226678 
-0.63252276058728052 -0.061656106050732226 0.74347862288912159 
-0.47007964119223838 0.92055478354738574 -0.5761502349638421 
-0.32470753337586838 0.25402852320447034 -0.25639783747561151 
-0.46391029310780602 0.25402852320447034 0 
-0.18207577889728302 0.8337606066875356 -0.63438560203785976 
0.59763472628423797 -0.53116146328481506 -0.28287857270794547 
-0.49823689995808929 -0.32776297499306667 0.42164278291024393 
0.031921256856216343 -0.24425018192047226 -0.18790213489373353 
0.741604853285593 0.029895584887446217 -1.1559598966840594 
0.25000893281695968 -0.31206804929685922 -0.14665532444515639 
0.25000893281695968 -0.31206804929685922 -0.14665532444515639 
0.36398661745683281 -0.037124393588853104 -0.30431286901947285 
0.25000893281695968 -0.31206804929685922 -0.14665532444515639 
0.11605498265216513 0 -0.20738974541288357 
0.23210996530433026 0 -0.41477949082576715 
-0.075556513653224189 -0.24265130475874017 0.41821011431099175 
0.11605498265216513 0 -0.20738974541288357 
-0.30230533852294839 0.84951788616173873 -0.52133195438882018 
-0.41303209656378831 -0.013121366706795083 0.30054916481991401 
-0.26525861421970476 0 0.34777083445225698 
0.99606683217682868 -0.13606786906370261 -1.0813911516141752 
-0.51074147296098626 0.22845983454581709 -0.0061359260597447229 
0 0 0 
0 0 0 
0.10642717163245671 -0.085171781807854591 -0.23244298389666848 
0.67827545964229041 -0.38739219671423547 -0.71872281475480049 
0 0 0 
0 0 -0.020354521576661615 
0.0088827416604571052 -0.2986671370816002 0.14283151605653202 
-0.080286577614580135 0.20497772283947752 -0.22127403706640128 
0 0 -0.020354521576661615 
0 0 -0.020354521576661615 
0.42180900070622274 -0.22705142422802083 -0.53719558639764231 
-3.2526065174565133e-18 0 0 
0.37392490679276469 -0.96458375739684987 0.08946930153668832 
-0.52803212035263902 -0.027400435959517758 0.35569478864993376 
-0.23163207850395867 -0.27937655136171374 0.31039063258905947 
0.22140510678262251 -0.60239625492460536 0.056796133084925211 
-0.19588363168562015 -0.48670640279372041 0.34494336827029182 
0 0 0 
0.2039226859814115 -0.066230620765057938 -0.23936093476360726 
-0.31183728406396122 -0.19725372670468305 0.19572439921601809 
-0.44411917023272612 0.54169892621340754 -0.45686210230163293 
-0.011595590229001723 0.13179016264389021 -0.31258753554292384 
0.014766671728342567 -0.37477200783583087 0 
0.22210951486983324 -0.38248803491239169 0.042254564654302773 
0.16079112282391569 0.044390420343687759 -0.2358435278529761 
-0.78000199447093899 0 0.69767784275509259 
-0.27122413874967044 -0.010073857354522056 0.39680263057495135 
0.16469739968011174 0.38740155516253261 -0.73332458292963332 
-0.090940957341537926 -0.35135756482641223 0.2439472982106447 
-0.040546548791697397 0.30173623690412549 -0.19289791362152289 
-0.23633685397406026 0.72345586904687864 -0.92811073793464427 
0.22342043061932815 0 -0.37210445079533389 
0.22342043061932815 0 -0.37210445079533389 
-0.18925116524268337 0 0.23729220288447925 
0.059139561581172714 0 -0.10544071422418663 
-0.18925116524268337 0 0.23729220288447925 
0.84682962091491465 -0.28503228498473893 -0.48369729124191352 
-0.38286602279285614 -0.079779335732063597 0.45854719822816387 
-0.38286602279285614 -0.079779335732063597 0.45854719822816387 
-0.38286602279285614 -0.079779335732063597 0.45854719822816387 
0.052376468899287584 -0.199506709573958 -0.12843877747994287 
-0.38286602279285614 -0.079779335732063597 0.45854719822816387 
0.51352874665969739 -0.1130221284700972 -0.22108711546626295 
0.68205290550145858 -0.60494940545153053 -0.76779320830466968 
0.022378213330275652 0.10181980485872637 -0.19129859807433738 
-0.12486647375010307 0.45347771552788796 -0.78971083526967001 
-0.29219701592170089 -0.8034871368585137 0.38954654954375412 
0.37358150520209871 -0.45393153306930917 0 
0.35069514811112928 -0.23282128556308956 -0.031877801350903096 
-0.29523654728341431 0.68613458902271973 -0.52915167411154374 
-0.44838334273069719 0.93526376203442418 -0.88500808994386893 
1.0451030727453581 -0.3420615360463935 -0.62231022295241745 
0.30437186030670299 -0.23282128556308956 2.7755575615628914e-17 
0.30437186030670288 -0.23282128556308956 0 
-0.91176038168841134 -0.024692299936846407 0.98804969787108066 
-0.030439658605422519 0.32493560400510563 -0.37734401050859295 
-0.030439658605422519 0.32493560400510563 -0.37734401050859295 
-0.33454451789331624 -0.54949897304527795 0.66999545219128442 
0.16976450122878756 0.19255256115609931 -0.44640855428784187 
0.41609508098709957 -0.095318260203485106 -0.13203972214380483 
0.74409874557208855 -0.067184533304044378 -0.70118909569729659 
-0.1882526743793439 0.32493560400510563 -0.37734401050859295 
0.65821549379387678 -0.2089700447678941 -0.61238331083350495 
-0.18792244191406587 0.058576453022647336 0.10265921468718447 
0 0 0 
0.56471882313320398 -0.25751452433115068 -0.46516872925716279 
-0.66178972858351226 0.34162234809188852 0.2013191393969741 
0.1706048870756105 -0.63001048112616787 0.440845548028028 
0.14492760974948463 0.11836314132700564 -0.077968153779516311 
0.32918917681033427 0 -0.4207897137056999 
0.11683675098099158 -0.074317291531490665 -0.1879842879357701 
0.11683675098099158 -0.074317291531490665 -0.1879842879357701 
0.28115593738733408 0 -0.4207897137056999 
-0.75772601238003501 -0.32284688616372648 0.78515573497917657 
-0.1778458017280744 -0.98172371584868445 0.43147881876322808 
0 -0.21879059585080565 0.10575842213288343 
0 -0.21879059585080565 0.10575842213288343 
-0.39737295563983055 0.09590503758633484 0.17472452081908652 
0 -0.21879059585080565 0.10575842213288343 
0 -0.21879059585080565 0.10575842213288343 
0 0.029041395797021197 -0.41764499515226777 
0 0.029041395797021197 -0.41764499515226777 
-0.39635728585786184 0 0.27385574101428045 
0.21412249524287724 0.12160734006207771 -0.11097147666485022 
-0.13158502912643216 -0.37915941589639368 0.14123498670001855 
-0.025336544459113035 0.025789537054851385 -0.093329849908891233 
0.33374759335928722 -0.038088757802207107 -0.041978345962850577 
-0.39635728585786184 0 0.27385574101428045 
-0.39635728585786184 -0.12197848640604252 0.2738557410142804 
-0.54451797424408566 -0.38962190287990855 0.71764631978872129 
0.23531299226226399 -0.15685650421587946 -0.082493648890370225 
-0.056686153606207747 0 0.10869701900531042 
0.0570978270986831 -0.55147616852563852 0.14495737901676947 
0.34180649007793196 -0.072119728374657369 -0.28257911269244507 
-0.056686153606207747 0 0.10869701900531042 
-0.21612688978309727 -0.050478775338678748 0.27221018713311579 
-0.29543338908411765 0 0.068836702570661781 
0.35337019317900592 0 0.068089222502944816 
-0.29543338908411765 0 0.068836702570661781 
0.49862459226737726 -0.27918492546705337 -0.15735993242146171 
-0.29543338908411765 0 0.068836702570661781 
-0.29543338908411765 0 0.068836702570661781 
-0.071903890245090835 0.084046782406580769 -0.055663495996707182 
-0.071903890245090835 0.084046782406580769 -0.055663495996707182 
-0.23750224300892608 -0.14735090108196269 0.33332954533701659 
-0.14380778049018167 0.16809356481316154 -0.11132699199341436 
-0.071903890245090835 0.084046782406580769 -0.055663495996707182 
-0.071903890245090835 0.084046782406580769 -0.055663495996707182 
-0.25762514313773005 -0.29752404830897633 0.27760036043233849 
-0.071903890245090821 0.084046782406580769 -0.055663495996707169 
0.48824172111829556 -0.052480312918453439 -0.44468452327804919 
0.12178397254603464 0.084046782406580756 -0.22557703015972219 
-0.071903890245090835 0.084046782406580769 -0.055663495996707182 
-0.4298394599253661 0.52531776249965956 -0.38923888591552197 
-0.14580852309142223 -0.30022857689977522 0.81328877786560805 
0.28540686371802532 0.36488030688155026 -1.0176831817972745 
-0.038899750419373609 -0.33488166024315635 0.4992067717905766 
0.59103046014515581 -0.47668332194799534 -0.20016804730117152 
0.29496248507150474 0.028458517783496121 -0.3731404937844025 
0.0090903184790391278 0.82139771369732095 -1.3141928916780445 
-0.74390935012326109 0.080282854446198232 0.76765371389586223 
0.91851254896532675 -0.7613314220312668 -0.584853942204838 
0.31098566162581143 -0.11350077584271777 0 
-0.29376095081674952 0.39241423157453414 0.025440850843264501 
-0.20969155883109025 -0.14422953621777007 -0.041251551843331818 
0.24800001073577246 -0.39186424123409835 -0.13904608712096928 
0.8466639948802297 -0.39186424123409835 -0.48496197419310044 
-0.55799730929063873 0.44238807797394158 -0.21774665102711355 
0 -0.22399349251110154 0 
0.28955991875103249 -0.080597057661096788 -0.23214863900210833 
0.22294567839347265 -0.29397791704473641 -0.089467799560582054 
1.5268788594578331 -0.29516726181040276 -1.5979542609806217 
0 0 0 
0 0 0 
0 0 0 
0 0 0 
0.34791841570291493 -0.16405509720751871 -0.19278395473348059 
-0.47268814478135152 -0.058099345781397145 0.46752961711743057 
0.62784653375940935 -1.0140720195784134 -0.060198096834167117 
0.072990007764106926 0.61562866315747522 -0.39774750246061724 
-0.47268814478135152 0 0.44425425861431306 
-0.07729071905964767 -0.092200979975543912 0.091592671196748104 
-0.47268814478135152 0 0.44425425861431306 
-0.13742923315274852 0 0.23005720017540804 
-0.13742923315274852 0 0.23005720017540804 
-0.13742923315274852 0 0.23005720017540804 
-0.13742923315274852 0 0.23005720017540804 
0.10046976118561515 0.42558614786302706 -0.53520116241081062 
-0.025002943847034869 -0.5718686120308627 0.21425860774660538 
0 0 0 
0.13125564426358025 -0.21146495588325606 -0.12178622538464585 
-0.11138275172628195 0.32315291204288349 -0.16249420394098446 
0.14068909354353668 -0.68174854529910345 0.16223813376680424 
0.40374083665103783 0.13116789960868913 -0.37622764354715682 
-0.11138275172628195 0.32315291204288349 -0.16249420394098446 
-0.11138275172628195 0.32315291204288349 -0.16249420394098446 
-0.010843630075507793 -0.13108001263855965 0.17451379750539436 
-0.83797294711480652 0.52349701499624568 -0.39109562143991844 
-0.11138275172628195 0.32315291204288349 -0.16249420394098446 
0 0.57049667590498543 -0.13076809769479772 
-0.21260877763288194 -0.20944725424109875 0.30724533161311984 
-0.58567104396886371 0.16787828742018288 0.41745116473234739 
-0.040426680621938008 0.23155773683812994 -0.29218308127281073 
-0.28776342054439635 0.16567607442707988 0.088690505272937051 
-0.11949408900489718 0.97142297699226821 -0.55789338858052828 
-0.11949408900489718 0.97142297699226821 -0.55789338858052828 
0.65452281098986076 -0.50108215471902573 -0.62386805529852773 
-1.2935693707602036 0.2714989960165704 0.98725795664803329 
-0.49893502141584634 -0.40942876089184033 0.43861196052560075 
0 0 0 
-0.041576235766125465 0 0.11116449417259598 
0.033481120167294792 -0.081344003054671182 -0.058395116177328649 
-0.15123759239229007 0 0.111164494172596 
-0.041576235766125465 0 0.11116449417259598 
-0.074368242879276361 0 0.1570408687287711 
-0.041576235766125465 0 0.11116449417259598 
-1.1348788874777216 1.6840526149209836 -0.64241369020879047 
0.76919860752015734 -0.77961320313871807 0 
-0.30238171785604079 0.031359019790236989 -0.15320393837084925 
-0.7075232033872676 1.4529718030279275 -0.79429552181477625 
2.2551405187698492e-17 0 -0.33551620473390892 
0.069787087160282035 -0.56660025902253242 0.010937883801445919 
0.25607454186773521 0.11584830663416433 -0.28194195355419183 
0.099098345928815293 0.42738990824406003 -0.82747422592435604 
0.025145277136284727 -1.3877787807814457e-17 -0.071377285313594219 
0.30706348620203561 -0.23202456301735511 -0.52560917359540982 
-0.12732687992457464 -0.72748304351264015 0.49147553022831869 
-0.20675062426315213 0 0.081609285274917565 
0.0030946464430408535 -0.11408937952485301 0.24685202611991094 
0.2202727565240955 -0.18093594564421767 -0.1439368044106816 
0 0 -0.021450061446205454 
0 0 -0.021450061446205454 
0 -0.10228594886182393 -0.042900122892410908 
0.18247819290629202 0.64507118323990387 -0.63244612111983667 
0.40797428469761782 -0.45167015111007996 -0.18428664651562687 
0 -0.76923234977101029 0.65450474898428734 
0.13130200039874501 0.1118743244952719 -0.38194443017879121 
-0.080764902527520693 0 0.072240946728520397 
-0.080764902527520693 0 0.072240946728520397 
-0.080764902527520693 0 0.072240946728520397 
0.32309906436401103 -0.39472195166635826 -0.10519232953758205 
-0.1680085670756144 0.040032473726989384 0.037843404764933045 
0.18429022073140169 -0.4239526436508283 0.04043704688762266 
-0.23296277619519409 0.13511205043712898 0.088139194041553182 
0.274169667003476 0 -0.43507598074870146 
-0.048150386427301753 -0.14577042271995966 0.0026633144210139355 
0.41463513193111257 -0.51313796913067533 -0.27674842356648366 
-0.098345006583452355 0 0.20395132850411846 
-0.65974907406585515 0.073741506897601894 0.12284125817496207 
-0.098345006583452355 0 0.20395132850411846 
-0.098345006583452355 0 0.20395132850411846 
-0.011701175414068359 -0.33748022322822452 0.41625655377442067 
-0.4822658129095132 0.1007334258633136 0.24995611295460962 
0.057186131129584025 0.11490510369242241 -0.37511536267329215 
-0.42329618897178056 -0.35145205633237503 0.78730266909203384 
-1.0265543705197688 1.6153308197129268 -0.27478982435390009 
0.36068489948034804 -0.078136248397928126 -0.45489399099613498 
0.18130424128014749 -0.0076555876561749722 -0.042567768847316209 
0.64117971123561002 0.18855211956155213 -0.7133017609075486 
0.4102750783397302 -0.078652309832230344 -0.58243977436243854 
-0.35537888323349043 0.4601187726650518 0.17704254807336123 
0.18130424128014747 -0.0076555876561749722 -0.042567768847316209 
0 0 0.072860697681227798 
-0.18991370998139878 0.33085215289912184 -0.22443588603554665 
-0.52050047734607985 0.33081296058338361 0.08496509742859773 
0 0 0.072860697681227798 
-0.4963350888278053 -0.29857886552296953 0.65402391943533866 
0 0 0.072860697681227798 
-0.079804641268167498 -0.11110664990171368 0.25502191591818824 
-0.1359869468158435 -0.21176383980803026 0.21200156832114769 
0 0 0.072860697681227798 
0.91769258751798888 0.006587678044512324 -0.75540093774245387 
-0.40075713716033234 0.11268544952819055 0.084338500717285061 
1.0040648330283397 -0.31305212622414058 -0.43138351794809843 
-0.56122640066109364 0.62883694448258831 -0.15904814153048311 
0.29338800685012972 -0.35482849741406353 0.020948027936997238 
-0.11279838109652218 -0.36768680769661088 0.34737528309686971 
-0.48912667489104306 -0.23934459924003251 0.58137313230428678 
-0.35851578480289376 -0.20307621619824828 0.44808212287820187 
-0.48311539196389253 0.47605966860614973 -0.08536217643904874 
0.59442110313565233 0 -0.31998195865934503 
0.25585910573407683 0 -0.10052620188766534 
-0.14169898680447865 0.44138697105508673 -0.42938237107872762 
-0.66414165895024346 0 0.48193467903586545 
0.19505586688069482 -0.65754242767723414 -0.15175608003032778 
