solver_type L2R_L2LOSS_SVC_DUAL
nr_class 3
label 1 2 0
nr_feature 23183
bias -1
w
-0.1892716730167813 0.38183515876061902 -0.32192682949373186 
0.0091540302726474121 0.048236921762692703 -0.034229634536936795 
0.14561015085942386 -0.022985264117674147 -0.13468457114710028 
-0.057884039732091934 -0.019200683323151287 0.035249310711344378 
0.077260782689012528 0.0011552745999070734 -0.038333839683823451 
-0.10416229927892301 0.058587144852897607 -0.10605320034481118 
0.42271526040183516 0 -0.16991601327210898 
0.21642448378700496 -0.11816489636798405 -0.17741942007127035 
-0.034675302159188723 0.1077327369012832 -0.028529867474494135 
-0.095498872596060463 0.021684717570785994 -0.073391030051928804 
-0.035951927489968755 -0.071394778178954038 -0.010500422074253574 
0.0011317830427377143 -0.083861672266724918 0.052146658798857812 
-0.54455026617774971 -0.40456593885952968 0.58516107097846681 
-0.0023136475439418693 0.10196438099406092 0.09100188664952244 
-0.044887739760984847 -0.14571249368557021 0.15916264505386676 
-0.25458535915752895 -0.54369367917388234 0.37891326554127408 
0.04832559695670785 -0.019623850083416244 -0.076180287882597023 
0.11270226137980681 0.085369711034014251 -0.24200364626609241 
0.6320486548702533 -0.67528065161674888 -0.33807784988752926 
0.89345644745625075 -0.2633987804159626 -0.51970500510641826 
-0.15202005727665924 0.078455416170506123 0.22913578503863649 
-0.052451193479294916 0.074565638064201703 -0.027231834530329388 
-0.038214760918068982 -0.028018493158233761 0.051770457158638365 
-0.12956356810089661 0.96327181761502856 -1.046556271992499 
-0.028219337384102025 -0.058691220856117901 0.035567943831691727 
-0.085870327574138261 -0.2244576110532055 0.16079569802841809 
-0.96722195222138685 0.15214754774684064 0.46192482750167035 
-0.023293112756719157 -0.046065839125459654 0.032031731541389268 
-0.09607049844013367 0.57234028446208529 -0.6346215323688742 
-0.30742122014463535 0.27708815186968583 -0.13349518005024028 
-0.095898365035229249 -0.099762646229366467 0.031702315021969664 
0.36201056751486349 0.24587756279935219 -0.50001286931327726 
-0.27837274105322041 -0.50193340740461412 0.31461317752449253 
0.22346168702332794 -0.094998278301458697 -0.14243521742758303 
-0.26986730428089789 0.63942157738931504 -0.39533194124419252 
0.18961318888187192 0.02176514689154857 -0.19197334711788661 
-0.075557334084720998 0.073059790528914925 -0.039778553518591803 
-0.37155521656627538 0.27949659848689751 -0.3683017116117176 
-0.036580599326898756 -0.13731998530730791 0.028756568997277847 
0.021975532140899579 -0.013126598966066529 -0.13276511462876014 
-0.91012848861521312 1.5662601444112525 -0.99425515774082063 
-0.27481938288343732 0.071581093338631649 -0.004672888378117049 
-0.23409951596067968 -0.18938803242260677 0.26543733656298291 
0.79099065086607645 -0.21209852799086382 -0.75649249548660946 
-0.18484507174548823 0.64721738712194199 -0.45515761004284749 
0.80453857310400578 -0.37785337516861484 -0.50144959543361933 
0.00018236401380588522 -0.043481517027342279 -0.024330659258504406 
-0.5336198861515834 0.0040652703364428937 0.47737513300588624 
-0.11768171024913475 0.054152808905954197 0.12158097750774814 
-0.48729979164156295 0.16420337043434527 0.43039425061352055 
-0.034171982015666666 -0.092155918153526417 0.10320701025941717 
-0.11619706734845989 0.00070617764089677196 0.24004360115659229 
-0.083512353650125187 0.027498157347717236 0.042982087887149543 
-0.17129143865521351 -0.087930673413107091 0.24579156062176105 
0.10055383131941265 0.3216527276282477 -0.38404820559096114 
-0.053626947691535636 -0.16436194772464208 0.050361747595550246 
-0.017479455501330329 0.3216527276282477 -0.27714380236002562 
-0.52946870691823156 0.67234099767025601 0.094506730580970658 
0.2160870088486638 0.043312167875237603 -0.27025927628263985 
-0.40063807980280597 0.3897307885964667 -0.069091955308727554 
0.1707332010048562 -0.15018419770239116 -0.0064108342395602863 
0.070198912784802045 -0.2032224421014871 0.035703331276258285 
-0.32961975513674702 -0.35505061188441228 0.29182476795503487 
-0.23746429101266392 -0.15838842035586459 0.3792816002480997 
0.0077344746979730117 0.028969855230618759 -0.02773561497431248 
0.17972401607128899 0.28633842025895506 -0.29481745507110185 
-0.15551466146218421 -0.052591415369952717 0.13437536585227777 
0.12286446548894495 -0.029430583112579747 -0.26163154120581705 
-0.17242103481322052 -0.3652204505992217 0.4547764168343304 
0 -0.14707067703969456 0.034260156815422542 
-0.43387449967880931 0.21656102130224245 0.26622524775882811 
-0.055100856325474928 0.23716662367991231 -0.090847497914276681 
0.51121107455062809 -0.20311664149757722 -0.20106291791431458 
-0.30290873676453856 -0.27929867626955018 0.32531240976663611 
-0.056435729501852945 -0.05248355639470214 0.016665115389392006 
0 -0.14707067703969456 0.034260156815422542 
-0.24300831845788604 -0.50014286307092481 0.45750384967831081 
0 -0.14707067703969456 0.034260156815422542 
-0.032647540706648 -0.11839214771653037 -0.0094257511080084525 
-0.072530871007452272 -0.1516003829062687 0.097799026287260893 
0 -0.14707067703969456 0.034260156815422542 
-0.33095146335585313 0.60112718804022314 -0.28252704083126523 
-0.059172541991834748 -0.0085629836279469684 0.5269459338983723 
0.056909577795694652 -0.085391956385962808 -0.06277858497543283 
0.025651570685654584 -0.38649920625527101 0.17231003165913961 
0.31339470592605484 0.11979237285451326 -0.67565578974937823 
-0.26341530134694158 0.44488074356383528 0.22757992875309363 
-0.56347531092556746 0.16607477722301686 0.057371198156877488 
-0.21429744496510164 -0.032977341258923348 0.19144491310508549 
-0.020572260621134954 -0.028373051747952262 -0.0046913490545882402 
0.025152448731474691 0.11139231323007065 -0.038918430412975304 
0.063148949809504987 -0.015248810305799936 -0.050869659782570659 
-0.99852041408973558 0.082288303505065621 0.7702295262768234 
0.14475805489106522 -0.58357379986370717 0.0091003625762068625 
-0.078242253858808217 -0.22495027855591418 0.11328788019154129 
0.43383203320471631 -0.2994464149304884 -0.073167824715636542 
0 -0.13980410575363589 0.22419938233390396 
0.34482432292382204 -0.1720058308219245 0.091915444500060284 
0.087838123143429717 0 -0.1273273327824124 
-0.30160257244776228 -0.47532582195421169 0.14667462208565629 
-0.24563954855638659 0.01574742318862216 -0.23819187358315932 
0.032406806485352574 -0.13887284325262877 -0.17417737395513344 
0.06426619632699837 -0.095585237139190329 -0.1013128980492802 
-0.045057785843174838 -0.35145392951368332 0.16910306261727831 
0.93049675965618861 -0.70278161777784209 -0.81155190267141786 
0.073391228765547878 -0.028009984335778771 -0.1280439891328268 
0.11493135891162981 -0.097227327702494162 -0.13465480957029255 
0.70693921985467356 -0.36026573402174933 -0.46838283256168889 
-0.12496454850652412 -0.00036107472438799346 0.26572832531040202 
0.049500495896613414 -0.081675159094316413 -0.0076109529573180762 
-0.085285019171409016 -0.097169070846668704 0.0923464106563891 
-0.21909038946062548 -0.047484525633996112 0.12070833111552129 
-0.29657913833954513 -0.43118592432399949 0.29758846884502843 
-0.010898715897175159 -0.046390789577558961 -0.055250295220617626 
-0.74040716153345554 0.25029424021447333 0.021979646059542775 
0.036474927361943577 0.12027827989954994 -0.038669802544767443 
-0.22028425418455916 0.31178920090448337 0.11433688339883971 
-0.33396161552301395 0.098211082204159167 0.080613968964840826 
0.012667374709781068 0.14684968497710416 -0.095799697921849572 
0.12967028664403005 0.00921600910720205 -0.5407084098985423 
-0.327773720733742 0.0058900915820987478 0.33299685994095335 
-0.450444821457404 0.026021116269636997 0.50681359627015621 
-0.39246400918113972 0.45033665825607588 -0.6858624110455076 
0.037890043339387343 0.039641376890788248 -0.0650507652506849 
-0.61696794038339631 0.67641500258868714 -0.40874136872063654 
0.084225183232093756 0.016908034688257498 0.056795893796368728 
-0.0591327597548564 -0.038702229957144493 0.017934056471734905 
1.5657693517734059 -0.54056812757943584 -1.4213381527677595 
0.015748827856531023 0.33449828878965671 -0.25606221360409226 
0.036469046504706421 -0.73822290107484867 0.57000917176752419 
-0.44454858344406495 -0.043646205866329196 0.31898916532269106 
-0.27701767528068877 0.03604074227505262 0.1302651730240004 
-0.055502181896859779 -0.15254330824138501 -0.054062897833507359 
-0.017896450800257854 -0.39654037839355216 0.50539614350861295 
-0.48277943443007099 -0.65229352221908321 0.72193526965114196 
-0.55749817348738118 0.40360861749635218 0.20604597099212818 
0.034494088842702234 0.076219159702306208 -0.031860297229908859 
0.14446706293002923 -0.038907856329348928 -0.063097610204117083 
-0.12693836893862934 0.066920343603672064 -0.013869814356212793 
-0.31054851155942859 -0.020573565988627206 0.34262306621001698 
-0.099741327047759301 -0.14575946932456407 0.092184816897682112 
-0.72882605281985924 0.1437251958616817 0.16622974654936895 
0.012036036665597194 -0.042469534217974753 0.079986485130608548 
-0.44244147201511114 0.5036425790371104 -0.14556016083589321 
0.60413038509058092 -0.33371008633606919 -0.47902231137312257 
-0.48439101737566942 0.0037879513395921885 0.090294189363668884 
-0.21086265415369479 0.17789786866945442 -0.12893829069002749 
0 0.0037879513395921885 -0.36129787340823138 
0 0.0037879513395921885 -0.36129787340823138 
-0.051335720905909953 0.25311930374955549 -0.059971990139783257 
0.017926665644311199 -0.26817805143846385 -0.05572997685763937 
-0.36828119370595913 -0.32960307392999549 0.9948061168937512 
-0.58268980574695173 -0.45035928790161817 0.74794836967209721 
0.18003963806623718 0.028854411643418662 -0.3473727912888418 
0.46889366666655702 -0.08788482253633538 -0.59989334952280715 
-0.093273703400586994 0.21191265671982817 -0.063820653156398163 
0.037410349588720665 -0.016994371281951515 -0.035781546786927285 
0.071825658409696291 -0.00068771481802564448 -0.099203723024206214 
-0.21600991952887555 -0.30886129518832622 0.74296546894659421 
-0.34440811972133673 0.32962131936834371 -0.13268656605734425 
-2.7755575615628914e-17 -0.22453855566320541 0.10551947172554012 
3.4694469519536142e-18 -0.10146651981969146 0.041473486309509991 
0.69447192546477954 -0.085105250708486443 -0.43691151532931827 
3.4694469519536142e-18 -0.10146651981969146 0.041473486309509991 
-0.010403993025266501 -0.48665020051363844 0.29842677045944777 
-0.26883815879675077 -0.10462759647466881 0.26524011290820237 
3.4694469519536142e-18 -0.10146651981969151 0.041473486309509991 
0.013293861759784722 -0.10337150415928192 0.41049974276203177 
-0.25759786886478753 0.61423827187190649 -0.26029207062215853 
0.25689171537505462 -0.13479672181189217 -0.030380795467421319 
-0.43199111664974793 -0.33263856897944183 0.22590878842608519 
-0.24488165174786677 -0.44360351940852072 0.56327469309870137 
-0.17948115017525371 0.078996589708235088 0.095598811858818994 
-0.12379405943927183 0.079323074398569351 0.065043078774957699 
0 0 0 
0.058545240936314864 0 -0.25623577374679235 
0.058545240936314864 0 -0.25623577374679235 
0.058545240936314864 0 -0.25623577374679235 
0.058545240936314864 0 -0.25623577374679235 
0.35545813226376888 -0.046378561367602468 -0.49045879953003169 
-0.026541171401694954 -0.27394272605738729 0.083761033146031186 
0.084234900297325915 -0.07016375024414491 -0.00020431495773707035 
0.0039507592526786817 -0.39735432267500381 0.37823778488836435 
0.28077228281706917 0.1933751181550685 -0.17154840671398158 
-0.11918048892154307 -0.24274112382615223 0.051670903900526088 
-0.40796711673760749 0.51288216230865236 -0.11526932096884801 
0.096269323593079187 -0.25199224618340765 0.068512677114821105 
0.069444031695602038 -0.0015665243557913301 -0.056458530320273842 
-0.12790338194848128 -0.34732699876335171 0.46846886161707629 
0.53033523993031539 -0.92286961917907873 -0.27249333992654234 
0.17017255588917607 -0.17611578918244919 -0.062580182929069889 
1.4263074355634928 -0.52431232073192358 -1.3843565020171096 
-1.0307755553704909 -0.021855710676868947 0.88641393815132496 
0.0061814544509085217 0.3888645820722243 -0.20819888540920609 
0 0 0 
1.6671223702532734 -0.66510951270793539 -1.3940957014321829 
-0.086284262092571506 -0.084548657084869791 0.046281877487054722 
0.10858345870802906 0.22601329057107145 -0.16392337197479706 
0.078958461638652333 -0.26308460468047951 0.10953483934860342 
-0.22479341293759425 -0.12861844164581551 0.20710424976209782 
0.063624347038501741 -0.083233343403451107 -0.043268188268503455 
-0.00055453911315276813 0.027516627054992207 -0.53613222981914099 
-0.58875458985703388 0.027516627054992193 0.19444178991447358 
0.48315562201137396 -0.33763853831836177 -0.42427755280058066 
0 0 0 
-0.0034823344039345543 0.026473377123181235 -0.060376423170844934 
0 0 0 
0.22674466487321243 -0.22293848920312204 -0.33482323978351763 
-0.58030081049656079 -0.38812474816146159 0.4659918426732586 
0.021444340389360078 -0.28916318544394215 0.20659657545519378 
-0.12447801674352345 -0.14758000934715684 0.17499769883229815 
0.060172307473493836 0 -0.056728259112567854 
-0.36664698525568618 -0.16563050397640311 0.43423136165639237 
-0.14738941239521397 -0.1656543749098886 0.17985073773638477 
0 0 0 
0 0 0 
0.95811669308347513 0 -0.82522922340559079 
-0.087243616069735699 0.11524889235374972 -0.084827756443065033 
-0.65626548237595783 0.047909566996953493 0.2350905164286855 
-0.1729833336681873 -0.1150124525137312 0.05511435654299178 
0.14374229443095182 -0.20844907537588941 0.038919970207842186 
-0.33215994824670508 -0.5049400344382986 0.49336330938812994 
0.064537572867592832 -0.17850199869628142 0.03090067440018775 
-0.19461537894738018 0.33495852289080225 -0.12949687923633918 
-0.043121482477286678 -0.025252281782474455 0.02968326673607732 
0.14496439626023669 0.098064146098566313 -0.35198921655347137 
1.8603275095978309 -0.57176300266266988 -1.7914903797592974 
0.14505195443719171 -0.34620665417594781 0.22827391541474715 
-0.15618947668397942 -0.087231032055166191 0.28485004751833715 
-0.37283941257183856 -0.14191924067682582 0.32360137344838519 
-0.2234334979452535 0 0.067575472821725754 
-0.2234334979452535 0 0.067575472821725754 
-0.82021707150204137 -0.19830023705909094 0.81736306338995768 
-0.23248130502798411 -0.60483743606842033 0.33502778526198618 
0.080832744908384713 0.21498519878714967 -0.36920451022371692 
-0.47414888970626301 0.16169087182801792 0.18794552075499774 
0.23146400310293799 -0.23362062033466091 0.036916883818157872 
-0.25067858599106002 0.043281872056242655 0.209652643517516 
0.30076139822978021 -0.55476249185914517 -0.1198866137207077 
-0.06822865547122639 -0.19835903197261476 0.44729784637084613 
0.566797645038845 -0.054705532699720658 -0.5206603463907451 
-0.017681751310164417 0.3137330959171582 -0.13261864324890882 
-0.029587790352595567 0.2557971275462862 -0.031111197741549884 
-0.10320576253923522 0.064152466167154282 0.081187711029760287 
0.079427738901031372 0.12804132426219711 -0.25369292045854808 
0.28113544964538972 -0.35640000704997638 -0.31704996126950752 
-0.08402088203032422 -0.62146722375238261 0.32019755960865787 
-0.30409927163468736 0.34511023530845669 -0.29351212436137641 
0 0 0.082704061790019753 
0 0 0.082704061790019753 
-0.297641970105544 0.023429210553595863 0.27231031061544114 
0 0 0.082704061790019753 
-0.12787420442152159 -0.1888900000173416 0.1074855700076358 
0.13781507253887373 -0.33180388729859805 0.0030785010370064951 
-0.07856738823807094 -0.11629748303224725 0.15172819052434239 
-0.14715575322392124 -0.38443345294725462 0.26690299109726973 
-0.60755238536878942 -0.15976104515048684 0.47524106239447089 
0 0 0.082704061790019753 
0.19810062740941406 0.096733611424025645 -0.22373379918259473 
-0.01913886700181848 -0.024092504696554762 0.14901562235204205 
0 0 0.082704061790019753 
0 0 0 
0 -0.31044743457340707 0.2241515783805795 
1.0757297833754369 -0.29706787703011495 -0.67623895815092205 
0.10101210288646881 0.03998264296327797 -0.25761874259331502 
0.31545699503162006 0.059839444853506354 -0.56283384139875303 
0 0 0 
-0.15819250884905042 0.43736807682921441 -0.35456898700196238 
-0.43447400363509775 -0.10000244927677322 0.47404688849913962 
0.18217500844684073 0.42846571010152174 -0.2140991123923906 
-0.28786932851959146 -0.13043572570170892 0.2203550648588696 
0.30766439484140912 -0.023633369430137583 -0.19623852881876058 
-0.075037068440360732 -0.88477413433072427 0.41834649312527011 
0 -0.080393150255653259 0 
0 -0.080393150255653259 0 
0 -0.080393150255653259 0 
-0.43301131551237437 -0.1930314657921266 0.35429532540444536 
-0.068820245483040859 -0.45740894143248417 0.25780877278437769 
-0.66709103698724248 0.25727586624665599 0.45425432940070132 
-0.14781607117052414 -0.22246961668390985 0.11779480184467087 
-0.4692254787567593 -0.080393150255653259 0.37208685220449972 
0.4479491086411368 -0.096620420224022938 0.032844236466202208 
0.16084081364339745 -0.31436260358192258 0.19354706950300149 
-0.28481114702913035 -0.10375288571633132 0.43188517970785084 
-0.5551671740096471 0.21574037449930628 4.1320146867261105e-17 
-0.53590878697499433 -0.080393150255653287 0.44616114888220609 
1.2733439769484123 -0.53402085755928264 -1.2415318847512939 
-0.089334870208213041 -0.39066161160011564 0.29584871035987909 
-0.30340586111147011 -0.39901870157401176 0.24538454092032319 
1.0564756619316626 -0.47022266250410172 -0.52178314718250707 
0 0 -0.016996019365775092 
0 0 -0.016996019365775092 
0 0 -0.016996019365775092 
0 0 -0.016996019365775092 
0 0 -0.016996019365775092 
0 0 -0.016996019365775092 
0 0 -0.016996019365775092 
0 0 -0.016996019365775092 
-0.056612766452395435 -0.30212586053055529 -0.074035894129000912 
-0.46838369436492877 0 0.28832124469126369 
0.05701952441038198 -0.28379612611809796 0.18104989734231686 
0.0055852131329419746 -0.034275352250835486 -0.04168276769279617 
-0.033290331781959087 -0.025003445498761295 0.21800716179120103 
-0.46838369436492877 0 0.28832124469126369 
0.14974892032225257 -0.06306489886611924 -0.21713940548031707 
-0.46838369436492883 -0.063064898866119226 0.32432149374103181 
-0.46838369436492877 0 0.28832124469126369 
-0.46838369436492877 0 0.28832124469126369 
-0.46838369436492877 0 0.28832124469126369 
0.081338270634453105 -0.14505436625246487 0.087329160542004652 
0.064747303223889927 -0.014511271512140348 -0.11670963508354568 
-0.12877797350702533 -0.2508959032940325 0.024973224960506735 
0.31817403134221001 -0.16513683877578011 -0.20298979629488687 
0.24409135647443728 -0.28622503122920517 0.024096102042502305 
0.21255356633443545 -0.35801566090108033 0.13069928086078755 
0.23291097511277589 0.023444175703447732 -0.01936285166824591 
-0.18398300065473755 0.15589132231332908 -0.32787766739489377 
0.0062496338172182697 -0.20218479027183242 0.074403738178086695 
-0.1391155832178701 0.55756686303330605 -0.44568765958257678 
0.47784964216451103 -0.18698856698430671 0.13006294291882345 
0.31954737114197179 -0.13713237659216845 0.23215990016921012 
0.24668817204034113 -0.30747319702636156 0.019370956553336351 
-0.27930584806663034 -0.068773617401690842 0.2472825746290101 
0.12287464347496936 -0.30553659669900968 0.027328173851732036 
-0.15659126399873016 0.62724309998381877 -0.43239063610181455 
-0.63128652223266579 0.15631409653256934 0.52267862747673322 
-0.0014945155046835698 0.22490885145674169 -0.21561514545625463 
-0.13173149895286471 0.13949112656414209 0.13737538011995959 
0 0.21446022877120036 -0.27396326563761214 
-0.016279746652435576 0.0065830892335396896 -0.030496417649907619 
-0.20941339058364869 0.21446022877120036 -0.10273985232428945 
0 0.21446022877120036 -0.27396326563761214 
-0.11225962714759533 -0.10367699135988134 0.14240262365760903 
-0.86157377541548086 0.66402874151254032 -0.14217139176073096 
0.16573319028858269 0.1009329292413321 -0.10132727851916382 
0.017019789335462773 -0.0034326119626392586 -0.076904059070159 
0.15645643178820612 -0.27516052655605305 0.12835995678015297 
-0.028237611033847788 -0.18268423289741142 0.078546278589726515 
-0.33982147972885601 0.15731710183143296 -0.11244194861017547 
0.57599181829847346 0.30128453768492924 -0.86348561761660025 
-0.042929041399581563 0.49189536384414251 -0.017250971110606843 
-0.39785528846588125 0.18225847999638428 0.13445757341782005 
-0.18859739484032573 0.24133280051089401 0.055306816913704225 
-0.29257888414203442 0.28275041969757164 -0.13234147729373208 
0 0.10709822981336074 -0.039469217990178183 
0 0.10709822981336074 -0.039469217990178183 
0 0.10709822981336074 -0.039469217990178183 
0.26100071290697352 -0.21887046887350609 -0.13492264746694646 
0.14102962073729786 0.14822050352708477 -0.13129092835448 
0 0 -0.091004850796031753 
-0.089368513249117335 0.20153559299946694 -0.28464187355232107 
0.0067266785034585524 -0.15721584218263326 0.050126943566588381 
0.048721650512806844 -0.20695990902177408 0.039623646095409165 
0.25925378970657043 0.056574021904344352 -0.3991937747677976 
-0.12266938756385959 0.32499578218707004 0.21940891047500752 
-0.30406234955015682 -0.13545333520925029 0.37345661572257971 
-0.29813272453818085 0.23510538746815002 -0.015809122092369874 
-0.68695830057461105 0.3288070827844955 0.096436726332097378 
0.12825584806190102 -0.073693758843850418 -0.056702239065032987 
-0.18937218545476583 0.46800130187597488 -0.26915781012374385 
0.11414368347471446 0.12585794724354599 -0.05786512045958498 
-0.28369423496257773 0.016227114628111626 0.27157730096251448 
-0.1241829336747993 0 0 
-0.57258346442584684 0.36986539585674882 -0.00013147536295884601 
-0.11982248536040091 0.070317272703706163 0.023303168489005197 
-0.051172826861896871 -0.017188677865502329 0.023354830826423405 
-0.1241829336747993 0 0 
-0.48046880110355061 0.30209674384952984 0.16072341830196896 
0.20665601684183649 0.058667209684856177 -0.29468781332141136 
-0.092031447773696373 -0.14201255550506664 -0.067869279561662374 
0.19163829179328229 -0.0853430605957399 0.13501116853381559 
-0.27678146732603504 0 0.20710537362813086 
-0.27678146732603504 0 0.28624919436448903 
-0.13902800713090679 -0.10976730682678298 0.20341475173399895 
-0.27678146732603504 0 0.20710537362813086 
-0.27678146732603504 0 0.20710537362813086 
-0.27678146732603504 0 0.20710537362813086 
0.40286453859372706 -0.53849508203438567 -0.2829658557953037 
0.46886744744010045 -0.34336131180658558 0.2820403878125568 
-0.029711862632346108 -0.45211941495205582 0.25403439819194668 
-0.17383324218296858 0 0.075969255469673758 
0.25671569190946381 -0.17326608657069065 -0.11261785855861849 
-0.92169999789004542 0.01673419553610539 0.21240908571401132 
0.23338560238783695 -0.3356939300962582 0.024218327199756359 
0.23545253293385052 -0.11552571068038049 -0.17013770015985333 
0.20492865397600302 -0.45679520503883242 0.18927550119628506 
0.12947041219368785 0.057391524271707656 -0.093359154302186387 
0.12564755171062694 0.38209098682734988 -0.11256528737305084 
0.090211262220553548 -0.057134975597504904 -0.087282862211486373 
-0.30289369895791207 -0.077287271133059249 0.054651924540782909 
-0.079947957580866522 -0.04362314752980629 0.279507350559354 
-0.094325203684808137 0.46770844427556635 -0.50505645278907774 
0.003670208165135103 0.0036406385573757244 -0.01054366012223266 
-0.31924744632654867 0.10022654543329415 0.30307310051256553 
0.1786748984597257 0.01154598174891886 0.1272871880620392 
0.24647633749665523 -0.36753835092400811 0.045713143849758539 
0.55971177989772802 -0.20598587655901215 -0.26691777044721182 
-0.015163902447245602 0.29434056466128433 -0.32613321577363119 
0.47470476463257083 -0.43694267098891926 -0.30546862461619007 
-0.13934237812355005 0.026289188816172697 0.060965166343399893 
1.253911085974067 0 -0.34185489874102259 
0.22410041061654962 -0.029134252533062111 -0.00044308146829848946 
-0.089363886743610593 0.40635771387666481 -0.40871202708587029 
-0.058807179037570628 -0.90945267820761055 0.79571642843420698 
-0.27206153330943328 0.014900868441147323 0.19143688816120283 
0.14934942839620852 -0.027037286885829508 -0.063018074377564237 
0.20840568751075589 0.14373128861406353 -0.24139365822701161 
0.52863446376356449 -0.1152682060279777 -0.26421920725026476 
-0.092273091884948519 0.023266154936798955 -0.042793972653901523 
-0.064290378424136499 -0.08740282337898729 0.17779634112323725 
0 0 0 
-0.11406432091442069 0 0.21021165302448511 
0 0 0 
0.55875026778921688 0.499676388160254 -0.61976631287224437 
1.0629129011629697 -0.29428796014337744 -0.82427288225950535 
-0.41562688897465971 -0.2801706040625756 0.4442252277623685 
0.065781104635997428 0.012841656994777066 -0.27507659909975646 
-0.1786870447671387 0 0.099965357464914736 
0.10864662746266625 -0.018394548333575626 -0.0059395613700249624 
-0.50130001632810162 -0.20793414149488279 0.53158083861031402 
0.34160384314624781 -0.45616230282518017 -0.21323063885741014 
0.40058814398039327 0.053070915947661598 -0.50586528218357341 
0 0 0 
-0.34279103781936249 -0.037405035706148622 0.22792288181113474 
0.0098980103621565917 0.13604880163049121 -0.072745725570234676 
0.14511896296271201 -0.20691388454791915 0.10175660412145873 
0.17782876429311489 0.20799885860255229 -0.23307141284031407 
0.14776953468635112 -0.032603289601121563 0.075415681806037374 
-0.25523050113204948 0.2785394558507529 -0.0052981237188031299 
0.097931309107669964 0.1278705501365178 -0.60334899471216963 
1.8043988533757216 -1.0996098467120703 -1.5248313060318774 
-0.39532213320787479 0.17213316494964895 0.24220283436234036 
0 0 0 
0.27734455176050493 -0.087149352965422935 -0.073465497819974121 
0.11298019174288856 0.25300866245279569 -0.12798816299712493 
1.3433570725927966 -0.45720766366058929 -1.1468620571794115 
0.27734455176050493 -0.087149352965422935 -0.073465497819974121 
0.039967191344916178 -0.087149352965422935 -0.073465497819974121 
-0.076418357738287992 0.29459065621121339 -0.3245435983943139 
0.23059037154342477 -0.38425067226231924 -0.028926042318327277 
-0.29180680921450314 0.19935505892727182 0.09708496309841555 
-0.083007521046333285 -0.55544958408298317 0.16495939047726488 
0.11857254887803141 0.17857053443499449 -0.30721308285989657 
-0.1776405730294815 0.25163466329232181 -0.072567412300621401 
-0.48752505275044528 0 0.49341789918141699 
0.017561440833117281 0.068155117743536442 0.14807779606643329 
-0.019240762014717732 -0.38910863004710794 0.15653354959602259 
0.370493081854187 -0.31037529306011208 -0.1182322579118069 
0.031443618743793179 0.28741702758474258 -0.33260426211058403 
0.23727197610762929 -0.31213896481782599 0.088830040908757735 
-0.12203221846617437 0.11421660970514015 0.12519618463935034 
-0.48752505275044528 0 0.49341789918141699 
0.5436889772167981 -0.39540453038447976 -0.39937557889621988 
-0.31035056771000497 -0.20920324570619248 0.39186431157700941 
0.084514422833340916 0 -0.32158483596835635 
-0.0072292589702839596 0.0072429742428359797 -0.03535981484964805 
0.53843295946562597 -0.15457463398881113 -0.44125229097328822 
-0.3972835664790077 -0.44541610289607275 0.43680029889640504 
0.084514422833340916 0 -0.32158483596835635 
0 0.034498534942891575 -0.18513342498691299 
0 0.034498534942891575 -0.18513342498691299 
0 0.034498534942891575 -0.18513342498691299 
0.12163624977304191 0.21640278060730672 -0.55612379397453016 
0 0.034498534942891575 -0.18513342498691299 
-0.32058725813228417 0.33582421536759532 -0.32869047664966999 
0 0.034498534942891575 -0.18513342498691299 
-0.09465084875303785 0.16908752803136234 -0.0068719916086455116 
-0.80973053583814003 0.38070753252263217 0.43903916946501192 
0 0.034498534942891575 -0.18513342498691299 
-0.71471957121956187 0.74811004425616101 -0.17559419592837847 
0.44212729033250842 0.16557256630098957 -0.36610258998025769 
-0.01698592166230295 0.4153458510454327 -0.47837225429228453 
-0.71471957121956198 0.54740603159868773 -0.016628041903327888 
-0.076115711450156498 -0.01794406229626537 0.11780154474229888 
0.81337871867719802 -0.055287322728341609 -0.67070718507071103 
0.013273609286277278 -0.19254442144102599 0.28891471675009278 
0.089438450191785202 -0.19254442144102599 0.092604810459182382 
0.18263205174215402 -0.54136201355995239 0.088331491242936891 
0.025339660013074698 0.069444538223315047 -0.07031698724088295 
-0.055086056936139952 0.7440421710598587 -0.36894057396096258 
-0.3942420111481954 -0.49816261937174233 0.48636158615493602 
0.56923850912416551 -0.055287322728341609 -0.5940891558289717 
-0.15731258801870907 0.026358165619324997 0.048549112912197025 
-0.31308585728842958 -0.37414277822518999 0.29514899670919859 
0.6082204143300427 -0.70620282616922192 -0.10256338551416318 
0.38580025244821919 -0.22903743518166134 -0.21198255158843649 
0.15568086134430209 0.40992685135139917 -0.79860775778090487 
-0.17372333940420254 0.21185953629066739 0.052462554315507795 
-0.41551397377578692 0.1531216591516229 0.20418375089006913 
0.010531068508820669 -0.27149532641550383 0.072140356511492504 
-0.072850695344028049 0.138743457382283 -0.019647326075615052 
-0.88719082509627123 1.5191720726783624 -1.014719395135639 
-0.10639906866127732 0.10594834458717489 -0.26316091490763494 
-0.24386408182477798 -0.20823752440362658 0.16349612579535325 
-0.38713870317220167 -0.11621727213139213 0.58246700188036937 
0.37324067042292075 -0.11621727213139207 -0.12022885832474284 
0.34236820189066675 -0.15560288677267525 -0.2840840999241917 
-0.52033676400112649 -0.0035378579321217575 0.47927861960794743 
-0.10822192068115748 -0.0035378579321217575 0.18625656943517732 
-0.10822192068115748 -0.0035378579321217575 0.18625656943517732 
-0.10822192068115748 -0.12068759805672992 0.18625656943517735 
-0.091516080711668571 0.31022671369994365 -0.30004393641008553 
-0.10822192068115748 -0.0035378579321217575 0.18625656943517732 
0.35752050699873344 0.47500695499864498 -0.85968723819602655 
-0.10822192068115748 -0.0035378579321217575 0.18625656943517732 
-0.62541944613869682 0.28950470957099866 -0.10834312536266764 
0 0 0.054647511289066197 
-0.50584322330421949 -0.018394548333575601 0.55350647335778591 
-0.10847545454601693 -0.25806385681745908 0.13647621654087227 
-0.28613558773431336 -0.10579544654831391 0.2921655758628956 
-0.024375472929516504 -0.071289398601000059 0.25420270044261922 
-0.37340825997620219 0.13987311696619414 0.10020817906161221 
0.24082264161160258 -0.15485097031747419 -0.15827152977109191 
-0.16099015909045483 -1.3877787807814457e-17 0.12516705543251111 
-0.06573612525927866 -0.59215847769354502 0.21390196595161598 
0 0 0.054647511289066197 
0.24410349279808319 -0.15763449455420731 -0.046283188086809091 
-0.32864558958749091 0.17746843985993613 0 
0.23499689669717524 0.4704841595955121 -0.42380714346376214 
0.31214264980813239 0.23159607677718477 -0.49041961862367106 
0.028584327586840985 0.15370389884020141 -4.0459310474193162e-17 
-0.010267168571595505 -0.21079910468546242 0.10811133366524854 
-0.32864558958749091 0.17746843985993613 0 
-0.32864558958749091 0.22636217666047639 -0.17648550609370567 
-0.064485463334201645 -0.07571280749929464 0.08706596611356246 
0.38078282750702586 -0.3333242970566383 -0.52450141789442062 
0.15497183604320494 -0.070581143108502858 -0.20859657771313533 
-0.052357264345408647 0.047419263506373335 -0.058771595622825898 
0.11666197605727296 -0.0853770936275801 -0.17302316391671302 
-0.2186327118277302 0 0.11348554745809815 
-0.2186327118277302 0 0.11348554745809815 
-0.2186327118277302 0 0.11348554745809815 
0.39847488894128985 -0.24545535070070895 -0.090248138424050162 
-0.2186327118277302 0 0.11348554745809815 
-0.2186327118277302 0 0.11348554745809815 
-0.10414829549257654 -0.13189681909676543 0.19243899577887677 
-0.11064583905769558 -0.61217493825755509 0.51818944319997906 
0.048861027651558378 -0.17017664326248211 -0.010189453414570256 
0.11004153311672135 -0.1332578061024878 0.19488625125307599 
0.075597253489322766 -0.28705793013709552 -0.12132950855479321 
-0.40929082676604889 -0.41406038905809267 0.5699422056630139 
-0.25150206664856828 -0.14644908664276632 0.084687370307615015 
-0.15407475581053903 -0.094427314115704167 0.17896899060836005 
0 0 0 
-0.13417336628436768 0.12063368120296196 0.2594811248748784 
-0.055350618076753691 -0.1925428677969358 0.16702156351076625 
0.62272176927779144 -0.14842280222996879 -0.54198064217083519 
0.091250239882330816 0.33079908272353731 -0.48487627940248784 
0.72648000749021102 -0.38401857769750997 -0.58356625447230848 
0.015537797852550557 0.0096328165487987588 -0.014397003315695349 
0.11991321623645089 0.19891332491604277 -0.37553613357810778 
0.28104119718926213 3.4694469519536142e-18 -0.081964805745926392 
0.035980299983517969 0.40499122772408663 -0.17148856411536356 
0.1513471592689245 -0.31963423717220063 0.40577718715071776 
-0.22814075417457852 -0.25525483665237331 0.18678094640601645 
0.093883281642195476 -0.27601160777059203 0.083982384800024928 
0.30000476329169834 0 -0.15118577383526069 
-0.21009709497479406 0.32389582122080002 -0.020696719261917285 
0.074290206075481285 -0.2343653513762041 0.13969437103052815 
-0.52947070345563541 -0.19615545651866628 0.72160131921472226 
0.12067021719352529 0 -0.25268571840348097 
0.06988781277757769 1.3010426069826053e-18 -0.23049663405523216 
-0.29237385419893908 -0.1205609337137703 0.11568934390889062 
-0.1328910811592427 -0.50100655573899022 0.33600747358174848 
0.29676779757930888 0.11243285645011368 -0.34338043639177457 
0.12067021719352529 0 -0.25268571840348097 
0.12067021719352529 0 -0.25268571840348097 
0 0 0 
0.045181905204627219 -0.12150986488634863 0.27183605646574194 
0 0.35540946510074689 -0.43462870471824511 
0 -0.0017925109902205503 0.073936875271298566 
0 0 0 
0.32544786498091083 -0.23905739697631162 -0.040671289161141523 
-0.20006921578898282 0.12745338209637475 0.037045601617034435 
-0.15570171728956048 -0.12968168490023951 0.30339212968163703 
-0.020102962736497761 0.11873066197138309 -0.19147260061912225 
-0.35469654752966723 -0.85091654236806991 0.66888297551798104 
1.5837303740983892 -0.43731119471065516 -1.3099667851257828 
-0.22120254740859283 0.033174374255054179 0.4447413430879168 
-0.73713780039291077 0.28839372957994086 0.31162631034445271 
-0.087318477176306947 -0.09040400921194594 -0.098638113024487051 
-0.34256414816452685 0.17268943181355187 0 
0.090963926426021913 0.26739362900636088 -0.19810957385941599 
-0.11270769825285856 0.025483646608382697 0.12244874422394054 
0.37834227261308417 0.17268943181355184 -0.5257717510565838 
-0.49532772068950326 0.17268943181355184 0.35665442249575408 
-0.34256414816452685 0.17268943181355187 0 
0.19165407241801297 -0.20140980565409317 0.026006181617121728 
-0.3430928769552542 0.24325887961883857 0.0055187133115972139 
0.25778704090774945 -0.52632924268664771 0.093555378197047179 
0.076713627812321022 -0.15314938210649368 0.13372348618134641 
0.019011403320555009 -0.14327083217375258 0.28595649640142168 
0.092285593396789031 0.28273926788863835 -0.32161248866487907 
0.017386364164991858 -0.31033348142258571 0.15080572653263943 
-0.39633953636198682 0.10220190997642882 0.019768553969365107 
0.52021066564305207 -0.14372834163706141 -0.54788167216401062 
0.33918965298096648 -0.14140419952068106 -0.33655084803117263 
0.047019112039430461 0.047319399701274863 -0.069430518331698249 
-0.10387419623562293 -0.16708276182215773 0.17441891646960123 
-0.59415123060282926 0 0.49247593652018229 
-0.11154073658856024 -0.3063031190212106 0.17264803451988395 
-0.06925416934632006 -0.04388347805202087 0.18257036233518184 
-0.0030412234585271286 0.40359551467009891 -0.17059350543180388 
-0.6417777203859476 0 0.34643179911359956 
0.10140238545071405 0.21372413541038865 -0.34850028978400666 
-0.14097982137872192 -0.11993493464936961 0.31819112034182356 
-0.31620721101498694 -0.53844990466653253 0.55189116757277934 
-0.0093152440112421811 -0.49695041349792546 0.1479504800793949 
0.64784223772744109 -0.3570842566486005 -0.30537468369413134 
-0.40382436958783691 0.37346135768839517 0.0093078970056378954 
-0.11376241469716385 0.079440798049015993 0.076372247459136205 
0.070935273023393725 -0.13852074048668539 -0.016370165287107732 
-0.11457824609102658 7.8062556418956319e-18 0.12275632267758842 
-0.7496371939602624 0.78923683867129868 -0.18635641770368877 
0 -0.090439013286525011 0.23303862294982008 
-0.22833170115312665 -0.44234313829829208 0.22563303287713218 
0.20652552963217485 0.35669734622255617 -0.53743171946914037 
-0.0063340398279505949 0.30215336451250024 -0.31910760211636857 
0.19088559724848417 -0.067528491555855885 0.15727590998543772 
-0.37131691200775568 -0.83958463895784363 0.51965026517875645 
-0.086552866523167377 -0.32238070544349146 0.11538748861270728 
-0.066974820522469725 -0.12592546850819886 0.14195435662857123 
-0.30394895423072449 0.058454231387277608 0.19654080674589566 
0 0 0 
0 0 0 
0 0 0 
0 0 0 
0.3258153019467056 -0.16639455045260479 -0.23978631367522346 
0.41984733095925514 -0.22182862919409954 0.026790413920379282 
0.059312382613930716 -0.19179865280439734 -0.002349808215828266 
0.68585065024838365 -0.052196980367351271 -0.53794363914197829 
0.23610629542390377 -0.8582953583134052 0.13922980567690174 
-0.11358507269142019 0.63770923919875477 -0.59587102866325514 
0.18376769492388534 -0.051767348081323786 -0.094687015269700026 
1.3525642543821561 -0.89689358223291671 -1.0158231213061497 
0.34118131757032893 -0.23351088431873052 -0.45553823612652844 
0.15574976165350704 0 -0.21760315987102857 
0.15574976165350704 0 -0.21760315987102857 
-0.078917918236638088 -0.32313751394410029 0.21529815269175775 
0.15574976165350704 0.13213009629745945 -0.57674011610780396 
0.33775664019037921 -0.16780545886350559 0.0031658664439988392 
-0.0084979257200428204 -0.26518529457444029 -0.099120663813968779 
0.63623529148620195 -0.29630753762847095 -0.41869274641464421 
0.15574976165350704 0 -0.21760315987102857 
-0.19911754430910489 -0.054455151714546804 0.39661868963123531 
0.24417652956462063 -0.054455151714546818 -0.50124196076700711 
-0.10372833046742079 0.12819060158968071 0.19396377475409809 
0.13303761535108366 -0.095309339304703297 0.055984780735522814 
-0.19911754430910489 -0.054455151714546804 0.39661868963123531 
0.047539282381507869 -0.11816776670883353 0.16620717361227161 
0.31098083860479342 0.2410712686472041 -0.45140337197399816 
0.10042122795181221 0.27750150650438832 -0.41701447645637657 
-0.20153835577149803 -0.3391060841809399 0.37636614033373422 
-0.16938701852811433 -0.10846029477158886 0.39635498745825465 
-0.37224969249734913 0 0.41271748237524503 
-0.37224969249734907 6.9388939039072284e-18 0.3802564007845266 
-0.043628355987259462 -0.039136360751817444 0.0047324556992727551 
-0.021480830502799309 -0.014876340875264033 0.077345811755508587 
-0.44324627238737618 -0.34082158499969167 0.59403509270870092 
-0.32363182942694491 -0.036832742862213802 0.4152134547665976 
-0.76171635246545777 0.31169418425577194 0.39392981979911862 
-0.30080798832710531 0.14519823258959186 0.25813996322916477 
0 0.14733202237882856 -0.18650339633350257 
-0.37059298787457173 0.73784499364460854 -0.3409484254568057 
-0.56182273221588874 -0.42151981885544842 0.60126870581838832 
-0.029786996719019125 0.45509858633270039 -0.72978379173262053 
0.10803459667416471 0.1878102633494606 -0.070414518197058878 
0.18878760622022009 0.074720380187711183 -0.21301012505594377 
0.21042824102411833 0.81014374844968184 -0.66536114266760149 
0 0.14733202237882856 -0.18650339633350257 
-0.5184226142499464 -0.12297795384223811 0.20863438805184767 
0.055029678572327337 0.044646958054189931 -0.36479910980062508 
-0.37751354418939204 0.56197770280922965 -0.77345402178498779 
0.66509403973688375 0.0024015352604377744 -0.73699217801339534 
0.60640810089120079 -0.16502521066739795 -0.29659588940562326 
0.26941276222179911 -0.58484095473042164 0.35084846244369333 
0.60640810089120079 0 -0.29659588940562326 
-0.18021541644512895 0.0048188198353533145 0.33357992571202966 
-0.034253372087951678 -0.0098610380874862222 0.049418644798350286 
0.013697584365847268 -0.020676988690275549 -0.054687235075500204 
-0.14259101707222466 -0.052814452666226822 0.18924335701223352 
0.53496823360470436 -0.5839519670435509 -0.2663835872558265 
0.75420218453223231 -0.044187481771505527 -0.46203413878916127 
0.074113446223803725 -0.3704115830067472 0.24763055928086156 
-0.29036546423036547 0.14771666792096413 0.064586353402643362 
-0.36087341079363022 -0.61957703360227445 0.45954254242084674 
-0.10523149066449874 0.27497889071161502 -0.18146069563876732 
0.21580887067121529 0.018002696600971101 -0.68331209296905882 
-0.16824697246402853 0.14631912113185558 -0.15410804677978296 
-0.11724592023716535 0.12195261448877774 -0.01967907437282105 
0.13727890831407707 -0.18343526089903603 0.12910425467196798 
0.1366114143650321 -0.33766200038310279 0.27366488002748673 
-0.15573794880024469 0.10672016061276943 -0.13051137177455502 
0.57539790031041715 -0.18343526089903603 -0.31900269616188326 
-0.37054431643885655 0.55556042035779241 0.23720208094922815 
-0.54095364060068396 -0.10365884606582414 0.55821133032649284 
-0.19406288162135404 -0.13665589092789845 0.44475017619044616 
-0.072365114481342876 0.21213102713982532 -0.22776375983847616 
0.15957567543468451 -0.17319614363474675 -0.069873415781248366 
-0.17463496795333125 -0.10365884606582414 -0.11793269656375309 
-0.03904831208869855 0.0086021689387864066 0.2217657421849249 
-0.36906186928047224 0.27495545081179235 0.32781039714524229 
-0.54095364060068396 -0.10365884606582414 0.55821133032649284 
0.49448923690658109 -0.47836830705555 -0.084856157193507795 
-0.46864515870110562 0.40910090092631124 0.25173100152567818 
0 0 0 
-0.18744368760695779 0.80986123361275664 -0.6451383235854784 
0.0090613710193042443 -0.048328825881816181 -0.033634364784501027 
0.5226437760962247 -0.12551731244157407 -0.43439571157861556 
0.4568676164641961 0 -0.3126449811262495 
-0.15755110227273975 -0.15280484252293577 -0.0080218323078735596 
-0.0041696376582394034 0.028610164918406931 0.14520693390452633 
-0.17876469700810507 -0.3259562633403334 0.23077289159186545 
-0.14167347775627465 0.091208813312622233 -0.042537320868379615 
-7.7426316455644906e-05 0.41780626071835919 0.018531944555534897 
-0.20057014513312477 -0.13090321161070093 0.25121840869387685 
1.5113503920027243 -0.80298746924769615 -1.2942353121144636 
0.25886870670739059 -0.32459724995249545 -0.2051752410797783 
0.039527263737860738 -0.21340129562249177 -0.15934220324380668 
0.058046883568813101 -0.19775499316236334 0.2258744406012769 
-0.54740885170447828 -0.024904516538005017 0.42166669754102637 
-0.11489549609448495 -0.26939751724893801 0.15304153379752319 
-0.35735430932949552 -0.21508772345576074 0.28604716589592261 
0.080160708960440918 -0.14585269276740398 -0.053000168851337306 
-0.19741992991619406 -0.037212867940368918 0.31577239951904762 
-0.12959786337384233 0 0.11457270668173207 
-0.013652153462649745 -0.14265175298564833 0.3322922387874388 
-0.12959786337384233 0 0.11457270668173207 
-0.12959786337384233 0 0.11457270668173207 
-0.0027785734211609372 0.923568043086193 -0.65932719029901043 
0.65307423116736008 -1.1012006993369039 -0.13587290301838162 
-0.12959786337384233 0 0.11457270668173207 
-0.12959786337384233 0 0.11457270668173207 
-0.12959786337384233 0 0.11457270668173207 
0.44980466626565119 -0.026632843529942413 -0.45698292380602251 
0 0 -0.031226560009446434 
0.1037012738090082 -0.30885742758585077 0.26550802907409771 
0 0 -0.031226560009446434 
-0.0026141583067671569 -0.42717567562635161 0.4122637080159533 
-0.17158756271225845 -0.047393883277337887 0.37077156588234933 
-0.21685487021203179 0 0.21056080386206202 
-0.062705316102302455 0.059904022745197481 0.24326465737308078 
0 0 -0.031226560009446434 
0 0 -0.031226560009446434 
0 0 0 
-1.3976915265961198 1.5885721485481792 0.050955048161304625 
-0.35578495251996367 0 0.12978987495052147 
-0.086378564561077523 0.48830938027826976 -0.30309204730299799 
0 0 0 
-0.35679114070963619 0.97300247724658695 -0.59957351134628167 
-0.59448607868111059 0.65101510483465352 0.031034448261025804 
0.42013558347458119 -0.068115091544957929 -0.51317139589201322 
0.042159899007065127 -0.39414544890696679 0.30709241369637552 
-0.13957411851972573 0.14579321896289796 -0.1262138424757116 
-0.0018380523478097859 -0.25350434334985894 0.061396927078156555 
-0.24431998645866643 -0.26711728501635601 0.2660937126290151 
0.3350159410324256 -0.16333102024794832 -0.30056213579798358 
-0.10792525415238462 -0.48393905542547039 0.34673682328406791 
-0.26469804404423991 0.23310912866896635 0.2131059646318709 
0.29342415350810302 0.078579864635875726 -0.12407804432538502 
-0.32424976440757092 -0.076594332797347245 0.70280646298129257 
-0.32424976440757092 -0.076594332797347245 0.70280646298129257 
0.7435660536250045 0 -0.84759485802662771 
-0.74294388573136938 -0.041243257612789061 0.25697199429470957 
0.038210401092482756 -0.20210154798277172 0.017094862534503832 
0.1249795818608459 -0.047282644951800096 -0.0041366963275552681 
1.6462169176928239 -0.82498938347478235 -0.93356908001602401 
-0.45804030425553532 0.11777938173270935 0.47384845964019501 
0 0 0 
-0.047520568547905401 -0.14277366826369461 0.33673523277638684 
0.0010315987636801589 -0.35178241867738408 0.48814997366032065 
0.51235360417783438 -0.45785262590334291 -0.081224302161411938 
-0.026090050692712127 -0.1585703806918598 -0.050261811400057727 
0.31432255723822639 -0.13641615395549234 -0.49707306152167313 
-0.18092484302316897 0.18186824301942275 -0.08075351449311087 
-0.38735695342522319 -0.60097452659451822 0.45568059718530435 
0.1881187461118165 -0.2523014034889971 -0.16598263618427325 
1.1596568534685086 -0.16168799497202441 -1.2160755607793781 
0.58948581398958888 -0.064123859781192408 -0.60422830493572 
0.067270774580596243 0.11920357492063915 -0.16517823534655374 
-0.56656155066755187 0.0089825024214395099 0.70080312441276338 
-0.10822627408800864 -0.27624327688542183 0.11240578405693215 
-0.13543430471366955 0.38369400394632591 -0.23704269011611501 
-0.11817812740192422 -0.45098607147636982 0.70472562375227032 
0.11613163664750319 1.474514954580286e-17 -0.089060396858989074 
0 -0.0017925109902205503 0.073936875271298566 
0 -0.0017925109902205503 0.073936875271298566 
0.046284680134135683 0.094204956094376596 -0.072020697552418564 
-0.47310838483259116 -0.48630792938300432 0.71700529696090987 
-0.4615484094699584 0.82316748935625439 -0.59922891424924651 
-0.4128942207303623 0.20917179465534771 0.41394501408865314 
0.066238459670113561 0.24941965475098976 -0.56217399576886395 
-0.37897663488720157 0.52550250100673446 0.019064095964904451 
-0.13728316316990968 -0.56531644755605337 0.35346047886709409 
0 -0.0017925109902205503 0.073936875271298566 
0 0 -0.21441778065586248 
0.19677105044999454 -0.62913182954045765 0.27971901774373409 
0.30147404859062421 0.55827156362743158 -0.51337632517662934 
-0.1857129040373475 -0.038030892172960733 0.17835376098675559 
0.21733862917180402 -0.004876589764462147 -0.34084543477455725 
-0.37985020002191866 -0.24615793654180892 0.70599194465354065 
0.36409158993672169 -0.28181564463985964 -0.096329218420519114 
-0.63455382656855519 -0.3562298795730342 0.52471426286748168 
0 0 -0.21441778065586248 
-0.16099015909045478 -0.20629363586287586 0.25467510357279621 
0.36147163141994065 -4.3368086899420177e-19 -0.21441778065586248 
0.28795503052618732 -0.42584091433000287 -0.073050353643870539 
0 -0.06405963800704835 0.27822039503696183 
-0.34195354213881229 0.078492578964435344 0.22574160380417557 
0.2007938591604741 0.32405308163273122 -0.42947042612982639 
-0.16446730766993417 0.021215714086840635 0.22259732030836712 
0.14346509552978115 -0.073108261270754774 0.0057487687541976241 
-0.64556934235587637 0.3302012219153001 0.18388829553062538 
0.017042589521209597 0.4860403703106328 -0.31422585092401312 
0.043471389648636755 0.0028841315586319192 0.1982154590178285 
-0.16039041564290846 0.046980845382966888 0.29745967634706999 
-0.27362398714091507 -0.12385653179980971 -0.03353525579097643 
0.46918625498256739 0.22206111069331461 -1.3186830260097895 
0.24318967235271233 0.23127428746069639 -0.14769240587949159 
-0.1221782024504391 -0.24395319668589896 -0.073762184239575562 
0.68985616861038024 0.14208893617332663 -0.38060046262555841 
-0.26718453889029375 -0.18506447390709618 0.094874959566281974 
0.040631687601942502 0.064804470092391195 0.30722504715552212 
0.34789029296759771 -0.022703944706723798 -0.026155243226286772 
0.34789029296759771 -0.022703944706723798 -0.026155243226286772 
0.20953108803781587 -0.13190208303695622 -0.20649663754398945 
0.12925557751754171 6.9388939039072284e-18 -0.11855870375345955 
-0.094518860691361353 -0.37907831417387372 0.39143517961807722 
0.01791919462583012 -0.080101642429829339 -0.036897276192558011 
0.097572645617932122 -0.076311942387271306 -0.13184047745609137 
0.32749771146509893 0.25215475709396667 -0.19167660932396591 
-0.22340800848057843 0 0.12143323953744721 
-0.030922929247058802 0.096663721598967189 -0.053924301737127492 
-0.22340800848057843 0 0.12143323953744721 
0.10291468279219068 -1.7347234759768071e-18 0.047817982636277706 
-0.15485568993216545 -0.47552608411579206 0.34871484318399909 
0.4222248178482681 0 -0.2847159484359964 
0.19789443526966988 -0.018326401020573448 -0.27467480174071762 
0.4222248178482681 0 -0.2847159484359964 
0.36082902997615551 -0.25742649262985284 -0.5246363394991731 
-0.17221372856303724 0.33767250303619384 -0.19044304273254717 
0.26142715381520104 -0.048035488491724981 0.089901367153952416 
0 -0.18948208000252137 0.30870792723172197 
-0.21501879714093236 0.015326515559499335 -0.17717438590052692 
0 -0.18948208000252137 0.30870792723172197 
0 -0.18948208000252137 0.30870792723172197 
0.054634455203530184 -0.18948208000252137 0.20906195253314611 
0 -0.18948208000252137 0.30870792723172197 
-0.25050844714445475 -0.44848312939667967 0.52155450330692155 
0.37442739995166574 0.019248912177516425 -0.36117428903504667 
-0.1805096484758322 -0.241711640396017 0.12254092073526622 
0.10019766396494076 -0.47290946402040523 0.17108724380984688 
0.42441366000956654 -0.018523255349908424 -0.15021036890227016 
-0.12537450050114571 0.10910274978922821 0.13276099727113347 
-0.35428833232672091 0 0 
0.34146901770884325 -0.47972551790057077 0.11707367790172579 
-0.38309253208279781 0.11497556840356249 0.10394790778964481 
-0.12409354214099852 -0.74956816906655233 0.6524252818733608 
0.26455738519566052 -0.2262747423171704 -0.050386295559870203 
0.27981896248013699 -0.33742966916922373 -0.066139223820333645 
0.19871333481956102 0.1254352500396862 -0.2565541616851934 
-0.39751653240734053 -0.15367130850230198 0.16442698219272964 
-0.37005830282741309 0.26558167221148182 0.21861213386364667 
-0.38499530476966681 0.20676542808432474 0.021287567718270464 
-0.048118517320196105 -0.35341136236094794 0.049935528783097857 
0.40471431351391707 -0.08141840264062751 -0.072666683801531406 
-0.29200814933271374 0.16096246022044852 0.16480060022176737 
0.059223498888116399 -0.20788902454127386 0.12533292957667844 
0.44265474662798976 -2.9490299091605721e-17 -0.13326109915790169 
-0.10377864646924223 -0.0090486232637065397 0.12822364360280961 
-0.14208688878659631 -0.063793075882979999 0.43578205184491986 
-0.25743309602313624 -0.097462592977950763 0.1224229673143552 
-0.28687240164014888 0.39737201849829046 -0.22475133841924108 
-0.082758365876103551 0.03233755782997326 0.12666303586897185 
-0.1037786464692422 -0.0090486232637065397 0.12822364360280961 
-0.1037786464692422 -0.0090486232637065397 0.12822364360280961 
-0.0014226965096884522 -0.1040301435187039 0.042724934634113455 
0.14925946417861402 -0.24103258828226565 -0.1290877090113644 
-0.1037786464692422 -0.0090486232637065397 0.12822364360280961 
-0.21198920057293241 0.34539317992416918 -0.010573760551707785 
-0.1037786464692422 -0.0090486232637065397 0.12822364360280961 
-0.1616747076335194 -0.32256855909748916 0.19241496115617387 
0.12490572512796885 -0.10910315483897542 -0.13067678491111784 
0.42244131414517927 -0.004129524820169846 -0.54264356445595174 
0.15276417649299989 -0.57413676930830471 0.26120551727864522 
-0.23648664765093466 -0.11091877418731713 0.18105714910002638 
0.077948173487470698 0 -0.54264356445595152 
-0.38647474109666691 -0.092021239292012599 0.31732077646555645 
-0.53429116263065735 -0.44739845124762334 0.57475177264704025 
0.02288048819280979 0.24131235375289545 -0.31648731108881667 
0.11067701857999575 -0.51534991790623574 0.23238767142122699 
-0.16917571043209828 -0.1997057766116232 0.16174593900437403 
0.055408548530470086 -0.21150857115264982 -0.15316687333039367 
0 0 0 
0.21153116004199429 -0.32102133444166842 0.032694137846827634 
-0.92491874067970414 0.66454778610233844 -0.11138555450715082 
0.47953194695275564 -0.96128744197637561 0.019291865929022739 
0.28368383070807124 0.0095220976757611781 -0.13339104845744526 
-0.10744778561545641 -0.224955071343762 -0.031318890456711407 
0.19952820100583779 -0.087383845391587764 0.39437036917643103 
0.22844901191639394 -0.065691326549466161 -0.27790735496443419 
-0.53595855071452936 1.2321650251001564 -0.96185584754536901 
-0.028615588117563661 -0.68938585306963662 0.59442100538752074 
0.27647924669853163 -0.044306650417301557 -0.27301363822155333 
-0.087421880852195599 0.7184314106879216 -0.45345567906902906 
0 -0.26018898668216772 0.14816164279776867 
-0.37295229143256586 -0.30632706412663241 0.46733960875690739 
0 -0.26018898668216772 0.14816164279776867 
-0.14259021826222901 0.12338537375185156 0.049299699633701337 
0.076608996728700252 0.17646324036685007 -0.060657084413241531 
-0.09998799158000754 0.14188133941920375 -0.16275946137857861 
0 -0.26018898668216772 0.14816164279776867 
0 0 0 
0.12194087964157059 -0.20667844253775497 0.26439082852403017 
0 0 0 
-0.33198508835080398 -0.55297476273488377 0.89275266083670957 
0 0 0 
0 0 0 
0 0 0 
-0.13801885607932293 0.294370293658473 -0.29561463593212189 
0.020687844661511457 -0.30759507056452556 0.23428221497989982 
0.1009885430123415 -0.40402622447589465 0.039884747231948015 
0.096811084395409863 0.11483376287775281 -0.29263085006916156 
-0.15078819359421525 -0.90064320359372285 0.56346447582953418 
-0.03810452527301908 -0.40887713482137727 0.35285280861314922 
-0.69275525556188045 -6.9388939039072284e-18 0.47957803779485358 
0.37935571431610654 -0.12408855856258572 -0.43941822146990867 
0.88907731337717189 -0.25727400060648431 -0.8356629414011979 
-0.32021033696456241 0.097811743460281472 0.049448209586919645 
0.38955176474514697 0 -0.67853525633307388 
0.27281446927974456 -0.092663162890878309 -0.28002760894736584 
0.023793919923068355 0.073836761883353808 -0.25137778082461876 
0 0 0 
-0.43308783516001154 0.93521283878773454 -0.83039317310787719 
0 0 0 
-0.83012161270449092 0.5426071610841039 0.038705613124496677 
-0.77443272942997898 0 0.45861469359950136 
-0.25351533509546276 -0.19819705676153029 0.15154740716234935 
-0.10287311447636066 -0.29060118554912018 0.13878864042940744 
-0.20349322759401117 -0.081330365064753787 0.38316765066962355 
-0.4604114005391321 0.059639168726646194 0.42413544538307407 
-0.046394738940615646 -0.086009369688713172 0.09671751882926706 
0.20504408669582674 -0.40768435296633637 0.11135319911314516 
-0.76083081048232382 -0.093434143358743005 1.0630445728870843 
0.19795132376201163 -0.13405365181977152 -0.15835868394936853 
-0.45439074338609525 -0.29436522427876116 0.37518376762800326 
-0.71577013189822358 0.69735195515832549 0.21003441913713775 
0.33384141293931791 0.082415458160196506 -0.44465143283555669 
0.062587615878493014 0.42353766094897638 -0.38787822414309509 
-0.86835553062675919 -0.020581656544998068 0.80142372323050592 
-0.061291422624270689 0.042879053296116673 -0.03984241847149788 
0.04988244794149161 -0.020581656544998068 -0.2843906271504017 
-0.12080081281580914 -0.42043339444416095 0.46674169231244761 
0.077799871177121643 -0.11354118128056029 -0.012751084264612078 
-0.20005389350184138 -0.15733950209644021 0.19765739305383062 
0 -0.020581656544998068 0.071924177917861223 
0 -0.020581656544998068 0.071924177917861223 
0 -0.020581656544998068 0.071924177917861223 
-0.20147740829305216 -0.27750453283350274 0.51968147661442665 
0.027192337703898728 -0.1301344704076515 0.40832718686741093 
0.029369355642066514 -0.11179938922005116 -0.10479127474979602 
0 0 0 
0.096461240504369425 -0.59451807291710645 0.069361220653564662 
-0.12248700682189234 0.12367746984139814 0.34515156257206869 
-0.057363776640024185 -0.34760284582989465 0.5620682670388697 
-0.31323060415380233 -0.13427223009090322 0.47600521014446251 
0 0 0 
0 0 0 
-0.087040817249583666 -0.16092266162400168 0.23184729974311041 
0 0 0 
0.17784012682831191 0 -0.15002519230763653 
-0.30103609952437732 0.23767678316106247 0.25214956590353343 
0 0 0 
0 0 0 
-0.093773894009658007 0.22332024297250547 -0.084642136521618075 
-0.25413960366330651 0.03080583474107168 0.23799286181768986 
0 0 0 
0.16264800139281388 0.48479680828654775 -0.58407112247778836 
-0.028319106917007168 -0.61993111512019583 0.61138347919132929 
-0.096667470242858905 0.36146531514145885 0.023877021049861329 
0.88162463511502942 -0.12709291987057578 -1.0600945059864955 
-0.23883831183164256 0 0 
-0.50422596548702825 -0.54828079484569403 0.44840374147204748 
-0.36488911196460327 0.071344441908477968 0.39474453971359413 
0.60191764154298688 -0.6447272401681734 -0.091802016457228353 
0 0.13938409818632574 -0.32196045518097316 
-0.30991415157620672 0.84636403665337756 -0.95531674626301544 
0 0.13938409818632574 -0.32196045518097316 
-1.3877787807814457e-17 0.21118894967997126 -0.4299338604345152 
0.20592822785025297 0.10292686614191668 -0.26568288555939834 
0.058475108639486455 -0.56519846393803064 0.10566704029504687 
0 0.13938409818632574 -0.32196045518097316 
0 0.13938409818632574 -0.32196045518097316 
-0.055970488421615103 0.12037192073996322 0.11764063502976477 
-0.79186055057688765 0.34345152213197039 0.76064418098490949 
-0.18990599753049461 0.15761358389075406 0.14678136437277201 
-0.45390717531517777 0.71747663088898406 -0.20538883727714202 
0.014467094376029471 0.11925853790259135 -0.29666383439666738 
-0.53849106033626026 -0.26067694014594117 0.48029220983633236 
0.00057024553981027334 -0.1185345765957433 -0.066710032630081115 
0.37330535326779046 3.4694469519536142e-18 -0.16948336892320917 
0.33652096000236992 0.28475389844066534 -0.56655215636431533 
0.070825308816767088 -0.48882412790977803 0.24437423322955629 
-0.085178160943358172 0 -0.049952740990081276 
-0.085178160943358172 -0.11853457659574328 0.11975235885485944 
-0.24386564968925897 -0.29117511476622548 0.29866094485048611 
-0.41523437280367731 0.14888639020747138 0.087848858944803473 
-0.13567375152280817 6.9388939039072284e-18 0.072291138064255911 
-0.41645153565174564 -0.44435537294805127 0.74589973664972176 
-0.018223810641089591 0 0 
-0.42375394292493695 -0.28623278472645947 0.25126805466621571 
0.31999474950260903 -0.62258136828457866 0.038581080775925758 
-0.28279897971566642 -0.15946914591281319 0.36514047392903526 
0.05746025911572647 -0.054887663937519302 -0.14075299351082454 
-0.018223810641089591 0 0 
0.069081130994620432 -0.47948145505393203 0.26619626389823203 
0.48781183224450969 -0.46297306834684626 -0.28722737266783438 
-0.11688000011959628 -0.091806870726955078 -0.048312555462267356 
-0.15672928125981475 -0.11490310880168542 0.10773458970923132 
-0.32649705695783099 -0.27626950605614686 0.63512673380394824 
0.24144524939431838 -0.10653663897251751 -0.1415711342932946 
-0.031302803285470519 -0.91317609342706407 0.70520088185788099 
0.31350948473173768 0 -0.28819416897054145 
-0.32470155162572967 -0.0098717165045749452 0.26875367325370236 
-0.10819113236560131 -0.019146262369827517 0.00012085310475890964 
0.50773032525851125 0 -0.54552632522247768 
0.70112346300129391 0 -0.74271142980329319 
-0.23269620604500288 0 0.15820204742249305 
0.19622187542302091 -0.052036499407338663 -0.061547810024689384 
0.11943694762192776 0.12242800812388072 -0.11619372845670303 
-0.24892068694419558 -0.046677347288366068 0.13606389823572893 
-0.23269620604500288 0 0.15820204742249305 
-0.23269620604500296 -0.08075914623767777 0.51670824636815826 
0.047115398301018491 -0.37390690584987185 0.19619735708979896 
-0.67499411548089183 0 0.30433766351542491 
-0.044721681121217667 -0.066946854206434314 0.016485338269962554 
-0.70133717648998628 1.1654488496424933 -0.71325968373388049 
0.094610242285444068 0.11901050563204683 -0.17126179054460863 
0.87693586541734903 -0.69107608178119306 -0.56977721720131091 
0.61324068663336229 0.1053783741606976 -0.7178786053335986 
0.12059066848030586 0.047222409051482825 -0.21969038433559476 
-0.12956252582151673 -0.12145450741619795 0.20050630471081249 
0.24009287490644241 0 -0.13302315458306843 
-0.07592974774416765 -0.069683108534205701 0.13654782062434703 
0.24009287490644241 0 -0.13302315458306843 
0.0052230445340632481 0.003204426054028639 0.25585395986991255 
-0.346860623146868 0.39226467653477726 -0.12074116940777872 
0.14623425849327018 -0.11160620912488971 0.059424077580914121 
-0.096713985066280581 -0.12307203584351417 0.2777793156745117 
0.16757170229746957 0.070298088765753997 -0.079616740429965152 
-0.29252889448537772 -0.54499354688147494 0.47792610214565046 
0 -0.12307203584351417 0.064113359546885795 
0.10092368418268359 -0.22846398724672282 0.064113359546885809 
-0.17515753756298741 0.2210502028934328 0.41486616794341236 
0.099805392736940557 -0.12307203584351423 -0.21938920619616789 
0.3458120475437117 0.27311335929137681 -0.5320773700969561 
0.21677551938517864 0.38424470600815253 -0.46198289955480287 
-0.30924655254581446 0.27441343865564216 0.22429829184541367 
-0.021280264811325413 -0.55809837041448962 0.47259370831766062 
-0.73524345727413709 -0.23437787677545577 0.94835836460047285 
0.02324111621362504 0.24933835900664666 -0.44861511958346262 
-0.0024588801051661953 -0.016515945336728989 0.10045325507174029 
0.42773025257518055 -0.076405809358079529 -0.34687825454242388 
-0.0024588801051661953 -0.016515945336728989 0.10045325507174029 
-0.0024588801051661866 -0.090021125715139719 0.25891302728642401 
-0.0024588801051661953 -0.016515945336728989 0.10045325507174029 
-0.0024588801051661953 -0.016515945336728989 0.10045325507174029 
0.13365667660969821 0.031338529232466675 -0.50928029383512319 
-0.0024588801051661953 -0.016515945336728989 0.10045325507174029 
0.34194306998718443 0.40556851618490658 -0.47020876181295157 
-0.0024588801051661953 -0.016515945336728989 0.10045325507174029 
-0.63327048830691357 -0.098417179433341592 0.95902469413563463 
-0.63327048830691357 -0.098417179433341592 0.95902469413563463 
-0.14239557865810304 -0.18426350683441217 0.013431786170152116 
-0.24160508140681447 0.38299263339779716 -0.21437751834422489 
-0.30974081101434359 -0.2180294924540126 0.69388768060209427 
0 -0.096044353484136993 0.083318273064438175 
-0.025501469653404288 0.25991426533003187 -0.046425328941734935 
-0.25957898611765784 -0.48223296918123582 0.92710335128263111 
0 -0.048022176742068497 0.041796672928267643 
0.044565018353052287 -0.069868149676259844 0.039897251936256761 
-0.32097821649134528 0.22393443194738216 -0.028036876290946786 
-0.0016414576385965097 0.28189989343033461 -0.19166024248361344 
-0.21350789155338423 -0.14412398123431033 0.039906964473547926 
0 -0.048022176742068497 0.041796672928267643 
0 0 0 
-0.33523560737975672 -0.35098543004789623 0.010368590999060508 
0 0 0 
0.081271421744532793 -0.33365192124440818 0.46171191897014835 
-0.15528066887980968 -0.028439874333576143 0.23195708835152573 
0 0 0 
0.35590418993235806 -0.2421615447319144 -0.14970137765971986 
0 0 0 
-0.1799546990899587 0 0.038312515079106838 
-0.1799546990899587 0 0.038312515079106838 
-0.1799546990899587 0 0.038312515079106838 
-0.43408367809188159 -0.17223763045129989 0.97692275746792534 
-0.1799546990899587 0 0.038312515079106838 
-0.48013046127071335 0.35460172977065701 0.17182469921481816 
0.60437466368353754 -0.21575401071963768 -0.32219646176384176 
-0.007437916456882146 -0.19707601589835616 0.0044456225978949989 
0.39097906352660911 -0.83393684343785113 -0.072022533991270316 
-0.072583965235397216 -0.16680626177507224 0.24110791912226109 
-0.22368133982693642 0.14411839025530018 0.1786361291658263 
0.049772716825919244 -0.64870175116797246 0.31476313976922088 
0.99638247329440266 -0.0153493346787387 -0.61083778691051438 
-0.018687746786681628 0 0.24795752436639285 
-0.18281596548254331 0.35886465076051005 -0.10830993524035423 
-0.39161860601452714 0.45527968233773697 0.0013101802220371142 
-0.018687746786681628 0 0.24795752436639285 
-0.096713985066280553 0 0.21368240250746368 
-0.096713985066280553 0 0.21368240250746368 
0.088531820055193375 -0.14964335644450671 0.015387393058859472 
-0.40060762414851692 -0.5925198041191676 0.49140397180621115 
0.090398420938695892 -0.62522847950017846 0.24635843827000442 
-0.15076071915860687 0.35417047968268667 -0.2719321439676804 
-0.096713985066280553 0 0.21368240250746368 
-0.25610148708816466 0.43926533729274453 -0.27626900235948559 
-0.36393177678700078 -0.14818990895487366 0.54932682923870746 
-0.27147791199097437 -0.88499532519624646 0.66946268085231475 
-0.788676459198146 0 0.64340305167974865 
-0.21515763214883468 0.1483839941099836 0.030869612326360363 
0.42275200850543271 -0.28364195533465442 -0.15538599852817608 
0.59162404206066854 0.1168881942129615 -0.79930658696978052 
0.13780369083958965 0 -0.16185639077167144 
0.43674935117294544 6.9388939039072284e-18 -0.47035725506240161 
-0.090846253530101007 -0.66914845586167715 0.64652430526489446 
0.63210605827591881 0 -0.54470897150768693 
-0.00050878533311970661 -0.10976242299874427 -0.042275772725352372 
-0.10139744555309789 0.28601635147231991 -0.43416174767474852 
1.024022356858578 -0.73958028667606279 -0.36649460306047182 
0.15426188770193627 0 -0.091110233980660746 
0.28875031764033166 0.0030042626670853945 -0.39519188709732145 
0.11344574444639116 1.7347234759768071e-18 0.16006934170555351 
0.45519334602887501 -0.48817963640646128 -0.29750157178046577 
0.98592763872406908 -1.0879462854391306 -0.83221285569849035 
0.3106756509262284 -0.50076653143561289 -0.27803267156052591 
-0.24683021101118188 -0.15213195588980843 0.39252989215356054 
0.37712356855859003 0 -0.70673114102407764 
0.27345585439799486 -0.13669125593734929 -0.030878845339675814 
-0.13095658223541745 -0.113260259385513 0.095590568531444431 
0.51430363807415236 -0.017000405104363309 -0.57092187532053429 
-0.31067991582174415 0.15041409418530635 0.12673711370472052 
0.4400567446717128 -0.18647437577655879 -0.0011567953171333059 
-0.19625102380226556 0.21110204423995907 0.11656614012478141 
-0.41746883112071403 -0.26143835688665112 0.51655799830855575 
-0.3183542052101257 0.044962402859981106 -0.0988585663430539 
0 0 0 
0 0 0 
0 0 0 
0.022949120567689107 -0.16603115254006479 6.886691144543517e-18 
0 0 0 
0 0 0 
0 0 0 
0 0 0 
-0.42851752037171248 0.060793481532289591 0.21559874427929321 
-0.25162075512423698 1.3322865363230654 -1.489516307350313 
0 0.060793481532289591 -0.061883048426505355 
-0.40515618742814508 -0.47976163031484814 0.82919633888334887 
-0.25872448393692515 0.42002057472512616 -0.38174588738880033 
-0.6307526702721713 0.20246203883978603 0.29748921342160478 
-0.42941851971521905 0.0033051697806354974 0.67543382778594674 
0 0 0 
0.04806518206350166 0.078770851293399349 -0.043003304053664766 
-0.10622311433179223 -0.44675544890667146 0.26886633763401507 
0 0 0 
0 0 0 
0 0 0 
0.55628853814419721 0 -0.28718428001691076 
0.098022762901012209 0.38351988163836104 -0.78391945648464589 
0.55628853814419721 0 -0.28718428001691076 
0.369632898942928 -0.50538012821920608 -0.056602141176239212 
-0.091889211756614894 0.11334280390924417 -0.38014543223707109 
0.039350085731294768 -0.13750241201495772 -0.14849428653825134 
0 0 0.014758493837039992 
-0.29365817914794173 -3.4694469519536142e-18 0.73710351506931993 
-0.36326036729656808 0.10167091879990989 -0.0022923357823025139 
0.1232326800754617 -0.033848403318798424 -0.082837421506532546 
-2.7755575615628914e-17 0 0.044275481511120027 
0.075979164415365244 -0.41532374142818218 0.22782821581709664 
-0.54891219005284519 -0.24531166915385519 0.43268582383632426 
-0.71842229776793609 0.047943418162397555 0.28208385929647223 
-0.13732210949438689 -0.044252529472335662 0.20201699403600137 
0.23496773577228502 0.14817924438158325 -0.25841879697461617 
-0.12030734246383665 -0.099054858510714022 0.013908375214111441 
1.0177713735625111 -0.55805050255020905 -0.23055301032802647 
0.50132250138133483 0 -0.22754474751262016 
0.50132250138133483 0 -0.22754474751262016 
0.50132250138133483 0 -0.22754474751262016 
-0.49186724621038969 0.20689495952173287 0.25369463636418388 
-0.27344883032520506 -0.20726774580207014 0.2674788118691851 
-0.46130360159785511 0.35109567407376824 -0.24368392217107787 
-0.19285412906633384 0.1416845485083657 -0.056227812653320317 
-0.11652223095561379 -0.37144320014763632 0.2059282866178353 
0.41588518782588857 0.12156148968918769 -1.1147829966539389 
-0.16176691375825714 -0.063081096197423803 0.060882225070225539 
0.12578954006132487 0.018961713170512387 -0.41789050724311183 
-0.12091206897304174 -0.016497621430160748 -0.35576557533766401 
0.34628656305130173 -0.13072937204317725 -0.16292985276296118 
0.34628656305130173 -0.13072937204317725 -0.16292985276296118 
-0.11848039455349915 -0.23737885014840349 0.075831979026510968 
0.34628656305130173 -0.13072937204317725 -0.16292985276296118 
0.45583693894968869 -0.36751429149648063 -0.16292985276296118 
0.34628656305130173 -0.13072937204317725 -0.16292985276296118 
0.30480502961504685 -0.15919478233594925 -0.16135025655376239 
0.34628656305130173 -0.13072937204317725 -0.16292985276296118 
0 0 0 
0 0 0 
0.20314173227261881 0 -0.1296173722395744 
0 0 0 
-0.44974164021050345 -0.25167793652959325 0.48303569509109712 
0.3377901655380644 -0.032924020183565286 -0.2041550510903915 
-0.16036711584915495 0 0.072252673236351928 
-0.16036711584915495 0 0.072252673236351928 
0.31217460215269838 -0.14542207449977115 -0.23642748974349082 
-0.22876184775766006 0 0.28439789712355251 
0.31753679253977996 -0.29379306329104493 1.0330036716815276e-17 
0.38088818084736314 -0.32351440869349474 -0.12502022874813351 
-0.19937829947869073 -0.44070511056111578 0.52344520996716992 
0.31753679253977996 -0.29379306329104493 0 
0.41065525608701736 -6.9388939039072284e-18 -0.31421424254352731 
-0.43875567264419818 -0.14724274189278747 0.4924459544432247 
-0.082209535872079811 0.00080883979132950756 0.13526120826665744 
0 0 0 
-0.11343950620975418 0.1382767296554259 0.02394537016447253 
-0.16242606984867919 0.10321946690405087 -0.1883554300972636 
-0.40526204848112846 0 0 
0.83968855418902733 -0.19564941318366741 -0.85561867149307447 
0 0 0 
8.6736173798840355e-19 0 0 
1.546821095186121 -0.48901907449012194 -1.2382727252732777 
-0.16543531995889463 -0.036488006639807335 -0.069363941360053083 
-0.46233204184960985 -0.43836154550406908 0.54846119248873504 
-0.73485294203148732 -0.02308356115272505 0.65840749540059929 
1.2004553337395236 -0.03424539284738258 -0.89220524279824076 
-0.6530119611667079 0.060939406224023801 0.50301755195395492 
0.072586505467562429 0.41388991683816811 -0.32889333461427472 
-0.080337068045161567 0.02622218648945342 0.06174047005178767 
0.25442215450054717 -0.28439926746429339 -0.068362099068757176 
-0.18233233608567662 0.085676124425807951 -0.058487609986431544 
0.23563573994765347 -0.27972813704260424 -0.040073873985027299 
1.3877787807814457e-17 -0.26664522640163829 -0.070819711887805253 
0.1598657025330473 -0.69140789216041043 0.052830824024501052 
-0.021180060372862991 -0.19948275833461993 -0.087549532516922837 
0.13200147339698101 0 -0.066616071513135602 
0.13200147339698101 0 -0.066616071513135602 
0.019308429306873418 -0.29871167507999208 0.30486487399793777 
0.13200147339698101 0 -0.066616071513135602 
-0.080204827418160568 0 -0.045200220340347895 
0.11273972466595779 0 -0.066616071513135602 
0.13200147339698101 0 -0.066616071513135602 
0.13200147339698101 0 -0.066616071513135602 
0 0 0 
0 0 0 
0 0 0 
-0.25561306382791227 -0.41472522684590613 0.35867697202087861 
-0.19998499790546201 -0.19794031441420235 0.40579202069154102 
-0.20105328157524149 -0.19738723098581176 0.54372645712790069 
-1.0026952893753431 0.30249695946208532 0.35097370421668306 
-0.23835213197263405 0.2559460078826703 0.13212252537889413 
0 0 0 
-0.55075661398177511 -0.06470812178397492 0.20871046701321785 
-0.036027178134548289 -0.21193060858229812 0.032475250110290309 
-0.067798484067206496 0 0.18137774653332092 
-0.44633640563853849 -0.092288080918910748 0.52811553805542788 
0 0 0 
-8.6736173798840355e-19 0 -0.13363518647031539 
0.31425491746533329 0.034225482159442315 -0.47371842954020932 
-0.069793595331889141 0.35097153887849619 -0.46477639651057628 
-0.3592166648245787 -0.020198964483082178 0.17117569595120649 
-0.30591547318799828 -0.2564639115661288 0.54418189474088774 
-0.070584155242272101 -0.49213636897458385 0.40235540965902145 
-0.59203776790819929 0.58137166285360375 -0.11120498050619988 
-0.050130142687298485 -0.030498699755056674 0.32725870482527286 
-0.72630097950525863 0.054376097684829511 0.17999162843251526 
0 0 0 
-5.2041704279304213e-18 0 -4.0889728670727136e-17 
0 0 0 
-0.076368096254770465 -0.31865011166298984 0.2612083840279083 
0 0 0 
-0.28689517069734533 -0.16399091152088713 0.43919093595475756 
-0.49213533474066928 -0.027469763686131334 0.29242371274482415 
-0.20200162460300719 -0.044521582461084834 0.17479343048047394 
0.0248708592394607 0.10384938379765861 0.16096600639700157 
-0.58130937385784776 -0.23729801540582923 0.79424040184725841 
-0.68721606477689279 0.052057492512861674 0.60099565085141726 
-0.071906634504890876 -0.2940431500308372 0.24172474535781657 
0.17356160173771537 -0.53991392807422534 0.013802786444582247 
-0.32545394086440849 -0.53975799805385183 0.3947896386059111 
0 0 0 
-0.15302078208727948 0.3698873182651834 -0.3064512190593856 
0.23648314711282675 0 -0.44398796087157499 
-0.043505538652748733 0.10973911512489623 -0.075763184612799336 
0 0 0 
0.19761835218080184 0 -0.31366184097960931 
0.21007349866946398 -0.011864248521528696 -0.12581867276955958 
0.29793865855624468 -0.24642359902924271 -0.3753143427647459 
0.19761835218080184 0 -0.31366184097960931 
0.3510950412558671 -2.6020852139652106e-17 -0.4980617940607428 
-0.046470827530860737 0.13262842545457956 -0.15513935789923183 
-0.086815861225836802 -0.18532212901256695 0.35645470339161101 
-0.069067357102442259 0 0 
-0.069067357102442259 0 0 
-0.069067357102442259 0 0 
-0.069067357102442259 0 0 
0 -0.1205102271061686 0.41796644971189534 
-0.6509968273954676 -0.30637543244021975 0.97300872371795122 
0.009517163243533161 0.22355554511012476 0.072355678078047311 
0.49636731798526434 -0.23434303007505825 -0.37835452306672673 
-0.19059466006103329 -0.00044340997823454688 0.37340407482156668 
-0.19059466006103329 -0.00044340997823454688 0.37340407482156668 
-0.19059466006103329 -0.00044340997823454688 0.37340407482156668 
-0.19059466006103329 -0.00044340997823454688 0.37340407482156668 
-0.19059466006103329 -0.00044340997823454688 0.37340407482156668 
0.2796896798636721 0.14392702389525647 -0.060682274410085342 
0.62225508662038398 -0.2162990094859569 -0.085961106287798711 
-0.22613626680456669 0.041146039944466042 0.032096476085276812 
0.22224456153016459 -0.319323792486852 0.54831059731340881 
0.52168010315470936 0.15251164995871619 -0.49871263237011298 
0.69998620129294364 -0.030523320608571502 -0.072897386053271465 
-0.34901326916449038 -0.089365259316809734 0.49466450320092514 
0.61765821283073885 -0.95219889417666304 -0.048664714864117296 
-0.29586078531703064 0.47980230124090101 -0.22133180536457256 
-0.29586078531703064 0.47980230124090101 -0.22133180536457256 
-0.011407588468294323 -0.058812489344803778 0.08742050806677068 
-0.35787485463672186 0.27316016903970397 0.01632786386809169 
0.47758454117584642 -0.1154847032195626 -0.29273095605668098 
0.22347725980983313 -0.23792384424990592 -0.042198852203449488 
-0.030108581401917137 0.52393509300047847 -0.15499068170236252 
-0.08281588172825402 -0.20444996509945057 0.404413153702818 
0.046665103879575488 -0.043728431896945176 -0.22315983951708204 
-0.08281588172825402 -0.20444996509945057 0.3751564992084066 
0.15810945692765868 0.095942038979081434 -0.22641615351309619 
0 -0.068263071698757102 0.10168284627666244 
0 -0.068263071698757102 0.10168284627666244 
0 -0.068263071698757102 0.10168284627666244 
-0.34028839881923956 -0.16860903205276923 0.45288991875777712 
-0.24895066264776372 0.67739350238136042 -0.20104817565744398 
0 0 0 
0 -0.31395858763517726 0 
-0.40879703925202027 0.44281852959464585 0.13254942153583629 
-0.090621069936735896 -0.3139585876351772 0.47250741318993156 
0.19940778733758624 -0.032004923969864756 -0.043783615843710724 
-0.32560871380097861 -0.31395858763517726 0.40639561195508106 
0.040585347611054132 -0.056133143048792904 -0.056853791902247132 
0.15662263782143804 -0.46052896537486454 0.17201471638565882 
0.24056793738750479 0.00075979501521180205 -0.27504512322055957 
0.15662263782143787 -0.029210567043397979 -0.013654063479077086 
0.21014012365802076 0 -0.45200394404007666 
0.42837395790279137 -0.5789438664744786 -0.14127703261631694 
-0.071723955487401847 0 -0.072265549940790916 
0.026096219161332358 -0.16866162001759871 -0.067552006829710326 
-0.18052650247411348 -0.29340391231859553 0.56601955946120519 
-0.074764196590984003 -0.18850670853665746 0.057147585875087267 
0.063369740224534454 -0.089430921430781712 0.29796750172255265 
0.21014012365802076 0 -0.45200394404007666 
0.21014012365802076 0 -0.45200394404007666 
0 0.50371456172855245 -0.42374563396034692 
-0.67815574802833201 0.18810762042119591 -0.59187360711982773 
0.25012783081474366 -0.42536196792342218 0.074865917548176189 
0 0.50371456172855245 -0.42374563396034692 
0 0.50371456172855245 -0.42374563396034692 
-0.81506794790450499 0.059117472587711772 0.3350090851940925 
0.64904937691806042 0.17961628638499616 -0.44235274796988766 
-0.14232521804454956 -0.0078436121025829489 0.41835894586749189 
0 0.50371456172855245 -0.42374563396034692 
-0.12049722475569997 0.10410327804113922 0.1495923469774664 
-0.27047239854718169 0.21352325639759401 0 
-0.27047239854718169 0.21163893672065789 3.4433455722717585e-18 
-0.21557967940573677 0.093799348003765243 -0.0046767487612020282 
-0.27047239854718169 0.21352325639759401 0 
-0.73017473202779071 0.41796071167555471 0.32008993334708652 
-0.018489489694238886 0.10611284123281789 0.1817755687632743 
0.12053221034331141 0.13137322175787264 -0.217897207086962 
0.53983005675621343 -0.32993197768736771 -0.33101621137093395 
-0.16338101539535652 -0.32255828520184976 0.14189977581067609 
-0.24517901883404936 0.30763792212492447 -0.010718323724138662 
-0.076082421829031271 0.28106488230267307 -0.23328319085160945 
0.67758170596871081 -0.13633242827406991 -0.81329860756709305 
0.52064809633964582 0 -0.43560813496970519 
0.26253101944118523 -0.29674104138635327 -0.18412655231825847 
-0.17568259313650214 0.046944450845495152 0.16963009104052709 
-0.0055643907785620297 -0.14695871364422233 0.18808418530192636 
-0.22022652123269776 0.24676032646184767 0.11660028149186905 
-0.064747481783405877 -0.31358753505438369 0.167526832384706 
0.16736434008412451 -0.056522219021294742 -0.17092003184331819 
0.33628584706053388 -0.31266980917765175 -0.13785453534996786 
1.1483381004034785 0.0041519948676374532 -1.1803995235187119 
-0.085509413462049988 0.066065163069841032 0.0340204397953731 
-0.26807177819096673 0.72962561038263662 -0.33972808535565091 
0.41164889720547981 0.029919804265093629 -0.5244936703827302 
0.20433482022162833 -0.28373080473636392 0.19555305950606966 
0.071346367708789993 -0.19637047837392518 0.16358884720480166 
-0.070443549667977834 -0.0068187854106032814 0.14933254079234609 
0 -0.11714974012460803 0 
-0.27347016113396988 0.13088424372738416 0.11873437160237281 
0.10757826540342247 0.21847038162101939 -0.19408345614962239 
-0.29234705754530083 -0.3542455989187181 0.40099555854396912 
0.66893719329774592 -0.32583288148672396 -0.58204341266767146 
0.10684131178719096 -0.0055198973806310303 -0.088036182520284306 
-0.72722949201974241 0 0.53943550360995496 
-0.72722949201974241 0 0.53943550360995496 
-0.26385527910814505 0.071994714678290467 0.42503232632197013 
-0.48063572196791682 -0.058297912573717865 0.29109349182879535 
-0.18807796764032325 0.08261382914552011 0.15653447178298138 
-0.45737428257353363 -0.010353528338707957 0.53720592539304657 
0.70178837060970989 0.20710255288181723 -0.94072941659294251 
-0.45737428257353363 0 0.53720592539304657 
0.6947753905387779 -0.10344428366921871 -0.54243624214730379 
-0.19637373254634233 0.043434748003934889 0.19070606811086988 
-0.14177421429619397 -0.15400600515667129 0.35877506250587199 
0.49546892798090353 -0.10344428366921873 -0.54452737159704345 
0.028162402242529479 -0.10344428366921876 -0.0049779219684979387 
0.064439682924366817 0.12041150264665396 -0.013255125590870749 
0.028162402242529479 -0.10344428366921876 -0.0049779219684979387 
0.028162402242529479 -0.10344428366921876 -0.0049779219684979387 
0.34664748147956687 0.11767613461772983 -0.56362246916976011 
-0.91528399542930927 0.10052852774098743 0.57777082019624493 
-0.35740255455354825 0.80542307389284729 -0.36821743435283549 
0 -0.049025318788378916 0.067258817836711102 
-0.23298326691081872 0.076324936530717979 -0.06953019543545956 
-3.4694469519536142e-18 -0.34748338669237611 0.067258817836710949 
-0.41640782365433177 0.1926791388815095 0.27128971843915489 
0.27234870143289464 -0.29980448019471045 -0.19351094740906385 
-0.54816897312540125 -0.059884596926294234 0.86445748833734992 
-3.4694469519536142e-18 -0.21322771348026748 0.067258817836710894 
-3.4694469519536142e-18 -0.21322771348026748 0.067258817836710894 
-0.54484280075918123 0.38928815977349057 0.057682590070322282 
0 -0.049025318788378916 0.067258817836711102 
0 -0.049025318788378916 0.067258817836711102 
-0.10809985542674866 -0.13035174061114857 0.12360939246405095 
-0.42862183961825306 0.84172634138837399 -0.11906110991657412 
-8.6736173798840355e-19 -0.13035174061114857 0.087681964079744421 
-0.46056912984479159 -0.0010776240049132427 -0.026511356724432382 
-0.24138412197423897 -0.33695314181750091 0.35306368835733432 
0.37795315026033854 0.12600812185622084 -0.35366245576427735 
-0.20616626912802014 -0.088766633317750795 0.25482421859661447 
-0.47072825941396357 0.059340998511693305 0.81661921613583188 
0.021053045337612396 -0.097892307528393632 -0.049108497244406975 
0.47930718961991753 -0.90671833404881519 0.27079585708845921 
-0.028144885416810862 0 -0.054291444838304413 
0.30300241929954341 -0.62966488082169914 0.12796236390393295 
0.524522484136282 0 -0.86846161552433665 
0 0 0 
0 0 0 
0.11364636095866901 -0.30733405753263321 0.098254901823929083 
0 0 6.886691144543517e-18 
-0.77624538677096389 -1.070118897397812 1.6855346676333327 
0 0 0 
-0.51733128244476756 -0.42238494155577677 0.62979606655358122 
0 0 -3.4433455722717585e-18 
0.45957159936571434 -0.064613562509261493 -0.038161069924229366 
-0.15163087011347637 0.90092442175932119 -0.64699986984508362 
-0.14246175233823896 0.32433285604160023 -0.11079946076766568 
0.19107206978929303 0.070828519908802193 -0.45137891521161855 
0.1216558914367295 0.15147967512004612 -0.11665173119677798 
-0.42461488497728145 0.53207278084989773 0.09723703157964729 
0.19522267047379172 -0.025559556215980037 0.012630527659670071 
-0.42536480389801046 -0.034984727076333953 0.80489495655865451 
-0.32934035746217855 0.17875426650144133 0.17985965447944133 
-0.15280775908298463 -0.25257398505533224 0.16572918732328451 
-0.42536480389801046 -0.034984727076333953 0.80489495655865451 
0.026338542166238293 -0.38490360706251292 0.52734904627787893 
-0.37356222673836881 -0.31835433834311355 0.56803937446942832 
0.38699478730802223 -0.12052881893329165 -0.20185490044254384 
-0.25772358296250231 -0.31628345374950961 0.38222940181724224 
-0.21257502736732806 0.22185166482835289 0.097143385239581964 
-0.01829717752844252 0 0 
-0.17236254341609386 0.050154633771969589 0.051803771093201799 
-0.010027679258385644 -0.50169082228389628 0.17881636678990723 
-0.01829717752844252 0 0 
-0.01829717752844252 -0.19763800220016856 0.41859028097126677 
-0.22096261247133664 -0.035734893530121298 0.30320142177746168 
-0.066128057867736761 -0.12677797109415134 0.24371910316350992 
-0.42670036549424584 0.020110584983268773 0.33085191629326627 
-0.23596335964708517 0.14266109158204501 0.18706265587459392 
-0.12710775118742493 0.17367116107724956 0.072640924561334599 
0 0 0 
0 0 0 
0.920434402547189 -0.60556367473262573 -0.44131821627875695 
0.52009885321728433 -0.049533494132815874 -0.52352962165565808 
-0.10232635524085454 0.1271614200881353 0.0013054156366312237 
-0.084202225485758952 0.11674439112860853 0.091560145502950677 
0.1909622770776265 0.41349670234447472 -0.74022228309920768 
-0.48883676488415723 -0.027664346391570456 0.43925235356279801 
0 0.48895914537913948 -0.56340984246749781 
0.064110599089133233 -0.20788832482904879 -0.043257452743851371 
0.32432873646967925 -0.46186452637169956 0.068445940632071905 
0 0 0 
0 0 0 
0.18409775543856041 -0.038738457438729182 -0.43431412785188139 
0.5157006102291487 -0.18892624866595201 -0.30930143712119079 
-0.47843027749511624 3.4694469519536142e-18 0.35536883905886396 
0 0 0 
-0.024898120269195075 0.18888273847221967 -0.20697110954223696 
0.53522723474628786 -0.88767912239353497 -0.2585935765707385 
0.14059693553295821 -0.20768898490535462 -0.088633684371482252 
0 0 0 
0 0 0 
-0.50486238679543571 0.16731913998134498 0.28188051607372888 
0.66464147352946801 -0.38838431317323074 -0.089727091076682725 
-0.47150513604983324 0.75696507482100872 -0.11194959594302777 
0.35012592937531173 -0.17843821525428413 -0.00092057037719022296 
0.11579730881373373 0.0031921089407926928 -0.14519175335203963 
0.1902524584546785 -0.01223746783966085 0.095550692082797831 
-0.058929155797950244 -0.081276249459728889 -0.1340003345537028 
0 0.12133230883925318 -0.29105714549131517 
-0.26996964810776292 0.13831302395316261 0.077056969996240995 
-0.73840134772502652 0.69339559447775434 -1.149477052824821 
-0.44359141040786804 -0.37619505343906373 0.51972663942585318 
0.20280639487306101 0.36612189774951531 -0.24056641314545843 
0.8623748419231082 0.32546111297010977 -0.98275225192705895 
-0.10476480629235643 0.43111447250459461 -0.53156736245660718 
-0.4429734539276185 0.30038608181167897 0 
0.053086798578687269 -0.25842384550731623 -0.13256410176711864 
0.092561154114384495 0.13959272976336834 -0.054957298307525229 
0 -0.23461736595359833 0.3639734841898935 
0 -0.23461736595359833 0.3639734841898935 
0 -0.23461736595359833 0.3639734841898935 
-0.024441793838794745 0.46005064827342346 -0.32641007378003845 
0.88691627831185993 -0.12470673548327027 -0.7905971812412812 
-0.50610299734355069 1.1458371425646807 -0.66137884691099702 
0.7723052137373031 -0.57725045301624434 -0.56754856308676682 
0.034176586891757448 -0.089979202022091517 -0.025657782981911844 
-0.048603793329950441 0.28709783362149355 -0.5613418735133906 
0.44487561401855019 0 -0.27567015520970639 
-0.093710111493391271 0.15250484837867614 -0.2788468551914407 
0.31213941459664385 0 -0.26153413740498066 
-1.2309819805222277 -0.61483806907246907 1.4479749140644249 
-0.23036234323335114 0.18279790598060647 -0.18204432194960044 
0.15077813973967022 -0.022767836164676737 -0.048208288647834135 
-0.5050227312579264 0.81256990437756815 -0.65694300004545214 
0 0 0 
-0.81135486047607752 0.047852833104254651 0.56721199746821449 
0.26108727730384695 -0.49464315729186381 -0.10166763040011202 
0.050395924261195074 -0.1068212310235723 -0.08472620395246927 
0 0 0 
-0.29433926084633599 0 0.42058598135423614 
-0.61659369484932225 0 0.31529649602541771 
0.67802711730127707 -0.2427330363691616 -0.49849437473482183 
-0.079963747846932789 6.9388939039072284e-18 0.085287170999738135 
-0.014998114675302862 0 0.063621262741695481 
0.024743673843216824 0 0.23329976055620572 
-0.039874663588610137 0.31513332852967318 0.26211218192140578 
0.21343040413117501 0 -0.31579329350516366 
0.21343040413117501 0 -0.31579329350516366 
-0.087792780896884512 -0.17228372897598326 0.17383171333922159 
-0.2286794194186294 -0.1864696733327037 0.24110397967960584 
-0.1698132581600981 0.0076805588863858298 0.15548003542376221 
0.42382488062298401 -0.25246253851350303 -0.12560009936096797 
-0.48326923586525095 -0.051730684603793195 0.65875356940317786 
0 0 0.299674932785024 
0.079387784778036513 -0.15089338949770392 0.10429882296503286 
0.0085679882988465416 0.34322050774999335 -0.0058101402895705057 
0.15583900318475355 6.9388939039072284e-18 0.1334710669863293 
1.3209960073492373 -0.16233959261557432 -0.55864494289827349 
0.12515246674403305 -0.22561379094955814 -0.14956043176679248 
0 0 0.061187169494766117 
-0.52052350969218764 0.29914664923447865 -0.13976347287131829 
-0.050962387035701898 -0.44525071615487061 0.16451568444092271 
0 0 0.06118716949476613 
0 0 0 
-0.26063852046904723 1.0018421725017645 -0.6021329387429083 
0 0 0 
-1.0264177848885512 1.4660615220953002 -1.3369630260996817 
-0.012222337388522977 0.35804211233437361 -0.14378391810654029 
0.024756728713421446 0.22175077497906701 0.058123425491284221 
0.28981639349047666 -0.16004369037764857 -0.25200718722377435 
0.25882706653656079 -0.2988907465733614 0.011151815483293994 
0.052502587940803265 0.0046083383180516371 -0.21739376916101152 
0.32568716855423169 -0.2567090893207451 -0.20888232882641489 
0.042187020716767366 -0.14563743802585302 0 
-0.082961127347331659 0.60157571422283795 -0.33138544207851284 
-0.21415151839486576 0.13860917879853987 0.10115613637311879 
0.45096471390357629 0.4188510734135884 -0.3591993862160629 
-0.30091251143896275 -0.22164801492987213 0.40433814912975991 
-0.11746391665653805 0 0.32822547741192371 
-0.47069291198407298 0 0.91091050937804341 
0.45076069453289902 0.031044889159485209 -0.54567494441646591 
-0.88296735204950727 0.29567343951340808 0.6562765293957501 
-0.10892908922805508 -0.041598320434585306 0.22854266252653876 
0.20909952786166436 -0.21536345432404594 -0.037175763219011393 
-0.0099486422578957366 -0.20438013734959351 0.23720859447599429 
-0.10892908922805508 -0.041598320434585306 0.22854266252653876 
0 0 0 
-0.5120616224673793 -0.58319632770071228 0.68661277461706993 
0.71039235803016099 -0.38055012839334201 -0.52307174940799572 
-0.5691818108966048 -0.19800733345075275 0.46628181315518841 
0 0 0 
0 0 0 
-1.1719242358228925 0 1.1047065459583754 
-0.068987533709988974 0.37059393808453261 -0.25880792522684753 
-0.45005391090327845 0.048190620182106229 0.13933860133709136 
0.0064535183835824827 0 -0.17885170551518312 
0 0 0 
1.1862143938010081 -0.059213056785481027 -0.90515433922910671 
0 -0.03411029909616696 0 
-0.28186407914542261 0 0.37975109977757632 
-0.2777289517880287 0.18297927700774913 0.35990023965175982 
-0.28186407914542261 0 0.37975109977757632 
0.008682724545119782 -0.39372890122458493 0.22655552915410124 
-0.18086115365046018 0.19033646295081075 -0.19153549313579252 
-0.19979800594464367 -0.065544324831585427 1.0330036716815276e-17 
0.41103171010111272 -0.0079171576767696691 -0.24866965470948937 
-0.65317016172241837 0.23106349754650454 0.52177902444929081 
-0.19979800594464373 0.048128806781113233 0 
-0.061141369718483773 1.112656205676354 -1.4153942437276903 
-0.19979800594464373 0.048128806781113233 0 
-0.47190822084580092 -0.054617464103160498 0.57827019654737599 
-0.47190822084580092 -0.054617464103160498 0.57827019654737599 
0.2242163004673782 0.15449564682681058 -0.079846581379184059 
0.35617926550536289 -0.16704941826169548 -0.10428276346454471 
0.10136072165460774 0 -0.039272699519218641 
-0.10477150141382136 0 0.18442393505721641 
-0.32787619962588199 0 0.10513888766866013 
-0.10477150141382136 0 0.18442393505721641 
0.50785295389258134 -0.11656208896430181 -0.52715809256437829 
-0.0050359950056625621 -0.59553151193440157 0.1722770316094914 
-0.35602211037876169 0 0.11481704240405471 
-0.35602211037876169 0 0.11481704240405471 
-0.35602211037876169 0 0.11481704240405471 
-0.35602211037876169 0 0.11481704240405471 
-3.1225022567582528e-17 -0.38383429239022043 0.36134690347315146 
0 -0.38383429239022043 0.36134690347315146 
-0.24971420590156199 -0.66257208747797591 0.4955449159419143 
-0.54672946556894919 -0.090856949788259131 0.49413998096382317 
-0.082113379878626949 0.40169093607081602 -0.14760902521162336 
0.28871752838094877 0 -0.29279446492327671 
0.28871752838094877 0 -0.29279446492327671 
0.28871752838094877 0 -0.29279446492327671 
-0.15635829951698257 0.29861670617602931 -0.019149953129667975 
0.28871752838094877 0 -0.29279446492327671 
-0.2645980267653868 0.35501465040929087 -0.045887710453811091 
0.28871752838094877 0 -0.29279446492327671 
0.28871752838094877 0 -0.29279446492327671 
-0.13176645048140143 0.15772016454914828 -0.16483968591817527 
-0.13176645048140143 0.15772016454914822 -0.16483968591817527 
-0.13176645048140143 0.15772016454914822 -0.16483968591817527 
-0.13176645048140143 0.15772016454914822 -0.16483968591817527 
-0.040161386561268955 -0.023936363432687593 0.13073019124595101 
-0.040161386561268955 -0.023936363432687593 0.13073019124595101 
-0.040161386561268955 -0.023936363432687593 0.13073019124595101 
0.34505718777335492 -0.11396099249112762 -0.17478819789173727 
0.090035190365505433 -0.023936363432687596 -0.0078600531475751072 
-0.040161386561268955 -0.023936363432687593 0.13073019124595101 
-0.040161386561268955 -0.023936363432687593 0.13073019124595101 
-0.040161386561268955 -0.023936363432687593 0.13073019124595101 
-0.040161386561268955 -0.16849471676186953 0.28083162414234814 
-0.040161386561268955 -0.023936363432687593 0.13073019124595101 
-0.030634247752783034 -0.080383455687264169 0.043818120430331904 
-0.039571104497528015 -6.9388939039072284e-18 4.3041819653396981e-19 
-0.73646294887413277 0.34211109966047715 0 
1.2089259547644371 -0.35324224458780223 -1.200193036426547 
0 0 0 
0.23373462469799799 -0.095162016861479154 0.0075421142259721897 
0.16427844017269316 0 -0.1064269978538976 
0 0 0 
0 -0.11550537083614737 0.17180019656095299 
-0.32099570273666217 0.040374846695838698 0.49945531367934914 
0.89870651143517655 -0.22226966272129986 -0.83039752666917099 
-0.35637884187357205 -0.20982824012662027 0.49457066531346272 
0 -0.11550537083614737 0.17180019656095299 
0.15807598946002407 -0.17029201851481579 -0.14778178761606961 
0.25453419461250182 -0.3122049571847737 0.022709214868313649 
-0.22570741117486876 -0.52912370656185659 0.77807141824408288 
0 -0.036461183087807478 0 
0 -0.036461183087807478 0 
0.23582273512450988 0.22352139186456074 -0.40663647411481058 
0 -0.036461183087807478 0 
0 -0.036461183087807478 0 
-0.11381762990663478 -0.045305661112912385 0.20053217381920158 
0.045909726261903275 -0.079266918512722509 0.12867506058829556 
-0.77759354447006246 0.65336728158434432 0.10058253318514437 
-0.31855755626136839 -0.017877741496406158 0.37356772724746495 
-0.31855755626136839 -0.017877741496406158 0.37356772724746495 
-0.31855755626136839 -0.017877741496406158 0.37356772724746495 
-0.15802884284985058 0 0.31236934758295748 
-0.16689113070382483 -0.13371012237908789 0.23776241279346311 
-0.33603002414671318 0.47539592851733209 0.025008233193927483 
-0.50171593135957271 0.3895118193593301 0.27353744278010067 
0 0 0 
0 0 0 
-0.28126624065856887 0.082743168676082737 0.073135406789443996 
-0.27469573378950923 0.078482925563645931 0.17009337813768516 
0 -0.082759789384574151 0.10778344751028235 
0.47488583679504959 -0.43193747639069363 -0.14273543097590252 
-0.035744958714220287 -0.24013171832274632 0.10778344751028238 
0 -0.082759789384574151 0.10778344751028235 
0.61091371962963981 0.011938075428354997 -0.79944232018163874 
-0.010015811883203772 0.079716654530556499 -0.17657586452865584 
-0.31802625717217847 0 0.19896660344423217 
-0.31802625717217847 0 0.19896660344423217 
-0.076157417096707883 -0.062955061341050556 0.019130819611880102 
-0.31802625717217847 0 0.19896660344423217 
-0.31802625717217847 0 0.19896660344423217 
-0.31802625717217847 0 0.19896660344423217 
-0.12466123670776204 0.21969321395256039 -0.26604640316731742 
-0.35039158311110402 -0.09297319979857166 0.11299386714486839 
-0.12466123670776204 0 0.0033520515194959419 
-0.12466123670776204 0 0.0033520515194959419 
-0.12466123670776204 0 0.0033520515194959419 
0.40066787339542359 0.019574828134128607 -0.25647495240277252 
0 -0.10880759535465892 0.065104953305300348 
0.054156219698243843 -0.25116510295579336 0.065104953305300348 
-0.36376704711071373 0.27601418329396726 0.15272519985777364 
0 -0.10880759535465892 0.065104953305300348 
0 -0.10880759535465892 0.065104953305300348 
-0.3907421008658597 -0.53672477622408621 0.6997087727288076 
-0.013176180401702273 0.89989470594274168 -0.90771665320423323 
-0.37433484211406437 0.28914643226315967 0 
0.042431343689837746 0.52243403455183945 -0.098959960705436445 
0.39119917774414603 0.03530578780918546 -0.35849270024074736 
-0.37433484211406437 0.28914643226315967 0 
-0.37433484211406437 0.28914643226315967 0 
-0.37433484211406437 0.28914643226315967 0 
-0.1139844669921439 0.015186540117688663 0.22997843875063845 
-0.27823284161615752 0.42709788130482307 -0.15044029394798733 
-0.040270248049993344 0.50883289417596522 -0.39157037943484801 
0.15702500231887917 0.30316891438124793 -0.30943296482037169 
0.071341243104195082 0.051008395592868114 -0.11608168620899742 
-0.11866180504830355 0.043378556900467297 0.22727199629882416 
0.11367753959209138 0.34413324847758664 -0.3915703794348479 
-0.04027024804999333 0.50883289417596511 -0.39157037943484801 
-0.04027024804999333 0.50883289417596511 -0.39157037943484801 
-0.078542707596270606 0 0.083256120347867793 
0.026602978198314153 -0.30544039813209106 0.23425481285313221 
0.026602978198314153 -0.30544039813209106 0.23425481285313221 
0 0 -0.067714521484075058 
0 0 -0.067714521484075058 
-0.1192331858378432 0.57275684796454962 -0.27450634753886821 
0.24907466719720106 0.16929430510216231 -0.37911136009127028 
0.53472248731073069 0.18552861853319391 -0.30287465071361552 
0.27187012523273907 0.00089853467285624196 -0.255708626061522 
0.012825426619802561 0.29614362228415725 0.15068802639681539 
0 -0.11348761614109397 0.27000455023924391 
0 -0.11348761614109397 0.27000455023924391 
-0.60095009648315156 -0.35187709007152679 0.76984540022039571 
0.16903320164207239 -0.11348761614109397 0.071104473572805027 
0.48571068062393918 -0.28034251114530123 -0.12074283104914851 
0.24085971566416362 -0.43522193910401552 0.20484514331135326 
0.26387711814254805 -0.28034251114530123 0.2862448697586113 
0.26260598241187805 -0.095987121846291518 -0.12074283104914851 
0 0 0 
0 0 0 
0.22196531687921614 -0.48074988379845301 0.4707492545158446 
-0.07079112970580663 -0.17169114069833136 0.49540554833591827 
-0.23801775770202796 0.44540452594760738 -0.26379598553801192 
-0.16317381103973314 0.67546535262683982 -0.27705401612657621 
-0.16317381103973314 0.5622800671848257 -0.21372602395907783 
-0.33836751012020311 0.40658102256334705 -0.064340227717744891 
-0.16317381103973314 0.45715487131865606 -0.27705401612657615 
0.02840689901009251 -0.13213134440574847 -0.0054383569895067214 
-0.21041421466270108 -0.2932375303769445 0.5054126908775125 
0 0.31179426411885763 -0.35733265942332765 
0 0.31179426411885763 -0.35733265942332765 
0 0.31179426411885763 -0.35733265942332765 
0 0.31179426411885763 -0.35733265942332765 
0.097997211171644394 0.92153853644756545 -0.47115773619289442 
0.80180767237777417 -0.54470741973500536 -0.4462432254940441 
0 0 0.041473486309510005 
0.48424392411197525 -1.087672875520115 -0.065625925055501286 
0.51201763225496044 -0.42625023656320932 -0.22569095685621895 
-0.25082752762870786 -0.042999126839576254 0.2339450431423771 
-0.21020440881447083 0 0.12712242974294644 
0 -0.099141331025349 0.17452414552085133 
-0.67088686735889669 -0.066738464538149064 0.49676256074897551 
-0.24945134475896785 0.13256603298260722 0.25858535204540156 
0.20449367669473179 -0.12633084986668019 0.13645474288379034 
